<?xml version="1.0"?>
<opencv_storage>
<cascade>
  <stageType>BOOST</stageType>
  <featureType>HAAR</featureType>
  <height>20</height>
  <width>20</width>
  <stageParams>
    <boostType>GAB</boostType>
    <minHitRate>9.9500000476837158e-01</minHitRate>
    <maxFalseAlarm>5.0000000000000000e-01</maxFalseAlarm>
    <weightTrimRate>9.4999999999999996e-01</weightTrimRate>
    <maxDepth>1</maxDepth>
    <maxWeakCount>100</maxWeakCount></stageParams>
  <featureParams>
    <maxCatCount>0</maxCatCount>
    <featSize>1</featSize>
    <mode>BASIC</mode></featureParams>
  <stageNum>10</stageNum>
  <stages>
    <!-- stage 0 -->
    <_>
      <maxWeakCount>4</maxWeakCount>
      <stageThreshold>-1.3536084890365601e+00</stageThreshold>
      <weakClassifiers>
        <_>
          <internalNodes>
            0 -1 42 1.1699257791042328e-01</internalNodes>
          <leafValues>
            -8.6680543422698975e-01 9.0990597009658813e-01</leafValues></_>
        <_>
          <internalNodes>
            0 -1 44 1.0844251513481140e-01</internalNodes>
          <leafValues>
            -4.6670511364936829e-01 7.9518765211105347e-01</leafValues></_>
        <_>
          <internalNodes>
            0 -1 98 2.6733186095952988e-02</internalNodes>
          <leafValues>
            -5.8444321155548096e-01 6.0078418254852295e-01</leafValues></_>
        <_>
          <internalNodes>
            0 -1 2 -5.3207250311970711e-03</internalNodes>
          <leafValues>
            5.6434518098831177e-01 -5.2816367149353027e-01</leafValues></_></weakClassifiers></_>
    <!-- stage 1 -->
    <_>
      <maxWeakCount>6</maxWeakCount>
      <stageThreshold>-1.2506382465362549e+00</stageThreshold>
      <weakClassifiers>
        <_>
          <internalNodes>
            0 -1 41 9.3633472919464111e-02</internalNodes>
          <leafValues>
            -7.5414907932281494e-01 8.1303656101226807e-01</leafValues></_>
        <_>
          <internalNodes>
            0 -1 93 5.2993841469287872e-02</internalNodes>
          <leafValues>
            -4.4009217619895935e-01 6.1274713277816772e-01</leafValues></_>
        <_>
          <internalNodes>
            0 -1 14 -2.5117471814155579e-02</internalNodes>
          <leafValues>
            4.8377528786659241e-01 -5.8888763189315796e-01</leafValues></_>
        <_>
          <internalNodes>
            0 -1 127 -4.0217034518718719e-02</internalNodes>
          <leafValues>
            5.4422038793563843e-01 -4.4137471914291382e-01</leafValues></_>
        <_>
          <internalNodes>
            0 -1 2 -8.6923781782388687e-03</internalNodes>
          <leafValues>
            5.4109799861907959e-01 -4.7219184041023254e-01</leafValues></_>
        <_>
          <internalNodes>
            0 -1 89 -3.4592349547892809e-03</internalNodes>
          <leafValues>
            4.6046203374862671e-01 -3.4993907809257507e-01</leafValues></_></weakClassifiers></_>
    <!-- stage 2 -->
    <_>
      <maxWeakCount>7</maxWeakCount>
      <stageThreshold>-1.1159032583236694e+00</stageThreshold>
      <weakClassifiers>
        <_>
          <internalNodes>
            0 -1 59 5.6880161166191101e-02</internalNodes>
          <leafValues>
            -6.4505344629287720e-01 6.9213843345642090e-01</leafValues></_>
        <_>
          <internalNodes>
            0 -1 126 1.7855713143944740e-02</internalNodes>
          <leafValues>
            -6.6190439462661743e-01 4.9550074338912964e-01</leafValues></_>
        <_>
          <internalNodes>
            0 -1 8 -1.8563609570264816e-02</internalNodes>
          <leafValues>
            4.9197703599929810e-01 -4.5637625455856323e-01</leafValues></_>
        <_>
          <internalNodes>
            0 -1 98 2.1948013454675674e-02</internalNodes>
          <leafValues>
            -6.4284807443618774e-01 3.4931275248527527e-01</leafValues></_>
        <_>
          <internalNodes>
            0 -1 121 7.4814609251916409e-03</internalNodes>
          <leafValues>
            -3.1883043050765991e-01 6.0548913478851318e-01</leafValues></_>
        <_>
          <internalNodes>
            0 -1 13 -1.2464409694075584e-02</internalNodes>
          <leafValues>
            3.3061647415161133e-01 -4.8315793275833130e-01</leafValues></_>
        <_>
          <internalNodes>
            0 -1 3 -2.9246381018310785e-03</internalNodes>
          <leafValues>
            2.8633204102516174e-01 -5.4471075534820557e-01</leafValues></_></weakClassifiers></_>
    <!-- stage 3 -->
    <_>
      <maxWeakCount>11</maxWeakCount>
      <stageThreshold>-1.2488954067230225e+00</stageThreshold>
      <weakClassifiers>
        <_>
          <internalNodes>
            0 -1 42 1.6929253935813904e-01</internalNodes>
          <leafValues>
            -5.5881452560424805e-01 7.0175981521606445e-01</leafValues></_>
        <_>
          <internalNodes>
            0 -1 79 3.2628037035465240e-02</internalNodes>
          <leafValues>
            -4.2695957422256470e-01 5.2785819768905640e-01</leafValues></_>
        <_>
          <internalNodes>
            0 -1 47 -3.2589629292488098e-02</internalNodes>
          <leafValues>
            4.3977370858192444e-01 -3.9862546324729919e-01</leafValues></_>
        <_>
          <internalNodes>
            0 -1 104 3.6584950983524323e-02</internalNodes>
          <leafValues>
            -3.7378588318824768e-01 4.7296336293220520e-01</leafValues></_>
        <_>
          <internalNodes>
            0 -1 12 -2.0911321043968201e-03</internalNodes>
          <leafValues>
            2.7430698275566101e-01 -5.1220875978469849e-01</leafValues></_>
        <_>
          <internalNodes>
            0 -1 129 3.3056009560823441e-02</internalNodes>
          <leafValues>
            -2.5868415832519531e-01 6.0573273897171021e-01</leafValues></_>
        <_>
          <internalNodes>
            0 -1 112 -1.4178851619362831e-02</internalNodes>
          <leafValues>
            6.9298851490020752e-01 -1.7744965851306915e-01</leafValues></_>
        <_>
          <internalNodes>
            0 -1 82 2.6289335801266134e-04</internalNodes>
          <leafValues>
            2.0137025415897369e-01 -5.7929825782775879e-01</leafValues></_>
        <_>
          <internalNodes>
            0 -1 20 8.0127656459808350e-02</internalNodes>
          <leafValues>
            -4.1708317399024963e-01 2.7365389466285706e-01</leafValues></_>
        <_>
          <internalNodes>
            0 -1 34 5.3853347897529602e-02</internalNodes>
          <leafValues>
            -1.6036958992481232e-01 6.6694408655166626e-01</leafValues></_>
        <_>
          <internalNodes>
            0 -1 40 -3.0075844377279282e-02</internalNodes>
          <leafValues>
            4.4174560904502869e-01 -2.7360847592353821e-01</leafValues></_></weakClassifiers></_>
    <!-- stage 4 -->
    <_>
      <maxWeakCount>13</maxWeakCount>
      <stageThreshold>-1.2599570751190186e+00</stageThreshold>
      <weakClassifiers>
        <_>
          <internalNodes>
            0 -1 18 -5.4498851299285889e-02</internalNodes>
          <leafValues>
            6.9510114192962646e-01 -1.4924749732017517e-01</leafValues></_>
        <_>
          <internalNodes>
            0 -1 52 5.8484684675931931e-02</internalNodes>
          <leafValues>
            -3.7664717435836792e-01 5.4053616523742676e-01</leafValues></_>
        <_>
          <internalNodes>
            0 -1 5 -6.0993940569460392e-03</internalNodes>
          <leafValues>
            3.8556504249572754e-01 -3.9959439635276794e-01</leafValues></_>
        <_>
          <internalNodes>
            0 -1 137 -2.9628749936819077e-02</internalNodes>
          <leafValues>
            4.4027605652809143e-01 -3.3563920855522156e-01</leafValues></_>
        <_>
          <internalNodes>
            0 -1 89 -4.1993986815214157e-03</internalNodes>
          <leafValues>
            3.8843399286270142e-01 -3.4894526004791260e-01</leafValues></_>
        <_>
          <internalNodes>
            0 -1 21 7.7223479747772217e-02</internalNodes>
          <leafValues>
            -6.0080015659332275e-01 2.4198876321315765e-01</leafValues></_>
        <_>
          <internalNodes>
            0 -1 139 2.3109344765543938e-03</internalNodes>
          <leafValues>
            -2.7175870537757874e-01 5.9895288944244385e-01</leafValues></_>
        <_>
          <internalNodes>
            0 -1 80 6.1050867661833763e-03</internalNodes>
          <leafValues>
            -3.3045184612274170e-01 3.5986721515655518e-01</leafValues></_>
        <_>
          <internalNodes>
            0 -1 27 -9.2482857871800661e-04</internalNodes>
          <leafValues>
            3.6944317817687988e-01 -3.0364257097244263e-01</leafValues></_>
        <_>
          <internalNodes>
            0 -1 96 7.8656859695911407e-03</internalNodes>
          <leafValues>
            -6.5465861558914185e-01 1.8937072157859802e-01</leafValues></_>
        <_>
          <internalNodes>
            0 -1 50 4.4608816504478455e-02</internalNodes>
          <leafValues>
            -1.8833865225315094e-01 5.9048157930374146e-01</leafValues></_>
        <_>
          <internalNodes>
            0 -1 29 -3.9532441645860672e-02</internalNodes>
          <leafValues>
            3.2797470688819885e-01 -2.9410848021507263e-01</leafValues></_>
        <_>
          <internalNodes>
            0 -1 117 1.4771795831620693e-03</internalNodes>
          <leafValues>
            -2.3834291100502014e-01 4.5674750208854675e-01</leafValues></_></weakClassifiers></_>
    <!-- stage 5 -->
    <_>
      <maxWeakCount>17</maxWeakCount>
      <stageThreshold>-1.2370610237121582e+00</stageThreshold>
      <weakClassifiers>
        <_>
          <internalNodes>
            0 -1 85 -1.3175715692341328e-02</internalNodes>
          <leafValues>
            7.1548002958297729e-01 -5.6691784411668777e-02</leafValues></_>
        <_>
          <internalNodes>
            0 -1 68 6.0390751808881760e-02</internalNodes>
          <leafValues>
            -5.8608078956604004e-01 3.1499320268630981e-01</leafValues></_>
        <_>
          <internalNodes>
            0 -1 118 9.1173668624833226e-04</internalNodes>
          <leafValues>
            -3.6578014492988586e-01 4.3954801559448242e-01</leafValues></_>
        <_>
          <internalNodes>
            0 -1 67 2.7725692838430405e-02</internalNodes>
          <leafValues>
            -4.0169733762741089e-01 3.7534552812576294e-01</leafValues></_>
        <_>
          <internalNodes>
            0 -1 88 1.1052626359742135e-04</internalNodes>
          <leafValues>
            1.9253391027450562e-01 -6.5128266811370850e-01</leafValues></_>
        <_>
          <internalNodes>
            0 -1 4 -2.3858908563852310e-02</internalNodes>
          <leafValues>
            2.2357034683227539e-01 -4.3801626563072205e-01</leafValues></_>
        <_>
          <internalNodes>
            0 -1 119 1.6570013016462326e-02</internalNodes>
          <leafValues>
            -2.2146219015121460e-01 5.3624111413955688e-01</leafValues></_>
        <_>
          <internalNodes>
            0 -1 54 -3.0353978276252747e-02</internalNodes>
          <leafValues>
            4.3070188164710999e-01 -2.4924491345882416e-01</leafValues></_>
        <_>
          <internalNodes>
            0 -1 100 1.9398748409003019e-03</internalNodes>
          <leafValues>
            -4.7933349013328552e-01 2.3393222689628601e-01</leafValues></_>
        <_>
          <internalNodes>
            0 -1 17 1.0808512568473816e-02</internalNodes>
          <leafValues>
            -5.3896385431289673e-01 1.5715137124061584e-01</leafValues></_>
        <_>
          <internalNodes>
            0 -1 57 2.6549247559159994e-04</internalNodes>
          <leafValues>
            1.4475670456886292e-01 -5.1367032527923584e-01</leafValues></_>
        <_>
          <internalNodes>
            0 -1 107 -2.7374684810638428e-02</internalNodes>
          <leafValues>
            6.3548272848129272e-01 -1.3697493076324463e-01</leafValues></_>
        <_>
          <internalNodes>
            0 -1 37 1.0055941343307495e-01</internalNodes>
          <leafValues>
            -1.1010675132274628e-01 6.9741100072860718e-01</leafValues></_>
        <_>
          <internalNodes>
            0 -1 69 7.4868075898848474e-05</internalNodes>
          <leafValues>
            1.9885614514350891e-01 -4.4266608357429504e-01</leafValues></_>
        <_>
          <internalNodes>
            0 -1 133 -1.8159490078687668e-02</internalNodes>
          <leafValues>
            6.1392772197723389e-01 -1.4589543640613556e-01</leafValues></_>
        <_>
          <internalNodes>
            0 -1 97 2.7918942272663116e-02</internalNodes>
          <leafValues>
            -3.5378718376159668e-01 2.6144963502883911e-01</leafValues></_>
        <_>
          <internalNodes>
            0 -1 39 -2.6735052466392517e-02</internalNodes>
          <leafValues>
            -6.8444263935089111e-01 9.5241673290729523e-02</leafValues></_></weakClassifiers></_>
    <!-- stage 6 -->
    <_>
      <maxWeakCount>19</maxWeakCount>
      <stageThreshold>-1.1931607723236084e+00</stageThreshold>
      <weakClassifiers>
        <_>
          <internalNodes>
            0 -1 15 -1.7933616618392989e-05</internalNodes>
          <leafValues>
            5.6410753726959229e-01 -3.1873112916946411e-01</leafValues></_>
        <_>
          <internalNodes>
            0 -1 38 -2.4061944335699081e-02</internalNodes>
          <leafValues>
            4.6482208371162415e-01 -2.9112288355827332e-01</leafValues></_>
        <_>
          <internalNodes>
            0 -1 120 5.7398586068302393e-04</internalNodes>
          <leafValues>
            -3.1777292490005493e-01 4.2193010449409485e-01</leafValues></_>
        <_>
          <internalNodes>
            0 -1 125 -1.5721652656793594e-02</internalNodes>
          <leafValues>
            2.8236296772956848e-01 -4.2966023087501526e-01</leafValues></_>
        <_>
          <internalNodes>
            0 -1 22 1.9419384002685547e-01</internalNodes>
          <leafValues>
            -4.5990881323814392e-01 2.6503488421440125e-01</leafValues></_>
        <_>
          <internalNodes>
            0 -1 76 -6.2562832608819008e-03</internalNodes>
          <leafValues>
            2.7712795138359070e-01 -3.3657911419868469e-01</leafValues></_>
        <_>
          <internalNodes>
            0 -1 25 -4.8197768628597260e-03</internalNodes>
          <leafValues>
            4.2054900527000427e-01 -2.2756280004978180e-01</leafValues></_>
        <_>
          <internalNodes>
            0 -1 116 3.7281289696693420e-02</internalNodes>
          <leafValues>
            -1.5356174111366272e-01 5.5256366729736328e-01</leafValues></_>
        <_>
          <internalNodes>
            0 -1 94 1.2596623599529266e-01</internalNodes>
          <leafValues>
            -3.3207252621650696e-01 3.0379220843315125e-01</leafValues></_>
        <_>
          <internalNodes>
            0 -1 55 2.3572242353111506e-03</internalNodes>
          <leafValues>
            1.2988452613353729e-01 -6.4479172229766846e-01</leafValues></_>
        <_>
          <internalNodes>
            0 -1 132 2.6149622863158584e-04</internalNodes>
          <leafValues>
            -2.6906004548072815e-01 3.2143142819404602e-01</leafValues></_>
        <_>
          <internalNodes>
            0 -1 106 -2.4515189230442047e-02</internalNodes>
          <leafValues>
            -7.7619159221649170e-01 1.0907237231731415e-01</leafValues></_>
        <_>
          <internalNodes>
            0 -1 9 -3.5687144845724106e-03</internalNodes>
          <leafValues>
            4.0972492098808289e-01 -2.0528578758239746e-01</leafValues></_>
        <_>
          <internalNodes>
            0 -1 81 -1.3540600775741041e-04</internalNodes>
          <leafValues>
            -6.5465664863586426e-01 1.1317153275012970e-01</leafValues></_>
        <_>
          <internalNodes>
            0 -1 31 -1.8638748675584793e-02</internalNodes>
          <leafValues>
            4.4178768992424011e-01 -1.7003142833709717e-01</leafValues></_>
        <_>
          <internalNodes>
            0 -1 35 1.2435261905193329e-01</internalNodes>
          <leafValues>
            -1.6531510651111603e-01 4.9760085344314575e-01</leafValues></_>
        <_>
          <internalNodes>
            0 -1 46 -2.0753966644406319e-02</internalNodes>
          <leafValues>
            2.4215725064277649e-01 -3.2939592003822327e-01</leafValues></_>
        <_>
          <internalNodes>
            0 -1 135 1.5296163968741894e-02</internalNodes>
          <leafValues>
            -1.9196999073028564e-01 4.9200290441513062e-01</leafValues></_>
        <_>
          <internalNodes>
            0 -1 113 1.8490254878997803e-02</internalNodes>
          <leafValues>
            -1.2692809104919434e-01 5.5689704418182373e-01</leafValues></_></weakClassifiers></_>
    <!-- stage 7 -->
    <_>
      <maxWeakCount>22</maxWeakCount>
      <stageThreshold>-1.0999827384948730e+00</stageThreshold>
      <weakClassifiers>
        <_>
          <internalNodes>
            0 -1 92 3.5588502883911133e-02</internalNodes>
          <leafValues>
            -1.4371420443058014e-01 5.9176230430603027e-01</leafValues></_>
        <_>
          <internalNodes>
            0 -1 7 -1.9464561715722084e-02</internalNodes>
          <leafValues>
            3.5999456048011780e-01 -3.2720181345939636e-01</leafValues></_>
        <_>
          <internalNodes>
            0 -1 52 7.0033639669418335e-02</internalNodes>
          <leafValues>
            -3.1509846448898315e-01 4.2401570081710815e-01</leafValues></_>
        <_>
          <internalNodes>
            0 -1 95 2.0314106717705727e-02</internalNodes>
          <leafValues>
            -5.4403084516525269e-01 1.7583616077899933e-01</leafValues></_>
        <_>
          <internalNodes>
            0 -1 134 9.2470896197482944e-04</internalNodes>
          <leafValues>
            -2.3409883677959442e-01 3.9205354452133179e-01</leafValues></_>
        <_>
          <internalNodes>
            0 -1 65 -2.0652124658226967e-02</internalNodes>
          <leafValues>
            3.0829086899757385e-01 -2.6977837085723877e-01</leafValues></_>
        <_>
          <internalNodes>
            0 -1 87 -9.5541319751646370e-05</internalNodes>
          <leafValues>
            -7.1832889318466187e-01 9.3311659991741180e-02</leafValues></_>
        <_>
          <internalNodes>
            0 -1 16 1.7397768795490265e-02</internalNodes>
          <leafValues>
            1.3340806961059570e-01 -5.0205868482589722e-01</leafValues></_>
        <_>
          <internalNodes>
            0 -1 30 6.1492964625358582e-02</internalNodes>
          <leafValues>
            -1.4999619126319885e-01 6.0326290130615234e-01</leafValues></_>
        <_>
          <internalNodes>
            0 -1 45 1.4569258689880371e-01</internalNodes>
          <leafValues>
            -2.8455367684364319e-01 3.2228210568428040e-01</leafValues></_>
        <_>
          <internalNodes>
            0 -1 139 1.9441953627392650e-03</internalNodes>
          <leafValues>
            -1.9246596097946167e-01 3.9352798461914062e-01</leafValues></_>
        <_>
          <internalNodes>
            0 -1 111 2.0315703004598618e-02</internalNodes>
          <leafValues>
            -1.9324664771556854e-01 4.7198891639709473e-01</leafValues></_>
        <_>
          <internalNodes>
            0 -1 75 -2.9334025457501411e-03</internalNodes>
          <leafValues>
            3.1816399097442627e-01 -2.1298824250698090e-01</leafValues></_>
        <_>
          <internalNodes>
            0 -1 71 1.0087708506034687e-04</internalNodes>
          <leafValues>
            1.5728017687797546e-01 -4.6209639310836792e-01</leafValues></_>
        <_>
          <internalNodes>
            0 -1 71 -9.9999931990168989e-05</internalNodes>
          <leafValues>
            -3.5623872280120850e-01 2.1660318970680237e-01</leafValues></_>
        <_>
          <internalNodes>
            0 -1 86 1.3212723657488823e-02</internalNodes>
          <leafValues>
            -1.5745714306831360e-01 4.6133765578269958e-01</leafValues></_>
        <_>
          <internalNodes>
            0 -1 23 1.9548650830984116e-02</internalNodes>
          <leafValues>
            -2.8428488969802856e-01 2.4674893915653229e-01</leafValues></_>
        <_>
          <internalNodes>
            0 -1 1 -3.1149045098572969e-03</internalNodes>
          <leafValues>
            1.8010540306568146e-01 -3.3357542753219604e-01</leafValues></_>
        <_>
          <internalNodes>
            0 -1 72 4.2859990149736404e-02</internalNodes>
          <leafValues>
            -4.5900619029998779e-01 1.4498996734619141e-01</leafValues></_>
        <_>
          <internalNodes>
            0 -1 51 -2.6466961950063705e-02</internalNodes>
          <leafValues>
            3.7529799342155457e-01 -1.7660184204578400e-01</leafValues></_>
        <_>
          <internalNodes>
            0 -1 141 -1.9841124303638935e-03</internalNodes>
          <leafValues>
            4.1339287161827087e-01 -1.5483181178569794e-01</leafValues></_>
        <_>
          <internalNodes>
            0 -1 101 6.5467849373817444e-02</internalNodes>
          <leafValues>
            7.2607293725013733e-02 -8.1490957736968994e-01</leafValues></_></weakClassifiers></_>
    <!-- stage 8 -->
    <_>
      <maxWeakCount>25</maxWeakCount>
      <stageThreshold>-1.1181112527847290e+00</stageThreshold>
      <weakClassifiers>
        <_>
          <internalNodes>
            0 -1 70 -9.8917851573787630e-05</internalNodes>
          <leafValues>
            -5.4297995567321777e-01 4.9577367305755615e-01</leafValues></_>
        <_>
          <internalNodes>
            0 -1 103 9.1972425580024719e-03</internalNodes>
          <leafValues>
            -2.5593382120132446e-01 4.2642870545387268e-01</leafValues></_>
        <_>
          <internalNodes>
            0 -1 90 1.3686996698379517e-01</internalNodes>
          <leafValues>
            -2.1630045771598816e-01 5.0658267736434937e-01</leafValues></_>
        <_>
          <internalNodes>
            0 -1 74 1.7201044829562306e-04</internalNodes>
          <leafValues>
            2.0178852975368500e-01 -5.0014299154281616e-01</leafValues></_>
        <_>
          <internalNodes>
            0 -1 70 9.9525008408818394e-05</internalNodes>
          <leafValues>
            2.8493264317512512e-01 -2.9773989319801331e-01</leafValues></_>
        <_>
          <internalNodes>
            0 -1 36 4.4358652085065842e-02</internalNodes>
          <leafValues>
            -1.6502149403095245e-01 5.5865430831909180e-01</leafValues></_>
        <_>
          <internalNodes>
            0 -1 63 3.8101691752672195e-02</internalNodes>
          <leafValues>
            -2.0765967667102814e-01 4.4412478804588318e-01</leafValues></_>
        <_>
          <internalNodes>
            0 -1 6 -9.7450893372297287e-03</internalNodes>
          <leafValues>
            2.9757916927337646e-01 -3.3228731155395508e-01</leafValues></_>
        <_>
          <internalNodes>
            0 -1 136 -2.4010449647903442e-02</internalNodes>
          <leafValues>
            3.2249644398689270e-01 -2.4371528625488281e-01</leafValues></_>
        <_>
          <internalNodes>
            0 -1 110 1.4489569701254368e-02</internalNodes>
          <leafValues>
            -1.4144693315029144e-01 4.1193917393684387e-01</leafValues></_>
        <_>
          <internalNodes>
            0 -1 138 1.2158819008618593e-03</internalNodes>
          <leafValues>
            -1.5396761894226074e-01 4.6917474269866943e-01</leafValues></_>
        <_>
          <internalNodes>
            0 -1 43 2.4613572750240564e-03</internalNodes>
          <leafValues>
            -4.9488312005996704e-01 1.5227857232093811e-01</leafValues></_>
        <_>
          <internalNodes>
            0 -1 33 5.0553638488054276e-02</internalNodes>
          <leafValues>
            -1.9579286873340607e-01 3.5518375039100647e-01</leafValues></_>
        <_>
          <internalNodes>
            0 -1 48 -4.0746502578258514e-02</internalNodes>
          <leafValues>
            4.1636905074119568e-01 -1.6470125317573547e-01</leafValues></_>
        <_>
          <internalNodes>
            0 -1 123 6.5935775637626648e-04</internalNodes>
          <leafValues>
            -1.7994637787342072e-01 3.2969042658805847e-01</leafValues></_>
        <_>
          <internalNodes>
            0 -1 115 3.0229785479605198e-03</internalNodes>
          <leafValues>
            -2.4714809656143188e-01 3.2697075605392456e-01</leafValues></_>
        <_>
          <internalNodes>
            0 -1 99 1.9164895638823509e-03</internalNodes>
          <leafValues>
            -6.3416695594787598e-01 1.1853779852390289e-01</leafValues></_>
        <_>
          <internalNodes>
            0 -1 84 -8.3142658695578575e-03</internalNodes>
          <leafValues>
            3.2195425033569336e-01 -2.1942664682865143e-01</leafValues></_>
        <_>
          <internalNodes>
            0 -1 66 -3.9594251662492752e-02</internalNodes>
          <leafValues>
            3.8771313428878784e-01 -1.6955633461475372e-01</leafValues></_>
        <_>
          <internalNodes>
            0 -1 49 2.3927846923470497e-03</internalNodes>
          <leafValues>
            1.1455224454402924e-01 -5.2750647068023682e-01</leafValues></_>
        <_>
          <internalNodes>
            0 -1 24 2.6453847531229258e-03</internalNodes>
          <leafValues>
            -1.8001775443553925e-01 3.0494076013565063e-01</leafValues></_>
        <_>
          <internalNodes>
            0 -1 58 4.0865558548830450e-04</internalNodes>
          <leafValues>
            1.2034079432487488e-01 -4.7916987538337708e-01</leafValues></_>
        <_>
          <internalNodes>
            0 -1 128 5.7811051607131958e-02</internalNodes>
          <leafValues>
            -1.2558443844318390e-01 5.1703417301177979e-01</leafValues></_>
        <_>
          <internalNodes>
            0 -1 131 2.2914621978998184e-02</internalNodes>
          <leafValues>
            -1.0683723539113998e-01 4.7810283303260803e-01</leafValues></_>
        <_>
          <internalNodes>
            0 -1 114 -6.7005574703216553e-02</internalNodes>
          <leafValues>
            -8.2345807552337646e-01 7.9529687762260437e-02</leafValues></_></weakClassifiers></_>
    <!-- stage 9 -->
    <_>
      <maxWeakCount>29</maxWeakCount>
      <stageThreshold>-1.0882290601730347e+00</stageThreshold>
      <weakClassifiers>
        <_>
          <internalNodes>
            0 -1 19 1.9422210752964020e-02</internalNodes>
          <leafValues>
            -1.7372880876064301e-01 5.3967314958572388e-01</leafValues></_>
        <_>
          <internalNodes>
            0 -1 73 3.1851248349994421e-03</internalNodes>
          <leafValues>
            -2.9977905750274658e-01 3.3552858233451843e-01</leafValues></_>
        <_>
          <internalNodes>
            0 -1 11 -4.5987148769199848e-04</internalNodes>
          <leafValues>
            1.7430356144905090e-01 -5.2398967742919922e-01</leafValues></_>
        <_>
          <internalNodes>
            0 -1 108 4.1427571326494217e-02</internalNodes>
          <leafValues>
            -2.7237913012504578e-01 3.3649629354476929e-01</leafValues></_>
        <_>
          <internalNodes>
            0 -1 78 9.6613846719264984e-02</internalNodes>
          <leafValues>
            -6.3341403007507324e-01 1.3900738954544067e-01</leafValues></_>
        <_>
          <internalNodes>
            0 -1 130 1.1710217222571373e-03</internalNodes>
          <leafValues>
            -2.6974937319755554e-01 2.6536390185356140e-01</leafValues></_>
        <_>
          <internalNodes>
            0 -1 83 3.5785313230007887e-05</internalNodes>
          <leafValues>
            -4.4441363215446472e-01 1.2157741189002991e-01</leafValues></_>
        <_>
          <internalNodes>
            0 -1 64 -1.1656845919787884e-02</internalNodes>
          <leafValues>
            -5.2597832679748535e-01 1.1471107602119446e-01</leafValues></_>
        <_>
          <internalNodes>
            0 -1 105 9.1135530965402722e-05</internalNodes>
          <leafValues>
            1.3957880437374115e-01 -4.4896337389945984e-01</leafValues></_>
        <_>
          <internalNodes>
            0 -1 26 5.0835874862968922e-03</internalNodes>
          <leafValues>
            -1.7202715575695038e-01 3.6151355504989624e-01</leafValues></_>
        <_>
          <internalNodes>
            0 -1 60 8.9360968559049070e-05</internalNodes>
          <leafValues>
            1.5051388740539551e-01 -4.5237466692924500e-01</leafValues></_>
        <_>
          <internalNodes>
            0 -1 60 -6.0070349718444049e-05</internalNodes>
          <leafValues>
            -3.1257122755050659e-01 2.3597225546836853e-01</leafValues></_>
        <_>
          <internalNodes>
            0 -1 32 4.5472603291273117e-02</internalNodes>
          <leafValues>
            -1.3917839527130127e-01 6.2188374996185303e-01</leafValues></_>
        <_>
          <internalNodes>
            0 -1 62 -8.1660933792591095e-03</internalNodes>
          <leafValues>
            3.9421653747558594e-01 -1.5100193023681641e-01</leafValues></_>
        <_>
          <internalNodes>
            0 -1 91 1.1339942924678326e-02</internalNodes>
          <leafValues>
            -1.8127737939357758e-01 3.2543593645095825e-01</leafValues></_>
        <_>
          <internalNodes>
            0 -1 77 -2.2900728508830070e-03</internalNodes>
          <leafValues>
            -3.6912989616394043e-01 1.4670491218566895e-01</leafValues></_>
        <_>
          <internalNodes>
            0 -1 10 3.4216642379760742e-03</internalNodes>
          <leafValues>
            7.4109010398387909e-02 -5.9209066629409790e-01</leafValues></_>
        <_>
          <internalNodes>
            0 -1 122 2.5330524891614914e-02</internalNodes>
          <leafValues>
            -1.1467797309160233e-01 4.4825440645217896e-01</leafValues></_>
        <_>
          <internalNodes>
            0 -1 0 -2.3615423124283552e-03</internalNodes>
          <leafValues>
            1.7252810299396515e-01 -3.3641949295997620e-01</leafValues></_>
        <_>
          <internalNodes>
            0 -1 102 -1.4736069366335869e-02</internalNodes>
          <leafValues>
            -5.9379142522811890e-01 7.8862190246582031e-02</leafValues></_>
        <_>
          <internalNodes>
            0 -1 28 -4.6285476535558701e-02</internalNodes>
          <leafValues>
            1.9033671915531158e-01 -2.7967533469200134e-01</leafValues></_>
        <_>
          <internalNodes>
            0 -1 53 1.0898186266422272e-01</internalNodes>
          <leafValues>
            -1.2384101748466492e-01 4.9366375803947449e-01</leafValues></_>
        <_>
          <internalNodes>
            0 -1 140 2.3027120623737574e-03</internalNodes>
          <leafValues>
            -1.1459719389677048e-01 4.7098353505134583e-01</leafValues></_>
        <_>
          <internalNodes>
            0 -1 132 5.3354800911620259e-04</internalNodes>
          <leafValues>
            -1.8186150491237640e-01 2.9500648379325867e-01</leafValues></_>
        <_>
          <internalNodes>
            0 -1 56 1.2364047579467297e-03</internalNodes>
          <leafValues>
            -3.1240189075469971e-01 1.6437244415283203e-01</leafValues></_>
        <_>
          <internalNodes>
            0 -1 61 1.3399528688751161e-04</internalNodes>
          <leafValues>
            1.2332884222269058e-01 -3.4719309210777283e-01</leafValues></_>
        <_>
          <internalNodes>
            0 -1 142 4.6113268472254276e-03</internalNodes>
          <leafValues>
            -1.2649688124656677e-01 3.9416462182998657e-01</leafValues></_>
        <_>
          <internalNodes>
            0 -1 109 7.6405733823776245e-02</internalNodes>
          <leafValues>
            7.2610370814800262e-02 -6.9414716958999634e-01</leafValues></_>
        <_>
          <internalNodes>
            0 -1 124 3.0862240237183869e-04</internalNodes>
          <leafValues>
            -1.9383442401885986e-01 2.4093437194824219e-01</leafValues></_></weakClassifiers></_></stages>
  <features>
    <_>
      <rects>
        <_>
          0 0 16 4 -1.</_>
        <_>
          0 2 16 2 2.</_></rects>
      <tilted>0</tilted></_>
    <_>
      <rects>
        <_>
          0 3 2 11 -1.</_>
        <_>
          1 3 1 11 2.</_></rects>
      <tilted>0</tilted></_>
    <_>
      <rects>
        <_>
          0 4 2 12 -1.</_>
        <_>
          1 4 1 12 2.</_></rects>
      <tilted>0</tilted></_>
    <_>
      <rects>
        <_>
          0 4 2 16 -1.</_>
        <_>
          1 4 1 16 2.</_></rects>
      <tilted>0</tilted></_>
    <_>
      <rects>
        <_>
          0 4 4 15 -1.</_>
        <_>
          2 4 2 15 2.</_></rects>
      <tilted>0</tilted></_>
    <_>
      <rects>
        <_>
          0 5 2 9 -1.</_>
        <_>
          1 5 1 9 2.</_></rects>
      <tilted>0</tilted></_>
    <_>
      <rects>
        <_>
          0 5 2 13 -1.</_>
        <_>
          1 5 1 13 2.</_></rects>
      <tilted>0</tilted></_>
    <_>
      <rects>
        <_>
          0 7 6 5 -1.</_>
        <_>
          2 7 2 5 3.</_></rects>
      <tilted>0</tilted></_>
    <_>
      <rects>
        <_>
          0 8 6 5 -1.</_>
        <_>
          2 8 2 5 3.</_></rects>
      <tilted>0</tilted></_>
    <_>
      <rects>
        <_>
          0 12 3 3 -1.</_>
        <_>
          1 12 1 3 3.</_></rects>
      <tilted>0</tilted></_>
    <_>
      <rects>
        <_>
          0 12 8 2 -1.</_>
        <_>
          0 13 8 1 2.</_></rects>
      <tilted>0</tilted></_>
    <_>
      <rects>
        <_>
          0 13 4 1 -1.</_>
        <_>
          2 13 2 1 2.</_></rects>
      <tilted>0</tilted></_>
    <_>
      <rects>
        <_>
          0 13 4 4 -1.</_>
        <_>
          2 13 2 4 2.</_></rects>
      <tilted>0</tilted></_>
    <_>
      <rects>
        <_>
          0 13 10 6 -1.</_>
        <_>
          0 13 5 3 2.</_>
        <_>
          5 16 5 3 2.</_></rects>
      <tilted>0</tilted></_>
    <_>
      <rects>
        <_>
          0 15 12 4 -1.</_>
        <_>
          4 15 4 4 3.</_></rects>
      <tilted>0</tilted></_>
    <_>
      <rects>
        <_>
          0 16 6 1 -1.</_>
        <_>
          3 16 3 1 2.</_></rects>
      <tilted>0</tilted></_>
    <_>
      <rects>
        <_>
          0 19 14 1 -1.</_>
        <_>
          7 19 7 1 2.</_></rects>
      <tilted>0</tilted></_>
    <_>
      <rects>
        <_>
          1 0 8 12 -1.</_>
        <_>
          1 0 4 6 2.</_>
        <_>
          5 6 4 6 2.</_></rects>
      <tilted>0</tilted></_>
    <_>
      <rects>
        <_>
          1 0 16 9 -1.</_>
        <_>
          1 3 16 3 3.</_></rects>
      <tilted>0</tilted></_>
    <_>
      <rects>
        <_>
          1 1 8 10 -1.</_>
        <_>
          1 1 4 5 2.</_>
        <_>
          5 6 4 5 2.</_></rects>
      <tilted>0</tilted></_>
    <_>
      <rects>
        <_>
          1 1 16 12 -1.</_>
        <_>
          1 1 8 6 2.</_>
        <_>
          9 7 8 6 2.</_></rects>
      <tilted>0</tilted></_>
    <_>
      <rects>
        <_>
          1 6 10 9 -1.</_>
        <_>
          6 6 5 9 2.</_></rects>
      <tilted>0</tilted></_>
    <_>
      <rects>
        <_>
          1 6 12 11 -1.</_>
        <_>
          7 6 6 11 2.</_></rects>
      <tilted>0</tilted></_>
    <_>
      <rects>
        <_>
          1 6 17 4 -1.</_>
        <_>
          1 8 17 2 2.</_></rects>
      <tilted>0</tilted></_>
    <_>
      <rects>
        <_>
          1 8 2 8 -1.</_>
        <_>
          1 8 1 4 2.</_>
        <_>
          2 12 1 4 2.</_></rects>
      <tilted>0</tilted></_>
    <_>
      <rects>
        <_>
          1 9 3 3 -1.</_>
        <_>
          2 9 1 3 3.</_></rects>
      <tilted>0</tilted></_>
    <_>
      <rects>
        <_>
          1 9 2 8 -1.</_>
        <_>
          1 9 1 4 2.</_>
        <_>
          2 13 1 4 2.</_></rects>
      <tilted>0</tilted></_>
    <_>
      <rects>
        <_>
          1 10 2 1 -1.</_>
        <_>
          2 10 1 1 2.</_></rects>
      <tilted>0</tilted></_>
    <_>
      <rects>
        <_>
          1 10 10 10 -1.</_>
        <_>
          1 10 5 5 2.</_>
        <_>
          6 15 5 5 2.</_></rects>
      <tilted>0</tilted></_>
    <_>
      <rects>
        <_>
          1 11 10 8 -1.</_>
        <_>
          1 11 5 4 2.</_>
        <_>
          6 15 5 4 2.</_></rects>
      <tilted>0</tilted></_>
    <_>
      <rects>
        <_>
          1 13 8 3 -1.</_>
        <_>
          5 13 4 3 2.</_></rects>
      <tilted>0</tilted></_>
    <_>
      <rects>
        <_>
          1 14 12 1 -1.</_>
        <_>
          5 14 4 1 3.</_></rects>
      <tilted>0</tilted></_>
    <_>
      <rects>
        <_>
          1 14 8 2 -1.</_>
        <_>
          5 14 4 2 2.</_></rects>
      <tilted>0</tilted></_>
    <_>
      <rects>
        <_>
          1 14 10 2 -1.</_>
        <_>
          6 14 5 2 2.</_></rects>
      <tilted>0</tilted></_>
    <_>
      <rects>
        <_>
          1 15 10 2 -1.</_>
        <_>
          6 15 5 2 2.</_></rects>
      <tilted>0</tilted></_>
    <_>
      <rects>
        <_>
          1 15 18 3 -1.</_>
        <_>
          7 15 6 3 3.</_></rects>
      <tilted>0</tilted></_>
    <_>
      <rects>
        <_>
          1 16 18 1 -1.</_>
        <_>
          7 16 6 1 3.</_></rects>
      <tilted>0</tilted></_>
    <_>
      <rects>
        <_>
          1 16 18 2 -1.</_>
        <_>
          7 16 6 2 3.</_></rects>
      <tilted>0</tilted></_>
    <_>
      <rects>
        <_>
          2 0 16 4 -1.</_>
        <_>
          2 2 16 2 2.</_></rects>
      <tilted>0</tilted></_>
    <_>
      <rects>
        <_>
          2 1 18 11 -1.</_>
        <_>
          8 1 6 11 3.</_></rects>
      <tilted>0</tilted></_>
    <_>
      <rects>
        <_>
          2 7 6 12 -1.</_>
        <_>
          2 7 3 6 2.</_>
        <_>
          5 13 3 6 2.</_></rects>
      <tilted>0</tilted></_>
    <_>
      <rects>
        <_>
          2 7 10 10 -1.</_>
        <_>
          7 7 5 10 2.</_></rects>
      <tilted>0</tilted></_>
    <_>
      <rects>
        <_>
          2 7 12 12 -1.</_>
        <_>
          8 7 6 12 2.</_></rects>
      <tilted>0</tilted></_>
    <_>
      <rects>
        <_>
          2 8 8 1 -1.</_>
        <_>
          6 8 4 1 2.</_></rects>
      <tilted>0</tilted></_>
    <_>
      <rects>
        <_>
          2 8 10 9 -1.</_>
        <_>
          7 8 5 9 2.</_></rects>
      <tilted>0</tilted></_>
    <_>
      <rects>
        <_>
          2 9 12 6 -1.</_>
        <_>
          8 9 6 6 2.</_></rects>
      <tilted>0</tilted></_>
    <_>
      <rects>
        <_>
          2 11 8 8 -1.</_>
        <_>
          2 11 4 4 2.</_>
        <_>
          6 15 4 4 2.</_></rects>
      <tilted>0</tilted></_>
    <_>
      <rects>
        <_>
          2 12 8 8 -1.</_>
        <_>
          2 12 4 4 2.</_>
        <_>
          6 16 4 4 2.</_></rects>
      <tilted>0</tilted></_>
    <_>
      <rects>
        <_>
          2 12 10 6 -1.</_>
        <_>
          2 12 5 3 2.</_>
        <_>
          7 15 5 3 2.</_></rects>
      <tilted>0</tilted></_>
    <_>
      <rects>
        <_>
          2 13 7 2 -1.</_>
        <_>
          2 14 7 1 2.</_></rects>
      <tilted>0</tilted></_>
    <_>
      <rects>
        <_>
          2 14 8 2 -1.</_>
        <_>
          6 14 4 2 2.</_></rects>
      <tilted>0</tilted></_>
    <_>
      <rects>
        <_>
          2 14 14 4 -1.</_>
        <_>
          2 14 7 2 2.</_>
        <_>
          9 16 7 2 2.</_></rects>
      <tilted>0</tilted></_>
    <_>
      <rects>
        <_>
          2 15 14 2 -1.</_>
        <_>
          9 15 7 2 2.</_></rects>
      <tilted>0</tilted></_>
    <_>
      <rects>
        <_>
          2 16 18 2 -1.</_>
        <_>
          8 16 6 2 3.</_></rects>
      <tilted>0</tilted></_>
    <_>
      <rects>
        <_>
          2 16 12 4 -1.</_>
        <_>
          2 16 6 2 2.</_>
        <_>
          8 18 6 2 2.</_></rects>
      <tilted>0</tilted></_>
    <_>
      <rects>
        <_>
          3 2 1 14 -1.</_>
        <_>
          3 9 1 7 2.</_></rects>
      <tilted>0</tilted></_>
    <_>
      <rects>
        <_>
          3 7 11 2 -1.</_>
        <_>
          3 8 11 1 2.</_></rects>
      <tilted>0</tilted></_>
    <_>
      <rects>
        <_>
          3 8 1 4 -1.</_>
        <_>
          3 10 1 2 2.</_></rects>
      <tilted>0</tilted></_>
    <_>
      <rects>
        <_>
          3 9 1 4 -1.</_>
        <_>
          3 11 1 2 2.</_></rects>
      <tilted>0</tilted></_>
    <_>
      <rects>
        <_>
          3 9 8 8 -1.</_>
        <_>
          7 9 4 8 2.</_></rects>
      <tilted>0</tilted></_>
    <_>
      <rects>
        <_>
          3 11 1 2 -1.</_>
        <_>
          3 12 1 1 2.</_></rects>
      <tilted>0</tilted></_>
    <_>
      <rects>
        <_>
          3 11 1 3 -1.</_>
        <_>
          3 12 1 1 3.</_></rects>
      <tilted>0</tilted></_>
    <_>
      <rects>
        <_>
          3 14 9 1 -1.</_>
        <_>
          6 14 3 1 3.</_></rects>
      <tilted>0</tilted></_>
    <_>
      <rects>
        <_>
          3 15 14 1 -1.</_>
        <_>
          10 15 7 1 2.</_></rects>
      <tilted>0</tilted></_>
    <_>
      <rects>
        <_>
          3 19 12 1 -1.</_>
        <_>
          7 19 4 1 3.</_></rects>
      <tilted>0</tilted></_>
    <_>
      <rects>
        <_>
          4 0 9 4 -1.</_>
        <_>
          4 2 9 2 2.</_></rects>
      <tilted>0</tilted></_>
    <_>
      <rects>
        <_>
          4 0 11 4 -1.</_>
        <_>
          4 2 11 2 2.</_></rects>
      <tilted>0</tilted></_>
    <_>
      <rects>
        <_>
          4 5 14 4 -1.</_>
        <_>
          4 7 14 2 2.</_></rects>
      <tilted>0</tilted></_>
    <_>
      <rects>
        <_>
          4 11 8 8 -1.</_>
        <_>
          8 11 4 8 2.</_></rects>
      <tilted>0</tilted></_>
    <_>
      <rects>
        <_>
          4 12 1 2 -1.</_>
        <_>
          4 13 1 1 2.</_></rects>
      <tilted>0</tilted></_>
    <_>
      <rects>
        <_>
          4 13 2 1 -1.</_>
        <_>
          5 13 1 1 2.</_></rects>
      <tilted>0</tilted></_>
    <_>
      <rects>
        <_>
          4 13 1 2 -1.</_>
        <_>
          4 14 1 1 2.</_></rects>
      <tilted>0</tilted></_>
    <_>
      <rects>
        <_>
          4 14 10 6 -1.</_>
        <_>
          9 14 5 6 2.</_></rects>
      <tilted>0</tilted></_>
    <_>
      <rects>
        <_>
          4 14 12 2 -1.</_>
        <_>
          4 14 6 1 2.</_>
        <_>
          10 15 6 1 2.</_></rects>
      <tilted>0</tilted></_>
    <_>
      <rects>
        <_>
          4 17 2 1 -1.</_>
        <_>
          5 17 1 1 2.</_></rects>
      <tilted>0</tilted></_>
    <_>
      <rects>
        <_>
          4 17 6 3 -1.</_>
        <_>
          4 18 6 1 3.</_></rects>
      <tilted>0</tilted></_>
    <_>
      <rects>
        <_>
          4 18 12 2 -1.</_>
        <_>
          4 18 6 1 2.</_>
        <_>
          10 19 6 1 2.</_></rects>
      <tilted>0</tilted></_>
    <_>
      <rects>
        <_>
          5 1 9 1 -1.</_>
        <_>
          8 1 3 1 3.</_></rects>
      <tilted>0</tilted></_>
    <_>
      <rects>
        <_>
          5 3 15 17 -1.</_>
        <_>
          10 3 5 17 3.</_></rects>
      <tilted>0</tilted></_>
    <_>
      <rects>
        <_>
          5 3 9 6 -1.</_>
        <_>
          5 6 9 3 2.</_></rects>
      <tilted>0</tilted></_>
    <_>
      <rects>
        <_>
          5 7 15 2 -1.</_>
        <_>
          5 8 15 1 2.</_></rects>
      <tilted>0</tilted></_>
    <_>
      <rects>
        <_>
          5 14 2 1 -1.</_>
        <_>
          6 14 1 1 2.</_></rects>
      <tilted>0</tilted></_>
    <_>
      <rects>
        <_>
          5 14 1 2 -1.</_>
        <_>
          5 15 1 1 2.</_></rects>
      <tilted>0</tilted></_>
    <_>
      <rects>
        <_>
          5 16 1 4 -1.</_>
        <_>
          5 18 1 2 2.</_></rects>
      <tilted>0</tilted></_>
    <_>
      <rects>
        <_>
          5 18 10 2 -1.</_>
        <_>
          5 18 5 1 2.</_>
        <_>
          10 19 5 1 2.</_></rects>
      <tilted>0</tilted></_>
    <_>
      <rects>
        <_>
          6 0 7 6 -1.</_>
        <_>
          6 2 7 2 3.</_></rects>
      <tilted>0</tilted></_>
    <_>
      <rects>
        <_>
          6 14 6 4 -1.</_>
        <_>
          6 14 3 2 2.</_>
        <_>
          9 16 3 2 2.</_></rects>
      <tilted>0</tilted></_>
    <_>
      <rects>
        <_>
          6 15 2 1 -1.</_>
        <_>
          7 15 1 1 2.</_></rects>
      <tilted>0</tilted></_>
    <_>
      <rects>
        <_>
          6 15 3 2 -1.</_>
        <_>
          6 16 3 1 2.</_></rects>
      <tilted>0</tilted></_>
    <_>
      <rects>
        <_>
          6 18 8 2 -1.</_>
        <_>
          6 18 4 1 2.</_>
        <_>
          10 19 4 1 2.</_></rects>
      <tilted>0</tilted></_>
    <_>
      <rects>
        <_>
          7 2 10 8 -1.</_>
        <_>
          7 6 10 4 2.</_></rects>
      <tilted>0</tilted></_>
    <_>
      <rects>
        <_>
          7 14 6 4 -1.</_>
        <_>
          7 14 3 2 2.</_>
        <_>
          10 16 3 2 2.</_></rects>
      <tilted>0</tilted></_>
    <_>
      <rects>
        <_>
          8 2 6 8 -1.</_>
        <_>
          8 6 6 4 2.</_></rects>
      <tilted>0</tilted></_>
    <_>
      <rects>
        <_>
          8 2 9 8 -1.</_>
        <_>
          8 6 9 4 2.</_></rects>
      <tilted>0</tilted></_>
    <_>
      <rects>
        <_>
          8 4 12 15 -1.</_>
        <_>
          8 9 12 5 3.</_></rects>
      <tilted>0</tilted></_>
    <_>
      <rects>
        <_>
          8 5 12 7 -1.</_>
        <_>
          12 5 4 7 3.</_></rects>
      <tilted>0</tilted></_>
    <_>
      <rects>
        <_>
          8 5 12 8 -1.</_>
        <_>
          12 5 4 8 3.</_></rects>
      <tilted>0</tilted></_>
    <_>
      <rects>
        <_>
          8 5 8 12 -1.</_>
        <_>
          8 9 8 4 3.</_></rects>
      <tilted>0</tilted></_>
    <_>
      <rects>
        <_>
          8 6 12 6 -1.</_>
        <_>
          12 6 4 6 3.</_></rects>
      <tilted>0</tilted></_>
    <_>
      <rects>
        <_>
          8 6 12 7 -1.</_>
        <_>
          12 6 4 7 3.</_></rects>
      <tilted>0</tilted></_>
    <_>
      <rects>
        <_>
          8 8 6 4 -1.</_>
        <_>
          11 8 3 4 2.</_></rects>
      <tilted>0</tilted></_>
    <_>
      <rects>
        <_>
          8 8 8 6 -1.</_>
        <_>
          12 8 4 6 2.</_></rects>
      <tilted>0</tilted></_>
    <_>
      <rects>
        <_>
          8 10 8 3 -1.</_>
        <_>
          12 10 4 3 2.</_></rects>
      <tilted>0</tilted></_>
    <_>
      <rects>
        <_>
          8 14 6 4 -1.</_>
        <_>
          8 14 3 2 2.</_>
        <_>
          11 16 3 2 2.</_></rects>
      <tilted>0</tilted></_>
    <_>
      <rects>
        <_>
          8 15 12 3 -1.</_>
        <_>
          12 15 4 3 3.</_></rects>
      <tilted>0</tilted></_>
    <_>
      <rects>
        <_>
          8 16 1 2 -1.</_>
        <_>
          8 17 1 1 2.</_></rects>
      <tilted>0</tilted></_>
    <_>
      <rects>
        <_>
          9 2 6 10 -1.</_>
        <_>
          12 2 3 10 2.</_></rects>
      <tilted>0</tilted></_>
    <_>
      <rects>
        <_>
          9 14 4 6 -1.</_>
        <_>
          9 16 4 2 3.</_></rects>
      <tilted>0</tilted></_>
    <_>
      <rects>
        <_>
          12 4 5 6 -1.</_>
        <_>
          12 7 5 3 2.</_></rects>
      <tilted>0</tilted></_>
    <_>
      <rects>
        <_>
          12 6 5 14 -1.</_>
        <_>
          12 13 5 7 2.</_></rects>
      <tilted>0</tilted></_>
    <_>
      <rects>
        <_>
          12 8 3 6 -1.</_>
        <_>
          12 10 3 2 3.</_></rects>
      <tilted>0</tilted></_>
    <_>
      <rects>
        <_>
          12 12 6 3 -1.</_>
        <_>
          14 12 2 3 3.</_></rects>
      <tilted>0</tilted></_>
    <_>
      <rects>
        <_>
          12 12 4 6 -1.</_>
        <_>
          12 12 2 3 2.</_>
        <_>
          14 15 2 3 2.</_></rects>
      <tilted>0</tilted></_>
    <_>
      <rects>
        <_>
          12 13 6 2 -1.</_>
        <_>
          14 13 2 2 3.</_></rects>
      <tilted>0</tilted></_>
    <_>
      <rects>
        <_>
          13 7 6 10 -1.</_>
        <_>
          13 12 6 5 2.</_></rects>
      <tilted>0</tilted></_>
    <_>
      <rects>
        <_>
          13 12 1 6 -1.</_>
        <_>
          13 14 1 2 3.</_></rects>
      <tilted>0</tilted></_>
    <_>
      <rects>
        <_>
          13 12 6 4 -1.</_>
        <_>
          15 12 2 4 3.</_></rects>
      <tilted>0</tilted></_>
    <_>
      <rects>
        <_>
          13 13 2 2 -1.</_>
        <_>
          14 13 1 2 2.</_></rects>
      <tilted>0</tilted></_>
    <_>
      <rects>
        <_>
          13 13 2 2 -1.</_>
        <_>
          13 14 2 1 2.</_></rects>
      <tilted>0</tilted></_>
    <_>
      <rects>
        <_>
          13 13 6 2 -1.</_>
        <_>
          15 13 2 2 3.</_></rects>
      <tilted>0</tilted></_>
    <_>
      <rects>
        <_>
          13 14 1 2 -1.</_>
        <_>
          13 15 1 1 2.</_></rects>
      <tilted>0</tilted></_>
    <_>
      <rects>
        <_>
          13 14 6 1 -1.</_>
        <_>
          15 14 2 1 3.</_></rects>
      <tilted>0</tilted></_>
    <_>
      <rects>
        <_>
          13 14 6 2 -1.</_>
        <_>
          15 14 2 2 3.</_></rects>
      <tilted>0</tilted></_>
    <_>
      <rects>
        <_>
          13 15 2 1 -1.</_>
        <_>
          14 15 1 1 2.</_></rects>
      <tilted>0</tilted></_>
    <_>
      <rects>
        <_>
          13 16 2 1 -1.</_>
        <_>
          14 16 1 1 2.</_></rects>
      <tilted>0</tilted></_>
    <_>
      <rects>
        <_>
          14 1 6 10 -1.</_>
        <_>
          14 1 3 5 2.</_>
        <_>
          17 6 3 5 2.</_></rects>
      <tilted>0</tilted></_>
    <_>
      <rects>
        <_>
          14 1 3 14 -1.</_>
        <_>
          14 8 3 7 2.</_></rects>
      <tilted>0</tilted></_>
    <_>
      <rects>
        <_>
          14 7 6 9 -1.</_>
        <_>
          17 7 3 9 2.</_></rects>
      <tilted>0</tilted></_>
    <_>
      <rects>
        <_>
          14 9 6 7 -1.</_>
        <_>
          16 9 2 7 3.</_></rects>
      <tilted>0</tilted></_>
    <_>
      <rects>
        <_>
          14 10 6 5 -1.</_>
        <_>
          16 10 2 5 3.</_></rects>
      <tilted>0</tilted></_>
    <_>
      <rects>
        <_>
          14 11 2 4 -1.</_>
        <_>
          15 11 1 4 2.</_></rects>
      <tilted>0</tilted></_>
    <_>
      <rects>
        <_>
          14 11 4 8 -1.</_>
        <_>
          14 11 2 4 2.</_>
        <_>
          16 15 2 4 2.</_></rects>
      <tilted>0</tilted></_>
    <_>
      <rects>
        <_>
          14 12 1 2 -1.</_>
        <_>
          14 13 1 1 2.</_></rects>
      <tilted>0</tilted></_>
    <_>
      <rects>
        <_>
          14 12 4 6 -1.</_>
        <_>
          14 12 2 3 2.</_>
        <_>
          16 15 2 3 2.</_></rects>
      <tilted>0</tilted></_>
    <_>
      <rects>
        <_>
          14 13 2 1 -1.</_>
        <_>
          15 13 1 1 2.</_></rects>
      <tilted>0</tilted></_>
    <_>
      <rects>
        <_>
          14 13 6 2 -1.</_>
        <_>
          16 13 2 2 3.</_></rects>
      <tilted>0</tilted></_>
    <_>
      <rects>
        <_>
          15 1 4 12 -1.</_>
        <_>
          15 1 2 6 2.</_>
        <_>
          17 7 2 6 2.</_></rects>
      <tilted>0</tilted></_>
    <_>
      <rects>
        <_>
          15 7 4 9 -1.</_>
        <_>
          17 7 2 9 2.</_></rects>
      <tilted>0</tilted></_>
    <_>
      <rects>
        <_>
          15 11 2 1 -1.</_>
        <_>
          16 11 1 1 2.</_></rects>
      <tilted>0</tilted></_>
    <_>
      <rects>
        <_>
          15 11 2 3 -1.</_>
        <_>
          16 11 1 3 2.</_></rects>
      <tilted>0</tilted></_>
    <_>
      <rects>
        <_>
          16 10 2 5 -1.</_>
        <_>
          17 10 1 5 2.</_></rects>
      <tilted>0</tilted></_>
    <_>
      <rects>
        <_>
          17 9 3 1 -1.</_>
        <_>
          18 9 1 1 3.</_></rects>
      <tilted>0</tilted></_>
    <_>
      <rects>
        <_>
          18 7 2 6 -1.</_>
        <_>
          19 7 1 6 2.</_></rects>
      <tilted>0</tilted></_></features></cascade>
</opencv_storage>
