<?xml version="1.0"?>
<opencv_storage>
<cascade>
  <stageType>BOOST</stageType>
  <featureType>HAAR</featureType>
  <height>20</height>
  <width>20</width>
  <stageParams>
    <boostType>GAB</boostType>
    <minHitRate>9.9900001287460327e-01</minHitRate>
    <maxFalseAlarm>5.0000000000000000e-01</maxFalseAlarm>
    <weightTrimRate>9.4999999999999996e-01</weightTrimRate>
    <maxDepth>1</maxDepth>
    <maxWeakCount>100</maxWeakCount></stageParams>
  <featureParams>
    <maxCatCount>0</maxCatCount>
    <featSize>1</featSize>
    <mode>ALL</mode></featureParams>
  <stageNum>25</stageNum>
  <stages>
    <!-- stage 0 -->
    <_>
      <maxWeakCount>28</maxWeakCount>
      <stageThreshold>-1.6843005418777466e+00</stageThreshold>
      <weakClassifiers>
        <_>
          <internalNodes>
            0 -1 951 9.6987988799810410e-03</internalNodes>
          <leafValues>
            -1.4458742737770081e-01 7.0891737937927246e-01</leafValues></_>
        <_>
          <internalNodes>
            0 -1 1267 2.5468293577432632e-02</internalNodes>
          <leafValues>
            -1.4706988632678986e-01 6.2326776981353760e-01</leafValues></_>
        <_>
          <internalNodes>
            0 -1 792 4.2331747710704803e-02</internalNodes>
          <leafValues>
            1.8160939216613770e-01 -6.7802840471267700e-01</leafValues></_>
        <_>
          <internalNodes>
            0 -1 256 2.2497543692588806e-01</internalNodes>
          <leafValues>
            -1.7017236351966858e-01 7.1253812313079834e-01</leafValues></_>
        <_>
          <internalNodes>
            0 -1 1197 -7.1802109479904175e-02</internalNodes>
          <leafValues>
            7.0078516006469727e-01 -1.9125573337078094e-01</leafValues></_>
        <_>
          <internalNodes>
            0 -1 1460 1.7810512799769640e-03</internalNodes>
          <leafValues>
            1.7463977634906769e-01 -6.9624280929565430e-01</leafValues></_>
        <_>
          <internalNodes>
            0 -1 1460 -2.0068818703293800e-03</internalNodes>
          <leafValues>
            -6.8149113655090332e-01 1.6012763977050781e-01</leafValues></_>
        <_>
          <internalNodes>
            0 -1 1491 -5.8628849685192108e-02</internalNodes>
          <leafValues>
            6.7447841167449951e-01 -1.3075947761535645e-01</leafValues></_>
        <_>
          <internalNodes>
            0 -1 1408 1.8702380359172821e-02</internalNodes>
          <leafValues>
            -1.7215445637702942e-01 4.8569822311401367e-01</leafValues></_>
        <_>
          <internalNodes>
            0 -1 761 2.1955031115794554e-05</internalNodes>
          <leafValues>
            -2.8207010030746460e-01 2.4188630282878876e-01</leafValues></_>
        <_>
          <internalNodes>
            0 -1 47 4.7983013093471527e-02</internalNodes>
          <leafValues>
            -1.2535695731639862e-01 5.7812607288360596e-01</leafValues></_>
        <_>
          <internalNodes>
            0 -1 1563 1.5934639377519488e-03</internalNodes>
          <leafValues>
            1.0713403671979904e-01 -6.2443590164184570e-01</leafValues></_>
        <_>
          <internalNodes>
            0 -1 1314 -3.9875563234090805e-03</internalNodes>
          <leafValues>
            -6.2773460149765015e-01 1.1364670097827911e-01</leafValues></_>
        <_>
          <internalNodes>
            0 -1 115 -1.9715590402483940e-02</internalNodes>
          <leafValues>
            5.3454267978668213e-01 -1.3021293282508850e-01</leafValues></_>
        <_>
          <internalNodes>
            0 -1 1069 4.5066852122545242e-02</internalNodes>
          <leafValues>
            -1.2962481379508972e-01 4.9224564433097839e-01</leafValues></_>
        <_>
          <internalNodes>
            0 -1 1224 -4.1426736861467361e-02</internalNodes>
          <leafValues>
            6.1194473505020142e-01 -1.0596979409456253e-01</leafValues></_>
        <_>
          <internalNodes>
            0 -1 1221 4.4769947417080402e-03</internalNodes>
          <leafValues>
            1.2496720999479294e-01 -5.9642696380615234e-01</leafValues></_>
        <_>
          <internalNodes>
            0 -1 531 -1.7156125605106354e-01</internalNodes>
          <leafValues>
            -7.8696823120117188e-01 5.9657074511051178e-02</leafValues></_>
        <_>
          <internalNodes>
            0 -1 1413 -3.3154161646962166e-03</internalNodes>
          <leafValues>
            -5.6821727752685547e-01 7.8552082180976868e-02</leafValues></_>
        <_>
          <internalNodes>
            0 -1 1438 -3.7539005279541016e-03</internalNodes>
          <leafValues>
            -6.7060863971710205e-01 6.3388690352439880e-02</leafValues></_>
        <_>
          <internalNodes>
            0 -1 1368 -2.5556094944477081e-02</internalNodes>
          <leafValues>
            5.9490782022476196e-01 -9.2505529522895813e-02</leafValues></_>
        <_>
          <internalNodes>
            0 -1 1104 5.9786875499412417e-04</internalNodes>
          <leafValues>
            -2.4514691531658173e-01 2.4418571591377258e-01</leafValues></_>
        <_>
          <internalNodes>
            0 -1 613 -3.0660159885883331e-02</internalNodes>
          <leafValues>
            3.1863915920257568e-01 -1.6526013612747192e-01</leafValues></_>
        <_>
          <internalNodes>
            0 -1 1421 6.3740607583895326e-04</internalNodes>
          <leafValues>
            -2.4625033140182495e-01 2.1497119963169098e-01</leafValues></_>
        <_>
          <internalNodes>
            0 -1 1143 -4.8131152987480164e-02</internalNodes>
          <leafValues>
            6.9498270750045776e-01 -8.4120906889438629e-02</leafValues></_>
        <_>
          <internalNodes>
            0 -1 1156 1.5782271511852741e-03</internalNodes>
          <leafValues>
            1.3763327896595001e-01 -4.1089627146720886e-01</leafValues></_>
        <_>
          <internalNodes>
            0 -1 1083 -5.7934541255235672e-03</internalNodes>
          <leafValues>
            -6.7077863216400146e-01 5.8667436242103577e-02</leafValues></_>
        <_>
          <internalNodes>
            0 -1 512 1.9346922636032104e-01</internalNodes>
          <leafValues>
            4.3554354459047318e-02 -8.3334034681320190e-01</leafValues></_></weakClassifiers></_>
    <!-- stage 1 -->
    <_>
      <maxWeakCount>37</maxWeakCount>
      <stageThreshold>-1.4996430873870850e+00</stageThreshold>
      <weakClassifiers>
        <_>
          <internalNodes>
            0 -1 1108 3.8367537781596184e-03</internalNodes>
          <leafValues>
            -1.1789347976446152e-01 6.5658593177795410e-01</leafValues></_>
        <_>
          <internalNodes>
            0 -1 1356 -6.6080838441848755e-02</internalNodes>
          <leafValues>
            7.2701221704483032e-01 -9.3970820307731628e-02</leafValues></_>
        <_>
          <internalNodes>
            0 -1 1054 -8.4075152873992920e-02</internalNodes>
          <leafValues>
            7.1435642242431641e-01 -1.7334811389446259e-01</leafValues></_>
        <_>
          <internalNodes>
            0 -1 1284 2.3435639217495918e-02</internalNodes>
          <leafValues>
            -1.2270130217075348e-01 4.7969251871109009e-01</leafValues></_>
        <_>
          <internalNodes>
            0 -1 303 1.0953830555081367e-02</internalNodes>
          <leafValues>
            -1.9531314074993134e-01 4.6596515178680420e-01</leafValues></_>
        <_>
          <internalNodes>
            0 -1 302 -1.0678529739379883e-02</internalNodes>
          <leafValues>
            5.7072204351425171e-01 -1.4261017739772797e-01</leafValues></_>
        <_>
          <internalNodes>
            0 -1 680 2.0045558921992779e-03</internalNodes>
          <leafValues>
            -2.3571120202541351e-01 2.9793632030487061e-01</leafValues></_>
        <_>
          <internalNodes>
            0 -1 1372 -1.3689151965081692e-02</internalNodes>
          <leafValues>
            5.5209392309188843e-01 -1.2410827726125717e-01</leafValues></_>
        <_>
          <internalNodes>
            0 -1 1052 1.5319708734750748e-02</internalNodes>
          <leafValues>
            -1.3068135082721710e-01 4.4392490386962891e-01</leafValues></_>
        <_>
          <internalNodes>
            0 -1 407 -1.6274094581604004e-02</internalNodes>
          <leafValues>
            5.4831665754318237e-01 -1.1560662090778351e-01</leafValues></_>
        <_>
          <internalNodes>
            0 -1 416 1.1777338571846485e-02</internalNodes>
          <leafValues>
            -1.3089559972286224e-01 4.9488699436187744e-01</leafValues></_>
        <_>
          <internalNodes>
            0 -1 657 7.5908258557319641e-02</internalNodes>
          <leafValues>
            8.3260513842105865e-02 -7.1651965379714966e-01</leafValues></_>
        <_>
          <internalNodes>
            0 -1 789 -5.9359192848205566e-02</internalNodes>
          <leafValues>
            -5.7921952009201050e-01 1.0381148755550385e-01</leafValues></_>
        <_>
          <internalNodes>
            0 -1 1161 -1.2322525726631284e-03</internalNodes>
          <leafValues>
            -4.8714816570281982e-01 1.0764385014772415e-01</leafValues></_>
        <_>
          <internalNodes>
            0 -1 1315 -6.5702572464942932e-03</internalNodes>
          <leafValues>
            -6.8852740526199341e-01 6.7737869918346405e-02</leafValues></_>
        <_>
          <internalNodes>
            0 -1 548 -2.1518163383007050e-02</internalNodes>
          <leafValues>
            4.7354936599731445e-01 -1.1989973485469818e-01</leafValues></_>
        <_>
          <internalNodes>
            0 -1 1070 -1.1911334097385406e-01</internalNodes>
          <leafValues>
            7.3811948299407959e-01 -7.0143565535545349e-02</leafValues></_>
        <_>
          <internalNodes>
            0 -1 1495 -1.4631329104304314e-02</internalNodes>
          <leafValues>
            4.9366673827171326e-01 -9.1042108833789825e-02</leafValues></_>
        <_>
          <internalNodes>
            0 -1 1179 -6.6219856962561607e-03</internalNodes>
          <leafValues>
            5.5747592449188232e-01 -7.4673533439636230e-02</leafValues></_>
        <_>
          <internalNodes>
            0 -1 1205 4.4598090462386608e-03</internalNodes>
          <leafValues>
            -1.7183966934680939e-01 2.7701881527900696e-01</leafValues></_>
        <_>
          <internalNodes>
            0 -1 1452 3.3927380573004484e-03</internalNodes>
          <leafValues>
            5.9006270021200180e-02 -7.2437506914138794e-01</leafValues></_>
        <_>
          <internalNodes>
            0 -1 1595 6.8736178800463676e-03</internalNodes>
          <leafValues>
            -1.3621106743812561e-01 3.4680369496345520e-01</leafValues></_>
        <_>
          <internalNodes>
            0 -1 376 1.7007573042064905e-03</internalNodes>
          <leafValues>
            -1.2157215178012848e-01 3.7043017148971558e-01</leafValues></_>
        <_>
          <internalNodes>
            0 -1 375 -1.6027833335101604e-03</internalNodes>
          <leafValues>
            4.0480166673660278e-01 -1.0889296233654022e-01</leafValues></_>
        <_>
          <internalNodes>
            0 -1 611 -1.6775347292423248e-02</internalNodes>
          <leafValues>
            5.7867890596389771e-01 -7.0108026266098022e-02</leafValues></_>
        <_>
          <internalNodes>
            0 -1 1214 -2.9889611527323723e-02</internalNodes>
          <leafValues>
            -6.0016280412673950e-01 7.8892372548580170e-02</leafValues></_>
        <_>
          <internalNodes>
            0 -1 1525 -1.7321284860372543e-02</internalNodes>
          <leafValues>
            -4.8056215047836304e-01 8.3759300410747528e-02</leafValues></_>
        <_>
          <internalNodes>
            0 -1 1546 3.3437792444601655e-04</internalNodes>
          <leafValues>
            -2.4667777121067047e-01 1.8579263985157013e-01</leafValues></_>
        <_>
          <internalNodes>
            0 -1 1750 -2.3323597852140665e-03</internalNodes>
          <leafValues>
            2.5778499245643616e-01 -1.6645218431949615e-01</leafValues></_>
        <_>
          <internalNodes>
            0 -1 1302 -5.2016056142747402e-03</internalNodes>
          <leafValues>
            -5.2232021093368530e-01 9.4918116927146912e-02</leafValues></_>
        <_>
          <internalNodes>
            0 -1 1229 -2.3781515657901764e-02</internalNodes>
          <leafValues>
            2.9740065336227417e-01 -1.6453628242015839e-01</leafValues></_>
        <_>
          <internalNodes>
            0 -1 1367 5.4097175598144531e-02</internalNodes>
          <leafValues>
            7.5573571026325226e-02 -5.5399358272552490e-01</leafValues></_>
        <_>
          <internalNodes>
            0 -1 360 -2.2868490777909756e-03</internalNodes>
          <leafValues>
            3.0937120318412781e-01 -1.3269972801208496e-01</leafValues></_>
        <_>
          <internalNodes>
            0 -1 1288 1.3042730279266834e-02</internalNodes>
          <leafValues>
            8.5787527263164520e-02 -4.8833990097045898e-01</leafValues></_>
        <_>
          <internalNodes>
            0 -1 796 2.7045685797929764e-02</internalNodes>
          <leafValues>
            -9.3566693365573883e-02 5.0431001186370850e-01</leafValues></_>
        <_>
          <internalNodes>
            0 -1 969 1.0423360392451286e-02</internalNodes>
          <leafValues>
            7.7362485229969025e-02 -6.5168064832687378e-01</leafValues></_>
        <_>
          <internalNodes>
            0 -1 1119 -5.8736004866659641e-03</internalNodes>
          <leafValues>
            -6.6488987207412720e-01 4.6085465699434280e-02</leafValues></_></weakClassifiers></_>
    <!-- stage 2 -->
    <_>
      <maxWeakCount>49</maxWeakCount>
      <stageThreshold>-1.4919965267181396e+00</stageThreshold>
      <weakClassifiers>
        <_>
          <internalNodes>
            0 -1 1404 1.9217286026105285e-03</internalNodes>
          <leafValues>
            -6.9837838411331177e-02 5.8560758829116821e-01</leafValues></_>
        <_>
          <internalNodes>
            0 -1 1192 3.4249827265739441e-02</internalNodes>
          <leafValues>
            -1.2434024363756180e-01 6.4993894100189209e-01</leafValues></_>
        <_>
          <internalNodes>
            0 -1 880 5.9171761677134782e-05</internalNodes>
          <leafValues>
            -3.0370560288429260e-01 2.4972854554653168e-01</leafValues></_>
        <_>
          <internalNodes>
            0 -1 1059 7.7772051095962524e-02</internalNodes>
          <leafValues>
            -1.6876031458377838e-01 6.1648237705230713e-01</leafValues></_>
        <_>
          <internalNodes>
            0 -1 810 3.8558050990104675e-02</internalNodes>
          <leafValues>
            -1.0371408611536026e-01 5.2942484617233276e-01</leafValues></_>
        <_>
          <internalNodes>
            0 -1 404 1.5060182660818100e-02</internalNodes>
          <leafValues>
            -1.7526374757289886e-01 3.8060024380683899e-01</leafValues></_>
        <_>
          <internalNodes>
            0 -1 1196 2.1918307989835739e-02</internalNodes>
          <leafValues>
            -1.3128824532032013e-01 5.8415544033050537e-01</leafValues></_>
        <_>
          <internalNodes>
            0 -1 1287 -1.5892442315816879e-02</internalNodes>
          <leafValues>
            -4.8140454292297363e-01 1.4151544868946075e-01</leafValues></_>
        <_>
          <internalNodes>
            0 -1 1104 6.7377043887972832e-04</internalNodes>
          <leafValues>
            -2.4901737272739410e-01 2.1175293624401093e-01</leafValues></_>
        <_>
          <internalNodes>
            0 -1 212 1.1966602876782417e-02</internalNodes>
          <leafValues>
            -1.3747647404670715e-01 4.0384092926979065e-01</leafValues></_>
        <_>
          <internalNodes>
            0 -1 311 -1.1673260480165482e-02</internalNodes>
          <leafValues>
            4.2875915765762329e-01 -1.2565270066261292e-01</leafValues></_>
        <_>
          <internalNodes>
            0 -1 344 -5.3137661889195442e-03</internalNodes>
          <leafValues>
            4.1446530818939209e-01 -1.0723419487476349e-01</leafValues></_>
        <_>
          <internalNodes>
            0 -1 638 2.5724051520228386e-03</internalNodes>
          <leafValues>
            -1.4866776764392853e-01 4.0285351872444153e-01</leafValues></_>
        <_>
          <internalNodes>
            0 -1 383 1.1747056618332863e-02</internalNodes>
          <leafValues>
            -1.2867546081542969e-01 3.6339506506919861e-01</leafValues></_>
        <_>
          <internalNodes>
            0 -1 751 1.0853628918994218e-04</internalNodes>
          <leafValues>
            -2.1855460107326508e-01 2.2036373615264893e-01</leafValues></_>
        <_>
          <internalNodes>
            0 -1 576 1.9344130996614695e-03</internalNodes>
          <leafValues>
            -1.5505328774452209e-01 3.0496564507484436e-01</leafValues></_>
        <_>
          <internalNodes>
            0 -1 1660 -3.5231314599514008e-02</internalNodes>
          <leafValues>
            4.2070889472961426e-01 -9.8540566861629486e-02</leafValues></_>
        <_>
          <internalNodes>
            0 -1 1587 -7.7275029616430402e-04</internalNodes>
          <leafValues>
            -3.9412751793861389e-01 1.1396439373493195e-01</leafValues></_>
        <_>
          <internalNodes>
            0 -1 899 -3.4182205796241760e-02</internalNodes>
          <leafValues>
            4.4358089566230774e-01 -9.4034709036350250e-02</leafValues></_>
        <_>
          <internalNodes>
            0 -1 1291 3.9575900882482529e-04</internalNodes>
          <leafValues>
            -2.3194567859172821e-01 1.7617812752723694e-01</leafValues></_>
        <_>
          <internalNodes>
            0 -1 1541 5.3771038074046373e-04</internalNodes>
          <leafValues>
            1.5655505657196045e-01 -2.4762034416198730e-01</leafValues></_>
        <_>
          <internalNodes>
            0 -1 1031 4.2427289299666882e-03</internalNodes>
          <leafValues>
            -1.2481494247913361e-01 3.1884887814521790e-01</leafValues></_>
        <_>
          <internalNodes>
            0 -1 917 -7.1800276637077332e-03</internalNodes>
          <leafValues>
            -5.8620506525039673e-01 6.7915357649326324e-02</leafValues></_>
        <_>
          <internalNodes>
            0 -1 251 -2.3882576823234558e-01</internalNodes>
          <leafValues>
            -6.7998790740966797e-01 4.2264487594366074e-02</leafValues></_>
        <_>
          <internalNodes>
            0 -1 767 1.8901271978393197e-03</internalNodes>
          <leafValues>
            7.1570947766304016e-02 -4.5932301878929138e-01</leafValues></_>
        <_>
          <internalNodes>
            0 -1 262 3.5160733386874199e-03</internalNodes>
          <leafValues>
            -1.0416071116924286e-01 3.3501246571540833e-01</leafValues></_>
        <_>
          <internalNodes>
            0 -1 795 -2.5283981114625931e-02</internalNodes>
          <leafValues>
            4.1518461704254150e-01 -9.7817778587341309e-02</leafValues></_>
        <_>
          <internalNodes>
            0 -1 1139 -4.9906820058822632e-03</internalNodes>
          <leafValues>
            -4.4283366203308105e-01 9.2108502984046936e-02</leafValues></_>
        <_>
          <internalNodes>
            0 -1 1312 -3.2228734344244003e-03</internalNodes>
          <leafValues>
            -4.2243114113807678e-01 7.2767168283462524e-02</leafValues></_>
        <_>
          <internalNodes>
            0 -1 809 1.1008731089532375e-02</internalNodes>
          <leafValues>
            -1.0041497647762299e-01 3.4251335263252258e-01</leafValues></_>
        <_>
          <internalNodes>
            0 -1 971 4.6967916190624237e-02</internalNodes>
          <leafValues>
            5.6354582309722900e-02 -7.1001070737838745e-01</leafValues></_>
        <_>
          <internalNodes>
            0 -1 646 2.3260544985532761e-03</internalNodes>
          <leafValues>
            -1.3997521996498108e-01 2.5074642896652222e-01</leafValues></_>
        <_>
          <internalNodes>
            0 -1 267 7.7784387394785881e-03</internalNodes>
          <leafValues>
            -9.9015943706035614e-02 3.3071804046630859e-01</leafValues></_>
        <_>
          <internalNodes>
            0 -1 1004 -8.1810653209686279e-03</internalNodes>
          <leafValues>
            4.6854481101036072e-01 -6.5804183483123779e-02</leafValues></_>
        <_>
          <internalNodes>
            0 -1 1319 9.8711997270584106e-04</internalNodes>
          <leafValues>
            1.0872595757246017e-01 -3.6761683225631714e-01</leafValues></_>
        <_>
          <internalNodes>
            0 -1 1751 -7.0272991433739662e-03</internalNodes>
          <leafValues>
            6.0107928514480591e-01 -6.5702684223651886e-02</leafValues></_>
        <_>
          <internalNodes>
            0 -1 220 5.0898175686597824e-03</internalNodes>
          <leafValues>
            -9.9231339991092682e-02 3.0527237057685852e-01</leafValues></_>
        <_>
          <internalNodes>
            0 -1 420 -2.1141409873962402e-02</internalNodes>
          <leafValues>
            4.7417584061622620e-01 -7.2918877005577087e-02</leafValues></_>
        <_>
          <internalNodes>
            0 -1 908 1.2185415253043175e-03</internalNodes>
          <leafValues>
            -1.1032509058713913e-01 2.9288434982299805e-01</leafValues></_>
        <_>
          <internalNodes>
            0 -1 874 2.5051543489098549e-03</internalNodes>
          <leafValues>
            6.4021155238151550e-02 -5.1867371797561646e-01</leafValues></_>
        <_>
          <internalNodes>
            0 -1 871 -8.2732934970408678e-04</internalNodes>
          <leafValues>
            -3.9208695292472839e-01 7.4737876653671265e-02</leafValues></_>
        <_>
          <internalNodes>
            0 -1 944 2.2426353825721890e-04</internalNodes>
          <leafValues>
            -1.9608245790004730e-01 1.6623774170875549e-01</leafValues></_>
        <_>
          <internalNodes>
            0 -1 1628 -2.3402110673487186e-03</internalNodes>
          <leafValues>
            2.4036312103271484e-01 -1.2927685678005219e-01</leafValues></_>
        <_>
          <internalNodes>
            0 -1 1210 -6.3501140102744102e-03</internalNodes>
          <leafValues>
            -4.5260748267173767e-01 7.0624306797981262e-02</leafValues></_>
        <_>
          <internalNodes>
            0 -1 672 3.6996603012084961e-04</internalNodes>
          <leafValues>
            -1.4451244473457336e-01 2.1668061614036560e-01</leafValues></_>
        <_>
          <internalNodes>
            0 -1 451 8.6573755834251642e-04</internalNodes>
          <leafValues>
            -1.5244598686695099e-01 1.9276095926761627e-01</leafValues></_>
        <_>
          <internalNodes>
            0 -1 412 2.9785684309899807e-03</internalNodes>
          <leafValues>
            -1.0804349929094315e-01 2.8311610221862793e-01</leafValues></_>
        <_>
          <internalNodes>
            0 -1 406 1.2494198977947235e-02</internalNodes>
          <leafValues>
            -9.1134153306484222e-02 3.7428697943687439e-01</leafValues></_>
        <_>
          <internalNodes>
            0 -1 1763 2.8161783702671528e-03</internalNodes>
          <leafValues>
            -1.1771078407764435e-01 2.4826587736606598e-01</leafValues></_></weakClassifiers></_>
    <!-- stage 3 -->
    <_>
      <maxWeakCount>57</maxWeakCount>
      <stageThreshold>-1.5032756328582764e+00</stageThreshold>
      <weakClassifiers>
        <_>
          <internalNodes>
            0 -1 1250 1.2516032438725233e-03</internalNodes>
          <leafValues>
            -5.6868709623813629e-02 5.4852920770645142e-01</leafValues></_>
        <_>
          <internalNodes>
            0 -1 1497 2.9810933396220207e-02</internalNodes>
          <leafValues>
            -1.1429533362388611e-01 5.5038565397262573e-01</leafValues></_>
        <_>
          <internalNodes>
            0 -1 1469 -8.8528299238532782e-04</internalNodes>
          <leafValues>
            -5.5079114437103271e-01 1.3356086611747742e-01</leafValues></_>
        <_>
          <internalNodes>
            0 -1 1469 4.1435624007135630e-04</internalNodes>
          <leafValues>
            1.5669099986553192e-01 -4.9143034219741821e-01</leafValues></_>
        <_>
          <internalNodes>
            0 -1 1185 -1.1426971107721329e-01</internalNodes>
          <leafValues>
            7.3355776071548462e-01 -8.8476903736591339e-02</leafValues></_>
        <_>
          <internalNodes>
            0 -1 1364 -6.8551346659660339e-02</internalNodes>
          <leafValues>
            5.9442389011383057e-01 -1.1364959180355072e-01</leafValues></_>
        <_>
          <internalNodes>
            0 -1 868 9.3627197202295065e-04</internalNodes>
          <leafValues>
            -2.6070493459701538e-01 2.0609760284423828e-01</leafValues></_>
        <_>
          <internalNodes>
            0 -1 994 -1.4396747574210167e-02</internalNodes>
          <leafValues>
            3.6438211798667908e-01 -2.0446237921714783e-01</leafValues></_>
        <_>
          <internalNodes>
            0 -1 213 2.1646462380886078e-02</internalNodes>
          <leafValues>
            -9.6352875232696533e-02 5.7678335905075073e-01</leafValues></_>
        <_>
          <internalNodes>
            0 -1 571 -1.9856974482536316e-02</internalNodes>
          <leafValues>
            5.6060725450515747e-01 -7.2910368442535400e-02</leafValues></_>
        <_>
          <internalNodes>
            0 -1 1686 3.4184142947196960e-02</internalNodes>
          <leafValues>
            -1.2881432473659515e-01 4.1014152765274048e-01</leafValues></_>
        <_>
          <internalNodes>
            0 -1 655 -3.6296874284744263e-02</internalNodes>
          <leafValues>
            5.2393329143524170e-01 -7.8753046691417694e-02</leafValues></_>
        <_>
          <internalNodes>
            0 -1 966 -9.8841898143291473e-03</internalNodes>
          <leafValues>
            -3.9738392829895020e-01 1.2553524971008301e-01</leafValues></_>
        <_>
          <internalNodes>
            0 -1 970 3.5102359950542450e-02</internalNodes>
          <leafValues>
            6.2178757041692734e-02 -6.4207440614700317e-01</leafValues></_>
        <_>
          <internalNodes>
            0 -1 1490 2.0941406488418579e-02</internalNodes>
          <leafValues>
            -1.0004027187824249e-01 4.4349393248558044e-01</leafValues></_>
        <_>
          <internalNodes>
            0 -1 254 3.8830719888210297e-02</internalNodes>
          <leafValues>
            -1.0152833163738251e-01 3.8739052414894104e-01</leafValues></_>
        <_>
          <internalNodes>
            0 -1 1547 1.7782096983864903e-03</internalNodes>
          <leafValues>
            -1.8963009119033813e-01 2.3813727498054504e-01</leafValues></_>
        <_>
          <internalNodes>
            0 -1 937 3.4906799555756152e-04</internalNodes>
          <leafValues>
            -1.9770216941833496e-01 1.9309711456298828e-01</leafValues></_>
        <_>
          <internalNodes>
            0 -1 927 -5.6602424010634422e-03</internalNodes>
          <leafValues>
            -5.5110424757003784e-01 6.0684498399496078e-02</leafValues></_>
        <_>
          <internalNodes>
            0 -1 1701 -1.1005123145878315e-02</internalNodes>
          <leafValues>
            4.0305173397064209e-01 -9.0277180075645447e-02</leafValues></_>
        <_>
          <internalNodes>
            0 -1 1638 -1.0309408418834209e-02</internalNodes>
          <leafValues>
            -5.1028084754943848e-01 7.5215987861156464e-02</leafValues></_>
        <_>
          <internalNodes>
            0 -1 377 4.1865850798785686e-03</internalNodes>
          <leafValues>
            -1.0976579040288925e-01 2.8950330615043640e-01</leafValues></_>
        <_>
          <internalNodes>
            0 -1 403 3.9423825219273567e-03</internalNodes>
          <leafValues>
            -1.2653651833534241e-01 2.9750862717628479e-01</leafValues></_>
        <_>
          <internalNodes>
            0 -1 1280 -2.0809765905141830e-02</internalNodes>
          <leafValues>
            -4.5438453555107117e-01 7.8851662576198578e-02</leafValues></_>
        <_>
          <internalNodes>
            0 -1 303 -2.6731263846158981e-02</internalNodes>
          <leafValues>
            5.9402221441268921e-01 -6.6890753805637360e-02</leafValues></_>
        <_>
          <internalNodes>
            0 -1 591 5.6879874318838120e-03</internalNodes>
          <leafValues>
            -1.2637452781200409e-01 2.9144740104675293e-01</leafValues></_>
        <_>
          <internalNodes>
            0 -1 1129 1.9050801172852516e-02</internalNodes>
          <leafValues>
            6.4480826258659363e-02 -5.6631356477737427e-01</leafValues></_>
        <_>
          <internalNodes>
            0 -1 1747 -7.1604168042540550e-03</internalNodes>
          <leafValues>
            3.9851468801498413e-01 -8.8778182864189148e-02</leafValues></_>
        <_>
          <internalNodes>
            0 -1 1527 -3.2464354299008846e-03</internalNodes>
          <leafValues>
            2.4053658545017242e-01 -1.3294780254364014e-01</leafValues></_>
        <_>
          <internalNodes>
            0 -1 958 4.0542730130255222e-04</internalNodes>
          <leafValues>
            -1.4972828328609467e-01 2.0224922895431519e-01</leafValues></_>
        <_>
          <internalNodes>
            0 -1 793 1.3068344444036484e-02</internalNodes>
          <leafValues>
            -8.9794360101222992e-02 3.9191880822181702e-01</leafValues></_>
        <_>
          <internalNodes>
            0 -1 1392 7.6886755414307117e-04</internalNodes>
          <leafValues>
            -1.9967891275882721e-01 1.7732000350952148e-01</leafValues></_>
        <_>
          <internalNodes>
            0 -1 1442 6.3866219716146588e-04</internalNodes>
          <leafValues>
            9.7276866436004639e-02 -3.4323295950889587e-01</leafValues></_>
        <_>
          <internalNodes>
            0 -1 1441 -5.5983392521739006e-03</internalNodes>
          <leafValues>
            -5.9588205814361572e-01 5.0258737057447433e-02</leafValues></_>
        <_>
          <internalNodes>
            0 -1 865 1.1300823651254177e-02</internalNodes>
          <leafValues>
            3.5571899265050888e-02 -7.5093668699264526e-01</leafValues></_>
        <_>
          <internalNodes>
            0 -1 132 3.4170269966125488e-01</internalNodes>
          <leafValues>
            3.6184560507535934e-02 -7.2765296697616577e-01</leafValues></_>
        <_>
          <internalNodes>
            0 -1 1114 7.5792858842760324e-04</internalNodes>
          <leafValues>
            -1.8238578736782074e-01 1.7386987805366516e-01</leafValues></_>
        <_>
          <internalNodes>
            0 -1 1222 -8.0698337405920029e-03</internalNodes>
          <leafValues>
            -5.2819508314132690e-01 6.7893818020820618e-02</leafValues></_>
        <_>
          <internalNodes>
            0 -1 285 -2.2728392854332924e-02</internalNodes>
          <leafValues>
            5.1732498407363892e-01 -6.6599160432815552e-02</leafValues></_>
        <_>
          <internalNodes>
            0 -1 853 9.3852973077446222e-04</internalNodes>
          <leafValues>
            -1.5630348026752472e-01 1.9753132760524750e-01</leafValues></_>
        <_>
          <internalNodes>
            0 -1 863 -5.8387331664562225e-03</internalNodes>
          <leafValues>
            -5.6237643957138062e-01 6.1577111482620239e-02</leafValues></_>
        <_>
          <internalNodes>
            0 -1 268 1.6132619231939316e-02</internalNodes>
          <leafValues>
            -1.1364539712667465e-01 2.9571768641471863e-01</leafValues></_>
        <_>
          <internalNodes>
            0 -1 69 1.1686736345291138e-01</internalNodes>
          <leafValues>
            6.8352490663528442e-02 -4.5101359486579895e-01</leafValues></_>
        <_>
          <internalNodes>
            0 -1 534 4.5528924092650414e-03</internalNodes>
          <leafValues>
            -1.0392624884843826e-01 2.9501473903656006e-01</leafValues></_>
        <_>
          <internalNodes>
            0 -1 930 3.0923611484467983e-03</internalNodes>
          <leafValues>
            -1.3392789661884308e-01 2.4665105342864990e-01</leafValues></_>
        <_>
          <internalNodes>
            0 -1 1089 5.1961080171167850e-03</internalNodes>
          <leafValues>
            -1.2271245568990707e-01 2.6073348522186279e-01</leafValues></_>
        <_>
          <internalNodes>
            0 -1 1272 -7.0279748179018497e-03</internalNodes>
          <leafValues>
            -4.4059783220291138e-01 7.5825929641723633e-02</leafValues></_>
        <_>
          <internalNodes>
            0 -1 1695 8.1364938523620367e-04</internalNodes>
          <leafValues>
            1.0608423501253128e-01 -2.5970676541328430e-01</leafValues></_>
        <_>
          <internalNodes>
            0 -1 414 -4.9624368548393250e-02</internalNodes>
          <leafValues>
            -5.3023427724838257e-01 5.1683001220226288e-02</leafValues></_>
        <_>
          <internalNodes>
            0 -1 790 4.3815267272293568e-03</internalNodes>
          <leafValues>
            -9.6183605492115021e-02 2.8875195980072021e-01</leafValues></_>
        <_>
          <internalNodes>
            0 -1 1264 2.2749602794647217e-03</internalNodes>
          <leafValues>
            7.6412431895732880e-02 -3.8781252503395081e-01</leafValues></_>
        <_>
          <internalNodes>
            0 -1 1496 -2.5556895881891251e-02</internalNodes>
          <leafValues>
            5.3719049692153931e-01 -5.4690577089786530e-02</leafValues></_>
        <_>
          <internalNodes>
            0 -1 1000 -5.9373835101723671e-03</internalNodes>
          <leafValues>
            3.4534800052642822e-01 -7.9518333077430725e-02</leafValues></_>
        <_>
          <internalNodes>
            0 -1 1439 1.6419792082160711e-03</internalNodes>
          <leafValues>
            -1.7371201515197754e-01 2.2525498270988464e-01</leafValues></_>
        <_>
          <internalNodes>
            0 -1 910 -6.1001263558864594e-02</internalNodes>
          <leafValues>
            -5.8722871541976929e-01 4.9969442188739777e-02</leafValues></_>
        <_>
          <internalNodes>
            0 -1 1074 -4.7841113992035389e-03</internalNodes>
          <leafValues>
            -4.9177047610282898e-01 5.7955216616392136e-02</leafValues></_>
        <_>
          <internalNodes>
            0 -1 133 -8.7996304500848055e-04</internalNodes>
          <leafValues>
            3.0708619952201843e-01 -9.7694806754589081e-02</leafValues></_></weakClassifiers></_>
    <!-- stage 4 -->
    <_>
      <maxWeakCount>74</maxWeakCount>
      <stageThreshold>-1.4072532653808594e+00</stageThreshold>
      <weakClassifiers>
        <_>
          <internalNodes>
            0 -1 1188 2.7498938143253326e-02</internalNodes>
          <leafValues>
            1.4809697866439819e-01 6.9769173860549927e-01</leafValues></_>
        <_>
          <internalNodes>
            0 -1 696 -3.3735994249582291e-02</internalNodes>
          <leafValues>
            4.2636045813560486e-01 -1.5293283760547638e-01</leafValues></_>
        <_>
          <internalNodes>
            0 -1 883 2.2491358322440647e-05</internalNodes>
          <leafValues>
            -2.8529053926467896e-01 1.9109579920768738e-01</leafValues></_>
        <_>
          <internalNodes>
            0 -1 1127 4.8359096050262451e-02</internalNodes>
          <leafValues>
            -1.8015198409557343e-01 4.2876592278480530e-01</leafValues></_>
        <_>
          <internalNodes>
            0 -1 1353 -1.0138878226280212e-01</internalNodes>
          <leafValues>
            6.5252745151519775e-01 -5.0796784460544586e-02</leafValues></_>
        <_>
          <internalNodes>
            0 -1 1518 -1.6975849866867065e-02</internalNodes>
          <leafValues>
            2.7158358693122864e-01 -2.2914965450763702e-01</leafValues></_>
        <_>
          <internalNodes>
            0 -1 1460 9.7104976885020733e-04</internalNodes>
          <leafValues>
            9.9998764693737030e-02 -4.4047960638999939e-01</leafValues></_>
        <_>
          <internalNodes>
            0 -1 408 -3.0917795374989510e-02</internalNodes>
          <leafValues>
            6.3370728492736816e-01 -6.3329204916954041e-02</leafValues></_>
        <_>
          <internalNodes>
            0 -1 1460 -2.3122827988117933e-03</internalNodes>
          <leafValues>
            -5.8720242977142334e-01 6.3240341842174530e-02</leafValues></_>
        <_>
          <internalNodes>
            0 -1 1609 -9.8506761714816093e-03</internalNodes>
          <leafValues>
            3.6117380857467651e-01 -1.1474246531724930e-01</leafValues></_>
        <_>
          <internalNodes>
            0 -1 1056 -2.7756620198488235e-02</internalNodes>
          <leafValues>
            4.4157311320304871e-01 -7.8979134559631348e-02</leafValues></_>
        <_>
          <internalNodes>
            0 -1 298 1.8477320671081543e-02</internalNodes>
          <leafValues>
            -9.0689480304718018e-02 4.0236428380012512e-01</leafValues></_>
        <_>
          <internalNodes>
            0 -1 1230 5.8516074204817414e-05</internalNodes>
          <leafValues>
            -2.4822661280632019e-01 1.6440522670745850e-01</leafValues></_>
        <_>
          <internalNodes>
            0 -1 432 -1.6474561765789986e-02</internalNodes>
          <leafValues>
            4.5389586687088013e-01 -8.1520028412342072e-02</leafValues></_>
        <_>
          <internalNodes>
            0 -1 1280 -4.9848100170493126e-03</internalNodes>
          <leafValues>
            -2.9224634170532227e-01 1.1644198000431061e-01</leafValues></_>
        <_>
          <internalNodes>
            0 -1 299 3.0463481321930885e-02</internalNodes>
          <leafValues>
            -1.1702968180179596e-01 3.0927777290344238e-01</leafValues></_>
        <_>
          <internalNodes>
            0 -1 1744 2.7514295652508736e-03</internalNodes>
          <leafValues>
            -1.8436028063297272e-01 2.1058340370655060e-01</leafValues></_>
        <_>
          <internalNodes>
            0 -1 1470 -1.2795865768566728e-04</internalNodes>
          <leafValues>
            1.5306153893470764e-01 -2.3436936736106873e-01</leafValues></_>
        <_>
          <internalNodes>
            0 -1 642 6.3950899057090282e-03</internalNodes>
          <leafValues>
            -8.6491510272026062e-02 4.0780314803123474e-01</leafValues></_>
        <_>
          <internalNodes>
            0 -1 499 -8.3610098809003830e-03</internalNodes>
          <leafValues>
            3.7893033027648926e-01 -8.8271059095859528e-02</leafValues></_>
        <_>
          <internalNodes>
            0 -1 507 3.0809065792709589e-03</internalNodes>
          <leafValues>
            -1.0879283398389816e-01 2.9728078842163086e-01</leafValues></_>
        <_>
          <internalNodes>
            0 -1 311 1.2520735152065754e-02</internalNodes>
          <leafValues>
            -1.0164300352334976e-01 3.1628820300102234e-01</leafValues></_>
        <_>
          <internalNodes>
            0 -1 1083 -5.0828037783503532e-03</internalNodes>
          <leafValues>
            -5.5020362138748169e-01 5.4852340370416641e-02</leafValues></_>
        <_>
          <internalNodes>
            0 -1 1226 -5.3778328001499176e-03</internalNodes>
          <leafValues>
            -4.1661760210990906e-01 6.1468742787837982e-02</leafValues></_>
        <_>
          <internalNodes>
            0 -1 163 1.3033840060234070e-01</internalNodes>
          <leafValues>
            6.4742751419544220e-02 -4.1734656691551208e-01</leafValues></_>
        <_>
          <internalNodes>
            0 -1 504 -3.1173709779977798e-02</internalNodes>
          <leafValues>
            3.3430853486061096e-01 -8.8590689003467560e-02</leafValues></_>
        <_>
          <internalNodes>
            0 -1 1471 -2.4955021217465401e-03</internalNodes>
          <leafValues>
            -4.9891707301139832e-01 6.9177001714706421e-02</leafValues></_>
        <_>
          <internalNodes>
            0 -1 795 1.3459803536534309e-02</internalNodes>
          <leafValues>
            -1.1182493716478348e-01 2.9084390401840210e-01</leafValues></_>
        <_>
          <internalNodes>
            0 -1 819 1.6386331990361214e-03</internalNodes>
          <leafValues>
            -1.4844667911529541e-01 1.8996411561965942e-01</leafValues></_>
        <_>
          <internalNodes>
            0 -1 1044 -8.8861007243394852e-03</internalNodes>
          <leafValues>
            3.8778862357139587e-01 -7.1646973490715027e-02</leafValues></_>
        <_>
          <internalNodes>
            0 -1 1373 1.9471943378448486e-02</internalNodes>
          <leafValues>
            -8.1886857748031616e-02 3.7114104628562927e-01</leafValues></_>
        <_>
          <internalNodes>
            0 -1 1472 -3.3454503864049911e-03</internalNodes>
          <leafValues>
            -3.6792817711830139e-01 7.9555921256542206e-02</leafValues></_>
        <_>
          <internalNodes>
            0 -1 1599 4.8062199493870139e-04</internalNodes>
          <leafValues>
            9.3305177986621857e-02 -2.8161579370498657e-01</leafValues></_>
        <_>
          <internalNodes>
            0 -1 603 1.3492088764905930e-03</internalNodes>
          <leafValues>
            -1.3387119770050049e-01 2.0376722514629364e-01</leafValues></_>
        <_>
          <internalNodes>
            0 -1 434 -1.5776572749018669e-02</internalNodes>
          <leafValues>
            2.7888870239257812e-01 -1.0399616509675980e-01</leafValues></_>
        <_>
          <internalNodes>
            0 -1 1006 6.9405732210725546e-04</internalNodes>
          <leafValues>
            -1.8659883737564087e-01 1.6318790614604950e-01</leafValues></_>
        <_>
          <internalNodes>
            0 -1 758 -1.8133835401386023e-03</internalNodes>
          <leafValues>
            -4.1753929853439331e-01 7.6892785727977753e-02</leafValues></_>
        <_>
          <internalNodes>
            0 -1 525 3.7796108517795801e-03</internalNodes>
          <leafValues>
            -9.7020111978054047e-02 2.8007510304450989e-01</leafValues></_>
        <_>
          <internalNodes>
            0 -1 350 -1.3988022506237030e-01</internalNodes>
          <leafValues>
            -6.0697257518768311e-01 4.8901762813329697e-02</leafValues></_>
        <_>
          <internalNodes>
            0 -1 1365 -4.9910224974155426e-02</internalNodes>
          <leafValues>
            -6.7887377738952637e-01 3.5406868904829025e-02</leafValues></_>
        <_>
          <internalNodes>
            0 -1 363 6.3300547190010548e-03</internalNodes>
          <leafValues>
            -1.0398793965578079e-01 2.6693093776702881e-01</leafValues></_>
        <_>
          <internalNodes>
            0 -1 190 -7.7967355027794838e-03</internalNodes>
          <leafValues>
            3.4481620788574219e-01 -8.3976015448570251e-02</leafValues></_>
        <_>
          <internalNodes>
            0 -1 1693 3.0803930712863803e-04</internalNodes>
          <leafValues>
            1.0928180813789368e-01 -2.5370714068412781e-01</leafValues></_>
        <_>
          <internalNodes>
            0 -1 957 -2.6767659932374954e-02</internalNodes>
          <leafValues>
            -4.3336215615272522e-01 6.2490172684192657e-02</leafValues></_>
        <_>
          <internalNodes>
            0 -1 564 -1.9660675898194313e-03</internalNodes>
          <leafValues>
            3.2015302777290344e-01 -8.1454493105411530e-02</leafValues></_>
        <_>
          <internalNodes>
            0 -1 1429 -5.9865266084671021e-03</internalNodes>
          <leafValues>
            -5.5604618787765503e-01 4.9949191510677338e-02</leafValues></_>
        <_>
          <internalNodes>
            0 -1 463 -8.8066831231117249e-03</internalNodes>
          <leafValues>
            -5.0554978847503662e-01 4.5599006116390228e-02</leafValues></_>
        <_>
          <internalNodes>
            0 -1 1531 1.2083691544830799e-03</internalNodes>
          <leafValues>
            -1.5855076909065247e-01 1.5976729989051819e-01</leafValues></_>
        <_>
          <internalNodes>
            0 -1 975 -1.1089307256042957e-02</internalNodes>
          <leafValues>
            3.1717777252197266e-01 -8.8962942361831665e-02</leafValues></_>
        <_>
          <internalNodes>
            0 -1 1311 -2.9377546161413193e-03</internalNodes>
          <leafValues>
            -4.4797050952911377e-01 6.7249722778797150e-02</leafValues></_>
        <_>
          <internalNodes>
            0 -1 564 2.2208555601537228e-03</internalNodes>
          <leafValues>
            -7.9362757503986359e-02 3.3442431688308716e-01</leafValues></_>
        <_>
          <internalNodes>
            0 -1 445 5.1573564996942878e-04</internalNodes>
          <leafValues>
            -1.3543507456779480e-01 1.7870508134365082e-01</leafValues></_>
        <_>
          <internalNodes>
            0 -1 288 1.2388180010020733e-02</internalNodes>
          <leafValues>
            -8.0485872924327850e-02 3.2606601715087891e-01</leafValues></_>
        <_>
          <internalNodes>
            0 -1 879 8.2193262642249465e-05</internalNodes>
          <leafValues>
            -2.1867141127586365e-01 1.3813988864421844e-01</leafValues></_>
        <_>
          <internalNodes>
            0 -1 1047 2.2543198429048061e-04</internalNodes>
          <leafValues>
            1.1631920188665390e-01 -2.1385431289672852e-01</leafValues></_>
        <_>
          <internalNodes>
            0 -1 844 -2.2946555167436600e-02</internalNodes>
          <leafValues>
            -3.9514541625976562e-01 5.7729132473468781e-02</leafValues></_>
        <_>
          <internalNodes>
            0 -1 1412 2.8358994051814079e-02</internalNodes>
          <leafValues>
            4.2173761874437332e-02 -5.3659588098526001e-01</leafValues></_>
        <_>
          <internalNodes>
            0 -1 530 1.3626432418823242e-01</internalNodes>
          <leafValues>
            2.2344732657074928e-02 -8.8905858993530273e-01</leafValues></_>
        <_>
          <internalNodes>
            0 -1 505 -1.3059549964964390e-02</internalNodes>
          <leafValues>
            -5.7580858469009399e-01 3.3715687692165375e-02</leafValues></_>
        <_>
          <internalNodes>
            0 -1 1216 5.5327642709016800e-02</internalNodes>
          <leafValues>
            3.5993415862321854e-02 -5.8867406845092773e-01</leafValues></_>
        <_>
          <internalNodes>
            0 -1 536 4.2248396202921867e-03</internalNodes>
          <leafValues>
            -7.2961576282978058e-02 3.3134683966636658e-01</leafValues></_>
        <_>
          <internalNodes>
            0 -1 535 -1.2270535808056593e-03</internalNodes>
          <leafValues>
            2.0734572410583496e-01 -1.2095887213945389e-01</leafValues></_>
        <_>
          <internalNodes>
            0 -1 91 -3.5190731287002563e-03</internalNodes>
          <leafValues>
            -2.3794890940189362e-01 1.0041993111371994e-01</leafValues></_>
        <_>
          <internalNodes>
            0 -1 1370 -7.3480280116200447e-03</internalNodes>
          <leafValues>
            -4.0389919281005859e-01 5.6481741368770599e-02</leafValues></_>
        <_>
          <internalNodes>
            0 -1 1191 -2.6871871203184128e-02</internalNodes>
          <leafValues>
            4.1132989525794983e-01 -6.3944496214389801e-02</leafValues></_>
        <_>
          <internalNodes>
            0 -1 1182 7.5152050703763962e-03</internalNodes>
          <leafValues>
            -1.2723584473133087e-01 2.3114833235740662e-01</leafValues></_>
        <_>
          <internalNodes>
            0 -1 527 2.5177016854286194e-01</internalNodes>
          <leafValues>
            -5.6095939129590988e-02 4.4853082299232483e-01</leafValues></_>
        <_>
          <internalNodes>
            0 -1 1077 2.5806266348809004e-03</internalNodes>
          <leafValues>
            -1.3766498863697052e-01 1.8639434874057770e-01</leafValues></_>
        <_>
          <internalNodes>
            0 -1 94 9.8790810443460941e-04</internalNodes>
          <leafValues>
            1.0711120069026947e-01 -2.2459281980991364e-01</leafValues></_>
        <_>
          <internalNodes>
            0 -1 1458 1.4598667621612549e-04</internalNodes>
          <leafValues>
            -1.8908414244651794e-01 1.2472078949213028e-01</leafValues></_>
        <_>
          <internalNodes>
            0 -1 935 6.5769781358540058e-03</internalNodes>
          <leafValues>
            -1.2185207009315491e-01 2.1022687852382660e-01</leafValues></_>
        <_>
          <internalNodes>
            0 -1 1554 3.2337190350517631e-04</internalNodes>
          <leafValues>
            1.3331915438175201e-01 -1.8347631394863129e-01</leafValues></_>
        <_>
          <internalNodes>
            0 -1 1394 -4.3355245143175125e-03</internalNodes>
          <leafValues>
            2.2281040251255035e-01 -1.1565243452787399e-01</leafValues></_>
        <_>
          <internalNodes>
            0 -1 372 1.2690261006355286e-02</internalNodes>
          <leafValues>
            -8.3372391760349274e-02 2.7922815084457397e-01</leafValues></_></weakClassifiers></_>
    <!-- stage 5 -->
    <_>
      <maxWeakCount>87</maxWeakCount>
      <stageThreshold>-1.3326983451843262e+00</stageThreshold>
      <weakClassifiers>
        <_>
          <internalNodes>
            0 -1 1670 3.0320207588374615e-03</internalNodes>
          <leafValues>
            8.8731143623590469e-03 5.2793371677398682e-01</leafValues></_>
        <_>
          <internalNodes>
            0 -1 1096 9.7496958915144205e-04</internalNodes>
          <leafValues>
            -1.9282676279544830e-01 2.5547263026237488e-01</leafValues></_>
        <_>
          <internalNodes>
            0 -1 164 2.5576108694076538e-01</internalNodes>
          <leafValues>
            1.0565181821584702e-01 -5.0712424516677856e-01</leafValues></_>
        <_>
          <internalNodes>
            0 -1 1022 -1.8244603415951133e-04</internalNodes>
          <leafValues>
            -3.4028834104537964e-01 1.2241240590810776e-01</leafValues></_>
        <_>
          <internalNodes>
            0 -1 275 1.2447239458560944e-01</internalNodes>
          <leafValues>
            -9.1169558465480804e-02 4.3694034218788147e-01</leafValues></_>
        <_>
          <internalNodes>
            0 -1 557 -9.3831002712249756e-02</internalNodes>
          <leafValues>
            5.2257442474365234e-01 -1.3345298171043396e-01</leafValues></_>
        <_>
          <internalNodes>
            0 -1 768 -1.6720451414585114e-02</internalNodes>
          <leafValues>
            3.2812061905860901e-01 -1.3876853883266449e-01</leafValues></_>
        <_>
          <internalNodes>
            0 -1 753 -1.6361355781555176e-02</internalNodes>
          <leafValues>
            4.1382938623428345e-01 -9.9496819078922272e-02</leafValues></_>
        <_>
          <internalNodes>
            0 -1 1426 -1.8247336149215698e-02</internalNodes>
          <leafValues>
            -5.1947283744812012e-01 6.7672550678253174e-02</leafValues></_>
        <_>
          <internalNodes>
            0 -1 1501 5.3942222148180008e-03</internalNodes>
          <leafValues>
            -1.1467654258012772e-01 2.9344213008880615e-01</leafValues></_>
        <_>
          <internalNodes>
            0 -1 710 2.5677727535367012e-03</internalNodes>
          <leafValues>
            -9.6415564417839050e-02 3.4210106730461121e-01</leafValues></_>
        <_>
          <internalNodes>
            0 -1 555 5.2210851572453976e-03</internalNodes>
          <leafValues>
            -1.5091478824615479e-01 2.6224967837333679e-01</leafValues></_>
        <_>
          <internalNodes>
            0 -1 402 -2.8843963518738747e-03</internalNodes>
          <leafValues>
            3.0343216657638550e-01 -1.0023360699415207e-01</leafValues></_>
        <_>
          <internalNodes>
            0 -1 1368 1.4108855277299881e-02</internalNodes>
          <leafValues>
            -1.2707427144050598e-01 2.6533210277557373e-01</leafValues></_>
        <_>
          <internalNodes>
            0 -1 1453 -3.3390857279300690e-03</internalNodes>
          <leafValues>
            -4.6929556131362915e-01 7.1330152451992035e-02</leafValues></_>
        <_>
          <internalNodes>
            0 -1 1708 -3.1296527013182640e-03</internalNodes>
          <leafValues>
            2.3157438635826111e-01 -1.3301204144954681e-01</leafValues></_>
        <_>
          <internalNodes>
            0 -1 1268 3.8100693374872208e-02</internalNodes>
          <leafValues>
            -1.1556441336870193e-01 2.8249847888946533e-01</leafValues></_>
        <_>
          <internalNodes>
            0 -1 1569 1.5040416037663817e-03</internalNodes>
          <leafValues>
            7.4650838971138000e-02 -4.2136588692665100e-01</leafValues></_>
        <_>
          <internalNodes>
            0 -1 601 6.6717184381559491e-05</internalNodes>
          <leafValues>
            -2.0050369203090668e-01 1.6016823053359985e-01</leafValues></_>
        <_>
          <internalNodes>
            0 -1 1700 -5.7489918544888496e-03</internalNodes>
          <leafValues>
            2.8406241536140442e-01 -9.7260497510433197e-02</leafValues></_>
        <_>
          <internalNodes>
            0 -1 1454 -1.6667203977704048e-02</internalNodes>
          <leafValues>
            -5.2005696296691895e-01 6.1148073524236679e-02</leafValues></_>
        <_>
          <internalNodes>
            0 -1 1175 4.0208166465163231e-03</internalNodes>
          <leafValues>
            -9.8800696432590485e-02 3.0731377005577087e-01</leafValues></_>
        <_>
          <internalNodes>
            0 -1 1318 5.2238558419048786e-04</internalNodes>
          <leafValues>
            8.9749403297901154e-02 -2.9635620117187500e-01</leafValues></_>
        <_>
          <internalNodes>
            0 -1 576 2.3416387848556042e-03</internalNodes>
          <leafValues>
            -1.0755488276481628e-01 2.7603086829185486e-01</leafValues></_>
        <_>
          <internalNodes>
            0 -1 392 5.2717472426593304e-03</internalNodes>
          <leafValues>
            -9.8254710435867310e-02 2.5662717223167419e-01</leafValues></_>
        <_>
          <internalNodes>
            0 -1 637 3.6277482286095619e-03</internalNodes>
          <leafValues>
            -8.5122816264629364e-02 2.7023503184318542e-01</leafValues></_>
        <_>
          <internalNodes>
            0 -1 498 -4.2528714984655380e-03</internalNodes>
          <leafValues>
            3.3923077583312988e-01 -1.0009236633777618e-01</leafValues></_>
        <_>
          <internalNodes>
            0 -1 1319 -1.8809898756444454e-03</internalNodes>
          <leafValues>
            -3.8422134518623352e-01 6.7948542535305023e-02</leafValues></_>
        <_>
          <internalNodes>
            0 -1 575 -3.8319830782711506e-03</internalNodes>
          <leafValues>
            3.3396050333976746e-01 -7.3742918670177460e-02</leafValues></_>
        <_>
          <internalNodes>
            0 -1 1370 6.2678372487425804e-03</internalNodes>
          <leafValues>
            5.8244325220584869e-02 -4.0442216396331787e-01</leafValues></_>
        <_>
          <internalNodes>
            0 -1 449 1.3574552722275257e-02</internalNodes>
          <leafValues>
            -7.4715219438076019e-02 3.3039033412933350e-01</leafValues></_>
        <_>
          <internalNodes>
            0 -1 215 -4.4548879377543926e-03</internalNodes>
          <leafValues>
            2.4459068477153778e-01 -1.0634847730398178e-01</leafValues></_>
        <_>
          <internalNodes>
            0 -1 1002 1.1182446032762527e-03</internalNodes>
          <leafValues>
            -1.3429084420204163e-01 1.6579511761665344e-01</leafValues></_>
        <_>
          <internalNodes>
            0 -1 992 -1.3800876215100288e-02</internalNodes>
          <leafValues>
            2.4694393575191498e-01 -1.2081111222505569e-01</leafValues></_>
        <_>
          <internalNodes>
            0 -1 1644 1.9656505435705185e-02</internalNodes>
          <leafValues>
            -7.4749782681465149e-02 3.1109666824340820e-01</leafValues></_>
        <_>
          <internalNodes>
            0 -1 1455 6.9213245296850801e-04</internalNodes>
          <leafValues>
            7.0042945444583893e-02 -3.3636710047721863e-01</leafValues></_>
        <_>
          <internalNodes>
            0 -1 128 -8.7515590712428093e-03</internalNodes>
          <leafValues>
            2.7001458406448364e-01 -8.7936639785766602e-02</leafValues></_>
        <_>
          <internalNodes>
            0 -1 940 1.9376066047698259e-03</internalNodes>
          <leafValues>
            -1.3012680411338806e-01 1.7855216562747955e-01</leafValues></_>
        <_>
          <internalNodes>
            0 -1 176 -5.0096609629690647e-03</internalNodes>
          <leafValues>
            2.6529532670974731e-01 -1.1537349969148636e-01</leafValues></_>
        <_>
          <internalNodes>
            0 -1 344 -3.6507342010736465e-03</internalNodes>
          <leafValues>
            2.3137848079204559e-01 -9.6882589161396027e-02</leafValues></_>
        <_>
          <internalNodes>
            0 -1 494 1.0378514416515827e-02</internalNodes>
          <leafValues>
            -8.9438863098621368e-02 2.5565296411514282e-01</leafValues></_>
        <_>
          <internalNodes>
            0 -1 1211 -5.9177577495574951e-03</internalNodes>
          <leafValues>
            -3.5149371623992920e-01 5.9920910745859146e-02</leafValues></_>
        <_>
          <internalNodes>
            0 -1 759 -5.0817346200346947e-03</internalNodes>
          <leafValues>
            -5.5932480096817017e-01 3.4787792712450027e-02</leafValues></_>
        <_>
          <internalNodes>
            0 -1 65 -6.3766120001673698e-04</internalNodes>
          <leafValues>
            -2.1493247151374817e-01 9.2861063778400421e-02</leafValues></_>
        <_>
          <internalNodes>
            0 -1 1179 7.5641544535756111e-03</internalNodes>
          <leafValues>
            -4.3152224272489548e-02 4.8318746685981750e-01</leafValues></_>
        <_>
          <internalNodes>
            0 -1 1233 8.4091827739030123e-04</internalNodes>
          <leafValues>
            -1.3625995814800262e-01 1.4926363527774811e-01</leafValues></_>
        <_>
          <internalNodes>
            0 -1 1607 -2.7618575841188431e-03</internalNodes>
          <leafValues>
            2.2637373208999634e-01 -1.2725386023521423e-01</leafValues></_>
        <_>
          <internalNodes>
            0 -1 904 2.1429181098937988e-02</internalNodes>
          <leafValues>
            -1.0488674789667130e-01 2.5791084766387939e-01</leafValues></_>
        <_>
          <internalNodes>
            0 -1 1075 -7.1922317147254944e-03</internalNodes>
          <leafValues>
            -4.6720004081726074e-01 5.1239807158708572e-02</leafValues></_>
        <_>
          <internalNodes>
            0 -1 641 -1.7683215439319611e-02</internalNodes>
          <leafValues>
            -5.3025716543197632e-01 3.5124935209751129e-02</leafValues></_>
        <_>
          <internalNodes>
            0 -1 954 -1.4043260365724564e-02</internalNodes>
          <leafValues>
            -6.8624734878540039e-01 2.6555769145488739e-02</leafValues></_>
        <_>
          <internalNodes>
            0 -1 280 4.4325599446892738e-03</internalNodes>
          <leafValues>
            -7.3017388582229614e-02 3.0755215883255005e-01</leafValues></_>
        <_>
          <internalNodes>
            0 -1 756 4.4580156099982560e-05</internalNodes>
          <leafValues>
            -1.4165027439594269e-01 1.3540141284465790e-01</leafValues></_>
        <_>
          <internalNodes>
            0 -1 448 1.5633737202733755e-03</internalNodes>
          <leafValues>
            -1.2844324111938477e-01 1.8298898637294769e-01</leafValues></_>
        <_>
          <internalNodes>
            0 -1 1290 -2.7623511850833893e-03</internalNodes>
          <leafValues>
            -2.3514419794082642e-01 1.0136348754167557e-01</leafValues></_>
        <_>
          <internalNodes>
            0 -1 1412 1.9977614283561707e-02</internalNodes>
          <leafValues>
            6.1784021556377411e-02 -3.6234280467033386e-01</leafValues></_>
        <_>
          <internalNodes>
            0 -1 764 3.5974290221929550e-03</internalNodes>
          <leafValues>
            -1.0472545027732849e-01 2.0735393464565277e-01</leafValues></_>
        <_>
          <internalNodes>
            0 -1 650 9.8884582519531250e-02</internalNodes>
          <leafValues>
            3.1290281563997269e-02 -6.8116158246994019e-01</leafValues></_>
        <_>
          <internalNodes>
            0 -1 1480 -8.3741731941699982e-03</internalNodes>
          <leafValues>
            -4.4708704948425293e-01 4.2649548500776291e-02</leafValues></_>
        <_>
          <internalNodes>
            0 -1 731 -2.4705943651497364e-03</internalNodes>
          <leafValues>
            1.3378296792507172e-01 -1.5403044223785400e-01</leafValues></_>
        <_>
          <internalNodes>
            0 -1 1263 -7.5120208784937859e-03</internalNodes>
          <leafValues>
            3.2100564241409302e-01 -6.3884399831295013e-02</leafValues></_>
        <_>
          <internalNodes>
            0 -1 1752 -7.9838214442133904e-03</internalNodes>
          <leafValues>
            3.6167517304420471e-01 -5.7952690869569778e-02</leafValues></_>
        <_>
          <internalNodes>
            0 -1 36 3.8450100691989064e-04</internalNodes>
          <leafValues>
            9.2309445142745972e-02 -2.2750996053218842e-01</leafValues></_>
        <_>
          <internalNodes>
            0 -1 295 1.0597856715321541e-02</internalNodes>
          <leafValues>
            -7.2349190711975098e-02 2.8946468234062195e-01</leafValues></_>
        <_>
          <internalNodes>
            0 -1 1419 3.5085901618003845e-04</internalNodes>
          <leafValues>
            -1.8276658654212952e-01 1.1420480906963348e-01</leafValues></_>
        <_>
          <internalNodes>
            0 -1 1406 -1.7585940659046173e-03</internalNodes>
          <leafValues>
            1.8073004484176636e-01 -1.2775111198425293e-01</leafValues></_>
        <_>
          <internalNodes>
            0 -1 1532 9.8283099941909313e-04</internalNodes>
          <leafValues>
            1.1597827076911926e-01 -2.0955415070056915e-01</leafValues></_>
        <_>
          <internalNodes>
            0 -1 1523 -4.8972656950354576e-03</internalNodes>
          <leafValues>
            -3.2715809345245361e-01 7.0301227271556854e-02</leafValues></_>
        <_>
          <internalNodes>
            0 -1 1325 -7.4345211032778025e-04</internalNodes>
          <leafValues>
            -2.7343559265136719e-01 7.5655192136764526e-02</leafValues></_>
        <_>
          <internalNodes>
            0 -1 1404 -1.0434034280478954e-02</internalNodes>
          <leafValues>
            4.3484437465667725e-01 -4.7180265188217163e-02</leafValues></_>
        <_>
          <internalNodes>
            0 -1 547 5.6577040813863277e-03</internalNodes>
          <leafValues>
            -4.6710647642612457e-02 3.9213240146636963e-01</leafValues></_>
        <_>
          <internalNodes>
            0 -1 551 8.9715635403990746e-03</internalNodes>
          <leafValues>
            -9.4396844506263733e-02 2.3254206776618958e-01</leafValues></_>
        <_>
          <internalNodes>
            0 -1 1377 -8.3299353718757629e-03</internalNodes>
          <leafValues>
            -4.9515938758850098e-01 3.9174821227788925e-02</leafValues></_>
        <_>
          <internalNodes>
            0 -1 956 4.4292310485616326e-04</internalNodes>
          <leafValues>
            -1.4239075779914856e-01 1.3627524673938751e-01</leafValues></_>
        <_>
          <internalNodes>
            0 -1 1098 -2.6161512359976768e-02</internalNodes>
          <leafValues>
            3.3953997492790222e-01 -6.9398261606693268e-02</leafValues></_>
        <_>
          <internalNodes>
            0 -1 659 7.7573880553245544e-03</internalNodes>
          <leafValues>
            -9.8096549510955811e-02 2.0135571062564850e-01</leafValues></_>
        <_>
          <internalNodes>
            0 -1 1361 1.8805254250764847e-02</internalNodes>
          <leafValues>
            -7.1602918207645416e-02 2.7709123492240906e-01</leafValues></_>
        <_>
          <internalNodes>
            0 -1 961 5.3431474952958524e-05</internalNodes>
          <leafValues>
            -1.8350547552108765e-01 1.1648820340633392e-01</leafValues></_>
        <_>
          <internalNodes>
            0 -1 1301 -4.3346681632101536e-03</internalNodes>
          <leafValues>
            -3.5487139225006104e-01 5.3941428661346436e-02</leafValues></_>
        <_>
          <internalNodes>
            0 -1 785 -2.2032208740711212e-02</internalNodes>
          <leafValues>
            2.6859325170516968e-01 -7.2728402912616730e-02</leafValues></_>
        <_>
          <internalNodes>
            0 -1 579 -6.7197434604167938e-02</internalNodes>
          <leafValues>
            7.6300829648971558e-01 -2.2771969437599182e-02</leafValues></_>
        <_>
          <internalNodes>
            0 -1 63 -5.1232846453785896e-04</internalNodes>
          <leafValues>
            -2.1613818407058716e-01 8.7262555956840515e-02</leafValues></_>
        <_>
          <internalNodes>
            0 -1 1144 4.9925539642572403e-03</internalNodes>
          <leafValues>
            3.9803497493267059e-02 -4.3294963240623474e-01</leafValues></_>
        <_>
          <internalNodes>
            0 -1 387 1.4124372601509094e-01</internalNodes>
          <leafValues>
            -3.4928489476442337e-02 5.1955121755599976e-01</leafValues></_>
        <_>
          <internalNodes>
            0 -1 1306 5.7097617536783218e-04</internalNodes>
          <leafValues>
            -1.5748685598373413e-01 1.3470113277435303e-01</leafValues></_>
        <_>
          <internalNodes>
            0 -1 1675 -1.2609227560460567e-03</internalNodes>
          <leafValues>
            1.6197699308395386e-01 -1.3615994155406952e-01</leafValues></_>
        <_>
          <internalNodes>
            0 -1 862 -2.1324465051293373e-03</internalNodes>
          <leafValues>
            1.7609165608882904e-01 -1.1071898788213730e-01</leafValues></_></weakClassifiers></_>
    <!-- stage 6 -->
    <_>
      <maxWeakCount>97</maxWeakCount>
      <stageThreshold>-1.3273890018463135e+00</stageThreshold>
      <weakClassifiers>
        <_>
          <internalNodes>
            0 -1 1423 8.2469452172517776e-04</internalNodes>
          <leafValues>
            -2.0474137738347054e-02 4.9118143320083618e-01</leafValues></_>
        <_>
          <internalNodes>
            0 -1 981 -3.6692380905151367e-02</internalNodes>
          <leafValues>
            4.3097534775733948e-01 -9.0953439474105835e-02</leafValues></_>
        <_>
          <internalNodes>
            0 -1 1385 -3.0196225270628929e-02</internalNodes>
          <leafValues>
            3.8407000899314880e-01 -1.2422575056552887e-01</leafValues></_>
        <_>
          <internalNodes>
            0 -1 1079 -1.4271079562604427e-02</internalNodes>
          <leafValues>
            3.0876338481903076e-01 -1.3206601142883301e-01</leafValues></_>
        <_>
          <internalNodes>
            0 -1 396 3.2180588692426682e-02</internalNodes>
          <leafValues>
            -1.4810802042484283e-01 3.5896900296211243e-01</leafValues></_>
        <_>
          <internalNodes>
            0 -1 416 -1.9115518778562546e-02</internalNodes>
          <leafValues>
            4.5044866204261780e-01 -6.1670597642660141e-02</leafValues></_>
        <_>
          <internalNodes>
            0 -1 302 1.4270694926381111e-02</internalNodes>
          <leafValues>
            -1.0651384294033051e-01 3.8116270303726196e-01</leafValues></_>
        <_>
          <internalNodes>
            0 -1 1325 4.8515040543861687e-04</internalNodes>
          <leafValues>
            9.5174476504325867e-02 -3.5608044266700745e-01</leafValues></_>
        <_>
          <internalNodes>
            0 -1 311 -1.3625682331621647e-02</internalNodes>
          <leafValues>
            3.4771984815597534e-01 -8.9981965720653534e-02</leafValues></_>
        <_>
          <internalNodes>
            0 -1 871 -1.0118924546986818e-03</internalNodes>
          <leafValues>
            -4.9624514579772949e-01 5.0254724919795990e-02</leafValues></_>
        <_>
          <internalNodes>
            0 -1 661 -1.9271962344646454e-02</internalNodes>
          <leafValues>
            2.9041710495948792e-01 -1.0169421881437302e-01</leafValues></_>
        <_>
          <internalNodes>
            0 -1 1758 9.1710994020104408e-03</internalNodes>
          <leafValues>
            -1.2156473100185394e-01 2.5750324130058289e-01</leafValues></_>
        <_>
          <internalNodes>
            0 -1 1371 5.1653925329446793e-03</internalNodes>
          <leafValues>
            -1.1881192028522491e-01 2.5120311975479126e-01</leafValues></_>
        <_>
          <internalNodes>
            0 -1 1361 -8.7727718055248260e-03</internalNodes>
          <leafValues>
            2.9383003711700439e-01 -1.1090370267629623e-01</leafValues></_>
        <_>
          <internalNodes>
            0 -1 1336 2.3129368200898170e-03</internalNodes>
          <leafValues>
            6.3385263085365295e-02 -4.7793635725975037e-01</leafValues></_>
        <_>
          <internalNodes>
            0 -1 1698 1.8489543348550797e-02</internalNodes>
          <leafValues>
            -7.8500337898731232e-02 3.9235603809356689e-01</leafValues></_>
        <_>
          <internalNodes>
            0 -1 1317 3.4340517595410347e-04</internalNodes>
          <leafValues>
            1.0394569486379623e-01 -2.9364204406738281e-01</leafValues></_>
        <_>
          <internalNodes>
            0 -1 1363 1.7476081848144531e-01</internalNodes>
          <leafValues>
            4.6984087675809860e-02 -5.1053088903427124e-01</leafValues></_>
        <_>
          <internalNodes>
            0 -1 944 4.1638515540398657e-04</internalNodes>
          <leafValues>
            -1.6000044345855713e-01 1.6754813492298126e-01</leafValues></_>
        <_>
          <internalNodes>
            0 -1 458 2.4692201986908913e-04</internalNodes>
          <leafValues>
            -1.7167000472545624e-01 1.6462734341621399e-01</leafValues></_>
        <_>
          <internalNodes>
            0 -1 411 4.0992186404764652e-03</internalNodes>
          <leafValues>
            -1.2636382877826691e-01 2.2301179170608521e-01</leafValues></_>
        <_>
          <internalNodes>
            0 -1 1024 5.7411947636865079e-05</internalNodes>
          <leafValues>
            -2.0736978948116302e-01 1.1606288701295853e-01</leafValues></_>
        <_>
          <internalNodes>
            0 -1 1437 -9.7346084658056498e-04</internalNodes>
          <leafValues>
            1.7588880658149719e-01 -1.3889776170253754e-01</leafValues></_>
        <_>
          <internalNodes>
            0 -1 1221 -8.3550289273262024e-03</internalNodes>
          <leafValues>
            -5.6382554769515991e-01 4.0837854146957397e-02</leafValues></_>
        <_>
          <internalNodes>
            0 -1 931 1.2079393491148949e-02</internalNodes>
          <leafValues>
            -6.5975897014141083e-02 4.0344247221946716e-01</leafValues></_>
        <_>
          <internalNodes>
            0 -1 1219 -5.3382334299385548e-03</internalNodes>
          <leafValues>
            -5.0040185451507568e-01 5.0149958580732346e-02</leafValues></_>
        <_>
          <internalNodes>
            0 -1 281 1.4146171510219574e-02</internalNodes>
          <leafValues>
            -8.7532080709934235e-02 2.7878776192665100e-01</leafValues></_>
        <_>
          <internalNodes>
            0 -1 493 -2.1244557574391365e-02</internalNodes>
          <leafValues>
            5.0624853372573853e-01 -4.3868314474821091e-02</leafValues></_>
        <_>
          <internalNodes>
            0 -1 1553 6.3074979698285460e-04</internalNodes>
          <leafValues>
            -1.6220366954803467e-01 1.4769785106182098e-01</leafValues></_>
        <_>
          <internalNodes>
            0 -1 847 -4.2618837207555771e-02</internalNodes>
          <leafValues>
            4.9124386906623840e-01 -5.2419196814298630e-02</leafValues></_>
        <_>
          <internalNodes>
            0 -1 1286 -1.4228200539946556e-02</internalNodes>
          <leafValues>
            -5.7769423723220825e-01 4.9353368580341339e-02</leafValues></_>
        <_>
          <internalNodes>
            0 -1 543 2.7740220539271832e-03</internalNodes>
          <leafValues>
            -7.5565315783023834e-02 3.1147369742393494e-01</leafValues></_>
        <_>
          <internalNodes>
            0 -1 1253 -6.2100365757942200e-03</internalNodes>
          <leafValues>
            -5.0280344486236572e-01 4.5033451169729233e-02</leafValues></_>
        <_>
          <internalNodes>
            0 -1 1176 5.8481330052018166e-03</internalNodes>
          <leafValues>
            -8.0541662871837616e-02 2.6628091931343079e-01</leafValues></_>
        <_>
          <internalNodes>
            0 -1 1396 2.2887173690833151e-04</internalNodes>
          <leafValues>
            -1.5638993680477142e-01 1.3326077163219452e-01</leafValues></_>
        <_>
          <internalNodes>
            0 -1 733 3.5797897726297379e-04</internalNodes>
          <leafValues>
            -1.2951782345771790e-01 1.6644191741943359e-01</leafValues></_>
        <_>
          <internalNodes>
            0 -1 305 2.2382449824362993e-03</internalNodes>
          <leafValues>
            -1.2661762535572052e-01 1.8384589254856110e-01</leafValues></_>
        <_>
          <internalNodes>
            0 -1 1303 3.6978174466639757e-04</internalNodes>
          <leafValues>
            9.4436623156070709e-02 -2.2362469136714935e-01</leafValues></_>
        <_>
          <internalNodes>
            0 -1 390 6.4197615720331669e-03</internalNodes>
          <leafValues>
            -1.1908319592475891e-01 1.8155810236930847e-01</leafValues></_>
        <_>
          <internalNodes>
            0 -1 1036 -6.1192237772047520e-03</internalNodes>
          <leafValues>
            2.5337287783622742e-01 -8.1239074468612671e-02</leafValues></_>
        <_>
          <internalNodes>
            0 -1 624 5.1047597080469131e-03</internalNodes>
          <leafValues>
            -1.0705883055925369e-01 2.0880188047885895e-01</leafValues></_>
        <_>
          <internalNodes>
            0 -1 89 -3.6635119467973709e-03</internalNodes>
          <leafValues>
            -2.4869273602962494e-01 9.1897457838058472e-02</leafValues></_>
        <_>
          <internalNodes>
            0 -1 444 -1.0036494582891464e-02</internalNodes>
          <leafValues>
            -4.3454712629318237e-01 5.0622265785932541e-02</leafValues></_>
        <_>
          <internalNodes>
            0 -1 1428 -4.6524032950401306e-03</internalNodes>
          <leafValues>
            -5.0126385688781738e-01 4.1576474905014038e-02</leafValues></_>
        <_>
          <internalNodes>
            0 -1 631 -1.2242718599736691e-02</internalNodes>
          <leafValues>
            3.2270267605781555e-01 -7.3697559535503387e-02</leafValues></_>
        <_>
          <internalNodes>
            0 -1 196 1.4161556959152222e-01</internalNodes>
          <leafValues>
            5.1062226295471191e-02 -4.3927690386772156e-01</leafValues></_>
        <_>
          <internalNodes>
            0 -1 259 3.9144018664956093e-03</internalNodes>
          <leafValues>
            -6.6487409174442291e-02 3.4499663114547729e-01</leafValues></_>
        <_>
          <internalNodes>
            0 -1 812 2.6447631535120308e-04</internalNodes>
          <leafValues>
            -1.3558898866176605e-01 1.4576812088489532e-01</leafValues></_>
        <_>
          <internalNodes>
            0 -1 217 1.4215514063835144e-02</internalNodes>
          <leafValues>
            -6.2045447528362274e-02 3.2744005322456360e-01</leafValues></_>
        <_>
          <internalNodes>
            0 -1 1572 -1.4607621356844902e-02</internalNodes>
          <leafValues>
            -4.5183187723159790e-01 4.5799709856510162e-02</leafValues></_>
        <_>
          <internalNodes>
            0 -1 1697 -2.6192094665020704e-03</internalNodes>
          <leafValues>
            1.9404816627502441e-01 -1.0620743036270142e-01</leafValues></_>
        <_>
          <internalNodes>
            0 -1 1102 4.7213147627189755e-04</internalNodes>
          <leafValues>
            -1.3882085680961609e-01 1.4805248379707336e-01</leafValues></_>
        <_>
          <internalNodes>
            0 -1 1207 -1.2575337663292885e-02</internalNodes>
          <leafValues>
            2.5854480266571045e-01 -9.8985515534877777e-02</leafValues></_>
        <_>
          <internalNodes>
            0 -1 1109 -6.9532133638858795e-03</internalNodes>
          <leafValues>
            -6.0199403762817383e-01 4.0858183056116104e-02</leafValues></_>
        <_>
          <internalNodes>
            0 -1 92 5.5890725925564766e-03</internalNodes>
          <leafValues>
            8.5714943706989288e-02 -2.4514418840408325e-01</leafValues></_>
        <_>
          <internalNodes>
            0 -1 1487 -1.0895931161940098e-02</internalNodes>
          <leafValues>
            2.3727387189865112e-01 -8.7808817625045776e-02</leafValues></_>
        <_>
          <internalNodes>
            0 -1 1382 9.8207928240299225e-03</internalNodes>
          <leafValues>
            6.0369838029146194e-02 -3.5893478989601135e-01</leafValues></_>
        <_>
          <internalNodes>
            0 -1 1533 7.1964238304644823e-04</internalNodes>
          <leafValues>
            1.0876715928316116e-01 -1.6819190979003906e-01</leafValues></_>
        <_>
          <internalNodes>
            0 -1 1227 2.8920944780111313e-02</internalNodes>
          <leafValues>
            -1.1365609616041183e-01 1.7589233815670013e-01</leafValues></_>
        <_>
          <internalNodes>
            0 -1 1285 -1.5900623053312302e-02</internalNodes>
          <leafValues>
            2.4490445852279663e-01 -8.1448718905448914e-02</leafValues></_>
        <_>
          <internalNodes>
            0 -1 587 -1.1083676479756832e-02</internalNodes>
          <leafValues>
            -5.9255158901214600e-01 3.5653688013553619e-02</leafValues></_>
        <_>
          <internalNodes>
            0 -1 100 1.2445840984582901e-02</internalNodes>
          <leafValues>
            -7.5669556856155396e-02 2.6019629836082458e-01</leafValues></_>
        <_>
          <internalNodes>
            0 -1 48 -9.5461800694465637e-02</internalNodes>
          <leafValues>
            3.0268105864524841e-01 -6.2893450260162354e-02</leafValues></_>
        <_>
          <internalNodes>
            0 -1 85 8.7057929486036301e-03</internalNodes>
          <leafValues>
            -9.4991892576217651e-02 2.4200081825256348e-01</leafValues></_>
        <_>
          <internalNodes>
            0 -1 379 4.3457597494125366e-03</internalNodes>
          <leafValues>
            -6.8279460072517395e-02 2.7440920472145081e-01</leafValues></_>
        <_>
          <internalNodes>
            0 -1 1312 -6.4089545048773289e-03</internalNodes>
          <leafValues>
            -6.2024295330047607e-01 3.1837966293096542e-02</leafValues></_>
        <_>
          <internalNodes>
            0 -1 361 5.7174880057573318e-03</internalNodes>
          <leafValues>
            -6.2544927000999451e-02 3.1872481107711792e-01</leafValues></_>
        <_>
          <internalNodes>
            0 -1 1588 -4.6562752686440945e-05</internalNodes>
          <leafValues>
            1.2260113656520844e-01 -1.5318967401981354e-01</leafValues></_>
        <_>
          <internalNodes>
            0 -1 1727 -7.2876675985753536e-03</internalNodes>
          <leafValues>
            2.5827637314796448e-01 -7.2297364473342896e-02</leafValues></_>
        <_>
          <internalNodes>
            0 -1 240 9.0363249182701111e-03</internalNodes>
          <leafValues>
            -7.0780709385871887e-02 2.3708598315715790e-01</leafValues></_>
        <_>
          <internalNodes>
            0 -1 1060 1.2936724815517664e-03</internalNodes>
          <leafValues>
            -9.3246735632419586e-02 1.8800622224807739e-01</leafValues></_>
        <_>
          <internalNodes>
            0 -1 1180 2.4717278778553009e-02</internalNodes>
          <leafValues>
            3.2935749739408493e-02 -6.1953014135360718e-01</leafValues></_>
        <_>
          <internalNodes>
            0 -1 1568 1.8165768124163151e-03</internalNodes>
          <leafValues>
            4.1091684252023697e-02 -4.1049385070800781e-01</leafValues></_>
        <_>
          <internalNodes>
            0 -1 896 3.8238407578319311e-03</internalNodes>
          <leafValues>
            7.9615436494350433e-02 -2.0213596522808075e-01</leafValues></_>
        <_>
          <internalNodes>
            0 -1 656 7.0270225405693054e-02</internalNodes>
          <leafValues>
            3.3259976655244827e-02 -4.7691676020622253e-01</leafValues></_>
        <_>
          <internalNodes>
            0 -1 88 4.8116472316905856e-04</internalNodes>
          <leafValues>
            7.0735439658164978e-02 -2.3541921377182007e-01</leafValues></_>
        <_>
          <internalNodes>
            0 -1 88 -3.9856613148003817e-04</internalNodes>
          <leafValues>
            -2.5966268777847290e-01 8.7462611496448517e-02</leafValues></_>
        <_>
          <internalNodes>
            0 -1 467 2.6644754689186811e-03</internalNodes>
          <leafValues>
            -6.3327409327030182e-02 2.6503342390060425e-01</leafValues></_>
        <_>
          <internalNodes>
            0 -1 736 -7.0508504286408424e-03</internalNodes>
          <leafValues>
            2.2937723994255066e-01 -8.8994085788726807e-02</leafValues></_>
        <_>
          <internalNodes>
            0 -1 757 -2.0790467970073223e-03</internalNodes>
          <leafValues>
            -4.1731923818588257e-01 4.3304402381181717e-02</leafValues></_>
        <_>
          <internalNodes>
            0 -1 608 2.2839114535599947e-03</internalNodes>
          <leafValues>
            -1.0253481566905975e-01 1.6698838770389557e-01</leafValues></_>
        <_>
          <internalNodes>
            0 -1 1248 4.5109470374882221e-04</internalNodes>
          <leafValues>
            -1.6692489385604858e-01 1.1676663160324097e-01</leafValues></_>
        <_>
          <internalNodes>
            0 -1 1124 -7.9054450616240501e-03</internalNodes>
          <leafValues>
            3.1487241387367249e-01 -6.3889473676681519e-02</leafValues></_>
        <_>
          <internalNodes>
            0 -1 1029 -1.2423153966665268e-03</internalNodes>
          <leafValues>
            -2.3765419423580170e-01 7.8753851354122162e-02</leafValues></_>
        <_>
          <internalNodes>
            0 -1 168 1.9877741578966379e-03</internalNodes>
          <leafValues>
            -1.1639887839555740e-01 1.5230038762092590e-01</leafValues></_>
        <_>
          <internalNodes>
            0 -1 718 1.9679524004459381e-02</internalNodes>
          <leafValues>
            8.1358894705772400e-02 -2.0535869896411896e-01</leafValues></_>
        <_>
          <internalNodes>
            0 -1 569 -1.8897084519267082e-03</internalNodes>
          <leafValues>
            1.8501590192317963e-01 -9.1504141688346863e-02</leafValues></_>
        <_>
          <internalNodes>
            0 -1 1613 3.0920842662453651e-02</internalNodes>
          <leafValues>
            5.5974110960960388e-02 -3.4555214643478394e-01</leafValues></_>
        <_>
          <internalNodes>
            0 -1 1112 4.3557712342590094e-04</internalNodes>
          <leafValues>
            -1.4553561806678772e-01 1.3089093565940857e-01</leafValues></_>
        <_>
          <internalNodes>
            0 -1 606 2.6132687926292419e-02</internalNodes>
          <leafValues>
            3.8293164223432541e-02 -4.8850241303443909e-01</leafValues></_>
        <_>
          <internalNodes>
            0 -1 1604 7.1692676283419132e-03</internalNodes>
          <leafValues>
            4.1548140347003937e-02 -3.9300933480262756e-01</leafValues></_>
        <_>
          <internalNodes>
            0 -1 1498 3.5508568398654461e-03</internalNodes>
          <leafValues>
            -6.1764087527990341e-02 2.9029393196105957e-01</leafValues></_>
        <_>
          <internalNodes>
            0 -1 839 4.6231504529714584e-03</internalNodes>
          <leafValues>
            -6.9039076566696167e-02 2.4101676046848297e-01</leafValues></_>
        <_>
          <internalNodes>
            0 -1 1153 3.4101959317922592e-04</internalNodes>
          <leafValues>
            -1.8613603711128235e-01 1.5249955654144287e-01</leafValues></_>
        <_>
          <internalNodes>
            0 -1 877 -7.0504005998373032e-03</internalNodes>
          <leafValues>
            -7.8938627243041992e-01 2.4493478238582611e-02</leafValues></_>
        <_>
          <internalNodes>
            0 -1 1574 1.2172416318207979e-03</internalNodes>
          <leafValues>
            3.2704666256904602e-02 -4.5489814877510071e-01</leafValues></_>
        <_>
          <internalNodes>
            0 -1 185 2.2578838467597961e-01</internalNodes>
          <leafValues>
            4.4614955782890320e-02 -3.5989046096801758e-01</leafValues></_></weakClassifiers></_>
    <!-- stage 7 -->
    <_>
      <maxWeakCount>100</maxWeakCount>
      <stageThreshold>-1.4241402149200439e+00</stageThreshold>
      <weakClassifiers>
        <_>
          <internalNodes>
            0 -1 872 1.9650871763587929e-05</internalNodes>
          <leafValues>
            3.4810125827789307e-02 5.0700503587722778e-01</leafValues></_>
        <_>
          <internalNodes>
            0 -1 1577 -2.3217820853460580e-05</internalNodes>
          <leafValues>
            1.8735727667808533e-01 -2.8623545169830322e-01</leafValues></_>
        <_>
          <internalNodes>
            0 -1 1192 5.4092500358819962e-02</internalNodes>
          <leafValues>
            -8.2753770053386688e-02 4.7134336829185486e-01</leafValues></_>
        <_>
          <internalNodes>
            0 -1 1485 -1.5350347757339478e-01</internalNodes>
          <leafValues>
            5.3910028934478760e-01 -1.0093647241592407e-01</leafValues></_>
        <_>
          <internalNodes>
            0 -1 468 -2.7342539280653000e-02</internalNodes>
          <leafValues>
            3.6563342809677124e-01 -1.2329709529876709e-01</leafValues></_>
        <_>
          <internalNodes>
            0 -1 752 -1.1562253348529339e-02</internalNodes>
          <leafValues>
            3.3747237920761108e-01 -1.0562152415513992e-01</leafValues></_>
        <_>
          <internalNodes>
            0 -1 1241 -4.4578831642866135e-02</internalNodes>
          <leafValues>
            2.9321572184562683e-01 -1.2153494358062744e-01</leafValues></_>
        <_>
          <internalNodes>
            0 -1 1585 4.9283342377748340e-05</internalNodes>
          <leafValues>
            -1.9074092805385590e-01 1.7002891004085541e-01</leafValues></_>
        <_>
          <internalNodes>
            0 -1 1451 -1.3100157957524061e-04</internalNodes>
          <leafValues>
            1.9423307478427887e-01 -1.7121800780296326e-01</leafValues></_>
        <_>
          <internalNodes>
            0 -1 607 3.4754464286379516e-04</internalNodes>
          <leafValues>
            -2.1109116077423096e-01 1.6028837859630585e-01</leafValues></_>
        <_>
          <internalNodes>
            0 -1 1156 4.1814811993390322e-04</internalNodes>
          <leafValues>
            1.0918722301721573e-01 -3.0079081654548645e-01</leafValues></_>
        <_>
          <internalNodes>
            0 -1 715 -1.8853098154067993e-02</internalNodes>
          <leafValues>
            2.7882948517799377e-01 -9.8875924944877625e-02</leafValues></_>
        <_>
          <internalNodes>
            0 -1 300 3.9415895938873291e-02</internalNodes>
          <leafValues>
            -1.0924691706895828e-01 2.8339496254920959e-01</leafValues></_>
        <_>
          <internalNodes>
            0 -1 1162 6.7262584343552589e-04</internalNodes>
          <leafValues>
            1.1418160051107407e-01 -2.6702028512954712e-01</leafValues></_>
        <_>
          <internalNodes>
            0 -1 76 1.0671354830265045e-01</internalNodes>
          <leafValues>
            4.2326424270868301e-02 -5.2244681119918823e-01</leafValues></_>
        <_>
          <internalNodes>
            0 -1 495 1.4975355938076973e-02</internalNodes>
          <leafValues>
            4.7428656369447708e-02 -5.0285756587982178e-01</leafValues></_>
        <_>
          <internalNodes>
            0 -1 678 8.1617765128612518e-02</internalNodes>
          <leafValues>
            3.5100571811199188e-02 -6.0488802194595337e-01</leafValues></_>
        <_>
          <internalNodes>
            0 -1 1473 2.2188469301909208e-03</internalNodes>
          <leafValues>
            3.9370771497488022e-02 -5.2912092208862305e-01</leafValues></_>
        <_>
          <internalNodes>
            0 -1 781 3.3148960210382938e-03</internalNodes>
          <leafValues>
            -9.3355253338813782e-02 2.5294896960258484e-01</leafValues></_>
        <_>
          <internalNodes>
            0 -1 496 -6.3766548410058022e-03</internalNodes>
          <leafValues>
            4.0045353770256042e-01 -7.3040738701820374e-02</leafValues></_>
        <_>
          <internalNodes>
            0 -1 621 -2.0027166101499461e-05</internalNodes>
          <leafValues>
            1.5793168544769287e-01 -1.3997283577919006e-01</leafValues></_>
        <_>
          <internalNodes>
            0 -1 227 -2.2828495129942894e-03</internalNodes>
          <leafValues>
            3.0244237184524536e-01 -9.2435419559478760e-02</leafValues></_>
        <_>
          <internalNodes>
            0 -1 1554 8.1761064939200878e-04</internalNodes>
          <leafValues>
            1.0497161000967026e-01 -1.9853340089321136e-01</leafValues></_>
        <_>
          <internalNodes>
            0 -1 1535 6.4672216773033142e-02</internalNodes>
          <leafValues>
            -6.7061953246593475e-02 4.1676339507102966e-01</leafValues></_>
        <_>
          <internalNodes>
            0 -1 1409 1.7744812648743391e-03</internalNodes>
          <leafValues>
            9.2973522841930389e-02 -2.3943714797496796e-01</leafValues></_>
        <_>
          <internalNodes>
            0 -1 1539 -5.9411302208900452e-04</internalNodes>
          <leafValues>
            2.0107343792915344e-01 -1.2763048708438873e-01</leafValues></_>
        <_>
          <internalNodes>
            0 -1 1718 -8.9242341346107423e-05</internalNodes>
          <leafValues>
            1.4594106376171112e-01 -1.4769797027111053e-01</leafValues></_>
        <_>
          <internalNodes>
            0 -1 1121 4.2678599129430950e-05</internalNodes>
          <leafValues>
            -1.8886889517307281e-01 1.1212856322526932e-01</leafValues></_>
        <_>
          <internalNodes>
            0 -1 1390 5.4796077311038971e-03</internalNodes>
          <leafValues>
            6.5676830708980560e-02 -3.8323730230331421e-01</leafValues></_>
        <_>
          <internalNodes>
            0 -1 660 1.6850769519805908e-02</internalNodes>
          <leafValues>
            -8.9436374604701996e-02 3.0757108330726624e-01</leafValues></_>
        <_>
          <internalNodes>
            0 -1 539 2.3011736571788788e-02</internalNodes>
          <leafValues>
            -7.6569877564907074e-02 3.1902292370796204e-01</leafValues></_>
        <_>
          <internalNodes>
            0 -1 205 4.0709521621465683e-02</internalNodes>
          <leafValues>
            4.4131465256214142e-02 -5.4002571105957031e-01</leafValues></_>
        <_>
          <internalNodes>
            0 -1 389 9.5359776169061661e-03</internalNodes>
          <leafValues>
            -8.7680242955684662e-02 2.5854548811912537e-01</leafValues></_>
        <_>
          <internalNodes>
            0 -1 582 6.0396989283617586e-05</internalNodes>
          <leafValues>
            -1.4463855326175690e-01 1.5550680458545685e-01</leafValues></_>
        <_>
          <internalNodes>
            0 -1 568 2.9484149999916553e-03</internalNodes>
          <leafValues>
            -1.0526540130376816e-01 2.7213165163993835e-01</leafValues></_>
        <_>
          <internalNodes>
            0 -1 1135 -5.6488490663468838e-03</internalNodes>
          <leafValues>
            -2.4820901453495026e-01 1.0213968902826309e-01</leafValues></_>
        <_>
          <internalNodes>
            0 -1 728 5.1533061196096241e-05</internalNodes>
          <leafValues>
            -1.6025809943675995e-01 1.6359151899814606e-01</leafValues></_>
        <_>
          <internalNodes>
            0 -1 219 -1.7117584357038140e-03</internalNodes>
          <leafValues>
            2.1207940578460693e-01 -9.5176376402378082e-02</leafValues></_>
        <_>
          <internalNodes>
            0 -1 1435 1.1392552405595779e-02</internalNodes>
          <leafValues>
            7.1615129709243774e-02 -2.7521038055419922e-01</leafValues></_>
        <_>
          <internalNodes>
            0 -1 562 4.5611258596181870e-02</internalNodes>
          <leafValues>
            4.8697572201490402e-02 -3.9540448784828186e-01</leafValues></_>
        <_>
          <internalNodes>
            0 -1 2 1.5927394852042198e-03</internalNodes>
          <leafValues>
            7.6621957123279572e-02 -2.5318360328674316e-01</leafValues></_>
        <_>
          <internalNodes>
            0 -1 547 -4.0757930837571621e-03</internalNodes>
          <leafValues>
            2.8401017189025879e-01 -7.0472650229930878e-02</leafValues></_>
        <_>
          <internalNodes>
            0 -1 203 3.9618206210434437e-03</internalNodes>
          <leafValues>
            -1.0941705107688904e-01 1.7672708630561829e-01</leafValues></_>
        <_>
          <internalNodes>
            0 -1 518 -4.9000664148479700e-04</internalNodes>
          <leafValues>
            1.8008647859096527e-01 -1.0957027971744537e-01</leafValues></_>
        <_>
          <internalNodes>
            0 -1 349 -5.5990330874919891e-03</internalNodes>
          <leafValues>
            2.7219203114509583e-01 -8.4101535379886627e-02</leafValues></_>
        <_>
          <internalNodes>
            0 -1 1202 -1.2585019692778587e-02</internalNodes>
          <leafValues>
            -4.0404099225997925e-01 5.4288867861032486e-02</leafValues></_>
        <_>
          <internalNodes>
            0 -1 697 7.4240356683731079e-02</internalNodes>
          <leafValues>
            -9.0340144932270050e-02 2.2597928345203400e-01</leafValues></_>
        <_>
          <internalNodes>
            0 -1 1138 -1.7225423362106085e-03</internalNodes>
          <leafValues>
            1.6654893755912781e-01 -1.4956314861774445e-01</leafValues></_>
        <_>
          <internalNodes>
            0 -1 1555 1.3473599683493376e-03</internalNodes>
          <leafValues>
            -1.6896399855613708e-01 1.1877065896987915e-01</leafValues></_>
        <_>
          <internalNodes>
            0 -1 1142 -2.1466875914484262e-03</internalNodes>
          <leafValues>
            -3.1169542670249939e-01 6.0264825820922852e-02</leafValues></_>
        <_>
          <internalNodes>
            0 -1 344 -3.4793301019817591e-03</internalNodes>
          <leafValues>
            2.0397849380970001e-01 -9.6493735909461975e-02</leafValues></_>
        <_>
          <internalNodes>
            0 -1 640 2.5281510315835476e-03</internalNodes>
          <leafValues>
            -1.3730041682720184e-01 1.9348676502704620e-01</leafValues></_>
        <_>
          <internalNodes>
            0 -1 1269 -4.5874519273638725e-03</internalNodes>
          <leafValues>
            -3.7206792831420898e-01 5.4830480366945267e-02</leafValues></_>
        <_>
          <internalNodes>
            0 -1 982 -1.1818893253803253e-02</internalNodes>
          <leafValues>
            2.8667375445365906e-01 -8.0429315567016602e-02</leafValues></_>
        <_>
          <internalNodes>
            0 -1 885 -1.4027776196599007e-03</internalNodes>
          <leafValues>
            -3.9412835240364075e-01 4.9390032887458801e-02</leafValues></_>
        <_>
          <internalNodes>
            0 -1 552 -1.8867428880184889e-03</internalNodes>
          <leafValues>
            2.7246573567390442e-01 -6.9888517260551453e-02</leafValues></_>
        <_>
          <internalNodes>
            0 -1 1371 4.7023547813296318e-03</internalNodes>
          <leafValues>
            -9.7750239074230194e-02 1.9332070648670197e-01</leafValues></_>
        <_>
          <internalNodes>
            0 -1 1206 1.8185269087553024e-02</internalNodes>
          <leafValues>
            -9.7839541733264923e-02 2.5944864749908447e-01</leafValues></_>
        <_>
          <internalNodes>
            0 -1 1706 -4.2941216379404068e-03</internalNodes>
          <leafValues>
            -2.6499623060226440e-01 7.0909917354583740e-02</leafValues></_>
        <_>
          <internalNodes>
            0 -1 903 -2.4100761860609055e-02</internalNodes>
          <leafValues>
            4.1014534235000610e-01 -4.5405991375446320e-02</leafValues></_>
        <_>
          <internalNodes>
            0 -1 886 1.9813738763332367e-03</internalNodes>
          <leafValues>
            -6.5612956881523132e-02 2.7688738703727722e-01</leafValues></_>
        <_>
          <internalNodes>
            0 -1 233 4.7378633171319962e-03</internalNodes>
          <leafValues>
            6.5119475126266479e-02 -2.7251490950584412e-01</leafValues></_>
        <_>
          <internalNodes>
            0 -1 159 -4.5041003613732755e-04</internalNodes>
          <leafValues>
            -2.0903238654136658e-01 8.5523888468742371e-02</leafValues></_>
        <_>
          <internalNodes>
            0 -1 1050 4.9815243110060692e-03</internalNodes>
          <leafValues>
            -1.0379292070865631e-01 1.7389684915542603e-01</leafValues></_>
        <_>
          <internalNodes>
            0 -1 381 -5.6029227562248707e-03</internalNodes>
          <leafValues>
            2.7773815393447876e-01 -6.2916465103626251e-02</leafValues></_>
        <_>
          <internalNodes>
            0 -1 1162 -9.8560471087694168e-04</internalNodes>
          <leafValues>
            -2.3815803229808807e-01 8.7475523352622986e-02</leafValues></_>
        <_>
          <internalNodes>
