<?xml version="1.0"?>
<opencv_storage>
<cascade>
  <stageType>BOOST</stageType>
  <featureType>HAAR</featureType>
  <height>40</height>
  <width>20</width>
  <stageParams>
    <boostType>GAB</boostType>
    <minHitRate>9.9900001287460327e-01</minHitRate>
    <maxFalseAlarm>5.0000000000000000e-01</maxFalseAlarm>
    <weightTrimRate>9.4999999999999996e-01</weightTrimRate>
    <maxDepth>1</maxDepth>
    <maxWeakCount>100</maxWeakCount></stageParams>
  <featureParams>
    <maxCatCount>0</maxCatCount>
    <featSize>1</featSize>
    <mode>ALL</mode></featureParams>
  <stageNum>25</stageNum>
  <stages>
    <!-- stage 0 -->
    <_>
      <maxWeakCount>38</maxWeakCount>
      <stageThreshold>-1.6010062694549561e+00</stageThreshold>
      <weakClassifiers>
        <_>
          <internalNodes>
            0 -1 33 8.8510796427726746e-02</internalNodes>
          <leafValues>
            -1.1243718862533569e-01 8.3706867694854736e-01</leafValues></_>
        <_>
          <internalNodes>
            0 -1 996 3.2087056897580624e-03</internalNodes>
          <leafValues>
            -1.8088774383068085e-01 4.8966759443283081e-01</leafValues></_>
        <_>
          <internalNodes>
            0 -1 40 1.3437493145465851e-01</internalNodes>
          <leafValues>
            -1.5867879986763000e-01 6.5414828062057495e-01</leafValues></_>
        <_>
          <internalNodes>
            0 -1 248 -9.2568565160036087e-03</internalNodes>
          <leafValues>
            5.2957355976104736e-01 -1.7717109620571136e-01</leafValues></_>
        <_>
          <internalNodes>
            0 -1 1409 2.2672291845083237e-02</internalNodes>
          <leafValues>
            -1.7090183496475220e-01 5.1515817642211914e-01</leafValues></_>
        <_>
          <internalNodes>
            0 -1 933 -5.7044909335672855e-03</internalNodes>
          <leafValues>
            5.0466567277908325e-01 -1.2264518439769745e-01</leafValues></_>
        <_>
          <internalNodes>
            0 -1 1321 -5.0365030765533447e-03</internalNodes>
          <leafValues>
            4.6028575301170349e-01 -1.6180631518363953e-01</leafValues></_>
        <_>
          <internalNodes>
            0 -1 613 -1.6696341335773468e-03</internalNodes>
          <leafValues>
            3.9032188057899475e-01 -1.7402358353137970e-01</leafValues></_>
        <_>
          <internalNodes>
            0 -1 244 -2.1830338984727859e-02</internalNodes>
          <leafValues>
            -6.1614298820495605e-01 1.2235679477453232e-01</leafValues></_>
        <_>
          <internalNodes>
            0 -1 1658 1.5411591157317162e-02</internalNodes>
          <leafValues>
            -1.3840919733047485e-01 4.5306834578514099e-01</leafValues></_>
        <_>
          <internalNodes>
            0 -1 986 -4.1563408449292183e-03</internalNodes>
          <leafValues>
            5.1557040214538574e-01 -9.5015086233615875e-02</leafValues></_>
        <_>
          <internalNodes>
            0 -1 1688 -5.1686316728591919e-03</internalNodes>
          <leafValues>
            3.8859421014785767e-01 -1.1484310030937195e-01</leafValues></_>
        <_>
          <internalNodes>
            0 -1 279 -1.0889438912272453e-02</internalNodes>
          <leafValues>
            3.4773582220077515e-01 -1.3791660964488983e-01</leafValues></_>
        <_>
          <internalNodes>
            0 -1 1500 -8.4640849381685257e-03</internalNodes>
          <leafValues>
            4.5297387242317200e-01 -8.1233128905296326e-02</leafValues></_>
        <_>
          <internalNodes>
            0 -1 837 5.1974412053823471e-04</internalNodes>
          <leafValues>
            -1.3772144913673401e-01 2.8004220128059387e-01</leafValues></_>
        <_>
          <internalNodes>
            0 -1 817 3.1592965126037598e-02</internalNodes>
          <leafValues>
            7.3031924664974213e-02 -6.0365968942642212e-01</leafValues></_>
        <_>
          <internalNodes>
            0 -1 318 -8.7785825133323669e-02</internalNodes>
          <leafValues>
            -5.7001060247421265e-01 6.3864395022392273e-02</leafValues></_>
        <_>
          <internalNodes>
            0 -1 846 -1.7894110642373562e-03</internalNodes>
          <leafValues>
            2.9989188909530640e-01 -1.3174286484718323e-01</leafValues></_>
        <_>
          <internalNodes>
            0 -1 394 5.1319301128387451e-03</internalNodes>
          <leafValues>
            6.6806353628635406e-02 -6.1890649795532227e-01</leafValues></_>
        <_>
          <internalNodes>
            0 -1 90 -5.8966188225895166e-04</internalNodes>
          <leafValues>
            -3.9398133754730225e-01 8.5677213966846466e-02</leafValues></_>
        <_>
          <internalNodes>
            0 -1 1812 -5.3384387865662575e-03</internalNodes>
          <leafValues>
            3.7834236025810242e-01 -9.8118439316749573e-02</leafValues></_>
        <_>
          <internalNodes>
            0 -1 2016 4.1419826447963715e-04</internalNodes>
          <leafValues>
            8.9347228407859802e-02 -4.0757331252098083e-01</leafValues></_>
        <_>
          <internalNodes>
            0 -1 516 -4.1950154118239880e-03</internalNodes>
          <leafValues>
            -5.1490563154220581e-01 5.9675365686416626e-02</leafValues></_>
        <_>
          <internalNodes>
            0 -1 1570 -1.1848818976432085e-03</internalNodes>
          <leafValues>
            2.9810020327568054e-01 -1.1651556938886642e-01</leafValues></_>
        <_>
          <internalNodes>
            0 -1 1823 4.3682539835572243e-03</internalNodes>
          <leafValues>
            -1.0976065695285797e-01 2.9132169485092163e-01</leafValues></_>
        <_>
          <internalNodes>
            0 -1 1109 -2.5885406881570816e-02</internalNodes>
          <leafValues>
            3.1284230947494507e-01 -1.0344342142343521e-01</leafValues></_>
        <_>
          <internalNodes>
            0 -1 1983 1.4405326917767525e-02</internalNodes>
          <leafValues>
            -1.0746547579765320e-01 3.5848277807235718e-01</leafValues></_>
        <_>
          <internalNodes>
            0 -1 106 2.1538307191804051e-04</internalNodes>
          <leafValues>
            1.0611122101545334e-01 -3.1218391656875610e-01</leafValues></_>
        <_>
          <internalNodes>
            0 -1 271 -5.7509429752826691e-03</internalNodes>
          <leafValues>
            -4.6455988287925720e-01 5.8000646531581879e-02</leafValues></_>
        <_>
          <internalNodes>
            0 -1 1217 1.2195705203339458e-03</internalNodes>
          <leafValues>
            -1.4022639393806458e-01 2.1496523916721344e-01</leafValues></_>
        <_>
          <internalNodes>
            0 -1 1083 3.1350873177871108e-04</internalNodes>
          <leafValues>
            -1.2594032287597656e-01 2.3845344781875610e-01</leafValues></_>
        <_>
          <internalNodes>
            0 -1 1858 6.3172075897455215e-04</internalNodes>
          <leafValues>
            6.7971393465995789e-02 -4.2869448661804199e-01</leafValues></_>
        <_>
          <internalNodes>
            0 -1 755 7.6402199920266867e-04</internalNodes>
          <leafValues>
            -1.2052676826715469e-01 2.6319196820259094e-01</leafValues></_>
        <_>
          <internalNodes>
            0 -1 1554 8.5661251796409488e-04</internalNodes>
          <leafValues>
            -1.1455036699771881e-01 2.3788271844387054e-01</leafValues></_>
        <_>
          <internalNodes>
            0 -1 203 5.9374875854700804e-04</internalNodes>
          <leafValues>
            6.7163646221160889e-02 -4.3001928925514221e-01</leafValues></_>
        <_>
          <internalNodes>
            0 -1 866 -2.5863396003842354e-03</internalNodes>
          <leafValues>
            2.0103429257869720e-01 -1.2787149846553802e-01</leafValues></_>
        <_>
          <internalNodes>
            0 -1 1038 5.3230833262205124e-02</internalNodes>
          <leafValues>
            -2.7033301070332527e-02 8.6903828382492065e-01</leafValues></_>
        <_>
          <internalNodes>
            0 -1 700 2.6773642748594284e-02</internalNodes>
          <leafValues>
            -4.6727102249860764e-02 4.9338144063949585e-01</leafValues></_></weakClassifiers></_>
    <!-- stage 1 -->
    <_>
      <maxWeakCount>67</maxWeakCount>
      <stageThreshold>-1.6784539222717285e+00</stageThreshold>
      <weakClassifiers>
        <_>
          <internalNodes>
            0 -1 323 6.3080474734306335e-02</internalNodes>
          <leafValues>
            -1.6440752148628235e-01 6.3942825794219971e-01</leafValues></_>
        <_>
          <internalNodes>
            0 -1 41 1.4812768995761871e-01</internalNodes>
          <leafValues>
            -1.4631687104701996e-01 6.6756021976470947e-01</leafValues></_>
        <_>
          <internalNodes>
            0 -1 1487 -7.1182912215590477e-03</internalNodes>
          <leafValues>
            5.0757783651351929e-01 -1.0238846391439438e-01</leafValues></_>
        <_>
          <internalNodes>
            0 -1 1306 -7.2907116264104843e-03</internalNodes>
          <leafValues>
            5.2880841493606567e-01 -1.4200410246849060e-01</leafValues></_>
        <_>
          <internalNodes>
            0 -1 1050 -6.1153611168265343e-03</internalNodes>
          <leafValues>
            4.7579360008239746e-01 -1.1505301296710968e-01</leafValues></_>
        <_>
          <internalNodes>
            0 -1 1056 2.0172614604234695e-03</internalNodes>
          <leafValues>
            -1.4092655479907990e-01 3.8814234733581543e-01</leafValues></_>
        <_>
          <internalNodes>
            0 -1 302 7.5722783803939819e-02</internalNodes>
          <leafValues>
            -1.3526883721351624e-01 4.0168592333793640e-01</leafValues></_>
        <_>
          <internalNodes>
            0 -1 352 -6.8952105939388275e-03</internalNodes>
          <leafValues>
            3.5975897312164307e-01 -1.5096117556095123e-01</leafValues></_>
        <_>
          <internalNodes>
            0 -1 983 6.4106449484825134e-02</internalNodes>
          <leafValues>
            6.5689958631992340e-02 -7.2795706987380981e-01</leafValues></_>
        <_>
          <internalNodes>
            0 -1 942 1.5153530985116959e-03</internalNodes>
          <leafValues>
            1.5446871519088745e-01 -3.0839613080024719e-01</leafValues></_>
        <_>
          <internalNodes>
            0 -1 587 -5.1490422338247299e-03</internalNodes>
          <leafValues>
            3.6341044306755066e-01 -1.3870346546173096e-01</leafValues></_>
        <_>
          <internalNodes>
            0 -1 1939 4.6012029051780701e-03</internalNodes>
          <leafValues>
            -8.9501641690731049e-02 4.3615162372589111e-01</leafValues></_>
        <_>
          <internalNodes>
            0 -1 1022 4.3701838701963425e-02</internalNodes>
          <leafValues>
            5.5747158825397491e-02 -7.1017521619796753e-01</leafValues></_>
        <_>
          <internalNodes>
            0 -1 1241 2.3380471393465996e-02</internalNodes>
          <leafValues>
            -1.0040941834449768e-01 3.8195103406906128e-01</leafValues></_>
        <_>
          <internalNodes>
            0 -1 1037 -1.7571020871400833e-02</internalNodes>
          <leafValues>
            3.4662961959838867e-01 -1.2109099328517914e-01</leafValues></_>
        <_>
          <internalNodes>
            0 -1 818 -4.9177221953868866e-03</internalNodes>
          <leafValues>
            -2.5056058168411255e-01 1.5769788622856140e-01</leafValues></_>
        <_>
          <internalNodes>
            0 -1 191 2.0112084224820137e-02</internalNodes>
          <leafValues>
            7.4665144085884094e-02 -6.0721737146377563e-01</leafValues></_>
        <_>
          <internalNodes>
            0 -1 1265 1.4184294268488884e-03</internalNodes>
          <leafValues>
            -1.3819187879562378e-01 2.8529369831085205e-01</leafValues></_>
        <_>
          <internalNodes>
            0 -1 1040 2.4756696075201035e-03</internalNodes>
          <leafValues>
            -1.0297536104917526e-01 3.1860542297363281e-01</leafValues></_>
        <_>
          <internalNodes>
            0 -1 146 -5.4263556376099586e-04</internalNodes>
          <leafValues>
            -3.1591919064521790e-01 1.0408300906419754e-01</leafValues></_>
        <_>
          <internalNodes>
            0 -1 1743 1.2047879397869110e-02</internalNodes>
          <leafValues>
            -7.1813516318798065e-02 4.4851440191268921e-01</leafValues></_>
        <_>
          <internalNodes>
            0 -1 1134 -6.3874144107103348e-03</internalNodes>
          <leafValues>
            3.6485058069229126e-01 -7.7630251646041870e-02</leafValues></_>
        <_>
          <internalNodes>
            0 -1 934 -1.0575635358691216e-02</internalNodes>
          <leafValues>
            5.8584201335906982e-01 -6.1703335493803024e-02</leafValues></_>
        <_>
          <internalNodes>
            0 -1 221 7.5343534350395203e-02</internalNodes>
          <leafValues>
            6.2853954732418060e-02 -6.3629257678985596e-01</leafValues></_>
        <_>
          <internalNodes>
            0 -1 1635 -9.2913908883929253e-04</internalNodes>
          <leafValues>
            3.0606603622436523e-01 -1.0579733550548553e-01</leafValues></_>
        <_>
          <internalNodes>
            0 -1 146 4.7723320312798023e-04</internalNodes>
          <leafValues>
            1.0746236145496368e-01 -2.8387507796287537e-01</leafValues></_>
        <_>
          <internalNodes>
            0 -1 2070 -3.5433445591479540e-03</internalNodes>
          <leafValues>
            4.6048367023468018e-01 -6.5577879548072815e-02</leafValues></_>
        <_>
          <internalNodes>
            0 -1 250 -3.9787050336599350e-02</internalNodes>
          <leafValues>
            -5.3375703096389771e-01 5.4374855011701584e-02</leafValues></_>
        <_>
          <internalNodes>
            0 -1 1425 -3.0170506797730923e-03</internalNodes>
          <leafValues>
            2.1043480932712555e-01 -1.3964316248893738e-01</leafValues></_>
        <_>
          <internalNodes>
            0 -1 1474 -1.6207790002226830e-02</internalNodes>
          <leafValues>
            7.7928465604782104e-01 -3.8348127156496048e-02</leafValues></_>
        <_>
          <internalNodes>
            0 -1 1529 -9.2549540568143129e-04</internalNodes>
          <leafValues>
            1.9479855895042419e-01 -1.3648234307765961e-01</leafValues></_>
        <_>
          <internalNodes>
            0 -1 1476 5.6740483269095421e-03</internalNodes>
          <leafValues>
            -9.3708500266075134e-02 2.7719762921333313e-01</leafValues></_>
        <_>
          <internalNodes>
            0 -1 638 -6.2472410500049591e-03</internalNodes>
          <leafValues>
            -4.3474429845809937e-01 6.8397410213947296e-02</leafValues></_>
        <_>
          <internalNodes>
            0 -1 182 1.8459364771842957e-02</internalNodes>
          <leafValues>
            6.0292541980743408e-02 -4.7903370857238770e-01</leafValues></_>
        <_>
          <internalNodes>
            0 -1 1185 -7.8600359847769141e-04</internalNodes>
          <leafValues>
            2.7115768194198608e-01 -1.0917561501264572e-01</leafValues></_>
        <_>
          <internalNodes>
            0 -1 1630 8.2885316805914044e-04</internalNodes>
          <leafValues>
            -9.2321433126926422e-02 2.8915229439735413e-01</leafValues></_>
        <_>
          <internalNodes>
            0 -1 1981 -2.9257414280436933e-04</internalNodes>
          <leafValues>
            -2.7660232782363892e-01 9.9952362477779388e-02</leafValues></_>
        <_>
          <internalNodes>
            0 -1 1980 7.0520903682336211e-04</internalNodes>
          <leafValues>
            9.1611124575138092e-02 -2.9457995295524597e-01</leafValues></_>
        <_>
          <internalNodes>
            0 -1 190 7.7136047184467316e-03</internalNodes>
          <leafValues>
            4.9792267382144928e-02 -4.9894943833351135e-01</leafValues></_>
        <_>
          <internalNodes>
            0 -1 1630 -6.3590903300791979e-04</internalNodes>
          <leafValues>
            2.2524508833885193e-01 -1.0691779851913452e-01</leafValues></_>
        <_>
          <internalNodes>
            0 -1 902 -9.6056857728399336e-05</internalNodes>
          <leafValues>
            -2.0099960267543793e-01 1.1710415035486221e-01</leafValues></_>
        <_>
          <internalNodes>
            0 -1 322 -6.7018363624811172e-03</internalNodes>
          <leafValues>
            -4.1758006811141968e-01 5.9373438358306885e-02</leafValues></_>
        <_>
          <internalNodes>
            0 -1 612 7.4364878237247467e-03</internalNodes>
          <leafValues>
            -6.3253998756408691e-02 3.7019780278205872e-01</leafValues></_>
        <_>
          <internalNodes>
            0 -1 622 -8.4199905395507812e-03</internalNodes>
          <leafValues>
            5.6305336952209473e-01 -4.0530811995267868e-02</leafValues></_>
        <_>
          <internalNodes>
            0 -1 223 5.1033012568950653e-02</internalNodes>
          <leafValues>
            4.4519275426864624e-02 -5.8368808031082153e-01</leafValues></_>
        <_>
          <internalNodes>
            0 -1 1761 -1.1563540901988745e-03</internalNodes>
          <leafValues>
            2.5294184684753418e-01 -9.5658600330352783e-02</leafValues></_>
        <_>
          <internalNodes>
            0 -1 1760 9.4753591110929847e-04</internalNodes>
          <leafValues>
            -1.0890229791402817e-01 2.5331991910934448e-01</leafValues></_>
        <_>
          <internalNodes>
            0 -1 1284 -4.8666945076547563e-04</internalNodes>
          <leafValues>
            -2.6510065793991089e-01 9.1070793569087982e-02</leafValues></_>
        <_>
          <internalNodes>
            0 -1 999 2.0191632211208344e-02</internalNodes>
          <leafValues>
            6.2796868383884430e-02 -3.6261326074600220e-01</leafValues></_>
        <_>
          <internalNodes>
            0 -1 1376 -1.4714852441102266e-03</internalNodes>
          <leafValues>
            2.0963694155216217e-01 -1.3107021152973175e-01</leafValues></_>
        <_>
          <internalNodes>
            0 -1 649 7.5692299287766218e-04</internalNodes>
          <leafValues>
            -9.6867546439170837e-02 2.6652687788009644e-01</leafValues></_>
        <_>
          <internalNodes>
            0 -1 1512 -4.6111823758110404e-04</internalNodes>
          <leafValues>
            1.8536323308944702e-01 -1.3118140399456024e-01</leafValues></_>
        <_>
          <internalNodes>
            0 -1 2079 -1.4106538146734238e-02</internalNodes>
          <leafValues>
            3.2027283310890198e-01 -8.0066345632076263e-02</leafValues></_>
        <_>
          <internalNodes>
            0 -1 301 2.9972730204463005e-02</internalNodes>
          <leafValues>
            -8.8584303855895996e-02 2.6652899384498596e-01</leafValues></_>
        <_>
          <internalNodes>
            0 -1 383 3.3144365996122360e-02</internalNodes>
          <leafValues>
            -5.4700020700693130e-02 4.0297627449035645e-01</leafValues></_>
        <_>
          <internalNodes>
            0 -1 1149 -8.2971742376685143e-03</internalNodes>
          <leafValues>
            1.4688187837600708e-01 -1.7331458628177643e-01</leafValues></_>
        <_>
          <internalNodes>
            0 -1 993 -9.0380059555172920e-03</internalNodes>
          <leafValues>
            -4.1359260678291321e-01 6.3535496592521667e-02</leafValues></_>
        <_>
          <internalNodes>
            0 -1 995 -1.3209709897637367e-02</internalNodes>
          <leafValues>
            -5.3663849830627441e-01 4.1960511356592178e-02</leafValues></_>
        <_>
          <internalNodes>
            0 -1 1835 -1.1781984940171242e-02</internalNodes>
          <leafValues>
            7.3670458793640137e-01 -3.5167306661605835e-02</leafValues></_>
        <_>
          <internalNodes>
            0 -1 111 -7.3563271760940552e-01</internalNodes>
          <leafValues>
            7.8927540779113770e-01 -2.3186638951301575e-02</leafValues></_>
        <_>
          <internalNodes>
            0 -1 1414 1.2810465414077044e-03</internalNodes>
          <leafValues>
            -6.5154634416103363e-02 3.1032785773277283e-01</leafValues></_>
        <_>
          <internalNodes>
            0 -1 660 9.2784129083156586e-04</internalNodes>
          <leafValues>
            -1.1153393238782883e-01 2.0242092013359070e-01</leafValues></_>
        <_>
          <internalNodes>
            0 -1 833 2.0055748522281647e-02</internalNodes>
          <leafValues>
            6.1907134950160980e-02 -3.8763681054115295e-01</leafValues></_>
        <_>
          <internalNodes>
            0 -1 1968 9.0109207667410374e-04</internalNodes>
          <leafValues>
            8.6379498243331909e-02 -2.4535045027732849e-01</leafValues></_>
        <_>
          <internalNodes>
            0 -1 163 -5.7843625545501709e-03</internalNodes>
          <leafValues>
            -4.3895849585533142e-01 4.7882761806249619e-02</leafValues></_>
        <_>
          <internalNodes>
            0 -1 586 -9.5409050118178129e-04</internalNodes>
          <leafValues>
            2.0830002427101135e-01 -1.0397487133741379e-01</leafValues></_>
        <_>
          <internalNodes>
            0 -1 1640 -1.0396287776529789e-02</internalNodes>
          <leafValues>
            6.4081674814224243e-01 -3.1470704823732376e-02</leafValues></_></weakClassifiers></_>
    <!-- stage 2 -->
    <_>
      <maxWeakCount>78</maxWeakCount>
      <stageThreshold>-1.4107427597045898e+00</stageThreshold>
      <weakClassifiers>
        <_>
          <internalNodes>
            0 -1 41 1.1154590547084808e-01</internalNodes>
          <leafValues>
            6.4497212879359722e-03 7.6354491710662842e-01</leafValues></_>
        <_>
          <internalNodes>
            0 -1 456 1.1602965742349625e-01</internalNodes>
          <leafValues>
            -1.6898304224014282e-01 3.9791971445083618e-01</leafValues></_>
        <_>
          <internalNodes>
            0 -1 1302 -1.2610310688614845e-02</internalNodes>
          <leafValues>
            5.2487498521804810e-01 -8.4433987736701965e-02</leafValues></_>
        <_>
          <internalNodes>
            0 -1 1626 -9.4862654805183411e-03</internalNodes>
          <leafValues>
            5.0560534000396729e-01 -1.4015324413776398e-01</leafValues></_>
        <_>
          <internalNodes>
            0 -1 1134 -8.6293416097760201e-03</internalNodes>
          <leafValues>
            5.0602960586547852e-01 -9.6819467842578888e-02</leafValues></_>
        <_>
          <internalNodes>
            0 -1 1517 -1.0060180909931660e-02</internalNodes>
          <leafValues>
            5.7334697246551514e-01 -6.8945854902267456e-02</leafValues></_>
        <_>
          <internalNodes>
            0 -1 752 5.9612832963466644e-02</internalNodes>
          <leafValues>
            8.3965964615345001e-02 -5.1792287826538086e-01</leafValues></_>
        <_>
          <internalNodes>
            0 -1 883 4.5147966593503952e-03</internalNodes>
          <leafValues>
            5.8541428297758102e-02 -5.5011004209518433e-01</leafValues></_>
        <_>
          <internalNodes>
            0 -1 842 3.1255759298801422e-02</internalNodes>
          <leafValues>
            -9.4024680554866791e-02 3.6649855971336365e-01</leafValues></_>
        <_>
          <internalNodes>
            0 -1 1943 -1.2774962000548840e-02</internalNodes>
          <leafValues>
            3.5329994559288025e-01 -1.0149188339710236e-01</leafValues></_>
        <_>
          <internalNodes>
            0 -1 36 -3.5268411040306091e-02</internalNodes>
          <leafValues>
            4.7033470869064331e-01 -7.3462940752506256e-02</leafValues></_>
        <_>
          <internalNodes>
            0 -1 417 1.2196464091539383e-01</internalNodes>
          <leafValues>
            -1.0184337198734283e-01 3.4269753098487854e-01</leafValues></_>
        <_>
          <internalNodes>
            0 -1 1250 4.1536213830113411e-03</internalNodes>
          <leafValues>
            -1.0244584828615189e-01 3.1895944476127625e-01</leafValues></_>
        <_>
          <internalNodes>
            0 -1 394 5.1890872418880463e-03</internalNodes>
          <leafValues>
            5.6790653616189957e-02 -5.9314668178558350e-01</leafValues></_>
        <_>
          <internalNodes>
            0 -1 1754 1.1027360334992409e-02</internalNodes>
          <leafValues>
            -6.3053235411643982e-02 5.3460526466369629e-01</leafValues></_>
        <_>
          <internalNodes>
            0 -1 189 2.5482112541794777e-03</internalNodes>
          <leafValues>
            8.7181992828845978e-02 -3.9216655492782593e-01</leafValues></_>
        <_>
          <internalNodes>
            0 -1 350 5.1529400050640106e-02</internalNodes>
          <leafValues>
            4.0347013622522354e-02 -6.0478079319000244e-01</leafValues></_>
        <_>
          <internalNodes>
            0 -1 1167 -4.6011270023882389e-03</internalNodes>
          <leafValues>
            1.5002682805061340e-01 -2.0017978549003601e-01</leafValues></_>
        <_>
          <internalNodes>
            0 -1 968 -1.3029638677835464e-02</internalNodes>
          <leafValues>
            6.7337596416473389e-01 -4.9426354467868805e-02</leafValues></_>
        <_>
          <internalNodes>
            0 -1 848 4.6992674469947815e-03</internalNodes>
          <leafValues>
            -7.7474109828472137e-02 3.3637613058090210e-01</leafValues></_>
        <_>
          <internalNodes>
            0 -1 847 -4.3860841542482376e-03</internalNodes>
          <leafValues>
            4.1539713740348816e-01 -7.0046007633209229e-02</leafValues></_>
        <_>
          <internalNodes>
            0 -1 133 6.4796451479196548e-03</internalNodes>
          <leafValues>
            6.1177186667919159e-02 -5.0183808803558350e-01</leafValues></_>
        <_>
          <internalNodes>
            0 -1 899 2.2597289353143424e-04</internalNodes>
          <leafValues>
            1.1720937490463257e-01 -2.3308958113193512e-01</leafValues></_>
        <_>
          <internalNodes>
            0 -1 491 3.6145560443401337e-02</internalNodes>
          <leafValues>
            4.5354384928941727e-02 -6.0409301519393921e-01</leafValues></_>
        <_>
          <internalNodes>
            0 -1 331 6.3353389501571655e-02</internalNodes>
          <leafValues>
            4.2716521769762039e-02 -5.8871424198150635e-01</leafValues></_>
        <_>
          <internalNodes>
            0 -1 1006 -9.0892165899276733e-03</internalNodes>
          <leafValues>
            4.5251658558845520e-01 -6.4374819397926331e-02</leafValues></_>
        <_>
          <internalNodes>
            0 -1 296 -1.1117730755358934e-03</internalNodes>
          <leafValues>
            -2.1262292563915253e-01 1.2538492679595947e-01</leafValues></_>
        <_>
          <internalNodes>
            0 -1 1941 4.9011185765266418e-03</internalNodes>
          <leafValues>
            -3.8070831447839737e-02 6.3648986816406250e-01</leafValues></_>
        <_>
          <internalNodes>
            0 -1 166 8.6546670645475388e-03</internalNodes>
          <leafValues>
            5.2373610436916351e-02 -5.1043099164962769e-01</leafValues></_>
        <_>
          <internalNodes>
            0 -1 796 8.3635700866580009e-04</internalNodes>
          <leafValues>
            -1.1744114011526108e-01 2.1936029195785522e-01</leafValues></_>
        <_>
          <internalNodes>
            0 -1 1298 -8.0627769231796265e-02</internalNodes>
          <leafValues>
            -5.2968698740005493e-01 4.5584686100482941e-02</leafValues></_>
        <_>
          <internalNodes>
            0 -1 950 4.0157656185328960e-03</internalNodes>
          <leafValues>
            -1.6792668402194977e-01 1.6236905753612518e-01</leafValues></_>
        <_>
          <internalNodes>
            0 -1 1066 -4.7849845141172409e-03</internalNodes>
          <leafValues>
            3.0210304260253906e-01 -8.3511598408222198e-02</leafValues></_>
        <_>
          <internalNodes>
            0 -1 534 8.2311416044831276e-03</internalNodes>
          <leafValues>
            4.0551271289587021e-02 -6.2171518802642822e-01</leafValues></_>
        <_>
          <internalNodes>
            0 -1 1066 1.7094230279326439e-03</internalNodes>
          <leafValues>
            -1.2167965620756149e-01 1.9697627425193787e-01</leafValues></_>
        <_>
          <internalNodes>
            0 -1 1174 7.0114829577505589e-04</internalNodes>
          <leafValues>
            -1.0410351306200027e-01 2.3205745220184326e-01</leafValues></_>
        <_>
          <internalNodes>
            0 -1 512 8.1785358488559723e-03</internalNodes>
          <leafValues>
            4.4392939656972885e-02 -5.3412157297134399e-01</leafValues></_>
        <_>
          <internalNodes>
            0 -1 1464 -1.9567590206861496e-02</internalNodes>
          <leafValues>
            5.9713786840438843e-01 -4.3820310384035110e-02</leafValues></_>
        <_>
          <internalNodes>
            0 -1 550 -5.4647843353450298e-04</internalNodes>
          <leafValues>
            -2.2068263590335846e-01 1.0058137774467468e-01</leafValues></_>
        <_>
          <internalNodes>
            0 -1 1191 2.0856551826000214e-02</internalNodes>
          <leafValues>
            3.7496626377105713e-02 -5.2783328294754028e-01</leafValues></_>
        <_>
          <internalNodes>
            0 -1 1301 2.7484390884637833e-03</internalNodes>
          <leafValues>
            -1.0773206502199173e-01 2.1008072793483734e-01</leafValues></_>
        <_>
          <internalNodes>
            0 -1 1546 -1.2721549719572067e-02</internalNodes>
          <leafValues>
            5.0490051507949829e-01 -4.2859159409999847e-02</leafValues></_>
        <_>
          <internalNodes>
            0 -1 229 2.5250978767871857e-02</internalNodes>
          <leafValues>
            4.1617751121520996e-02 -5.5786740779876709e-01</leafValues></_>
        <_>
          <internalNodes>
            0 -1 187 -1.5954780974425375e-04</internalNodes>
          <leafValues>
            -2.2126415371894836e-01 9.7439959645271301e-02</leafValues></_>
        <_>
          <internalNodes>
            0 -1 974 -6.5419981256127357e-03</internalNodes>
          <leafValues>
            -2.8522697091102600e-01 7.1890108287334442e-02</leafValues></_>
        <_>
          <internalNodes>
            0 -1 1229 1.8148851813748479e-03</internalNodes>
          <leafValues>
            -1.0175389051437378e-01 2.5078409910202026e-01</leafValues></_>
        <_>
          <internalNodes>
            0 -1 2080 -1.6743075684644282e-04</internalNodes>
          <leafValues>
            -2.1823899447917938e-01 9.9163077771663666e-02</leafValues></_>
        <_>
          <internalNodes>
            0 -1 1329 2.2093456937000155e-04</internalNodes>
          <leafValues>
            -1.1393086612224579e-01 1.9736956059932709e-01</leafValues></_>
        <_>
          <internalNodes>
            0 -1 1977 -4.3040810851380229e-04</internalNodes>
          <leafValues>
            -2.2778247296810150e-01 8.8297583162784576e-02</leafValues></_>
        <_>
          <internalNodes>
            0 -1 1634 4.4388702372089028e-04</internalNodes>
          <leafValues>
            -7.6466187834739685e-02 2.7617838978767395e-01</leafValues></_>
        <_>
          <internalNodes>
            0 -1 1244 1.1172585072927177e-04</internalNodes>
          <leafValues>
            -1.2134598195552826e-01 1.7549329996109009e-01</leafValues></_>
        <_>
          <internalNodes>
            0 -1 249 -5.9017511084675789e-03</internalNodes>
          <leafValues>
            2.4079655110836029e-01 -8.5955098271369934e-02</leafValues></_>
        <_>
          <internalNodes>
            0 -1 661 -3.2559726387262344e-02</internalNodes>
          <leafValues>
            -5.1102364063262939e-01 4.6137787401676178e-02</leafValues></_>
        <_>
          <internalNodes>
            0 -1 682 5.3091961890459061e-03</internalNodes>
          <leafValues>
            4.2843792587518692e-02 -4.6466666460037231e-01</leafValues></_>
        <_>
          <internalNodes>
            0 -1 1705 2.5091296993196011e-04</internalNodes>
          <leafValues>
            -1.2294873595237732e-01 1.8518209457397461e-01</leafValues></_>
        <_>
          <internalNodes>
            0 -1 1973 2.9459485085681081e-04</internalNodes>
          <leafValues>
            9.1319888830184937e-02 -2.2631376981735229e-01</leafValues></_>
        <_>
          <internalNodes>
            0 -1 1124 4.7049793647602201e-04</internalNodes>
          <leafValues>
            -1.1106673628091812e-01 1.8054324388504028e-01</leafValues></_>
        <_>
          <internalNodes>
            0 -1 1504 -7.1215711068361998e-04</internalNodes>
          <leafValues>
            2.4146187305450439e-01 -9.6781075000762939e-02</leafValues></_>
        <_>
          <internalNodes>
            0 -1 35 -4.8831268213689327e-04</internalNodes>
          <leafValues>
            -2.2294260561466217e-01 9.0490698814392090e-02</leafValues></_>
        <_>
          <internalNodes>
            0 -1 1673 4.9135775770992041e-04</internalNodes>
          <leafValues>
            -1.1067377030849457e-01 1.8107874691486359e-01</leafValues></_>
        <_>
          <internalNodes>
            0 -1 829 1.2875217013061047e-02</internalNodes>
          <leafValues>
            3.6282088607549667e-02 -5.8554452657699585e-01</leafValues></_>
        <_>
          <internalNodes>
            0 -1 1751 6.7821284756064415e-04</internalNodes>
          <leafValues>
            -1.0609258711338043e-01 2.0899492502212524e-01</leafValues></_>
        <_>
          <internalNodes>
            0 -1 685 6.8567115813493729e-03</internalNodes>
          <leafValues>
            -5.9981152415275574e-02 3.7994605302810669e-01</leafValues></_>
        <_>
          <internalNodes>
            0 -1 192 -1.3877486344426870e-03</internalNodes>
          <leafValues>
            -3.8183978199958801e-01 5.8907926082611084e-02</leafValues></_>
        <_>
          <internalNodes>
            0 -1 228 -2.8631450608372688e-02</internalNodes>
          <leafValues>
            -3.3950400352478027e-01 6.7483358085155487e-02</leafValues></_>
        <_>
          <internalNodes>
            0 -1 1303 1.0401754640042782e-02</internalNodes>
          <leafValues>
            -5.9757661074399948e-02 3.4109550714492798e-01</leafValues></_>
        <_>
          <internalNodes>
            0 -1 674 3.0712479725480080e-02</internalNodes>
          <leafValues>
            -5.7157825678586960e-02 3.6265999078750610e-01</leafValues></_>
        <_>
          <internalNodes>
            0 -1 1139 -4.1952505707740784e-02</internalNodes>
          <leafValues>
            -6.0257196426391602e-01 3.6427203565835953e-02</leafValues></_>
        <_>
          <internalNodes>
            0 -1 635 5.4447393631562591e-04</internalNodes>
          <leafValues>
            -1.1180401593446732e-01 1.6483622789382935e-01</leafValues></_>
        <_>
          <internalNodes>
            0 -1 579 2.2185679525136948e-02</internalNodes>
          <leafValues>
            2.5705775246024132e-02 -8.0134981870651245e-01</leafValues></_>
        <_>
          <internalNodes>
            0 -1 1683 1.2455402174964547e-03</internalNodes>
          <leafValues>
            -8.7753109633922577e-02 2.2944274544715881e-01</leafValues></_>
        <_>
          <internalNodes>
            0 -1 1682 6.6571682691574097e-04</internalNodes>
          <leafValues>
            -9.8453991115093231e-02 2.0243354141712189e-01</leafValues></_>
        <_>
          <internalNodes>
            0 -1 413 -1.5455955872312188e-03</internalNodes>
          <leafValues>
            -3.7301281094551086e-01 4.9787338823080063e-02</leafValues></_>
        <_>
          <internalNodes>
            0 -1 879 7.6417527161538601e-03</internalNodes>
          <leafValues>
            -7.9583674669265747e-02 2.2942638397216797e-01</leafValues></_>
        <_>
          <internalNodes>
            0 -1 1855 3.4895145799964666e-03</internalNodes>
          <leafValues>
            5.3731273859739304e-02 -3.7213110923767090e-01</leafValues></_>
        <_>
          <internalNodes>
            0 -1 1460 -3.7815373390913010e-02</internalNodes>
          <leafValues>
            3.4565937519073486e-01 -5.9341780841350555e-02</leafValues></_>
        <_>
          <internalNodes>
            0 -1 1513 4.2304350063204765e-04</internalNodes>
          <leafValues>
            -1.1088042706251144e-01 1.5669344365596771e-01</leafValues></_>
        <_>
          <internalNodes>
            0 -1 1531 -9.1848652809858322e-03</internalNodes>
          <leafValues>
            5.1264244318008423e-01 -4.0541976690292358e-02</leafValues></_></weakClassifiers></_>
    <!-- stage 3 -->
    <_>
      <maxWeakCount>100</maxWeakCount>
      <stageThreshold>-1.4513467550277710e+00</stageThreshold>
      <weakClassifiers>
        <_>
          <internalNodes>
            0 -1 29 9.9185854196548462e-02</internalNodes>
          <leafValues>
            3.7453182041645050e-02 6.7180222272872925e-01</leafValues></_>
        <_>
          <internalNodes>
            0 -1 1213 4.4869329780340195e-02</internalNodes>
          <leafValues>
            -8.7939605116844177e-02 5.1362651586532593e-01</leafValues></_>
        <_>
          <internalNodes>
            0 -1 1880 -7.6347552239894867e-03</internalNodes>
          <leafValues>
            5.3343766927719116e-01 -1.0603105276823044e-01</leafValues></_>
        <_>
          <internalNodes>
            0 -1 1487 -5.9967637062072754e-03</internalNodes>
          <leafValues>
            4.1146382689476013e-01 -1.3612373173236847e-01</leafValues></_>
        <_>
          <internalNodes>
            0 -1 935 -7.6877130195498466e-03</internalNodes>
          <leafValues>
            4.8719337582588196e-01 -1.7496930062770844e-01</leafValues></_>
        <_>
          <internalNodes>
            0 -1 831 1.9145552068948746e-03</internalNodes>
          <leafValues>
            -1.4774762094020844e-01 3.6407238245010376e-01</leafValues></_>
        <_>
          <internalNodes>
            0 -1 1156 -4.4778306037187576e-03</internalNodes>
          <leafValues>
            3.5681861639022827e-01 -1.2442490458488464e-01</leafValues></_>
        <_>
          <internalNodes>
            0 -1 1371 -5.6773885153234005e-03</internalNodes>
          <leafValues>
            4.3210273981094360e-01 -1.1083960533142090e-01</leafValues></_>
        <_>
          <internalNodes>
            0 -1 657 3.0092051019892097e-04</internalNodes>
          <leafValues>
            -1.3028368353843689e-01 2.6208895444869995e-01</leafValues></_>
        <_>
          <internalNodes>
            0 -1 443 -8.6908116936683655e-03</internalNodes>
          <leafValues>
            3.0811667442321777e-01 -1.1046830564737320e-01</leafValues></_>
        <_>
          <internalNodes>
            0 -1 1036 -2.7452060952782631e-02</internalNodes>
          <leafValues>
            4.2807355523109436e-01 -7.4358694255352020e-02</leafValues></_>
        <_>
          <internalNodes>
            0 -1 779 2.2514555603265762e-03</internalNodes>
          <leafValues>
            -2.1516430377960205e-01 1.4826214313507080e-01</leafValues></_>
        <_>
          <internalNodes>
            0 -1 1929 4.9312785267829895e-03</internalNodes>
          <leafValues>
            -8.1013165414333344e-02 4.0674489736557007e-01</leafValues></_>
        <_>
          <internalNodes>
            0 -1 927 1.3243859866634011e-03</internalNodes>
          <leafValues>
            -1.2331288307905197e-01 2.3044508695602417e-01</leafValues></_>
        <_>
          <internalNodes>
            0 -1 1230 3.8491212762892246e-03</internalNodes>
          <leafValues>
            -7.7033624053001404e-02 3.1408697366714478e-01</leafValues></_>
        <_>
          <internalNodes>
            0 -1 1736 -6.7076524719595909e-03</internalNodes>
          <leafValues>
            3.6992135643959045e-01 -6.8696394562721252e-02</leafValues></_>
        <_>
          <internalNodes>
            0 -1 38 1.8498969078063965e-01</internalNodes>
          <leafValues>
            -3.7127736955881119e-02 6.0690361261367798e-01</leafValues></_>
        <_>
          <internalNodes>
            0 -1 607 6.9645158946514130e-02</internalNodes>
          <leafValues>
            3.5804167389869690e-02 -6.3961470127105713e-01</leafValues></_>
        <_>
          <internalNodes>
            0 -1 767 -4.5572256203740835e-04</internalNodes>
          <leafValues>
            2.1918129920959473e-01 -1.0867196321487427e-01</leafValues></_>
        <_>
          <internalNodes>
            0 -1 369 -5.9396182186901569e-03</internalNodes>
          <leafValues>
            1.9964928925037384e-01 -1.0897958278656006e-01</leafValues></_>
        <_>
          <internalNodes>
            0 -1 822 2.4087853729724884e-02</internalNodes>
          <leafValues>
            5.5879846215248108e-02 -4.1626673936843872e-01</leafValues></_>
        <_>
          <internalNodes>
            0 -1 1201 2.6907723397016525e-02</internalNodes>
          <leafValues>
            -8.7473303079605103e-02 2.8144243359565735e-01</leafValues></_>
        <_>
          <internalNodes>
            0 -1 755 7.3410599725320935e-04</internalNodes>
          <leafValues>
            -9.5432840287685394e-02 2.2624875605106354e-01</leafValues></_>
        <_>
          <internalNodes>
            0 -1 585 -7.3685502866283059e-04</internalNodes>
          <leafValues>
            2.0911279320716858e-01 -1.0334726423025131e-01</leafValues></_>
        <_>
          <internalNodes>
            0 -1 342 -2.1535083651542664e-02</internalNodes>
          <leafValues>
            -2.9020446538925171e-01 6.9103673100471497e-02</leafValues></_>
        <_>
          <internalNodes>
            0 -1 1140 7.6470011845231056e-04</internalNodes>
          <leafValues>
            -1.0908439755439758e-01 1.9457599520683289e-01</leafValues></_>
        <_>
          <internalNodes>
            0 -1 1344 2.5880965404212475e-04</internalNodes>
          <leafValues>
            -1.0468696057796478e-01 2.1713937819004059e-01</leafValues></_>
        <_>
          <internalNodes>
            0 -1 1674 -2.1478706039488316e-03</internalNodes>
          <leafValues>
            2.9731336236000061e-01 -6.9539204239845276e-02</leafValues></_>
        <_>
          <internalNodes>
            0 -1 973 -7.1764243766665459e-03</internalNodes>
          <leafValues>
            -2.8984704613685608e-01 7.4523985385894775e-02</leafValues></_>
        <_>
          <internalNodes>
            0 -1 517 -1.6563385725021362e-02</internalNodes>
          <leafValues>
            2.1936322748661041e-01 -9.7336679697036743e-02</leafValues></_>
        <_>
          <internalNodes>
            0 -1 1605 -3.2333435956388712e-04</internalNodes>
          <leafValues>
            -2.2352072596549988e-01 9.3394786119461060e-02</leafValues></_>
        <_>
          <internalNodes>
            0 -1 88 -5.6335469707846642e-04</internalNodes>
          <leafValues>
            -2.5818365812301636e-01 7.1959652006626129e-02</leafValues></_>
        <_>
          <internalNodes>
            0 -1 1576 3.5359774483367801e-04</internalNodes>
          <leafValues>
            -8.8303364813327789e-02 2.1678461134433746e-01</leafValues></_>
        <_>
          <internalNodes>
            0 -1 1744 1.2569870799779892e-02</internalNodes>
          <leafValues>
            -5.8263361454010010e-02 3.6972847580909729e-01</leafValues></_>
        <_>
          <internalNodes>
            0 -1 995 -1.0017978958785534e-02</internalNodes>
          <leafValues>
            -3.8460263609886169e-01 5.1098916679620743e-02</leafValues></_>
        <_>
          <internalNodes>
            0 -1 1655 4.4763393816538155e-04</internalNodes>
          <leafValues>
            -1.1154002696275711e-01 1.9601565599441528e-01</leafValues></_>
        <_>
          <internalNodes>
            0 -1 256 1.7685438506305218e-03</internalNodes>
          <leafValues>
            5.4724432528018951e-02 -3.6318954825401306e-01</leafValues></_>
        <_>
          <internalNodes>
            0 -1 1584 -1.4863166725263000e-03</internalNodes>
          <leafValues>
            2.1203669905662537e-01 -8.7796077132225037e-02</leafValues></_>
        <_>
          <internalNodes>
            0 -1 1583 4.7373451525345445e-04</internalNodes>
          <leafValues>
            -1.1061031371355057e-01 1.8823793530464172e-01</leafValues></_>
        <_>
          <internalNodes>
            0 -1 893 -7.1808963548392057e-04</internalNodes>
          <leafValues>
            -3.6450400948524475e-01 5.3647715598344803e-02</leafValues></_>
        <_>
          <internalNodes>
            0 -1 1427 1.1123138392576948e-04</internalNodes>
          <leafValues>
            -1.2823154032230377e-01 1.3866676390171051e-01</leafValues></_>
        <_>
          <internalNodes>
            0 -1 1248 3.9592367829754949e-04</internalNodes>
          <leafValues>
            -1.0225563496351242e-01 1.9993264973163605e-01</leafValues></_>
        <_>
          <internalNodes>
            0 -1 219 -3.7933148443698883e-02</internalNodes>
          <leafValues>
            -5.1301699876785278e-01 3.6567479372024536e-02</leafValues></_>
        <_>
          <internalNodes>
            0 -1 989 -4.6461112797260284e-03</internalNodes>
          <leafValues>
            2.4765437841415405e-01 -8.7100066244602203e-02</leafValues></_>
        <_>
          <internalNodes>
            0 -1 987 4.9699991941452026e-03</internalNodes>
          <leafValues>
            -6.4610853791236877e-02 3.1878277659416199e-01</leafValues></_>
        <_>
          <internalNodes>
            0 -1 186 -1.9289116607978940e-03</internalNodes>
          <leafValues>
            -3.1513026356697083e-01 5.9996545314788818e-02</leafValues></_>
        <_>
          <internalNodes>
            0 -1 854 -3.0772328376770020e-02</internalNodes>
          <leafValues>
            3.6685287952423096e-01 -5.3246803581714630e-02</leafValues></_>
        <_>
          <internalNodes>
            0 -1 653 3.3284425735473633e-02</internalNodes>
          <leafValues>
            -4.7563672065734863e-02 4.1244420409202576e-01</leafValues></_>
        <_>
          <internalNodes>
            0 -1 1643 1.3352841138839722e-02</internalNodes>
          <leafValues>
            4.4982481747865677e-02 -4.0560713410377502e-01</leafValues></_>
        <_>
          <internalNodes>
            0 -1 1907 2.2978865308687091e-04</internalNodes>
          <leafValues>
            5.7811059057712555e-02 -3.0409702658653259e-01</leafValues></_>
        <_>
          <internalNodes>
            0 -1 389 -1.6441568732261658e-02</internalNodes>
          <leafValues>
            -5.2493256330490112e-01 3.1696707010269165e-02</leafValues></_>
        <_>
          <internalNodes>
            0 -1 596 -1.3709217309951782e-02</internalNodes>
          <leafValues>
            -6.6720306873321533e-01 2.3930117487907410e-02</leafValues></_>
        <_>
          <internalNodes>
            0 -1 621 -6.7249615676701069e-04</internalNodes>
          <leafValues>
            1.9921997189521790e-01 -9.6574105322360992e-02</leafValues></_>
        <_>
          <internalNodes>
            0 -1 1327 -2.3136550560593605e-02</internalNodes>
          <leafValues>
            -3.7114790081977844e-01 5.4715428501367569e-02</leafValues></_>
        <_>
          <internalNodes>
            0 -1 857 1.1469358578324318e-03</internalNodes>
          <leafValues>
            -1.0247382521629333e-01 1.8533115088939667e-01</leafValues></_>
        <_>
          <internalNodes>
            0 -1 1623 1.2816207483410835e-02</internalNodes>
          <leafValues>
            -2.8017563745379448e-02 6.0702258348464966e-01</leafValues></_>
        <_>
          <internalNodes>
            0 -1 1700 1.0823811404407024e-02</internalNodes>
          <leafValues>
            -3.1202387064695358e-02 4.9287751317024231e-01</leafValues></_>
        <_>
          <internalNodes>
            0 -1 1711 -3.7696748040616512e-04</internalNodes>
          <leafValues>
            -2.7430018782615662e-01 6.6076613962650299e-02</leafValues></_>
        <_>
          <internalNodes>
            0 -1 1947 1.0475058108568192e-02</internalNodes>
          <leafValues>
            -3.2931782305240631e-02 5.5456578731536865e-01</leafValues></_>
        <_>
          <internalNodes>
            0 -1 1845 9.7275292500853539e-04</internalNodes>
          <leafValues>
            4.8915565013885498e-02 -3.7005332112312317e-01</leafValues></_>
        <_>
          <internalNodes>
            0 -1 1051 -1.0167889297008514e-02</internalNodes>
          <leafValues>
            2.3917134106159210e-01 -6.7779839038848877e-02</leafValues></_>
        <_>
          <internalNodes>
            0 -1 1238 1.5818444080650806e-03</internalNodes>
          <leafValues>
            -1.0447444021701813e-01 1.6587843000888824e-01</leafValues></_>
        <_>
          <internalNodes>
            0 -1 1451 2.1755655761808157e-03</internalNodes>
          <leafValues>
            4.7938894480466843e-02 -3.5118314623832703e-01</leafValues></_>
        <_>
          <internalNodes>
            0 -1 385 1.4730064198374748e-02</internalNodes>
          <leafValues>
            -4.4631041586399078e-02 3.7713021039962769e-01</leafValues></_>
        <_>
          <internalNodes>
            0 -1 403 4.5618326403200626e-03</internalNodes>
          <leafValues>
            4.1402418166399002e-02 -3.9250227808952332e-01</leafValues></_>
        <_>
          <internalNodes>
            0 -1 1260 5.8663161471486092e-03</internalNodes>
          <leafValues>
            -8.3704054355621338e-02 2.1642406284809113e-01</leafValues></_>
        <_>
          <internalNodes>
            0 -1 1774 5.9027911629527807e-04</internalNodes>
          <leafValues>
            -1.1235075443983078e-01 1.4671295881271362e-01</leafValues></_>
        <_>
          <internalNodes>
            0 -1 1666 1.6203833511099219e-03</internalNodes>
          <leafValues>
            -9.6722759306430817e-02 1.7283737659454346e-01</leafValues></_>
        <_>
          <internalNodes>
            0 -1 1337 1.4507507905364037e-02</internalNodes>
          <leafValues>
            5.0386831164360046e-02 -3.2982060313224792e-01</leafValues></_>
        <_>
          <internalNodes>
            0 -1 1014 8.7637696415185928e-03</internalNodes>
          <leafValues>
            8.3840437233448029e-02 -2.0374947786331177e-01</leafValues></_>
        <_>
          <internalNodes>
            0 -1 258 -6.7989625968039036e-03</internalNodes>
          <leafValues>
            1.6676817834377289e-01 -1.0412942618131638e-01</leafValues></_>
        <_>
          <internalNodes>
            0 -1 1815 2.2398645523935556e-04</internalNodes>
          <leafValues>
            -9.1179765760898590e-02 1.6956704854965210e-01</leafValues></_>
        <_>
          <internalNodes>
            0 -1 1911 7.5708748772740364e-04</internalNodes>
          <leafValues>
            6.9857269525527954e-02 -2.3830080032348633e-01</leafValues></_>
        <_>
          <internalNodes>
            0 -1 2069 -3.4520283807069063e-03</internalNodes>
          <leafValues>
            3.0514279007911682e-01 -5.1680147647857666e-02</leafValues></_>
        <_>
          <internalNodes>
            0 -1 96 1.7981389537453651e-03</internalNodes>
          <leafValues>
            3.7714615464210510e-02 -4.1070666909217834e-01</leafValues></_>
        <_>
          <internalNodes>
            0 -1 985 -1.5956452116370201e-03</internalNodes>
          <leafValues>
            3.3816677331924438e-01 -4.4285107403993607e-02</leafValues></_>
        <_>
          <internalNodes>
            0 -1 1352 -3.4588077105581760e-03</internalNodes>
          <leafValues>
            1.7180937528610229e-01 -8.3383493125438690e-02</leafValues></_>
        <_>
          <internalNodes>
            0 -1 1502 4.3601528741419315e-03</internalNodes>
          <leafValues>
            -7.9033926129341125e-02 2.1450044214725494e-01</leafValues></_>
        <_>
          <internalNodes>
            0 -1 864 -5.7252850383520126e-03</internalNodes>
          <leafValues>
            -4.2277225852012634e-01 3.8954157382249832e-02</leafValues></_>
        <_>
          <internalNodes>
            0 -1 631 -1.6157673671841621e-02</internalNodes>
          <leafValues>
            -5.6821167469024658e-01 2.4931119754910469e-02</leafValues></_>
        <_>
          <internalNodes>
            0 -1 1271 2.2350225481204689e-04</internalNodes>
          <leafValues>
            -9.7939230501651764e-02 1.5293258428573608e-01</leafValues></_>
        <_>
          <internalNodes>
            0 -1 1262 5.0915339961647987e-03</internalNodes>
          <leafValues>
            3.5141449421644211e-02 -5.4969692230224609e-01</leafValues></_>
        <_>
          <internalNodes>
            0 -1 2077 2.6502725668251514e-03</internalNodes>
          <leafValues>
            4.4933758676052094e-02 -2.9458704590797424e-01</leafValues></_>
        <_>
          <internalNodes>
            0 -1 1771 -1.9503325223922729e-02</internalNodes>
          <leafValues>
            2.6593515276908875e-01 -5.5180031806230545e-02</leafValues></_>
        <_>
          <internalNodes>
            0 -1 929 4.8808014253154397e-04</internalNodes>
          <leafValues>
            -7.1603789925575256e-02 1.9990761578083038e-01</leafValues></_>
        <_>
          <internalNodes>
            0 -1 1976 -6.7622837377712131e-04</internalNodes>
          <leafValues>
            -2.9716303944587708e-01 4.7623276710510254e-02</leafValues></_>
        <_>
          <internalNodes>
            0 -1 481 2.6253912597894669e-02</internalNodes>
          <leafValues>
            3.1401060521602631e-02 -4.2134520411491394e-01</leafValues></_>
        <_>
          <internalNodes>
            0 -1 1884 -1.8757231533527374e-02</internalNodes>
          <leafValues>
            5.3123819828033447e-01 -2.9641749337315559e-02</leafValues></_>
        <_>
          <internalNodes>
            0 -1 1263 -5.3107144776731730e-04</internalNodes>
          <leafValues>
            1.5262620151042938e-01 -9.7297169268131256e-02</leafValues></_>
        <_>
          <internalNodes>
            0 -1 463 -6.6672086715698242e-02</internalNodes>
          <leafValues>
            -2.8323671221733093e-01 5.0404697656631470e-02</leafValues></_>
        <_>
          <internalNodes>
            0 -1 1020 -2.5215867906808853e-02</internalNodes>
          <leafValues>
            -4.0303307771682739e-01 3.3958498388528824e-02</leafValues></_>
        <_>
          <internalNodes>
            0 -1 1002 7.4336002580821514e-04</internalNodes>
          <leafValues>
            -5.6976940482854843e-02 2.6244291663169861e-01</leafValues></_>
        <_>
          <internalNodes>
            0 -1 54 -1.0089856386184692e-01</internalNodes>
          <leafValues>
            4.8672652244567871e-01 -2.8797280043363571e-02</leafValues></_>
        <_>
          <internalNodes>
            0 -1 1456 -1.5606142114847898e-03</internalNodes>
          <leafValues>
            1.9422824680805206e-01 -7.3082841932773590e-02</leafValues></_>
        <_>
          <internalNodes>
            0 -1 1527 -1.9836524734273553e-04</internalNodes>
          <leafValues>
            1.6080822050571442e-01 -9.4304859638214111e-02</leafValues></_>
        <_>
          <internalNodes>
            0 -1 1844 -1.6071913763880730e-02</internalNodes>
          <leafValues>
            2.0802013576030731e-01 -6.9118000566959381e-02</leafValues></_>
        <_>
          <internalNodes>
            0 -1 1787 -4.8337935004383326e-04</internalNodes>
          <leafValues>
            -1.7704768478870392e-01 7.5971566140651703e-02</leafValues></_>
        <_>
          <internalNodes>
            0 -1 103 -2.3100590333342552e-03</internalNodes>
          <leafValues>
            -1.9877552986145020e-01 6.7196883261203766e-02</leafValues></_>
        <_>
          <internalNodes>
            0 -1 1099 5.0878155976533890e-02</internalNodes>
          <leafValues>
            -4.4553685933351517e-02 3.1131121516227722e-01</leafValues></_>
        <_>
          <internalNodes>
            0 -1 471 9.0141757391393185e-04</internalNodes>
          <leafValues>
            -1.0042366385459900e-01 1.3480472564697266e-01</leafValues></_></weakClassifiers></_>
    <!-- stage 4 -->
    <_>
      <maxWeakCount>100</maxWeakCount>
      <stageThreshold>-1.4713580608367920e+00</stageThreshold>
      <weakClassifiers>
        <_>
          <internalNodes>
            0 -1 158 4.3017017841339111e-01</internalNodes>
          <leafValues>
            5.6893747299909592e-02 6.9021636247634888e-01</leafValues></_>
        <_>
          <internalNodes>
            0 -1 23 6.8881131708621979e-02</internalNodes>
          <leafValues>
            -8.6593605577945709e-02 4.7328731417655945e-01</leafValues></_>
        <_>
          <internalNodes>
            0 -1 1678 1.8943274393677711e-02</internalNodes>
          <leafValues>
            -1.1374024301767349e-01 4.1619327664375305e-01</leafValues></_>
        <_>
          <internalNodes>
            0 -1 991 8.3325356245040894e-03</internalNodes>
          <leafValues>
            -1.0789428651332855e-01 4.0626403689384460e-01</leafValues></_>
        <_>
          <internalNodes>
            0 -1 1803 1.3106575235724449e-02</internalNodes>
          <leafValues>
            -1.0220723599195480e-01 5.0107717514038086e-01</leafValues></_>
        <_>
          <internalNodes>
            0 -1 1146 -5.4076123051345348e-03</internalNodes>
          <leafValues>
            1.7204818129539490e-01 -2.4744755029678345e-01</leafValues></_>
        <_>
          <internalNodes>
            0 -1 1042 2.6289340108633041e-02</internalNodes>
          <leafValues>
            -9.6274450421333313e-02 3.3048504590988159e-01</leafValues></_>
        <_>
          <internalNodes>
            0 -1 1640 6.6113881766796112e-03</internalNodes>
          <leafValues>
            -8.3422251045703888e-02 3.7809994816780090e-01</leafValues></_>
        <_>
          <internalNodes>
            0 -1 1515 -5.4753357544541359e-03</internalNodes>
          <leafValues>
            4.2790567874908447e-01 -5.9886168688535690e-02</leafValues></_>
        <_>
          <internalNodes>
            0 -1 453 1.0285271704196930e-01</internalNodes>
          <leafValues>
            4.8258997499942780e-02 -5.6043213605880737e-01</leafValues></_>
        <_>
          <internalNodes>
            0 -1 1644 -6.7408978939056396e-03</internalNodes>
          <leafValues>
            5.3356862068176270e-01 -4.7241710126399994e-02</leafValues></_>
        <_>
          <internalNodes>
            0 -1 999 -8.0819483846426010e-03</internalNodes>
          <leafValues>
            -3.2078075408935547e-01 7.6320648193359375e-02</leafValues></_>
        <_>
          <internalNodes>
            0 -1 291 -4.5654959976673126e-03</internalNodes>
          <leafValues>
            -4.2038667201995850e-01 5.2783712744712830e-02</leafValues></_>
        <_>
          <internalNodes>
            0 -1 232 -1.1008440516889095e-02</internalNodes>
          <leafValues>
            2.8727859258651733e-01 -8.0332212150096893e-02</leafValues></_>
        <_>
          <internalNodes>
            0 -1 1178 6.8104062229394913e-03</internalNodes>
          <leafValues>
            -6.8546213209629059e-02 3.3922460675239563e-01</leafValues></_>
        <_>
          <internalNodes>
            0 -1 966 5.1550748758018017e-03</internalNodes>
          <leafValues>
            -8.0435037612915039e-02 2.9859963059425354e-01</leafValues></_>
        <_>
          <internalNodes>
            0 -1 1628 -1.6480915248394012e-02</internalNodes>
          <leafValues>
            -2.8573623299598694e-01 7.6154276728630066e-02</leafValues></_>
        <_>
          <internalNodes>
            0 -1 1876 1.0914830490946770e-02</internalNodes>
          <leafValues>
            -4.5319214463233948e-02 4.8958316445350647e-01</leafValues></_>
        <_>
          <internalNodes>
            0 -1 1418 1.9007668015547097e-04</internalNodes>
          <leafValues>
            -1.1094058305025101e-01 1.9317716360092163e-01</leafValues></_>
        <_>
          <internalNodes>
            0 -1 99 -2.7250181883573532e-03</internalNodes>
          <leafValues>
            -3.1187132000923157e-01 6.6335886716842651e-02</leafValues></_>
        <_>
          <internalNodes>
            0 -1 2047 4.9036624841392040e-04</internalNodes>
          <leafValues>
            4.5127231627702713e-02 -3.8745066523551941e-01</leafValues></_>
        <_>
          <internalNodes>
            0 -1 609 -7.7606260310858488e-04</internalNodes>
          <leafValues>
            1.7790398001670837e-01 -1.0033252835273743e-01</leafValues></_>
        <_>
          <internalNodes>
            0 -1 1156 3.6445842124521732e-03</internalNodes>
          <leafValues>
            -9.3101486563682556e-02 2.5113761425018311e-01</leafValues></_>
        <_>
          <internalNodes>
            0 -1 472 6.3454724848270416e-02</internalNodes>
          <leafValues>
            4.0175639092922211e-02 -4.9886769056320190e-01</leafValues></_>
        <_>
          <internalNodes>
            0 -1 995 -6.0320952907204628e-03</internalNodes>
          <leafValues>
            -3.1434866786003113e-01 6.7867152392864227e-02</leafValues></_>
        <_>
          <internalNodes>
            0 -1 201 -9.9798310548067093e-03</internalNodes>
          <leafValues>
            -2.9031625390052795e-01 6.4606048166751862e-02</leafValues></_>
        <_>
          <internalNodes>
            0 -1 1588 8.4945478010922670e-04</internalNodes>
          <leafValues>
            -1.0582718998193741e-01 1.8259648978710175e-01</leafValues></_>
        <_>
          <internalNodes>
            0 -1 1652 1.4870804548263550e-01</internalNodes>
          <leafValues>
            -2.3027818650007248e-02 7.0949834585189819e-01</leafValues></_>
        <_>
          <internalNodes>
            0 -1 1832 5.6879851035773754e-04</internalNodes>
          <leafValues>
            -1.0030306875705719e-01 1.7684057354927063e-01</leafValues></_>
        <_>
          <internalNodes>
            0 -1 1434 1.5874917153269053e-04</internalNodes>
          <leafValues>
            -1.1004134267568588e-01 1.5562021732330322e-01</leafValues></_>
        <_>
          <internalNodes>
            0 -1 1592 6.0010526794940233e-04</internalNodes>
          <leafValues>
            -9.2759959399700165e-02 1.9425295293331146e-01</leafValues></_>
        <_>
          <internalNodes>
            0 -1 943 -2.0100852474570274e-02</internalNodes>
          <leafValues>
            2.3797649145126343e-01 -8.2134999334812164e-02</leafValues></_>
        <_>
          <internalNodes>
            0 -1 294 1.3482413487508893e-04</internalNodes>
          <leafValues>
            7.7795520424842834e-02 -2.1938370168209076e-01</leafValues></_>
        <_>
          <internalNodes>
            0 -1 1463 4.7964826226234436e-02</internalNodes>
          <leafValues>
            3.8868546485900879e-02 -4.0744739770889282e-01</leafValues></_>
        <_>
          <internalNodes>
            0 -1 825 -6.7124548368155956e-03</internalNodes>
          <leafValues>
            -3.4704065322875977e-01 4.5056693255901337e-02</leafValues></_>
        <_>
          <internalNodes>
            0 -1 1741 -1.5378231182694435e-02</internalNodes>
          <leafValues>
            5.3701806068420410e-01 -3.2666694372892380e-02</leafValues></_>
        <_>
          <internalNodes>
            0 -1 1744 1.5739452093839645e-02</internalNodes>
          <leafValues>
            -4.3168604373931885e-02 3.9559426903724670e-01</leafValues></_>
        <_>
          <internalNodes>
            0 -1 480 -7.2705978527665138e-03</internalNodes>
          <leafValues>
            -2.6363271474838257e-01 6.1254139989614487e-02</leafValues></_>
        <_>
          <internalNodes>
            0 -1 1322 2.1421588025987148e-03</internalNodes>
          <leafValues>
            -8.9308731257915497e-02 1.8091861903667450e-01</leafValues></_>
        <_>
          <internalNodes>
            0 -1 1475 -6.0482090339064598e-04</internalNodes>
          <leafValues>
            1.9534198939800262e-01 -8.2990109920501709e-02</leafValues></_>
        <_>
          <internalNodes>
            0 -1 1305 1.0747247142717242e-03</internalNodes>
          <leafValues>
            -7.3347367346286774e-02 2.4237228929996490e-01</leafValues></_>
        <_>
          <internalNodes>
            0 -1 689 5.2832677029073238e-03</internalNodes>
          <leafValues>
            3.4515980631113052e-02 -4.7380340099334717e-01</leafValues></_>
        <_>
          <internalNodes>
            0 -1 362 -1.1449307203292847e-01</internalNodes>
          <leafValues>
            2.2399172186851501e-01 -7.9219400882720947e-02</leafValues></_>
        <_>
          <internalNodes>
            0 -1 731 7.3650822741910815e-04</internalNodes>
          <leafValues>
            -1.2089817225933075e-01 1.3459871709346771e-01</leafValues></_>
        <_>
          <internalNodes>
            0 -1 257 -5.1094172522425652e-03</internalNodes>
          <leafValues>
            -3.9857366681098938e-01 3.9342269301414490e-02</leafValues></_>
        <_>
          <internalNodes>
            0 -1 850 1.3711069710552692e-02</internalNodes>
          <leafValues>
            4.5850340276956558e-02 -3.3175724744796753e-01</leafValues></_>
        <_>
          <internalNodes>
            0 -1 500 -6.9432315649464726e-04</internalNodes>
          <leafValues>
            1.7936228215694427e-01 -9.1924421489238739e-02</leafValues></_>
        <_>
          <internalNodes>
            0 -1 953 9.9174701608717442e-04</internalNodes>
          <leafValues>
            -9.1116815805435181e-02 1.7021334171295166e-01</leafValues></_>
        <_>
          <internalNodes>
            0 -1 603 1.2114268029108644e-03</internalNodes>
          <leafValues>
            -9.5254138112068176e-02 1.8966685235500336e-01</leafValues></_>
        <_>
          <internalNodes>
            0 -1 1510 3.3420918043702841e-04</internalNodes>
          <leafValues>
            -8.6669847369194031e-02 1.8580049276351929e-01</leafValues></_>
        <_>
          <internalNodes>
            0 -1 697 2.3593671619892120e-02</internalNodes>
          <leafValues>
            -5.2306205034255981e-02 3.1621927022933960e-01</leafValues></_>
        <_>
          <internalNodes>
            0 -1 199 2.8620311059057713e-04</internalNodes>
          <leafValues>
            7.0354260504245758e-02 -2.4371941387653351e-01</leafValues></_>
        <_>
          <internalNodes>
            0 -1 1011 9.6147526055574417e-03</internalNodes>
          <leafValues>
            5.3626954555511475e-02 -2.9063284397125244e-01</leafValues></_>
        <_>
          <internalNodes>
            0 -1 1620 -1.6641741618514061e-02</internalNodes>
          <leafValues>
            -3.3286586403846741e-01 5.1180630922317505e-02</leafValues></_>
        <_>
          <internalNodes>
            0 -1 1838 3.2418454065918922e-03</internalNodes>
          <leafValues>
            3.6313734948635101e-02 -4.3653216958045959e-01</leafValues></_>
        <_>
          <internalNodes>
            0 -1 1581 3.7350770435295999e-04</internalNodes>
          <leafValues>
            -7.9516768455505371e-02 1.9472384452819824e-01</leafValues></_>
        <_>
          <internalNodes>
            0 -1 630 1.2978292070329189e-03</internalNodes>
          <leafValues>
            -1.4071197807788849e-01 1.1820527911186218e-01</leafValues></_>
        <_>
          <internalNodes>
            0 -1 1271 2.3492058971896768e-05</internalNodes>
          <leafValues>
            -1.2467333674430847e-01 1.1690846830606461e-01</leafValues></_>
        <_>
          <internalNodes>
            0 -1 113 9.0555697679519653e-02</internalNodes>
          <leafValues>
            2.3455237969756126e-02 -6.1234819889068604e-01</leafValues></_>
        <_>
          <internalNodes>
            0 -1 1085 2.7663609944283962e-03</internalNodes>
          <leafValues>
            3.9377432316541672e-02 -3.3350175619125366e-01</leafValues></_>
        <_>
          <internalNodes>
            0 -1 1095 -6.1749862506985664e-03</internalNodes>
          <leafValues>
            -1.9745707511901855e-01 7.0671088993549347e-02</leafValues></_>
        <_>
          <internalNodes>
            0 -1 1424 -9.2093681450933218e-04</internalNodes>
          <leafValues>
            1.4057859778404236e-01 -1.0413499921560287e-01</leafValues></_>
        <_>
          <internalNodes>
            0 -1 1412 1.6931068967096508e-04</internalNodes>
          <leafValues>
            -1.0134979337453842e-01 1.4904837310314178e-01</leafValues></_>
        <_>
          <internalNodes>
            0 -1 1404 1.7865060362964869e-04</internalNodes>
          <leafValues>
            -1.0742269456386566e-01 1.7583353817462921e-01</leafValues></_>
        <_>
          <internalNodes>
            0 -1 975 -1.8932612612843513e-02</internalNodes>
          <leafValues>
            -3.4979557991027832e-01 4.4655367732048035e-02</leafValues></_>
        <_>
          <internalNodes>
            0 -1 838 3.2636160030961037e-03</internalNodes>
          <leafValues>
            -6.7285008728504181e-02 2.5821873545646667e-01</leafValues></_>
        <_>
          <internalNodes>
            0 -1 1909 5.1272928249090910e-04</internalNodes>
          <leafValues>
            7.1029111742973328e-02 -2.1044440567493439e-01</leafValues></_>
        <_>
          <internalNodes>
            0 -1 1292 5.0684129819273949e-03</internalNodes>
          <leafValues>
            -7.3431871831417084e-02 1.8218435347080231e-01</leafValues></_>
        <_>
          <internalNodes>
            0 -1 45 4.1021575452759862e-04</internalNodes>
          <leafValues>
            4.6832345426082611e-02 -3.0866119265556335e-01</leafValues></_>
        <_>
          <internalNodes>
            0 -1 1100 -1.1822959408164024e-02</internalNodes>
          <leafValues>
            1.7689602077007294e-01 -7.9474210739135742e-02</leafValues></_>
        <_>
          <internalNodes>
            0 -1 1445 3.3148884540423751e-04</internalNodes>
          <leafValues>
            -8.7462149560451508e-02 1.5161992609500885e-01</leafValues></_>
        <_>
          <internalNodes>
            0 -1 1239 -5.3405985236167908e-03</internalNodes>
          <leafValues>
            1.9480249285697937e-01 -6.4704351127147675e-02</leafValues></_>
        <_>
          <internalNodes>
            0 -1 1377 1.1130238883197308e-02</internalNodes>
          <leafValues>
            4.9895580857992172e-02 -2.7878457307815552e-01</leafValues></_>
        <_>
          <internalNodes>
            0 -1 632 -1.0513544082641602e-02</internalNodes>
          <leafValues>
            -2.1076489984989166e-01 6.6680379211902618e-02</leafValues></_>
        <_>
          <internalNodes>
            0 -1 1940 3.4896505530923605e-03</internalNodes>
          <leafValues>
            -5.3869612514972687e-02 2.6798456907272339e-01</leafValues></_>
        <_>
          <internalNodes>
            0 -1 1746 3.9419683162122965e-04</internalNodes>
          <leafValues>
            -7.8022688627243042e-02 1.8023853003978729e-01</leafValues></_>
        <_>
          <internalNodes>
            0 -1 1971 3.1359808053821325e-04</internalNodes>
          <leafValues>
            8.9824482798576355e-02 -1.5229642391204834e-01</leafValues></_>
        <_>
          <internalNodes>
            0 -1 452 -4.4727604836225510e-03</internalNodes>
          <leafValues>
            -3.4369933605194092e-01 3.8115005940198898e-02</leafValues></_>
        <_>
          <internalNodes>
            0 -1 1737 1.3489517383277416e-02</internalNodes>
          <leafValues>
            -4.3075457215309143e-02 3.3147504925727844e-01</leafValues></_>
        <_>
          <internalNodes>
            0 -1 1543 3.9058947004377842e-04</internalNodes>
          <leafValues>
            -9.2355489730834961e-02 1.4962536096572876e-01</leafValues></_>
        <_>
          <internalNodes>
            0 -1 509 4.7994274646043777e-03</internalNodes>
          <leafValues>
            4.2160592973232269e-02 -3.2840645313262939e-01</leafValues></_>
        <_>
          <internalNodes>
            0 -1 1829 4.0484251803718507e-04</internalNodes>
          <leafValues>
            -8.3137176930904388e-02 1.7751397192478180e-01</leafValues></_>
        <_>
          <internalNodes>
            0 -1 1687 1.0370379313826561e-02</internalNodes>
          <leafValues>
            -4.3176390230655670e-02 3.2124587893486023e-01</leafValues></_>
        <_>
          <internalNodes>
            0 -1 536 -2.0583258010447025e-03</internalNodes>
          <leafValues>
            -3.7392628192901611e-01 3.7342488765716553e-02</leafValues></_>
        <_>
          <internalNodes>
            0 -1 2038 5.1405339036136866e-04</internalNodes>
          <leafValues>
            4.0416870266199112e-02 -3.1787180900573730e-01</leafValues></_>
        <_>
          <internalNodes>
            0 -1 1448 -3.7574479356408119e-03</internalNodes>
          <leafValues>
            -2.9788422584533691e-01 4.2083673179149628e-02</leafValues></_>
        <_>
          <internalNodes>
            0 -1 1499 -6.0674932319670916e-04</internalNodes>
          <leafValues>
            1.4555294811725616e-01 -9.4068430364131927e-02</leafValues></_>
        <_>
          <internalNodes>
            0 -1 1637 -4.5954184606671333e-03</internalNodes>
          <leafValues>
            -2.2079601883888245e-01 6.5528318285942078e-02</leafValues></_>
        <_>
          <internalNodes>
            0 -1 594 6.5567856654524803e-04</internalNodes>
          <leafValues>
            -7.5661927461624146e-02 1.7666271328926086e-01</leafValues></_>
        <_>
          <internalNodes>
            0 -1 159 1.4173262752592564e-02</internalNodes>
          <leafValues>
            2.9607480391860008e-02 -4.7650477290153503e-01</leafValues></_>
        <_>
          <internalNodes>
            0 -1 2009 8.4815621376037598e-03</internalNodes>
          <leafValues>
            -3.5913545638322830e-02 4.1311633586883545e-01</leafValues></_>
        <_>
          <internalNodes>
            0 -1 804 -2.6711029931902885e-04</internalNodes>
          <leafValues>
            1.3860024511814117e-01 -1.0490028560161591e-01</leafValues></_>
        <_>
          <internalNodes>
            0 -1 1111 1.5078766644001007e-01</internalNodes>
          <leafValues>
            -2.3501818999648094e-02 6.3757365942001343e-01</leafValues></_>
        <_>
          <internalNodes>
            0 -1 776 -4.4245809316635132e-02</internalNodes>
          <leafValues>
            -4.8930680751800537e-01 3.2287120819091797e-02</leafValues></_>
        <_>
          <internalNodes>
            0 -1 1154 -7.7650079037994146e-04</internalNodes>
          <leafValues>
            1.9455555081367493e-01 -8.4417127072811127e-02</leafValues></_>
        <_>
          <internalNodes>
            0 -1 74 -3.4262455301359296e-04</internalNodes>
          <leafValues>
            -2.4889187514781952e-01 5.7361084967851639e-02</leafValues></_>
        <_>
          <internalNodes>
            0 -1 770 -1.2772343121469021e-02</internalNodes>
          <leafValues>
            6.1225235462188721e-01 -2.3475624620914459e-02</leafValues></_>
        <_>
          <internalNodes>
            0 -1 390 1.5228483825922012e-02</internalNodes>
          <leafValues>
            5.1924005150794983e-02 -2.5232997536659241e-01</leafValues></_>
        <_>
          <internalNodes>
            0 -1 793 1.3819445157423615e-03</internalNodes>
          <leafValues>
            -7.0222459733486176e-02 1.8946853280067444e-01</leafValues></_>
        <_>
          <internalNodes>
            0 -1 946 1.0105413384735584e-03</internalNodes>
          <leafValues>
            -7.4610359966754913e-02 1.6953976452350616e-01</leafValues></_></weakClassifiers></_>
    <!-- stage 5 -->
    <_>
      <maxWeakCount>100</maxWeakCount>
      <stageThreshold>-1.3940322399139404e+00</stageThreshold>
      <weakClassifiers>
        <_>
          <internalNodes>
            0 -1 323 1.3276703655719757e-01</internalNodes>
          <leafValues>
            2.9156010597944260e-02 6.2351018190383911e-01</leafValues></_>
        <_>
          <internalNodes>
            0 -1 1984 7.1411252021789551e-02</internalNodes>
          <leafValues>
            -6.0259670019149780e-02 5.2682763338088989e-01</leafValues></_>
        <_>
          <internalNodes>
            0 -1 1203 6.5098047256469727e-02</internalNodes>
          <leafValues>
            -1.0612330585718155e-01 3.9972448348999023e-01</leafValues></_>
        <_>
          <internalNodes>
            0 -1 1136 8.7021328508853912e-03</internalNodes>
          <leafValues>
            -1.0666263103485107e-01 3.4604188799858093e-01</leafValues></_>
        <_>
          <internalNodes>
            0 -1 1307 -9.0672457590699196e-03</internalNodes>
          <leafValues>
            3.3901995420455933e-01 -1.3932266831398010e-01</leafValues></_>
        <_>
          <internalNodes>
            0 -1 293 -3.9066275348886847e-04</internalNodes>
          <leafValues>
            -3.1462594866752625e-01 9.8341584205627441e-02</leafValues></_>
        <_>
          <internalNodes>
            0 -1 547 -2.5798520073294640e-04</internalNodes>
          <leafValues>
            -3.4276989102363586e-01 8.1124551594257355e-02</leafValues></_>
        <_>
          <internalNodes>
            0 -1 862 -9.1851968318223953e-03</internalNodes>
          <leafValues>
            2.9660469293594360e-01 -1.0375931113958359e-01</leafValues></_>
        <_>
          <internalNodes>
            0 -1 1004 5.7174786925315857e-03</internalNodes>
          <leafValues>
            -5.1090408116579056e-02 4.6025487780570984e-01</leafValues></_>
        <_>
          <internalNodes>
            0 -1 778 -1.4654023572802544e-02</internalNodes>
          <leafValues>
            -4.5254769921302795e-01 5.7534176856279373e-02</leafValues></_>
        <_>
          <internalNodes>
            0 -1 1545 -7.1284258738160133e-03</internalNodes>
          <leafValues>
            3.8943725824356079e-01 -7.4675977230072021e-02</leafValues></_>
        <_>
          <internalNodes>
            0 -1 1237 2.3076357319951057e-03</internalNodes>
          <leafValues>
            -1.0619712620973587e-01 2.9698204994201660e-01</leafValues></_>
        <_>
          <internalNodes>
            0 -1 306 5.8666244149208069e-02</internalNodes>
          <leafValues>
            -8.6354561150074005e-02 2.7938109636306763e-01</leafValues></_>
        <_>
          <internalNodes>
            0 -1 1257 4.2990241199731827e-03</internalNodes>
          <leafValues>
            -8.9999496936798096e-02 2.6354223489761353e-01</leafValues></_>
        <_>
          <internalNodes>
            0 -1 1228 1.1017731158062816e-03</internalNodes>
          <leafValues>
            -8.5166558623313904e-02 3.0569097399711609e-01</leafValues></_>
        <_>
          <internalNodes>
            0 -1 967 7.7991937287151814e-03</internalNodes>
          <leafValues>
            -6.5131798386573792e-02 3.2188260555267334e-01</leafValues></_>
        <_>
          <internalNodes>
            0 -1 1449 5.3466169629245996e-04</internalNodes>
          <leafValues>
            6.5566100180149078e-02 -3.4236297011375427e-01</leafValues></_>
        <_>
          <internalNodes>
            0 -1 1636 1.3637829571962357e-02</internalNodes>
          <leafValues>
            6.0847099870443344e-02 -3.5211250185966492e-01</leafValues></_>
        <_>
          <internalNodes>
            0 -1 1450 -1.6772218805272132e-04</internalNodes>
          <leafValues>
            -2.0901173353195190e-01 9.8835721611976624e-02</leafValues></_>
        <_>
          <internalNodes>
            0 -1 329 9.3958973884582520e-02</internalNodes>
          <leafValues>
            3.2837543636560440e-02 -5.7472002506256104e-01</leafValues></_>
        <_>
          <internalNodes>
            0 -1 1145 4.7904932871460915e-03</internalNodes>
          <leafValues>
            9.5712102949619293e-02 -2.2052605450153351e-01</leafValues></_>
        <_>
          <internalNodes>
            0 -1 2074 -1.8250895664095879e-03</internalNodes>
          <leafValues>
            3.4590235352516174e-01 -6.4187943935394287e-02</leafValues></_>
        <_>
          <internalNodes>
            0 -1 2058 -3.1590333674103022e-04</internalNodes>
          <leafValues>
            -2.6172772049903870e-01 8.5201606154441833e-02</leafValues></_>
        <_>
          <internalNodes>
            0 -1 1177 4.7357245348393917e-03</internalNodes>
          <leafValues>
            -7.9597100615501404e-02 2.6754346489906311e-01</leafValues></_>
        <_>
          <internalNodes>
            0 -1 1026 6.5696850651875138e-04</internalNodes>
          <leafValues>
            -1.5674434602260590e-01 1.3346064090728760e-01</leafValues></_>
        <_>
          <internalNodes>
            0 -1 540 3.1206779181957245e-02</internalNodes>
          <leafValues>
            -5.1827345043420792e-02 3.3764633536338806e-01</leafValues></_>
        <_>
          <internalNodes>
            0 -1 750 3.9869835600256920e-03</internalNodes>
          <leafValues>
            -9.0853162109851837e-02 1.9183161854743958e-01</leafValues></_>
        <_>
          <internalNodes>
            0 -1 1182 -8.3238817751407623e-03</internalNodes>
          <leafValues>
            -3.1125953793525696e-01 5.9834796935319901e-02</leafValues></_>
        <_>
          <internalNodes>
            0 -1 1258 4.5954883098602295e-03</internalNodes>
          <leafValues>
            -8.4069237112998962e-02 2.0977921783924103e-01</leafValues></_>
        <_>
          <internalNodes>
            0 -1 1365 -6.9980761036276817e-03</internalNodes>
          <leafValues>
            1.3690847158432007e-01 -1.4672607183456421e-01</leafValues></_>
        <_>
          <internalNodes>
            0 -1 492 3.7210959941148758e-02</internalNodes>
          <leafValues>
            5.7781297713518143e-02 -3.4010115265846252e-01</leafValues></_>
        <_>
          <internalNodes>
            0 -1 1796 4.5614919508807361e-04</internalNodes>
          <leafValues>
            4.9983106553554535e-02 -3.4394252300262451e-01</leafValues></_>
        <_>
          <internalNodes>
            0 -1 847 3.2923535909503698e-03</internalNodes>
          <leafValues>
            -6.4588427543640137e-02 2.6950341463088989e-01</leafValues></_>
        <_>
          <internalNodes>
            0 -1 2047 4.8908812459558249e-04</internalNodes>
          <leafValues>
            4.5657441020011902e-02 -3.6831969022750854e-01</leafValues></_>
        <_>
          <internalNodes>
            0 -1 1131 -3.5947943106293678e-03</internalNodes>
          <leafValues>
            1.2345301359891891e-01 -1.2699006497859955e-01</leafValues></_>
        <_>
          <internalNodes>
            0 -1 2075 4.9440795555710793e-03</internalNodes>
          <leafValues>
            -6.8833775818347931e-02 2.4982084333896637e-01</leafValues></_>
        <_>
          <internalNodes>
            0 -1 261 -1.9924547523260117e-03</internalNodes>
          <leafValues>
            -3.8755667209625244e-01 4.2492717504501343e-02</leafValues></_>
        <_>
          <internalNodes>
            0 -1 896 -2.2065099619794637e-04</internalNodes>
          <leafValues>
            -2.0916117727756500e-01 6.8539939820766449e-02</leafValues></_>
        <_>
          <internalNodes>
            0 -1 366 -3.0498474370688200e-03</internalNodes>
          <leafValues>
            1.4332406222820282e-01 -1.0237801074981689e-01</leafValues></_>
        <_>
          <internalNodes>
            0 -1 1187 3.5723857581615448e-03</internalNodes>
          <leafValues>
            -7.7666163444519043e-02 2.2255122661590576e-01</leafValues></_>
        <_>
          <internalNodes>
            0 -1 623 -5.1999994320794940e-04</internalNodes>
          <leafValues>
            1.7059706151485443e-01 -8.7552405893802643e-02</leafValues></_>
        <_>
          <internalNodes>
            0 -1 124 4.2075844248756766e-04</internalNodes>
          <leafValues>
            7.5403429567813873e-02 -2.0249201357364655e-01</leafValues></_>
        <_>
          <internalNodes>
            0 -1 1118 -3.1008620280772448e-03</internalNodes>
          <leafValues>
            1.5861870348453522e-01 -9.6419870853424072e-02</leafValues></_>
        <_>
          <internalNodes>
            0 -1 910 -1.9079152494668961e-02</internalNodes>
          <leafValues>
            4.6926850080490112e-01 -3.2083507627248764e-02</leafValues></_>
        <_>
          <internalNodes>
            0 -1 764 5.7231895625591278e-02</internalNodes>
          <leafValues>
            3.0155884101986885e-02 -5.3189188241958618e-01</leafValues></_>
        <_>
          <internalNodes>
            0 -1 123 -1.4559982810169458e-04</internalNodes>
          <leafValues>
            -1.8984101712703705e-01 7.5156688690185547e-02</leafValues></_>
        <_>
          <internalNodes>
            0 -1 1190 1.8588498234748840e-02</internalNodes>
          <leafValues>
            4.0799282491207123e-02 -3.3953920006752014e-01</leafValues></_>
        <_>
          <internalNodes>
            0 -1 1816 9.9474135786294937e-03</internalNodes>
          <leafValues>
            -6.5074309706687927e-02 2.4399287998676300e-01</leafValues></_>
        <_>
          <internalNodes>
            0 -1 150 -1.5558868646621704e-01</internalNodes>
          <leafValues>
            3.3974167704582214e-01 -4.6656399965286255e-02</leafValues></_>
        <_>
          <internalNodes>
            0 -1 1763 1.2162551283836365e-02</internalNodes>
          <leafValues>
            -3.2430585473775864e-02 4.2072528600692749e-01</leafValues></_>
        <_>
          <internalNodes>
            0 -1 34 5.1256000995635986e-02</internalNodes>
          <leafValues>
            -5.8471120893955231e-02 2.3045271635055542e-01</leafValues></_>
        <_>
          <internalNodes>
            0 -1 1950 2.9475640039891005e-03</internalNodes>
          <leafValues>
            -4.8494778573513031e-02 3.1567218899726868e-01</leafValues></_>
        <_>
          <internalNodes>
            0 -1 1964 1.7582855070941150e-04</internalNodes>
          <leafValues>
            7.1242749691009521e-02 -1.9756865501403809e-01</leafValues></_>
        <_>
          <internalNodes>
            0 -1 1611 1.0021713376045227e-01</internalNodes>
          <leafValues>
            1.9949259236454964e-02 -6.5876269340515137e-01</leafValues></_>
        <_>
          <internalNodes>
            0 -1 1975 1.0449895635247231e-03</internalNodes>
          <leafValues>
            4.9491785466670990e-02 -2.4988138675689697e-01</leafValues></_>
        <_>
          <internalNodes>
            0 -1 1384 3.0757263302803040e-03</internalNodes>
          <leafValues>
            -6.7233502864837646e-02 1.8917654454708099e-01</leafValues></_>
        <_>
          <internalNodes>
            0 -1 1227 2.9782750061713159e-04</internalNodes>
          <leafValues>
            -1.0395707190036774e-01 1.4625121653079987e-01</leafValues></_>
        <_>
          <internalNodes>
            0 -1 998 1.9015789031982422e-02</internalNodes>
          <leafValues>
            4.2482569813728333e-02 -3.2444882392883301e-01</leafValues></_>
        <_>
          <internalNodes>
            0 -1 1391 3.5445304820314050e-04</internalNodes>
          <leafValues>
            -7.9301640391349792e-02 1.9480305910110474e-01</leafValues></_>
        <_>
          <internalNodes>
            0 -1 1161 -1.3386554783210158e-03</internalNodes>
          <leafValues>
            1.0246156901121140e-01 -1.2842136621475220e-01</leafValues></_>
        <_>
          <internalNodes>
            0 -1 8 -6.1047923564910889e-01</internalNodes>
          <leafValues>
            6.1027872562408447e-01 -2.2537266835570335e-02</leafValues></_>
        <_>
          <internalNodes>
            0 -1 992 3.9284460945054889e-04</internalNodes>
          <leafValues>
            -8.3089552819728851e-02 1.5382650494575500e-01</leafValues></_>
        <_>
          <internalNodes>
            0 -1 1458 1.4862410724163055e-02</internalNodes>
          <leafValues>
            -7.5537443161010742e-02 1.7763590812683105e-01</leafValues></_>
        <_>
          <internalNodes>
            0 -1 152 7.0765283890068531e-03</internalNodes>
          <leafValues>
            5.2556790411472321e-02 -2.6477602124214172e-01</leafValues></_>
        <_>
          <internalNodes>
            0 -1 851 5.7056434452533722e-02</internalNodes>
          <leafValues>
            2.1907296031713486e-02 -5.9058398008346558e-01</leafValues></_>
        <_>
          <internalNodes>
            0 -1 591 -4.0524415671825409e-02</internalNodes>
          <leafValues>
            -4.8052579164505005e-01 2.4556068703532219e-02</leafValues></_>
        <_>
          <internalNodes>
            0 -1 1401 -7.1108413976617157e-05</internalNodes>
          <leafValues>
            1.2080719321966171e-01 -1.1430777609348297e-01</leafValues></_>
        <_>
          <internalNodes>
            0 -1 231 -1.1083357036113739e-02</internalNodes>
          <leafValues>
            2.0072180032730103e-01 -7.7680394053459167e-02</leafValues></_>
        <_>
          <internalNodes>
            0 -1 769 -8.0261309631168842e-04</internalNodes>
          <leafValues>
            1.8785312771797180e-01 -7.4402190744876862e-02</leafValues></_>
        <_>
          <internalNodes>
            0 -1 2030 1.7677425057627261e-04</internalNodes>
          <leafValues>
            6.4561232924461365e-02 -2.0573337376117706e-01</leafValues></_>
        <_>
          <internalNodes>
            0 -1 408 -1.5901643782854080e-03</internalNodes>
          <leafValues>
            -2.3771920800209045e-01 5.5745799094438553e-02</leafValues></_>
        <_>
          <internalNodes>
            0 -1 1780 5.9443116188049316e-03</internalNodes>
          <leafValues>
            -5.2667409181594849e-02 2.4607676267623901e-01</leafValues></_>
        <_>
          <internalNodes>
            0 -1 1573 6.4619882032275200e-03</internalNodes>
          <leafValues>
            -4.6560473740100861e-02 2.5874161720275879e-01</leafValues></_>
        <_>
          <internalNodes>
            0 -1 1426 1.4773645671084523e-04</internalNodes>
          <leafValues>
            -9.3082346022129059e-02 1.5094803273677826e-01</leafValues></_>
        <_>
          <internalNodes>
            0 -1 1255 6.0634040273725986e-03</internalNodes>
          <leafValues>
            3.0143333598971367e-02 -4.6334418654441833e-01</leafValues></_>
        <_>
          <internalNodes>
            0 -1 1794 -2.0851397886872292e-02</internalNodes>
          <leafValues>
            1.6251190006732941e-01 -7.5355999171733856e-02</leafValues></_>
        <_>
          <internalNodes>
            0 -1 89 -2.0785823289770633e-04</internalNodes>
          <leafValues>
            -2.0081986486911774e-01 6.0469221323728561e-02</leafValues></_>
        <_>
          <internalNodes>
            0 -1 664 -1.5673931688070297e-02</internalNodes>
          <leafValues>
            2.1404761075973511e-01 -5.8466389775276184e-02</leafValues></_>
        <_>
          <internalNodes>
            0 -1 1047 1.3459424488246441e-02</internalNodes>
          <leafValues>
            2.2360017523169518e-02 -5.8364880084991455e-01</leafValues></_>
        <_>
          <internalNodes>
            0 -1 683 7.3802834376692772e-03</internalNodes>
          <leafValues>
            -6.1864420771598816e-02 2.1032637357711792e-01</leafValues></_>
        <_>
          <internalNodes>
            0 -1 1847 4.8535107634961605e-04</internalNodes>
          <leafValues>
            -7.9621896147727966e-02 1.5433706343173981e-01</leafValues></_>
        <_>
          <internalNodes>
            0 -1 1904 -2.0857551135122776e-03</internalNodes>
          <leafValues>
            -3.3548641204833984e-01 3.7984099239110947e-02</leafValues></_>
        <_>
          <internalNodes>
            0 -1 119 -1.4172326028347015e-01</internalNodes>
          <leafValues>
            -3.7445554137229919e-01 3.3196754753589630e-02</leafValues></_>
        <_>
          <internalNodes>
            0 -1 564 -2.5766475591808558e-03</internalNodes>
          <leafValues>
            -4.7964262962341309e-01 2.6143191382288933e-02</leafValues></_>
        <_>
          <internalNodes>
            0 -1 1735 4.8409486771561205e-04</internalNodes>
          <leafValues>
            -6.4507916569709778e-02 1.9830614328384399e-01</leafValues></_>
        <_>
          <internalNodes>
            0 -1 498 -1.2754792347550392e-02</internalNodes>
          <leafValues>
            -5.1376760005950928e-01 2.4421762675046921e-02</leafValues></_>
        <_>
          <internalNodes>
            0 -1 85 7.5596636161208153e-03</internalNodes>
          <leafValues>
            -2.0122349262237549e-02 6.8824398517608643e-01</leafValues></_>
        <_>
          <internalNodes>
            0 -1 1656 9.6886157989501953e-03</internalNodes>
          <leafValues>
            -2.4049799889326096e-02 4.6787500381469727e-01</leafValues></_>
        <_>
          <internalNodes>
            0 -1 1515 2.5417283177375793e-03</internalNodes>
          <leafValues>
            -7.0447765290737152e-02 1.7559877038002014e-01</leafValues></_>
        <_>
          <internalNodes>
            0 -1 1172 -2.7588297962211072e-04</internalNodes>
          <leafValues>
            1.8545813858509064e-01 -8.2825668156147003e-02</leafValues></_>
        <_>
          <internalNodes>
            0 -1 1289 -1.6882550716400146e-01</internalNodes>
          <leafValues>
            -7.1892440319061279e-01 1.8039325252175331e-02</leafValues></_>
        <_>
          <internalNodes>
            0 -1 654 4.9362581223249435e-02</internalNodes>
          <leafValues>
            1.9212512299418449e-02 -5.4987639188766479e-01</leafValues></_>
        <_>
          <internalNodes>
            0 -1 2039 5.2670977311208844e-04</internalNodes>
          <leafValues>
            5.1272798329591751e-02 -2.1361267566680908e-01</leafValues></_>
        <_>
          <internalNodes>
            0 -1 1702 -6.9039851427078247e-02</internalNodes>
          <leafValues>
            -7.9221910238265991e-01 1.3341823592782021e-02</leafValues></_>
        <_>
          <internalNodes>
            0 -1 553 1.9477490335702896e-02</internalNodes>
          <leafValues>
            1.7276877537369728e-02 -5.3557461500167847e-01</leafValues></_>
        <_>
          <internalNodes>
            0 -1 593 4.9411435611546040e-04</internalNodes>
          <leafValues>
            -6.7789651453495026e-02 1.8324822187423706e-01</leafValues></_>
        <_>
          <internalNodes>
            0 -1 450 -1.1697087436914444e-02</internalNodes>
          <leafValues>
            -2.1903496980667114e-01 5.4213002324104309e-02</leafValues></_>
        <_>
          <internalNodes>
            0 -1 1009 5.5968761444091797e-03</internalNodes>
          <leafValues>
            5.6946877390146255e-02 -2.3895816504955292e-01</leafValues></_>
        <_>
          <internalNodes>
            0 -1 1740 -1.2119971215724945e-02</internalNodes>
          <leafValues>
            4.1656768321990967e-01 -2.8166314586997032e-02</leafValues></_>
        <_>
          <internalNodes>
            0 -1 1963 -4.4983252882957458e-04</internalNodes>
          <leafValues>
            -1.4749440550804138e-01 8.0604806542396545e-02</leafValues></_></weakClassifiers></_>
    <!-- stage 6 -->
    <_>
      <maxWeakCount>100</maxWeakCount>
      <stageThreshold>-1.3987780809402466e+00</stageThreshold>
      <weakClassifiers>
        <_>
          <internalNodes>
            0 -1 27 1.4483463764190674e-01</internalNodes>
          <leafValues>
            2.5709219276905060e-02 7.3075449466705322e-01</leafValues></_>
        <_>
          <internalNodes>
            0 -1 378 -7.6492957770824432e-02</internalNodes>
          <leafValues>
            3.5167106986045837e-01 -1.5846267342567444e-01</leafValues></_>
        <_>
          <internalNodes>
            0 -1 1667 2.5459326803684235e-02</internalNodes>
          <leafValues>
            -1.0107956826686859e-01 4.4554620981216431e-01</leafValues></_>
        <_>
          <internalNodes>
            0 -1 237 1.9631162285804749e-02</internalNodes>
          <leafValues>
            -1.1864867806434631e-01 3.9090380072593689e-01</leafValues></_>
        <_>
          <internalNodes>
            0 -1 255 -2.9918374493718147e-03</internalNodes>
          <leafValues>
            3.0478513240814209e-01 -1.1038847267627716e-01</leafValues></_>
        <_>
          <internalNodes>
            0 -1 923 -3.3198646269738674e-04</internalNodes>
          <leafValues>
            2.7736482024192810e-01 -1.2371744215488434e-01</leafValues></_>
        <_>
          <internalNodes>
            0 -1 923 4.1822792263701558e-04</internalNodes>
          <leafValues>
            -1.4442864060401917e-01 2.7936094999313354e-01</leafValues></_>
        <_>
          <internalNodes>
            0 -1 82 -1.8456473946571350e-02</internalNodes>
          <leafValues>
            3.0826660990715027e-01 -9.0045295655727386e-02</leafValues></_>
        <_>
          <internalNodes>
            0 -1 1028 4.4275134801864624e-02</internalNodes>
          <leafValues>
            5.6111685931682587e-02 -5.5284601449966431e-01</leafValues></_>
        <_>
          <internalNodes>
            0 -1 298 -7.3507423512637615e-03</internalNodes>
          <leafValues>
            2.1906359493732452e-01 -1.1326123028993607e-01</leafValues></_>
        <_>
          <internalNodes>
            0 -1 1266 3.4583802334964275e-03</internalNodes>
          <leafValues>
            -9.2756792902946472e-02 2.7065244317054749e-01</leafValues></_>
        <_>
          <internalNodes>
            0 -1 1081 9.1744141172966920e-06</internalNodes>
          <leafValues>
            -1.7593228816986084e-01 1.7893268167972565e-01</leafValues></_>
        <_>
          <internalNodes>
            0 -1 241 -9.4533199444413185e-03</internalNodes>
          <leafValues>
            -4.5452144742012024e-01 5.4439578205347061e-02</leafValues></_>
        <_>
