<?xml version="1.0"?>
<opencv_storage>
<cascade>
  <stageType>BOOST</stageType>
  <featureType>HAAR</featureType>
  <height>40</height>
  <width>40</width>
  <stageParams>
    <boostType>GAB</boostType>
    <minHitRate>9.9900001287460327e-01</minHitRate>
    <maxFalseAlarm>5.0000000000000000e-01</maxFalseAlarm>
    <weightTrimRate>9.4999999999999996e-01</weightTrimRate>
    <maxDepth>1</maxDepth>
    <maxWeakCount>100</maxWeakCount></stageParams>
  <featureParams>
    <maxCatCount>0</maxCatCount>
    <featSize>1</featSize>
    <mode>ALL</mode></featureParams>
  <stageNum>20</stageNum>
  <stages>
    <!-- stage 0 -->
    <_>
      <maxWeakCount>4</maxWeakCount>
      <stageThreshold>-1.5068346261978149e+00</stageThreshold>
      <weakClassifiers>
        <_>
          <internalNodes>
            0 -1 11 1.0043404251337051e-01</internalNodes>
          <leafValues>
            -9.3917709589004517e-01 8.8856869935989380e-01</leafValues></_>
        <_>
          <internalNodes>
            0 -1 19 1.5399813652038574e-01</internalNodes>
          <leafValues>
            -6.2047636508941650e-01 8.2361042499542236e-01</leafValues></_>
        <_>
          <internalNodes>
            0 -1 106 1.1864944361150265e-02</internalNodes>
          <leafValues>
            -5.3031754493713379e-01 8.3485603332519531e-01</leafValues></_>
        <_>
          <internalNodes>
            0 -1 8 3.1983532011508942e-02</internalNodes>
          <leafValues>
            -7.2158914804458618e-01 5.8313637971878052e-01</leafValues></_></weakClassifiers></_>
    <!-- stage 1 -->
    <_>
      <maxWeakCount>5</maxWeakCount>
      <stageThreshold>-1.0835322141647339e+00</stageThreshold>
      <weakClassifiers>
        <_>
          <internalNodes>
            0 -1 7 1.8269303441047668e-01</internalNodes>
          <leafValues>
            -7.8397214412689209e-01 8.2846003770828247e-01</leafValues></_>
        <_>
          <internalNodes>
            0 -1 66 4.8400666564702988e-02</internalNodes>
          <leafValues>
            -6.8055701255798340e-01 5.6944513320922852e-01</leafValues></_>
        <_>
          <internalNodes>
            0 -1 84 -3.5892963409423828e-02</internalNodes>
          <leafValues>
            4.1150969266891479e-01 -9.1386550664901733e-01</leafValues></_>
        <_>
          <internalNodes>
            0 -1 26 1.1678449809551239e-02</internalNodes>
          <leafValues>
            -6.1264961957931519e-01 4.5346668362617493e-01</leafValues></_>
        <_>
          <internalNodes>
            0 -1 110 -9.2717091320082545e-05</internalNodes>
          <leafValues>
            6.5750986337661743e-01 -4.0468659996986389e-01</leafValues></_></weakClassifiers></_>
    <!-- stage 2 -->
    <_>
      <maxWeakCount>8</maxWeakCount>
      <stageThreshold>-1.4417554140090942e+00</stageThreshold>
      <weakClassifiers>
        <_>
          <internalNodes>
            0 -1 12 1.4522615075111389e-01</internalNodes>
          <leafValues>
            -6.1120265722274780e-01 7.7643501758575439e-01</leafValues></_>
        <_>
          <internalNodes>
            0 -1 111 3.9004469290375710e-03</internalNodes>
          <leafValues>
            -7.2638815641403198e-01 4.0229114890098572e-01</leafValues></_>
        <_>
          <internalNodes>
            0 -1 48 1.1691421270370483e-02</internalNodes>
          <leafValues>
            -6.2394112348556519e-01 4.2512920498847961e-01</leafValues></_>
        <_>
          <internalNodes>
            0 -1 186 4.2311116885684896e-06</internalNodes>
          <leafValues>
            3.4018224477767944e-01 -7.3394346237182617e-01</leafValues></_>
        <_>
          <internalNodes>
            0 -1 137 -1.1759350076317787e-02</internalNodes>
          <leafValues>
            2.6049697399139404e-01 -8.6470210552215576e-01</leafValues></_>
        <_>
          <internalNodes>
            0 -1 159 -2.3750846594339237e-05</internalNodes>
          <leafValues>
            -8.4369373321533203e-01 2.6936694979667664e-01</leafValues></_>
        <_>
          <internalNodes>
            0 -1 33 1.9163042306900024e-02</internalNodes>
          <leafValues>
            -5.5843764543533325e-01 4.5263105630874634e-01</leafValues></_>
        <_>
          <internalNodes>
            0 -1 174 -5.5735872592777014e-04</internalNodes>
          <leafValues>
            -8.2700008153915405e-01 2.8429669141769409e-01</leafValues></_></weakClassifiers></_>
    <!-- stage 3 -->
    <_>
      <maxWeakCount>10</maxWeakCount>
      <stageThreshold>-1.5062605142593384e+00</stageThreshold>
      <weakClassifiers>
        <_>
          <internalNodes>
            0 -1 27 5.5383376777172089e-02</internalNodes>
          <leafValues>
            -6.2851780652999878e-01 6.8884724378585815e-01</leafValues></_>
        <_>
          <internalNodes>
            0 -1 156 1.6806421626824886e-05</internalNodes>
          <leafValues>
            -7.1271216869354248e-01 4.1887423396110535e-01</leafValues></_>
        <_>
          <internalNodes>
            0 -1 119 -1.2525243684649467e-02</internalNodes>
          <leafValues>
            4.8184058070182800e-01 -5.2822232246398926e-01</leafValues></_>
        <_>
          <internalNodes>
            0 -1 60 1.2060245871543884e-01</internalNodes>
          <leafValues>
            -5.2920615673065186e-01 5.2509081363677979e-01</leafValues></_>
        <_>
          <internalNodes>
            0 -1 59 8.7118729425128549e-05</internalNodes>
          <leafValues>
            -6.8062168359756470e-01 3.2358258962631226e-01</leafValues></_>
        <_>
          <internalNodes>
            0 -1 49 2.0605043973773718e-03</internalNodes>
          <leafValues>
            -6.9560927152633667e-01 2.8511297702789307e-01</leafValues></_>
        <_>
          <internalNodes>
            0 -1 178 -6.1178885516710579e-05</internalNodes>
          <leafValues>
            -6.9229578971862793e-01 2.9080232977867126e-01</leafValues></_>
        <_>
          <internalNodes>
            0 -1 94 3.2978129456751049e-04</internalNodes>
          <leafValues>
            -5.4919093847274780e-01 3.9857146143913269e-01</leafValues></_>
        <_>
          <internalNodes>
            0 -1 39 -1.1180575937032700e-02</internalNodes>
          <leafValues>
            -8.2085371017456055e-01 2.8721031546592712e-01</leafValues></_>
        <_>
          <internalNodes>
            0 -1 172 4.5878554374212399e-05</internalNodes>
          <leafValues>
            2.9634094238281250e-01 -6.9874042272567749e-01</leafValues></_></weakClassifiers></_>
    <!-- stage 4 -->
    <_>
      <maxWeakCount>9</maxWeakCount>
      <stageThreshold>-1.5864667892456055e+00</stageThreshold>
      <weakClassifiers>
        <_>
          <internalNodes>
            0 -1 10 2.7585083246231079e-01</internalNodes>
          <leafValues>
            -4.1304346919059753e-01 6.9665271043777466e-01</leafValues></_>
        <_>
          <internalNodes>
            0 -1 18 3.1640540692023933e-04</internalNodes>
          <leafValues>
            -6.2888836860656738e-01 3.8974809646606445e-01</leafValues></_>
        <_>
          <internalNodes>
            0 -1 99 6.8960180506110191e-03</internalNodes>
          <leafValues>
            -4.3472191691398621e-01 4.8424634337425232e-01</leafValues></_>
        <_>
          <internalNodes>
            0 -1 138 -1.0313800885342062e-04</internalNodes>
          <leafValues>
            -7.7218043804168701e-01 2.7697688341140747e-01</leafValues></_>
        <_>
          <internalNodes>
            0 -1 134 5.3003812354290858e-05</internalNodes>
          <leafValues>
            2.6731762290000916e-01 -6.9224512577056885e-01</leafValues></_>
        <_>
          <internalNodes>
            0 -1 167 -1.0654106517904438e-05</internalNodes>
          <leafValues>
            3.1008949875831604e-01 -5.6024521589279175e-01</leafValues></_>
        <_>
          <internalNodes>
            0 -1 182 1.5187212557066232e-04</internalNodes>
          <leafValues>
            2.2253566980361938e-01 -7.8393393754959106e-01</leafValues></_>
        <_>
          <internalNodes>
            0 -1 68 8.8884262368083000e-05</internalNodes>
          <leafValues>
            -6.2287950515747070e-01 2.4279889464378357e-01</leafValues></_>
        <_>
          <internalNodes>
            0 -1 78 4.7468179836869240e-03</internalNodes>
          <leafValues>
            -7.1215486526489258e-01 2.4410782754421234e-01</leafValues></_></weakClassifiers></_>
    <!-- stage 5 -->
    <_>
      <maxWeakCount>11</maxWeakCount>
      <stageThreshold>-1.1772959232330322e+00</stageThreshold>
      <weakClassifiers>
        <_>
          <internalNodes>
            0 -1 161 2.7508693165145814e-05</internalNodes>
          <leafValues>
            5.0405186414718628e-01 -6.0655736923217773e-01</leafValues></_>
        <_>
          <internalNodes>
            0 -1 23 2.2697472572326660e-01</internalNodes>
          <leafValues>
            -3.5123693943023682e-01 6.2476170063018799e-01</leafValues></_>
        <_>
          <internalNodes>
            0 -1 199 -7.1247399318963289e-05</internalNodes>
          <leafValues>
            -6.7607611417770386e-01 3.2001298666000366e-01</leafValues></_>
        <_>
          <internalNodes>
            0 -1 43 7.8344787470996380e-04</internalNodes>
          <leafValues>
            -7.6189434528350830e-01 2.3539578914642334e-01</leafValues></_>
        <_>
          <internalNodes>
            0 -1 148 2.6817857360583730e-05</internalNodes>
          <leafValues>
            1.9506779313087463e-01 -8.0064213275909424e-01</leafValues></_>
        <_>
          <internalNodes>
            0 -1 163 -3.2059080695034936e-05</internalNodes>
          <leafValues>
            3.4933379292488098e-01 -5.5660313367843628e-01</leafValues></_>
        <_>
          <internalNodes>
            0 -1 98 1.4548201579600573e-04</internalNodes>
          <leafValues>
            -5.2434396743774414e-01 3.7103685736656189e-01</leafValues></_>
        <_>
          <internalNodes>
            0 -1 51 1.4740075916051865e-02</internalNodes>
          <leafValues>
            -6.3651156425476074e-01 3.0829429626464844e-01</leafValues></_>
        <_>
          <internalNodes>
            0 -1 31 1.1739897672669031e-05</internalNodes>
          <leafValues>
            -6.3352864980697632e-01 2.8211274743080139e-01</leafValues></_>
        <_>
          <internalNodes>
            0 -1 89 -6.3964203000068665e-03</internalNodes>
          <leafValues>
            3.6496502161026001e-01 -4.7858613729476929e-01</leafValues></_>
        <_>
          <internalNodes>
            0 -1 117 3.0733095481991768e-03</internalNodes>
          <leafValues>
            -7.5828069448471069e-01 1.7314751446247101e-01</leafValues></_></weakClassifiers></_>
    <!-- stage 6 -->
    <_>
      <maxWeakCount>9</maxWeakCount>
      <stageThreshold>-1.1067111492156982e+00</stageThreshold>
      <weakClassifiers>
        <_>
          <internalNodes>
            0 -1 176 1.0029654731624760e-05</internalNodes>
          <leafValues>
            -5.3510898351669312e-01 5.2316766977310181e-01</leafValues></_>
        <_>
          <internalNodes>
            0 -1 15 2.7152257040143013e-02</internalNodes>
          <leafValues>
            -5.7395374774932861e-01 3.8372895121574402e-01</leafValues></_>
        <_>
          <internalNodes>
            0 -1 150 2.6223933673463762e-05</internalNodes>
          <leafValues>
            2.3294812440872192e-01 -8.0770802497863770e-01</leafValues></_>
        <_>
          <internalNodes>
            0 -1 30 5.2661908557638526e-04</internalNodes>
          <leafValues>
            -6.8636596202850342e-01 2.6856401562690735e-01</leafValues></_>
        <_>
          <internalNodes>
            0 -1 93 -2.4385262280702591e-02</internalNodes>
          <leafValues>
            1.9057750701904297e-01 -8.8847279548645020e-01</leafValues></_>
        <_>
          <internalNodes>
            0 -1 191 -6.2912433349993080e-05</internalNodes>
          <leafValues>
            2.9569205641746521e-01 -6.1768281459808350e-01</leafValues></_>
        <_>
          <internalNodes>
            0 -1 139 -1.1287945380900055e-04</internalNodes>
          <leafValues>
            -7.4673664569854736e-01 2.5085380673408508e-01</leafValues></_>
        <_>
          <internalNodes>
            0 -1 76 1.2131592258810997e-02</internalNodes>
          <leafValues>
            -3.9608493447303772e-01 3.7257939577102661e-01</leafValues></_>
        <_>
          <internalNodes>
            0 -1 120 -1.3384330086410046e-03</internalNodes>
          <leafValues>
            4.6653527021408081e-01 -2.9724797606468201e-01</leafValues></_></weakClassifiers></_>
    <!-- stage 7 -->
    <_>
      <maxWeakCount>13</maxWeakCount>
      <stageThreshold>-1.3540188074111938e+00</stageThreshold>
      <weakClassifiers>
        <_>
          <internalNodes>
            0 -1 21 3.6094016395509243e-03</internalNodes>
          <leafValues>
            -5.6446993350982666e-01 4.7721821069717407e-01</leafValues></_>
        <_>
          <internalNodes>
            0 -1 152 2.5995679607149214e-05</internalNodes>
          <leafValues>
            2.4217481911182404e-01 -6.7721295356750488e-01</leafValues></_>
        <_>
          <internalNodes>
            0 -1 133 -1.0390468873083591e-02</internalNodes>
          <leafValues>
            3.2662579417228699e-01 -5.4676187038421631e-01</leafValues></_>
        <_>
          <internalNodes>
            0 -1 175 5.2695439080707729e-05</internalNodes>
          <leafValues>
            1.9820937514305115e-01 -7.7676439285278320e-01</leafValues></_>
        <_>
          <internalNodes>
            0 -1 73 1.3982117176055908e-02</internalNodes>
          <leafValues>
            -5.8322376012802124e-01 2.4955523014068604e-01</leafValues></_>
        <_>
          <internalNodes>
            0 -1 184 -1.2606140808202326e-04</internalNodes>
          <leafValues>
            -7.0081174373626709e-01 1.9705846905708313e-01</leafValues></_>
        <_>
          <internalNodes>
            0 -1 80 2.3783999495208263e-03</internalNodes>
          <leafValues>
            -5.2376496791839600e-01 3.1974110007286072e-01</leafValues></_>
        <_>
          <internalNodes>
            0 -1 202 1.3155826309230179e-05</internalNodes>
          <leafValues>
            -5.7715982198715210e-01 2.4210439622402191e-01</leafValues></_>
        <_>
          <internalNodes>
            0 -1 62 1.4790117740631104e-02</internalNodes>
          <leafValues>
            -7.8751683235168457e-01 1.6365009546279907e-01</leafValues></_>
        <_>
          <internalNodes>
            0 -1 112 1.1852170428028330e-04</internalNodes>
          <leafValues>
            -2.9640725255012512e-01 5.3599107265472412e-01</leafValues></_>
        <_>
          <internalNodes>
            0 -1 58 1.3082446457701735e-05</internalNodes>
          <leafValues>
            -5.6988996267318726e-01 2.8601515293121338e-01</leafValues></_>
        <_>
          <internalNodes>
            0 -1 101 -3.9868638850748539e-04</internalNodes>
          <leafValues>
            3.3398306369781494e-01 -4.3091189861297607e-01</leafValues></_>
        <_>
          <internalNodes>
            0 -1 92 3.1446477805729955e-05</internalNodes>
          <leafValues>
            -4.1509550809860229e-01 3.4915804862976074e-01</leafValues></_></weakClassifiers></_>
    <!-- stage 8 -->
    <_>
      <maxWeakCount>11</maxWeakCount>
      <stageThreshold>-1.1581940650939941e+00</stageThreshold>
      <weakClassifiers>
        <_>
          <internalNodes>
            0 -1 38 1.1767993782996200e-05</internalNodes>
          <leafValues>
            -5.0743097066879272e-01 5.6598758697509766e-01</leafValues></_>
        <_>
          <internalNodes>
            0 -1 79 4.8004920245148242e-05</internalNodes>
          <leafValues>
            -5.5741751194000244e-01 3.8538926839828491e-01</leafValues></_>
        <_>
          <internalNodes>
            0 -1 47 1.3008423149585724e-02</internalNodes>
          <leafValues>
            -5.5322736501693726e-01 3.1931433081626892e-01</leafValues></_>
        <_>
          <internalNodes>
            0 -1 149 7.6645148510579020e-05</internalNodes>
          <leafValues>
            2.2060002386569977e-01 -7.9491549730300903e-01</leafValues></_>
        <_>
          <internalNodes>
            0 -1 64 7.0639671757817268e-03</internalNodes>
          <leafValues>
            -7.5464898347854614e-01 1.8990646302700043e-01</leafValues></_>
        <_>
          <internalNodes>
            0 -1 158 1.1087579878221732e-05</internalNodes>
          <leafValues>
            -6.2438082695007324e-01 2.3258201777935028e-01</leafValues></_>
        <_>
          <internalNodes>
            0 -1 136 -1.0964568704366684e-02</internalNodes>
          <leafValues>
            2.6287400722503662e-01 -5.7247865200042725e-01</leafValues></_>
        <_>
          <internalNodes>
            0 -1 131 2.4455213861074299e-05</internalNodes>
          <leafValues>
            3.2534840703010559e-01 -5.1143312454223633e-01</leafValues></_>
        <_>
          <internalNodes>
            0 -1 116 -7.6172000262886286e-05</internalNodes>
          <leafValues>
            5.5357229709625244e-01 -3.4455740451812744e-01</leafValues></_>
        <_>
          <internalNodes>
            0 -1 22 -3.4596961922943592e-03</internalNodes>
          <leafValues>
            -7.2078686952590942e-01 3.1002107262611389e-01</leafValues></_>
        <_>
          <internalNodes>
            0 -1 179 -2.1468117483891547e-04</internalNodes>
          <leafValues>
            -5.9217035770416260e-01 2.1324361860752106e-01</leafValues></_></weakClassifiers></_>
    <!-- stage 9 -->
    <_>
      <maxWeakCount>11</maxWeakCount>
      <stageThreshold>-1.3817905187606812e+00</stageThreshold>
      <weakClassifiers>
        <_>
          <internalNodes>
            0 -1 188 -1.8135600839741528e-05</internalNodes>
          <leafValues>
            4.9880668520927429e-01 -6.6180759668350220e-01</leafValues></_>
        <_>
          <internalNodes>
            0 -1 143 -2.7134354240843095e-05</internalNodes>
          <leafValues>
            -8.9282315969467163e-01 2.5692915916442871e-01</leafValues></_>
        <_>
          <internalNodes>
            0 -1 5 8.2926619052886963e-01</internalNodes>
          <leafValues>
            -3.8991621136665344e-01 5.7856118679046631e-01</leafValues></_>
        <_>
          <internalNodes>
            0 -1 144 -1.5942714526318014e-04</internalNodes>
          <leafValues>
            -7.7875208854675293e-01 2.4157679080963135e-01</leafValues></_>
        <_>
          <internalNodes>
            0 -1 74 4.9368618056178093e-04</internalNodes>
          <leafValues>
            -4.5195892453193665e-01 3.7750276923179626e-01</leafValues></_>
        <_>
          <internalNodes>
            0 -1 164 -6.2326929764822125e-05</internalNodes>
          <leafValues>
            2.8856942057609558e-01 -5.7293599843978882e-01</leafValues></_>
        <_>
          <internalNodes>
            0 -1 82 -5.9014976024627686e-02</internalNodes>
          <leafValues>
            1.5008655190467834e-01 -9.5601475238800049e-01</leafValues></_>
        <_>
          <internalNodes>
            0 -1 65 1.0804635167005472e-05</internalNodes>
          <leafValues>
            -6.8441689014434814e-01 2.1448419988155365e-01</leafValues></_>
        <_>
          <internalNodes>
            0 -1 42 1.1223268695175648e-02</internalNodes>
          <leafValues>
            -6.2115639448165894e-01 2.8503239154815674e-01</leafValues></_>
        <_>
          <internalNodes>
            0 -1 145 8.1241640145890415e-05</internalNodes>
          <leafValues>
            2.4920834600925446e-01 -8.0780851840972900e-01</leafValues></_>
        <_>
          <internalNodes>
            0 -1 102 3.6583037581294775e-04</internalNodes>
          <leafValues>
            -4.9882286787033081e-01 3.8106131553649902e-01</leafValues></_></weakClassifiers></_>
    <!-- stage 10 -->
    <_>
      <maxWeakCount>9</maxWeakCount>
      <stageThreshold>-1.1481878757476807e+00</stageThreshold>
      <weakClassifiers>
        <_>
          <internalNodes>
            0 -1 154 8.1654514360707253e-05</internalNodes>
          <leafValues>
            4.3167027831077576e-01 -9.0783411264419556e-01</leafValues></_>
        <_>
          <internalNodes>
            0 -1 198 5.6562945246696472e-05</internalNodes>
          <leafValues>
            -5.2848935127258301e-01 3.5923016071319580e-01</leafValues></_>
        <_>
          <internalNodes>
            0 -1 14 6.8634254857897758e-03</internalNodes>
          <leafValues>
            -5.6316608190536499e-01 3.3403414487838745e-01</leafValues></_>
        <_>
          <internalNodes>
            0 -1 201 -5.3202507842797786e-05</internalNodes>
          <leafValues>
            -8.4938007593154907e-01 1.7651441693305969e-01</leafValues></_>
        <_>
          <internalNodes>
            0 -1 40 2.4994313716888428e-02</internalNodes>
          <leafValues>
            -8.2941812276840210e-01 2.0143796503543854e-01</leafValues></_>
        <_>
          <internalNodes>
            0 -1 20 2.4134174964274280e-05</internalNodes>
          <leafValues>
            -6.0915899276733398e-01 2.5231677293777466e-01</leafValues></_>
        <_>
          <internalNodes>
            0 -1 55 9.7122261649928987e-05</internalNodes>
          <leafValues>
            -6.0869163274765015e-01 2.8184545040130615e-01</leafValues></_>
        <_>
          <internalNodes>
            0 -1 160 -1.8016112153418362e-04</internalNodes>
          <leafValues>
            6.1849772930145264e-01 -2.9794710874557495e-01</leafValues></_>
        <_>
          <internalNodes>
            0 -1 124 3.3214077120646834e-05</internalNodes>
          <leafValues>
            2.1089048683643341e-01 -9.3345153331756592e-01</leafValues></_></weakClassifiers></_>
    <!-- stage 11 -->
    <_>
      <maxWeakCount>9</maxWeakCount>
      <stageThreshold>-8.8573503494262695e-01</stageThreshold>
      <weakClassifiers>
        <_>
          <internalNodes>
            0 -1 183 -9.5485505880787969e-05</internalNodes>
          <leafValues>
            -5.6690996885299683e-01 5.3238016366958618e-01</leafValues></_>
        <_>
          <internalNodes>
            0 -1 90 -1.0772357694804668e-02</internalNodes>
          <leafValues>
            5.7725065946578979e-01 -4.1363999247550964e-01</leafValues></_>
        <_>
          <internalNodes>
            0 -1 122 1.7213241662830114e-03</internalNodes>
          <leafValues>
            -5.6205505132675171e-01 3.7661626935005188e-01</leafValues></_>
        <_>
          <internalNodes>
            0 -1 45 1.6745083034038544e-02</internalNodes>
          <leafValues>
            -8.0957514047622681e-01 2.7396100759506226e-01</leafValues></_>
        <_>
          <internalNodes>
            0 -1 173 4.1145511204376817e-05</internalNodes>
          <leafValues>
            -5.6718343496322632e-01 2.6683256030082703e-01</leafValues></_>
        <_>
          <internalNodes>
            0 -1 135 -1.1610427463892847e-05</internalNodes>
          <leafValues>
            2.0222923159599304e-01 -7.7787590026855469e-01</leafValues></_>
        <_>
          <internalNodes>
            0 -1 181 -6.3487216830253601e-03</internalNodes>
          <leafValues>
            1.9898816943168640e-01 -7.1876674890518188e-01</leafValues></_>
        <_>
          <internalNodes>
            0 -1 63 9.4521543360315263e-05</internalNodes>
          <leafValues>
            -5.9054177999496460e-01 2.4322697520256042e-01</leafValues></_>
        <_>
          <internalNodes>
            0 -1 209 -3.3483338484074920e-05</internalNodes>
          <leafValues>
            -5.6539630889892578e-01 3.0564808845520020e-01</leafValues></_></weakClassifiers></_>
    <!-- stage 12 -->
    <_>
      <maxWeakCount>11</maxWeakCount>
      <stageThreshold>-1.5689837932586670e+00</stageThreshold>
      <weakClassifiers>
        <_>
          <internalNodes>
            0 -1 57 -1.1903319973498583e-03</internalNodes>
          <leafValues>
            -7.4083131551742554e-01 5.9026026725769043e-01</leafValues></_>
        <_>
          <internalNodes>
            0 -1 157 -3.7622626405209303e-04</internalNodes>
          <leafValues>
            4.4914978742599487e-01 -5.2150285243988037e-01</leafValues></_>
        <_>
          <internalNodes>
            0 -1 147 -2.0537525415420532e-04</internalNodes>
          <leafValues>
            -7.8883963823318481e-01 2.8064274787902832e-01</leafValues></_>
        <_>
          <internalNodes>
            0 -1 9 7.5747119262814522e-03</internalNodes>
          <leafValues>
            -2.9808139801025391e-01 7.2246396541595459e-01</leafValues></_>
        <_>
          <internalNodes>
            0 -1 169 1.4777886462979950e-05</internalNodes>
          <leafValues>
            -6.7782610654830933e-01 3.1326830387115479e-01</leafValues></_>
        <_>
          <internalNodes>
            0 -1 37 -5.1204967312514782e-03</internalNodes>
          <leafValues>
            -8.4114265441894531e-01 1.5128587186336517e-01</leafValues></_>
        <_>
          <internalNodes>
            0 -1 155 1.7910564783960581e-03</internalNodes>
          <leafValues>
            -2.5416427850723267e-01 8.2706946134567261e-01</leafValues></_>
        <_>
          <internalNodes>
            0 -1 123 1.3038925826549530e-03</internalNodes>
          <leafValues>
            -1.8602500855922699e-01 8.4311026334762573e-01</leafValues></_>
        <_>
          <internalNodes>
            0 -1 28 1.2729738955385983e-05</internalNodes>
          <leafValues>
            -5.7757568359375000e-01 3.5213753581047058e-01</leafValues></_>
        <_>
          <internalNodes>
            0 -1 177 -5.9858350141439587e-05</internalNodes>
          <leafValues>
            -5.9853488206863403e-01 2.8314968943595886e-01</leafValues></_>
        <_>
          <internalNodes>
            0 -1 121 2.4588190717622638e-04</internalNodes>
          <leafValues>
            -3.1021001935005188e-01 6.6157120466232300e-01</leafValues></_></weakClassifiers></_>
    <!-- stage 13 -->
    <_>
      <maxWeakCount>11</maxWeakCount>
      <stageThreshold>-9.7633910179138184e-01</stageThreshold>
      <weakClassifiers>
        <_>
          <internalNodes>
            0 -1 71 4.2571547965053469e-05</internalNodes>
          <leafValues>
            -6.2328767776489258e-01 4.4495412707328796e-01</leafValues></_>
        <_>
          <internalNodes>
            0 -1 72 8.2403710111975670e-03</internalNodes>
          <leafValues>
            -5.2918469905853271e-01 3.6828559637069702e-01</leafValues></_>
        <_>
          <internalNodes>
            0 -1 196 1.3513708836399019e-04</internalNodes>
          <leafValues>
            2.3895783722400665e-01 -7.5864338874816895e-01</leafValues></_>
        <_>
          <internalNodes>
            0 -1 75 1.3474135193973780e-03</internalNodes>
          <leafValues>
            -2.9407325387001038e-01 6.3988846540451050e-01</leafValues></_>
        <_>
          <internalNodes>
            0 -1 130 1.6991541997413151e-05</internalNodes>
          <leafValues>
            -7.5488203763961792e-01 2.2886230051517487e-01</leafValues></_>
        <_>
          <internalNodes>
            0 -1 168 -3.5456410842016339e-04</internalNodes>
          <leafValues>
            2.7383422851562500e-01 -5.1493179798126221e-01</leafValues></_>
        <_>
          <internalNodes>
            0 -1 127 -4.0313966572284698e-02</internalNodes>
          <leafValues>
            2.0442314445972443e-01 -8.8996458053588867e-01</leafValues></_>
        <_>
          <internalNodes>
            0 -1 189 -4.9751288315746933e-05</internalNodes>
          <leafValues>
            -6.4908361434936523e-01 2.2868016362190247e-01</leafValues></_>
        <_>
          <internalNodes>
            0 -1 200 2.2916477173566818e-03</internalNodes>
          <leafValues>
            -2.3857830464839935e-01 6.6079527139663696e-01</leafValues></_>
        <_>
          <internalNodes>
            0 -1 67 8.1908969150390476e-05</internalNodes>
          <leafValues>
            -4.6854791045188904e-01 3.0259695649147034e-01</leafValues></_>
        <_>
          <internalNodes>
            0 -1 162 -1.3085003956803121e-05</internalNodes>
          <leafValues>
            2.2908471524715424e-01 -7.0493030548095703e-01</leafValues></_></weakClassifiers></_>
    <!-- stage 14 -->
    <_>
      <maxWeakCount>12</maxWeakCount>
      <stageThreshold>-1.0981136560440063e+00</stageThreshold>
      <weakClassifiers>
        <_>
          <internalNodes>
            0 -1 142 1.4035875210538507e-04</internalNodes>
          <leafValues>
            5.0083470344543457e-01 -4.9751242995262146e-01</leafValues></_>
        <_>
          <internalNodes>
            0 -1 118 -2.2064417600631714e-02</internalNodes>
          <leafValues>
            3.4016355872154236e-01 -5.2344071865081787e-01</leafValues></_>
        <_>
          <internalNodes>
            0 -1 100 -1.1911209672689438e-02</internalNodes>
          <leafValues>
            4.7941443324089050e-01 -3.0687585473060608e-01</leafValues></_>
        <_>
          <internalNodes>
            0 -1 205 -3.4121294447686523e-06</internalNodes>
          <leafValues>
            -5.7048237323760986e-01 3.1467559933662415e-01</leafValues></_>
        <_>
          <internalNodes>
            0 -1 50 6.0573056340217590e-02</internalNodes>
          <leafValues>
            -6.3308316469192505e-01 2.0567190647125244e-01</leafValues></_>
        <_>
          <internalNodes>
            0 -1 88 4.0162488585337996e-04</internalNodes>
          <leafValues>
            -5.4187101125717163e-01 2.6287385821342468e-01</leafValues></_>
        <_>
          <internalNodes>
            0 -1 171 3.5683337046066299e-05</internalNodes>
          <leafValues>
            2.4008466303348541e-01 -8.0436724424362183e-01</leafValues></_>
        <_>
          <internalNodes>
            0 -1 32 1.2955482816323638e-04</internalNodes>
          <leafValues>
            -7.1534085273742676e-01 1.7872039973735809e-01</leafValues></_>
        <_>
          <internalNodes>
            0 -1 141 -5.8105546486331150e-05</internalNodes>
          <leafValues>
            -4.5339637994766235e-01 3.1695625185966492e-01</leafValues></_>
        <_>
          <internalNodes>
            0 -1 153 1.4217718271538615e-03</internalNodes>
          <leafValues>
            1.5477460622787476e-01 -8.7519884109497070e-01</leafValues></_>
        <_>
          <internalNodes>
            0 -1 95 8.8180135935544968e-03</internalNodes>
          <leafValues>
            -6.9055503606796265e-01 1.4181569218635559e-01</leafValues></_>
        <_>
          <internalNodes>
            0 -1 197 1.2081809472874738e-05</internalNodes>
          <leafValues>
            -6.6016995906829834e-01 1.6602002084255219e-01</leafValues></_></weakClassifiers></_>
    <!-- stage 15 -->
    <_>
      <maxWeakCount>14</maxWeakCount>
      <stageThreshold>-1.2439681291580200e+00</stageThreshold>
      <weakClassifiers>
        <_>
          <internalNodes>
            0 -1 180 -1.4204806575435214e-05</internalNodes>
          <leafValues>
            4.7626841068267822e-01 -4.8148149251937866e-01</leafValues></_>
        <_>
          <internalNodes>
            0 -1 104 1.2699724175035954e-02</internalNodes>
          <leafValues>
            -3.7120237946510315e-01 4.3191990256309509e-01</leafValues></_>
        <_>
          <internalNodes>
            0 -1 185 7.6399257523007691e-05</internalNodes>
          <leafValues>
            1.6770774126052856e-01 -9.0474605560302734e-01</leafValues></_>
        <_>
          <internalNodes>
            0 -1 96 1.7828277777880430e-03</internalNodes>
          <leafValues>
            -5.0570046901702881e-01 2.7379924058914185e-01</leafValues></_>
        <_>
          <internalNodes>
            0 -1 70 3.1066997908055782e-03</internalNodes>
          <leafValues>
            -6.0010778903961182e-01 2.5256937742233276e-01</leafValues></_>
        <_>
          <internalNodes>
            0 -1 34 -2.5701541453599930e-03</internalNodes>
          <leafValues>
            -6.4904206991195679e-01 2.0672251284122467e-01</leafValues></_>
        <_>
          <internalNodes>
            0 -1 114 2.5604019174352288e-04</internalNodes>
          <leafValues>
            -2.7063012123107910e-01 5.4743081331253052e-01</leafValues></_>
        <_>
          <internalNodes>
            0 -1 113 -2.5970413116738200e-04</internalNodes>
          <leafValues>
            5.8205401897430420e-01 -2.5224176049232483e-01</leafValues></_>
        <_>
          <internalNodes>
            0 -1 203 -4.2611100070644170e-06</internalNodes>
          <leafValues>
            -8.3231890201568604e-01 1.8878631293773651e-01</leafValues></_>
        <_>
          <internalNodes>
            0 -1 195 5.1470188191160560e-04</internalNodes>
          <leafValues>
            -2.9069235920906067e-01 5.9509384632110596e-01</leafValues></_>
        <_>
          <internalNodes>
            0 -1 44 1.4087784620642196e-05</internalNodes>
          <leafValues>
            -6.3592910766601562e-01 2.9417243599891663e-01</leafValues></_>
        <_>
          <internalNodes>
            0 -1 126 -1.0055866732727736e-04</internalNodes>
          <leafValues>
            -7.3404622077941895e-01 1.6164463758468628e-01</leafValues></_>
        <_>
          <internalNodes>
            0 -1 128 -7.1464579377789050e-05</internalNodes>
          <leafValues>
            -7.1518486738204956e-01 2.1247053146362305e-01</leafValues></_>
        <_>
          <internalNodes>
            0 -1 207 1.1662757606245577e-04</internalNodes>
          <leafValues>
            -3.7912490963935852e-01 4.2017880082130432e-01</leafValues></_></weakClassifiers></_>
    <!-- stage 16 -->
    <_>
      <maxWeakCount>12</maxWeakCount>
      <stageThreshold>-8.9243704080581665e-01</stageThreshold>
      <weakClassifiers>
        <_>
          <internalNodes>
            0 -1 83 3.7474161945283413e-03</internalNodes>
          <leafValues>
            -3.4622824192047119e-01 5.3462606668472290e-01</leafValues></_>
        <_>
          <internalNodes>
            0 -1 52 2.1990694105625153e-02</internalNodes>
          <leafValues>
            -3.1677696108818054e-01 4.9646317958831787e-01</leafValues></_>
        <_>
          <internalNodes>
            0 -1 0 -1.4283549785614014e-01</internalNodes>
          <leafValues>
            -7.8661578893661499e-01 1.6655747592449188e-01</leafValues></_>
        <_>
          <internalNodes>
            0 -1 151 -1.3715797103941441e-04</internalNodes>
          <leafValues>
            -7.6223868131637573e-01 1.7947657406330109e-01</leafValues></_>
        <_>
          <internalNodes>
            0 -1 165 3.8789999962318689e-05</internalNodes>
          <leafValues>
            -7.2254425287246704e-01 1.5222853422164917e-01</leafValues></_>
        <_>
          <internalNodes>
            0 -1 170 -1.0065839625895023e-02</internalNodes>
          <leafValues>
            1.7615674436092377e-01 -7.8594964742660522e-01</leafValues></_>
        <_>
          <internalNodes>
            0 -1 132 -6.9657020503655076e-04</internalNodes>
          <leafValues>
            6.6220945119857788e-01 -2.3942267894744873e-01</leafValues></_>
        <_>
          <internalNodes>
            0 -1 16 -7.5939547969028354e-05</internalNodes>
          <leafValues>
            3.2834240794181824e-01 -4.5854172110557556e-01</leafValues></_>
        <_>
          <internalNodes>
            0 -1 140 2.0113533537369221e-05</internalNodes>
          <leafValues>
            1.7720854282379150e-01 -7.7333682775497437e-01</leafValues></_>
        <_>
          <internalNodes>
            0 -1 109 2.0864418183919042e-04</internalNodes>
          <leafValues>
            -2.5957614183425903e-01 6.2473541498184204e-01</leafValues></_>
        <_>
          <internalNodes>
            0 -1 6 1.3560978695750237e-03</internalNodes>
          <leafValues>
            -5.0032377243041992e-01 3.0158898234367371e-01</leafValues></_>
        <_>
          <internalNodes>
            0 -1 129 -7.6810982136521488e-05</internalNodes>
          <leafValues>
            5.2543723583221436e-01 -2.6575222611427307e-01</leafValues></_></weakClassifiers></_>
    <!-- stage 17 -->
    <_>
      <maxWeakCount>13</maxWeakCount>
      <stageThreshold>-1.1800341606140137e+00</stageThreshold>
      <weakClassifiers>
        <_>
          <internalNodes>
            0 -1 69 3.7121888453839347e-05</internalNodes>
          <leafValues>
            -5.7966101169586182e-01 4.3754789233207703e-01</leafValues></_>
        <_>
          <internalNodes>
            0 -1 24 1.1966058082180098e-05</internalNodes>
          <leafValues>
            -6.2883079051971436e-01 2.2202117741107941e-01</leafValues></_>
        <_>
          <internalNodes>
            0 -1 97 1.1796928942203522e-02</internalNodes>
          <leafValues>
            -4.5933532714843750e-01 3.1100893020629883e-01</leafValues></_>
        <_>
          <internalNodes>
            0 -1 166 -1.5635057934559882e-05</internalNodes>
          <leafValues>
            2.0952910184860229e-01 -5.9130251407623291e-01</leafValues></_>
        <_>
          <internalNodes>
            0 -1 146 4.4490501750260592e-05</internalNodes>
          <leafValues>
            1.7900310456752777e-01 -8.0024224519729614e-01</leafValues></_>
        <_>
          <internalNodes>
            0 -1 81 -1.8285610713064671e-03</internalNodes>
          <leafValues>
            1.3900659978389740e-01 -7.4449586868286133e-01</leafValues></_>
        <_>
          <internalNodes>
            0 -1 61 1.0408784146420658e-04</internalNodes>
          <leafValues>
            -6.2916922569274902e-01 1.6842579841613770e-01</leafValues></_>
        <_>
          <internalNodes>
            0 -1 91 3.5041739465668797e-05</internalNodes>
          <leafValues>
            -4.0724471211433411e-01 3.7525898218154907e-01</leafValues></_>
        <_>
          <internalNodes>
            0 -1 77 4.1497708298265934e-03</internalNodes>
          <leafValues>
            -5.1683574914932251e-01 2.4715767800807953e-01</leafValues></_>
        <_>
          <internalNodes>
            0 -1 103 1.5518739819526672e-03</internalNodes>
          <leafValues>
            -3.9183756709098816e-01 3.6298927664756775e-01</leafValues></_>
        <_>
          <internalNodes>
            0 -1 46 5.2993609569966793e-03</internalNodes>
          <leafValues>
            -2.1204340457916260e-01 5.8803862333297729e-01</leafValues></_>
        <_>
          <internalNodes>
            0 -1 206 -5.1245762733742595e-05</internalNodes>
          <leafValues>
            -6.8443536758422852e-01 2.3197481036186218e-01</leafValues></_>
        <_>
          <internalNodes>
            0 -1 85 2.4009048938751221e-03</internalNodes>
          <leafValues>
            -5.6513774394989014e-01 2.4416594207286835e-01</leafValues></_></weakClassifiers></_>
    <!-- stage 18 -->
    <_>
      <maxWeakCount>12</maxWeakCount>
      <stageThreshold>-1.0307728052139282e+00</stageThreshold>
      <weakClassifiers>
        <_>
          <internalNodes>
            0 -1 35 3.4274414181709290e-02</internalNodes>
          <leafValues>
            -2.9657796025276184e-01 5.1769089698791504e-01</leafValues></_>
        <_>
          <internalNodes>
            0 -1 56 5.3038060665130615e-02</internalNodes>
          <leafValues>
            -3.8628238439559937e-01 3.8815167546272278e-01</leafValues></_>
        <_>
          <internalNodes>
            0 -1 193 -1.3429687896859832e-05</internalNodes>
          <leafValues>
            2.5107717514038086e-01 -6.2329918146133423e-01</leafValues></_>
        <_>
          <internalNodes>
            0 -1 125 -1.5748370788060129e-04</internalNodes>
          <leafValues>
            -7.3710840940475464e-01 1.8612915277481079e-01</leafValues></_>
        <_>
          <internalNodes>
            0 -1 1 8.2637567538768053e-04</internalNodes>
          <leafValues>
            -2.7539676427841187e-01 5.8142536878585815e-01</leafValues></_>
        <_>
          <internalNodes>
            0 -1 187 8.3908598753623664e-05</internalNodes>
          <leafValues>
            1.4039498567581177e-01 -9.7723078727722168e-01</leafValues></_>
        <_>
          <internalNodes>
            0 -1 36 -1.6762001905590296e-05</internalNodes>
          <leafValues>
            3.2455542683601379e-01 -4.3998813629150391e-01</leafValues></_>
        <_>
          <internalNodes>
            0 -1 53 -1.1914495844393969e-03</internalNodes>
          <leafValues>
            8.6111879348754883e-01 -1.7171037197113037e-01</leafValues></_>
        <_>
          <internalNodes>
            0 -1 13 1.8786082364385948e-05</internalNodes>
          <leafValues>
            -4.6762976050376892e-01 3.1692236661911011e-01</leafValues></_>
        <_>
          <internalNodes>
            0 -1 208 7.8529398888349533e-04</internalNodes>
          <leafValues>
            -2.3171758651733398e-01 6.2527602910995483e-01</leafValues></_>
        <_>
          <internalNodes>
            0 -1 192 -1.0088412091135979e-04</internalNodes>
          <leafValues>
            -6.3744199275970459e-01 2.3219506442546844e-01</leafValues></_>
        <_>
          <internalNodes>
            0 -1 3 -1.2275676708668470e-03</internalNodes>
          <leafValues>
            6.6479587554931641e-01 -2.4060674011707306e-01</leafValues></_></weakClassifiers></_>
    <!-- stage 19 -->
    <_>
      <maxWeakCount>17</maxWeakCount>
      <stageThreshold>-1.3047313690185547e+00</stageThreshold>
      <weakClassifiers>
        <_>
          <internalNodes>
            0 -1 86 -1.0556487366557121e-02</internalNodes>
          <leafValues>
            3.9571428298950195e-01 -7.6999998092651367e-01</leafValues></_>
        <_>
          <internalNodes>
            0 -1 194 -9.5849805802572519e-05</internalNodes>
          <leafValues>
            3.4668815135955811e-01 -5.4332387447357178e-01</leafValues></_>
        <_>
          <internalNodes>
            0 -1 41 2.2591769695281982e-02</internalNodes>
          <leafValues>
            2.1197387576103210e-01 -7.3449254035949707e-01</leafValues></_>
        <_>
          <internalNodes>
            0 -1 204 -4.3806321627926081e-05</internalNodes>
          <leafValues>
            -4.9447494745254517e-01 3.4937351942062378e-01</leafValues></_>
        <_>
          <internalNodes>
            0 -1 54 -9.4527266919612885e-03</internalNodes>
          <leafValues>
            -7.1635794639587402e-01 1.8252614140510559e-01</leafValues></_>
        <_>
          <internalNodes>
            0 -1 25 7.6225749216973782e-04</internalNodes>
          <leafValues>
            -2.4925521016120911e-01 6.5745896100997925e-01</leafValues></_>
        <_>
          <internalNodes>
            0 -1 4 4.3683955445885658e-03</internalNodes>
          <leafValues>
            2.6925823092460632e-01 -5.6421101093292236e-01</leafValues></_>
        <_>
          <internalNodes>
            0 -1 17 6.4557912992313504e-05</internalNodes>
          <leafValues>
            -4.4018137454986572e-01 3.0919399857521057e-01</leafValues></_>
        <_>
          <internalNodes>
            0 -1 2 -1.4723951462656260e-03</internalNodes>
          <leafValues>
            5.8734512329101562e-01 -2.4498061835765839e-01</leafValues></_>
        <_>
          <internalNodes>
            0 -1 108 -3.0775892082601786e-04</internalNodes>
          <leafValues>
            7.2596991062164307e-01 -1.5380875766277313e-01</leafValues></_>
        <_>
          <internalNodes>
            0 -1 107 2.3338414030149579e-04</internalNodes>
          <leafValues>
            -3.0324363708496094e-01 5.5241566896438599e-01</leafValues></_>
        <_>
          <internalNodes>
            0 -1 183 -7.8131852205842733e-05</internalNodes>
          <leafValues>
            -6.0066753625869751e-01 2.8795227408409119e-01</leafValues></_>
        <_>
          <internalNodes>
            0 -1 29 2.3026414055493660e-05</internalNodes>
          <leafValues>
            -6.7642182111740112e-01 2.0824979245662689e-01</leafValues></_>
        <_>
          <internalNodes>
            0 -1 105 -3.4282132983207703e-03</internalNodes>
          <leafValues>
            4.5374491810798645e-01 -3.5083320736885071e-01</leafValues></_>
        <_>
          <internalNodes>
            0 -1 190 3.0019526093383320e-05</internalNodes>
          <leafValues>
            -7.3176401853561401e-01 2.1367469429969788e-01</leafValues></_>
        <_>
          <internalNodes>
            0 -1 115 3.6487809848040342e-04</internalNodes>
          <leafValues>
            -2.8064042329788208e-01 5.8905035257339478e-01</leafValues></_>
        <_>
          <internalNodes>
            0 -1 87 9.7865518182516098e-04</internalNodes>
          <leafValues>
            -4.7613370418548584e-01 3.4176379442214966e-01</leafValues></_></weakClassifiers></_></stages>
  <features>
    <_>
      <rects>
        <_>
          0 1 40 18 -1.</_>
        <_>
          20 1 20 18 2.</_></rects>
      <tilted>0</tilted></_>
    <_>
      <rects>
        <_>
          0 9 2 18 -1.</_>
        <_>
          0 9 1 9 2.</_>
        <_>
          1 18 1 9 2.</_></rects>
      <tilted>0</tilted></_>
    <_>
      <rects>
        <_>
          0 14 2 23 -1.</_>
        <_>
          1 14 1 23 2.</_></rects>
      <tilted>0</tilted></_>
    <_>
      <rects>
        <_>
          0 22 2 9 -1.</_>
        <_>
          0 25 2 3 3.</_></rects>
      <tilted>0</tilted></_>
    <_>
      <rects>
        <_>
          1 0 39 1 -1.</_>
        <_>
          14 0 13 1 3.</_></rects>
      <tilted>0</tilted></_>
    <_>
      <rects>
        <_>
          1 10 39 30 -1.</_>
        <_>
          14 20 13 10 9.</_></rects>
      <tilted>0</tilted></_>
    <_>
      <rects>
        <_>
          1 13 25 4 -1.</_>
        <_>
          1 15 25 2 2.</_></rects>
      <tilted>0</tilted></_>
    <_>
      <rects>
        <_>
          1 14 36 16 -1.</_>
        <_>
          13 14 12 16 3.</_></rects>
      <tilted>0</tilted></_>
    <_>
      <rects>
        <_>
          1 15 18 8 -1.</_>
        <_>
          10 15 9 8 2.</_></rects>
      <tilted>0</tilted></_>
    <_>
      <rects>
        <_>
          1 32 27 8 -1.</_>
        <_>
          1 34 27 4 2.</_></rects>
      <tilted>0</tilted></_>
    <_>
      <rects>
        <_>
          2 12 36 19 -1.</_>
        <_>
          14 12 12 19 3.</_></rects>
      <tilted>0</tilted></_>
    <_>
      <rects>
        <_>
          2 13 33 15 -1.</_>
        <_>
          13 13 11 15 3.</_></rects>
      <tilted>0</tilted></_>
    <_>
      <rects>
        <_>
          2 17 36 14 -1.</_>
        <_>
          11 17 18 14 2.</_></rects>
      <tilted>0</tilted></_>
    <_>
      <rects>
        <_>
          2 20 2 2 -1.</_>
        <_>
          3 20 1 2 2.</_></rects>
      <tilted>0</tilted></_>
    <_>
      <rects>
        <_>
          2 24 16 1 -1.</_>
        <_>
          10 24 8 1 2.</_></rects>
      <tilted>0</tilted></_>
    <_>
      <rects>
        <_>
          3 0 20 18 -1.</_>
        <_>
          3 0 10 9 2.</_>
        <_>
          13 9 10 9 2.</_></rects>
      <tilted>0</tilted></_>
    <_>
      <rects>
        <_>
          3 11 2 4 -1.</_>
        <_>
          3 13 2 2 2.</_></rects>
      <tilted>0</tilted></_>
    <_>
      <rects>
        <_>
          3 16 2 2 -1.</_>
        <_>
          3 16 2 1 2.</_></rects>
      <tilted>1</tilted></_>
    <_>
      <rects>
        <_>
          3 18 6 4 -1.</_>
        <_>
          6 18 3 4 2.</_></rects>
      <tilted>0</tilted></_>
    <_>
      <rects>
        <_>
          3 18 30 15 -1.</_>
        <_>
          13 23 10 5 9.</_></rects>
      <tilted>0</tilted></_>
    <_>
      <rects>
        <_>
          3 19 2 4 -1.</_>
        <_>
          4 19 1 4 2.</_></rects>
      <tilted>0</tilted></_>
    <_>
      <rects>
        <_>
          3 21 14 1 -1.</_>
        <_>
          10 21 7 1 2.</_></rects>
      <tilted>0</tilted></_>
    <_>
      <rects>
        <_>
          4 11 30 12 -1.</_>
        <_>
          4 14 30 6 2.</_></rects>
      <tilted>0</tilted></_>
    <_>
      <rects>
        <_>
          4 12 32 19 -1.</_>
        <_>
          12 12 16 19 2.</_></rects>
      <tilted>0</tilted></_>
    <_>
      <rects>
        <_>
          4 17 2 6 -1.</_>
        <_>
          5 17 1 6 2.</_></rects>
      <tilted>0</tilted></_>
    <_>
      <rects>
        <_>
          4 33 3 3 -1.</_>
        <_>
          5 34 1 1 9.</_></rects>
      <tilted>0</tilted></_>
    <_>
      <rects>
        <_>
          5 4 12 18 -1.</_>
        <_>
          5 4 6 9 2.</_>
        <_>
          11 13 6 9 2.</_></rects>
      <tilted>0</tilted></_>
    <_>
      <rects>
        <_>
          5 11 14 17 -1.</_>
        <_>
          12 11 7 17 2.</_></rects>
      <tilted>0</tilted></_>
    <_>
      <rects>
        <_>
          5 20 2 2 -1.</_>
        <_>
          6 20 1 2 2.</_></rects>
      <tilted>0</tilted></_>
    <_>
      <rects>
        <_>
          5 21 2 3 -1.</_>
        <_>
          6 21 1 3 2.</_></rects>
      <tilted>0</tilted></_>
    <_>
      <rects>
        <_>
          5 25 8 1 -1.</_>
        <_>
          9 25 4 1 2.</_></rects>
      <tilted>0</tilted></_>
    <_>
      <rects>
        <_>
          6 15 2 3 -1.</_>
        <_>
          7 15 1 3 2.</_></rects>
      <tilted>0</tilted></_>
    <_>
      <rects>
        <_>
          6 15 2 11 -1.</_>
        <_>
          7 15 1 11 2.</_></rects>
      <tilted>0</tilted></_>
    <_>
      <rects>
        <_>
          6 16 18 4 -1.</_>
        <_>
          15 16 9 4 2.</_></rects>
      <tilted>0</tilted></_>
    <_>
      <rects>
        <_>
          6 17 30 10 -1.</_>
        <_>
          6 22 30 5 2.</_></rects>
      <tilted>0</tilted></_>
    <_>
      <rects>
        <_>
          6 20 18 9 -1.</_>
        <_>
          12 23 6 3 9.</_></rects>
      <tilted>0</tilted></_>
    <_>
      <rects>
        <_>
          7 11 1 4 -1.</_>
        <_>
          7 13 1 2 2.</_></rects>
      <tilted>0</tilted></_>
    <_>
      <rects>
        <_>
          7 11 30 18 -1.</_>
        <_>
          7 20 30 9 2.</_></rects>
      <tilted>0</tilted></_>
    <_>
      <rects>
        <_>
          7 14 1 2 -1.</_>
        <_>
          7 14 1 1 2.</_></rects>
      <tilted>1</tilted></_>
    <_>
      <rects>
        <_>
          7 14 27 14 -1.</_>
        <_>
          7 21 27 7 2.</_></rects>
      <tilted>0</tilted></_>
    <_>
      <rects>
        <_>
          8 3 29 28 -1.</_>
        <_>
          8 17 29 14 2.</_></rects>
      <tilted>0</tilted></_>
    <_>
      <rects>
        <_>
          8 5 32 1 -1.</_>
        <_>
          8 5 16 1 2.</_></rects>
      <tilted>1</tilted></_>
    <_>
      <rects>
        <_>
          8 9 24 8 -1.</_>
        <_>
          8 13 24 4 2.</_></rects>
      <tilted>0</tilted></_>
    <_>
      <rects>
        <_>
          8 10 23 4 -1.</_>
        <_>
          8 12 23 2 2.</_></rects>
      <tilted>0</tilted></_>
    <_>
      <rects>
        <_>
          8 13 1 2 -1.</_>
        <_>
          8 13 1 1 2.</_></rects>
      <tilted>1</tilted></_>
    <_>
      <rects>
        <_>
          8 17 18 9 -1.</_>
        <_>
          14 20 6 3 9.</_></rects>
      <tilted>0</tilted></_>
    <_>
      <rects>
        <_>
          8 34 24 6 -1.</_>
        <_>
          8 36 24 2 3.</_></rects>
      <tilted>0</tilted></_>
    <_>
      <rects>
        <_>
          9 5 17 10 -1.</_>
        <_>
          9 10 17 5 2.</_></rects>
      <tilted>0</tilted></_>
    <_>
      <rects>
        <_>
          9 5 20 10 -1.</_>
        <_>
          9 10 20 5 2.</_></rects>
      <tilted>0</tilted></_>
    <_>
      <rects>
        <_>
          9 9 16 6 -1.</_>
        <_>
          9 12 16 3 2.</_></rects>
      <tilted>0</tilted></_>
    <_>
      <rects>
        <_>
          9 11 18 18 -1.</_>
        <_>
          15 17 6 6 9.</_></rects>
      <tilted>0</tilted></_>
    <_>
      <rects>
        <_>
          9 15 24 3 -1.</_>
        <_>
          17 15 8 3 3.</_></rects>
      <tilted>0</tilted></_>
    <_>
      <rects>
        <_>
          9 24 25 16 -1.</_>
        <_>
          9 28 25 8 2.</_></rects>
      <tilted>0</tilted></_>
    <_>
      <rects>
        <_>
          9 38 6 2 -1.</_>
        <_>
          9 38 3 1 2.</_>
        <_>
          12 39 3 1 2.</_></rects>
      <tilted>0</tilted></_>
    <_>
      <rects>
        <_>
          10 2 21 6 -1.</_>
        <_>
          17 2 7 6 3.</_></rects>
      <tilted>0</tilted></_>
    <_>
      <rects>
        <_>
          10 9 6 2 -1.</_>
        <_>
          13 9 3 2 2.</_></rects>
      <tilted>0</tilted></_>
    <_>
      <rects>
        <_>
          10 10 21 9 -1.</_>
        <_>
          17 13 7 3 9.</_></rects>
      <tilted>0</tilted></_>
    <_>
      <rects>
        <_>
          10 10 27 12 -1.</_>
        <_>
          10 14 27 4 3.</_></rects>
      <tilted>0</tilted></_>
    <_>
      <rects>
        <_>
          10 12 1 2 -1.</_>
        <_>
          10 12 1 1 2.</_></rects>
      <tilted>1</tilted></_>
    <_>
      <rects>
        <_>
          10 12 1 4 -1.</_>
        <_>
          10 12 1 2 2.</_></rects>
      <tilted>1</tilted></_>
    <_>
      <rects>
        <_>
          10 13 15 27 -1.</_>
        <_>
          15 22 5 9 9.</_></rects>
      <tilted>0</tilted></_>
    <_>
      <rects>
        <_>
          10 14 1 4 -1.</_>
        <_>
          10 14 1 2 2.</_></rects>
      <tilted>1</tilted></_>
    <_>
      <rects>
        <_>
          11 5 20 24 -1.</_>
        <_>
          11 17 20 12 2.</_></rects>
      <tilted>0</tilted></_>
    <_>
      <rects>
        <_>
          11 9 1 4 -1.</_>
        <_>
          11 9 1 2 2.</_></rects>
      <tilted>1</tilted></_>
    <_>
      <rects>
        <_>
          11 9 18 20 -1.</_>
        <_>
          11 19 18 10 2.</_></rects>
      <tilted>0</tilted></_>
    <_>
      <rects>
        <_>
          11 12 1 2 -1.</_>
        <_>
          11 12 1 1 2.</_></rects>
      <tilted>1</tilted></_>
    <_>
      <rects>
        <_>
          12 5 9 33 -1.</_>
        <_>
          15 16 3 11 9.</_></rects>
      <tilted>0</tilted></_>
    <_>
      <rects>
        <_>
          12 8 1 4 -1.</_>
        <_>
          12 8 1 2 2.</_></rects>
      <tilted>1</tilted></_>
    <_>
      <rects>
        <_>
          12 10 1 4 -1.</_>
        <_>
          12 10 1 2 2.</_></rects>
      <tilted>1</tilted></_>
    <_>
      <rects>
        <_>
          12 11 1 4 -1.</_>
        <_>
          12 11 1 2 2.</_></rects>
      <tilted>1</tilted></_>
    <_>
      <rects>
        <_>
          12 11 12 2 -1.</_>
        <_>
          16 15 4 2 3.</_></rects>
      <tilted>1</tilted></_>
    <_>
      <rects>
        <_>
          12 14 1 4 -1.</_>
        <_>
          12 14 1 2 2.</_></rects>
      <tilted>1</tilted></_>
    <_>
      <rects>
        <_>
          12 14 18 8 -1.</_>
        <_>
          10 16 18 4 2.</_></rects>
      <tilted>1</tilted></_>
    <_>
      <rects>
        <_>
          12 16 20 24 -1.</_>
        <_>
          12 22 20 12 2.</_></rects>
      <tilted>0</tilted></_>
    <_>
      <rects>
        <_>
          12 26 14 4 -1.</_>
        <_>
          12 26 7 2 2.</_>
        <_>
          19 28 7 2 2.</_></rects>
      <tilted>0</tilted></_>
    <_>
      <rects>
        <_>
          12 37 23 3 -1.</_>
        <_>
          12 38 23 1 3.</_></rects>
      <tilted>0</tilted></_>
    <_>
      <rects>
        <_>
          13 21 15 2 -1.</_>
        <_>
          18 26 5 2 3.</_></rects>
      <tilted>1</tilted></_>
    <_>
      <rects>
        <_>
          14 7 23 6 -1.</_>
        <_>
          14 10 23 3 2.</_></rects>
      <tilted>0</tilted></_>
    <_>
      <rects>
        <_>
          14 8 11 10 -1.</_>
        <_>
          14 13 11 5 2.</_></rects>
      <tilted>0</tilted></_>
    <_>
      <rects>
        <_>
          14 9 1 4 -1.</_>
        <_>
          14 9 1 2 2.</_></rects>
      <tilted>1</tilted></_>
    <_>
      <rects>
        <_>
          14 12 9 2 -1.</_>
        <_>
          17 15 3 2 3.</_></rects>
      <tilted>1</tilted></_>
    <_>
      <rects>
        <_>
          15 3 25 4 -1.</_>
        <_>
          15 3 25 2 2.</_></rects>
      <tilted>1</tilted></_>
    <_>
      <rects>
        <_>
          15 9 24 17 -1.</_>
        <_>
          27 9 12 17 2.</_></rects>
      <tilted>0</tilted></_>
    <_>
      <rects>
        <_>
          15 9 23 12 -1.</_>
        <_>
          15 13 23 4 3.</_></rects>
      <tilted>0</tilted></_>
    <_>
      <rects>
        <_>
          15 14 22 13 -1.</_>
        <_>
          26 14 11 13 2.</_></rects>
      <tilted>0</tilted></_>
    <_>
      <rects>
        <_>
          15 15 9 6 -1.</_>
        <_>
          13 17 9 2 3.</_></rects>
      <tilted>1</tilted></_>
    <_>
      <rects>
        <_>
          15 17 22 3 -1.</_>
        <_>
          26 17 11 3 2.</_></rects>
      <tilted>0</tilted></_>
    <_>
      <rects>
        <_>
          15 19 8 6 -1.</_>
        <_>
          15 22 8 3 2.</_></rects>
      <tilted>0</tilted></_>
    <_>
      <rects>
        <_>
          15 21 8 4 -1.</_>
        <_>
          15 23 8 2 2.</_></rects>
      <tilted>0</tilted></_>
    <_>
      <rects>
        <_>
          15 32 13 8 -1.</_>
        <_>
          15 36 13 4 2.</_></rects>
      <tilted>0</tilted></_>
    <_>
      <rects>
        <_>
          15 34 22 6 -1.</_>
        <_>
          15 37 22 3 2.</_></rects>
      <tilted>0</tilted></_>
    <_>
      <rects>
        <_>
          16 5 2 4 -1.</_>
        <_>
          16 5 2 2 2.</_></rects>
      <tilted>1</tilted></_>
    <_>
      <rects>
        <_>
          16 7 1 4 -1.</_>
        <_>
          16 7 1 2 2.</_></rects>
      <tilted>1</tilted></_>
    <_>
      <rects>
        <_>
          16 13 20 12 -1.</_>
        <_>
          26 13 10 12 2.</_></rects>
      <tilted>0</tilted></_>
    <_>
      <rects>
        <_>
          16 15 6 1 -1.</_>
        <_>
          18 17 2 1 3.</_></rects>
      <tilted>1</tilted></_>
    <_>
      <rects>
        <_>
          16 15 11 9 -1.</_>
        <_>
          13 18 11 3 3.</_></rects>
      <tilted>1</tilted></_>
    <_>
      <rects>
        <_>
          16 17 15 2 -1.</_>
        <_>
          21 17 5 2 3.</_></rects>
      <tilted>0</tilted></_>
    <_>
      <rects>
        <_>
          16 19 12 9 -1.</_>
        <_>
          13 22 12 3 3.</_></rects>
      <tilted>1</tilted></_>
    <_>
      <rects>
        <_>
          16 21 7 4 -1.</_>
        <_>
          16 23 7 2 2.</_></rects>
      <tilted>0</tilted></_>
    <_>
      <rects>
        <_>
          16 25 13 15 -1.</_>
        <_>
          16 30 13 5 3.</_></rects>
      <tilted>0</tilted></_>
    <_>
      <rects>
        <_>
          16 34 18 6 -1.</_>
        <_>
          16 37 18 3 2.</_></rects>
      <tilted>0</tilted></_>
    <_>
      <rects>
        <_>
          17 18 15 8 -1.</_>
        <_>
          17 20 15 4 2.</_></rects>
      <tilted>0</tilted></_>
    <_>
      <rects>
        <_>
          17 21 8 4 -1.</_>
        <_>
          17 23 8 2 2.</_></rects>
      <tilted>0</tilted></_>
    <_>
      <rects>
        <_>
          17 25 12 6 -1.</_>
        <_>
          17 27 12 2 3.</_></rects>
      <tilted>0</tilted></_>
    <_>
      <rects>
        <_>
          17 25 15 15 -1.</_>
        <_>
          17 30 15 5 3.</_></rects>
      <tilted>0</tilted></_>
    <_>
      <rects>
        <_>
          18 1 18 8 -1.</_>
        <_>
          18 1 9 4 2.</_>
        <_>
          27 5 9 4 2.</_></rects>
      <tilted>0</tilted></_>
    <_>
      <rects>
        <_>
          18 3 5 14 -1.</_>
        <_>
          18 10 5 7 2.</_></rects>
      <tilted>0</tilted></_>
    <_>
      <rects>
        <_>
          18 16 3 2 -1.</_>
        <_>
          19 16 1 2 3.</_></rects>
      <tilted>0</tilted></_>
    <_>
      <rects>
        <_>
          18 16 4 2 -1.</_>
        <_>
          19 16 2 2 2.</_></rects>
      <tilted>0</tilted></_>
    <_>
      <rects>
        <_>
          18 17 3 1 -1.</_>
        <_>
          19 17 1 1 3.</_></rects>
      <tilted>0</tilted></_>
    <_>
      <rects>
        <_>
          18 17 2 4 -1.</_>
        <_>
          18 17 1 2 2.</_>
        <_>
          19 19 1 2 2.</_></rects>
      <tilted>0</tilted></_>
    <_>
      <rects>
        <_>
          18 17 8 9 -1.</_>
        <_>
          15 20 8 3 3.</_></rects>
      <tilted>1</tilted></_>
    <_>
      <rects>
        <_>
          18 18 3 1 -1.</_>
        <_>
          19 18 1 1 3.</_></rects>
      <tilted>0</tilted></_>
    <_>
      <rects>
        <_>
          19 15 3 3 -1.</_>
        <_>
          20 15 1 3 3.</_></rects>
      <tilted>0</tilted></_>
    <_>
      <rects>
        <_>
          19 16 3 2 -1.</_>
        <_>
          20 16 1 2 3.</_></rects>
      <tilted>0</tilted></_>
    <_>
      <rects>
        <_>
          19 17 3 2 -1.</_>
        <_>
          20 17 1 2 3.</_></rects>
      <tilted>0</tilted></_>
    <_>
      <rects>
        <_>
          19 18 2 2 -1.</_>
        <_>
          19 18 1 1 2.</_>
        <_>
          20 19 1 1 2.</_></rects>
      <tilted>0</tilted></_>
    <_>
      <rects>
        <_>
          19 18 6 9 -1.</_>
        <_>
          16 21 6 3 3.</_></rects>
      <tilted>1</tilted></_>
    <_>
      <rects>
        <_>
          21 0 16 22 -1.</_>
        <_>
          21 0 8 11 2.</_>
        <_>
          29 11 8 11 2.</_></rects>
      <tilted>0</tilted></_>
    <_>
      <rects>
        <_>
          21 15 12 6 -1.</_>
        <_>
          27 15 6 6 2.</_></rects>
      <tilted>0</tilted></_>
    <_>
      <rects>
        <_>
          21 18 4 10 -1.</_>
        <_>
          21 18 2 5 2.</_>
        <_>
          23 23 2 5 2.</_></rects>
      <tilted>0</tilted></_>
    <_>
      <rects>
        <_>
          22 18 3 2 -1.</_>
        <_>
          23 18 1 2 3.</_></rects>
      <tilted>0</tilted></_>
    <_>
      <rects>
        <_>
          23 8 8 8 -1.</_>
        <_>
          21 10 8 4 2.</_></rects>
      <tilted>1</tilted></_>
    <_>
      <rects>
        <_>
          25 25 3 3 -1.</_>
        <_>
          26 26 1 3 3.</_></rects>
      <tilted>1</tilted></_>
    <_>
      <rects>
        <_>
          26 14 8 1 -1.</_>
        <_>
          30 14 4 1 2.</_></rects>
      <tilted>0</tilted></_>
    <_>
      <rects>
        <_>
          27 9 3 6 -1.</_>
        <_>
          27 12 3 3 2.</_></rects>
      <tilted>0</tilted></_>
    <_>
      <rects>
        <_>
          27 12 4 4 -1.</_>
        <_>
          27 14 4 2 2.</_></rects>
      <tilted>0</tilted></_>
    <_>
      <rects>
        <_>
          28 6 12 14 -1.</_>
        <_>
          28 6 12 7 2.</_></rects>
      <tilted>1</tilted></_>
    <_>
      <rects>
        <_>
          28 9 6 2 -1.</_>
        <_>
          28 9 3 2 2.</_></rects>
      <tilted>1</tilted></_>
    <_>
      <rects>
        <_>
          28 20 2 7 -1.</_>
        <_>
          28 20 1 7 2.</_></rects>
      <tilted>1</tilted></_>
    <_>
      <rects>
        <_>
          29 11 8 1 -1.</_>
        <_>
          29 11 4 1 2.</_></rects>
      <tilted>1</tilted></_>
    <_>
      <rects>
        <_>
          29 12 1 6 -1.</_>
        <_>
          29 15 1 3 2.</_></rects>
      <tilted>0</tilted></_>
    <_>
      <rects>
        <_>
          30 0 3 11 -1.</_>
        <_>
          31 0 1 11 3.</_></rects>
      <tilted>0</tilted></_>
    <_>
      <rects>
        <_>
          30 8 3 10 -1.</_>
        <_>
          30 8 3 5 2.</_></rects>
      <tilted>1</tilted></_>
    <_>
      <rects>
        <_>
          30 14 2 4 -1.</_>
        <_>
          30 16 2 2 2.</_></rects>
      <tilted>0</tilted></_>
    <_>
      <rects>
        <_>
          30 17 8 2 -1.</_>
        <_>
          34 17 4 2 2.</_></rects>
      <tilted>0</tilted></_>
    <_>
      <rects>
        <_>
          31 9 4 10 -1.</_>
        <_>
          31 9 4 5 2.</_></rects>
      <tilted>1</tilted></_>
    <_>
      <rects>
        <_>
          31 9 4 14 -1.</_>
        <_>
          31 9 4 7 2.</_></rects>
      <tilted>1</tilted></_>
    <_>
      <rects>
        <_>
          31 12 1 6 -1.</_>
        <_>
          31 15 1 3 2.</_></rects>
      <tilted>0</tilted></_>
    <_>
      <rects>
        <_>
          31 15 1 6 -1.</_>
        <_>
          31 18 1 3 2.</_></rects>
      <tilted>0</tilted></_>
    <_>
      <rects>
        <_>
          31 19 4 2 -1.</_>
        <_>
          33 19 2 2 2.</_></rects>
      <tilted>0</tilted></_>
    <_>
      <rects>
        <_>
          31 28 4 1 -1.</_>
        <_>
          33 28 2 1 2.</_></rects>
      <tilted>0</tilted></_>
    <_>
      <rects>
        <_>
          32 11 4 1 -1.</_>
        <_>
          32 11 2 1 2.</_></rects>
      <tilted>1</tilted></_>
    <_>
      <rects>
        <_>
          32 12 4 1 -1.</_>
        <_>
          32 12 2 1 2.</_></rects>
      <tilted>1</tilted></_>
    <_>
      <rects>
        <_>
          32 12 2 6 -1.</_>
        <_>
          32 15 2 3 2.</_></rects>
      <tilted>0</tilted></_>
    <_>
      <rects>
        <_>
          32 12 2 8 -1.</_>
        <_>
          32 16 2 4 2.</_></rects>
      <tilted>0</tilted></_>
    <_>
      <rects>
        <_>
          32 13 1 6 -1.</_>
        <_>
          32 16 1 3 2.</_></rects>
      <tilted>0</tilted></_>
    <_>
      <rects>
        <_>
          32 14 4 3 -1.</_>
        <_>
          34 14 2 3 2.</_></rects>
      <tilted>0</tilted></_>
    <_>
      <rects>
        <_>
          32 15 1 2 -1.</_>
        <_>
          32 15 1 1 2.</_></rects>
      <tilted>1</tilted></_>
    <_>
      <rects>
        <_>
          32 15 4 1 -1.</_>
        <_>
          33 16 2 1 2.</_></rects>
      <tilted>1</tilted></_>
    <_>
      <rects>
        <_>
          32 15 1 4 -1.</_>
        <_>
          32 17 1 2 2.</_></rects>
      <tilted>0</tilted></_>
    <_>
      <rects>
        <_>
          32 16 4 2 -1.</_>
        <_>
          34 16 2 2 2.</_></rects>
      <tilted>0</tilted></_>
    <_>
      <rects>
        <_>
          32 17 2 4 -1.</_>
        <_>
          32 19 2 2 2.</_></rects>
      <tilted>0</tilted></_>
    <_>
      <rects>
        <_>
          32 17 7 6 -1.</_>
        <_>
          32 17 7 3 2.</_></rects>
      <tilted>1</tilted></_>
    <_>
      <rects>
        <_>
          32 20 4 4 -1.</_>
        <_>
          34 20 2 4 2.</_></rects>
      <tilted>0</tilted></_>
    <_>
      <rects>
        <_>
          32 21 3 9 -1.</_>
        <_>
          33 22 1 9 3.</_></rects>
      <tilted>1</tilted></_>
    <_>
      <rects>
        <_>
          32 23 4 1 -1.</_>
        <_>
          32 23 2 1 2.</_></rects>
      <tilted>1</tilted></_>
    <_>
      <rects>
        <_>
          32 25 1 14 -1.</_>
        <_>
          32 32 1 7 2.</_></rects>
      <tilted>0</tilted></_>
    <_>
      <rects>
        <_>
          33 14 6 1 -1.</_>
        <_>
          33 14 3 1 2.</_></rects>
      <tilted>1</tilted></_>
    <_>
      <rects>
        <_>
          33 16 2 1 -1.</_>
        <_>
          33 16 1 1 2.</_></rects>
      <tilted>1</tilted></_>
    <_>
      <rects>
        <_>
          33 16 2 12 -1.</_>
        <_>
          33 16 1 12 2.</_></rects>
      <tilted>1</tilted></_>
    <_>
      <rects>
        <_>
          33 17 4 5 -1.</_>
        <_>
          35 17 2 5 2.</_></rects>
      <tilted>0</tilted></_>
    <_>
      <rects>
        <_>
          33 20 4 4 -1.</_>
        <_>
          35 20 2 4 2.</_></rects>
      <tilted>0</tilted></_>
    <_>
      <rects>
        <_>
          33 23 1 6 -1.</_>
        <_>
          33 26 1 3 2.</_></rects>
      <tilted>0</tilted></_>
    <_>
      <rects>
        <_>
          33 23 1 8 -1.</_>
        <_>
          33 27 1 4 2.</_></rects>
      <tilted>0</tilted></_>
    <_>
      <rects>
        <_>
          33 23 4 1 -1.</_>
        <_>
          33 23 2 1 2.</_></rects>
      <tilted>1</tilted></_>
    <_>
      <rects>
        <_>
          33 25 1 6 -1.</_>
        <_>
          33 28 1 3 2.</_></rects>
      <tilted>0</tilted></_>
    <_>
      <rects>
        <_>
          33 27 1 4 -1.</_>
        <_>
          33 29 1 2 2.</_></rects>
      <tilted>0</tilted></_>
    <_>
      <rects>
        <_>
          33 27 2 10 -1.</_>
        <_>
          33 32 2 5 2.</_></rects>
      <tilted>0</tilted></_>
    <_>
      <rects>
        <_>
          34 12 6 1 -1.</_>
        <_>
          34 12 3 1 2.</_></rects>
      <tilted>1</tilted></_>
    <_>
      <rects>
        <_>
          34 12 4 14 -1.</_>
        <_>
          34 12 4 7 2.</_></rects>
      <tilted>1</tilted></_>
    <_>
      <rects>
        <_>
          34 14 2 2 -1.</_>
        <_>
          34 14 2 1 2.</_></rects>
      <tilted>1</tilted></_>
    <_>
      <rects>
        <_>
          34 14 2 8 -1.</_>
        <_>
          34 18 2 4 2.</_></rects>
      <tilted>0</tilted></_>
    <_>
      <rects>
        <_>
          34 14 2 16 -1.</_>
        <_>
          34 18 2 8 2.</_></rects>
      <tilted>0</tilted></_>
    <_>
      <rects>
        <_>
          34 16 3 6 -1.</_>
        <_>
          34 19 3 3 2.</_></rects>
      <tilted>0</tilted></_>
    <_>
      <rects>
        <_>
          34 17 2 2 -1.</_>
        <_>
          34 17 2 1 2.</_></rects>
      <tilted>1</tilted></_>
    <_>
      <rects>
        <_>
          34 17 4 2 -1.</_>
        <_>
          34 17 2 2 2.</_></rects>
      <tilted>1</tilted></_>
    <_>
      <rects>
        <_>
          34 18 4 8 -1.</_>
        <_>
          34 20 4 4 2.</_></rects>
      <tilted>0</tilted></_>
    <_>
      <rects>
        <_>
          34 20 3 2 -1.</_>
        <_>
          34 20 3 1 2.</_></rects>
      <tilted>1</tilted></_>
    <_>
      <rects>
        <_>
          34 21 4 3 -1.</_>
        <_>
          36 21 2 3 2.</_></rects>
      <tilted>0</tilted></_>
    <_>
      <rects>
        <_>
          34 23 2 4 -1.</_>
        <_>
          34 25 2 2 2.</_></rects>
      <tilted>0</tilted></_>
    <_>
      <rects>
        <_>
          35 12 1 18 -1.</_>
        <_>
          35 12 1 9 2.</_></rects>
      <tilted>1</tilted></_>
    <_>
      <rects>
        <_>
          35 15 2 2 -1.</_>
        <_>
          35 15 1 2 2.</_></rects>
      <tilted>1</tilted></_>
    <_>
      <rects>
        <_>
          35 15 1 4 -1.</_>
        <_>
          35 15 1 2 2.</_></rects>
      <tilted>1</tilted></_>
    <_>
      <rects>
        <_>
          35 15 3 2 -1.</_>
        <_>
          35 15 3 1 2.</_></rects>
      <tilted>1</tilted></_>
    <_>
      <rects>
        <_>
          35 16 2 1 -1.</_>
        <_>
          35 16 1 1 2.</_></rects>
      <tilted>1</tilted></_>
    <_>
      <rects>
        <_>
          35 16 1 10 -1.</_>
        <_>
          35 21 1 5 2.</_></rects>
      <tilted>0</tilted></_>
    <_>
      <rects>
        <_>
          35 16 2 2 -1.</_>
        <_>
          35 16 2 1 2.</_></rects>
      <tilted>1</tilted></_>
    <_>
      <rects>
        <_>
          35 19 1 8 -1.</_>
        <_>
          35 23 1 4 2.</_></rects>
      <tilted>0</tilted></_>
    <_>
      <rects>
        <_>
          35 19 3 2 -1.</_>
        <_>
          35 19 3 1 2.</_></rects>
      <tilted>1</tilted></_>
    <_>
      <rects>
        <_>
          35 20 4 2 -1.</_>
        <_>
          35 20 2 2 2.</_></rects>
      <tilted>1</tilted></_>
    <_>
      <rects>
        <_>
          35 21 1 8 -1.</_>
        <_>
          35 25 1 4 2.</_></rects>
      <tilted>0</tilted></_>
    <_>
      <rects>
        <_>
          35 21 2 5 -1.</_>
        <_>
          36 21 1 5 2.</_></rects>
      <tilted>0</tilted></_>
    <_>
      <rects>
        <_>
          35 21 4 5 -1.</_>
        <_>
          37 21 2 5 2.</_></rects>
      <tilted>0</tilted></_>
    <_>
      <rects>
        <_>
          35 26 2 6 -1.</_>
        <_>
          35 29 2 3 2.</_></rects>
      <tilted>0</tilted></_>
    <_>
      <rects>
        <_>
          36 10 4 19 -1.</_>
        <_>
          37 10 2 19 2.</_></rects>
      <tilted>0</tilted></_>
    <_>
      <rects>
        <_>
          36 14 3 4 -1.</_>
        <_>
          36 14 3 2 2.</_></rects>
      <tilted>1</tilted></_>
    <_>
      <rects>
        <_>
          36 15 4 2 -1.</_>
        <_>
          36 15 2 2 2.</_></rects>
      <tilted>1</tilted></_>
    <_>
      <rects>
        <_>
          36 15 2 16 -1.</_>
        <_>
          36 19 2 8 2.</_></rects>
      <tilted>0</tilted></_>
    <_>
      <rects>
        <_>
          36 16 1 4 -1.</_>
        <_>
          36 16 1 2 2.</_></rects>
      <tilted>1</tilted></_>
    <_>
      <rects>
        <_>
          36 16 3 14 -1.</_>
        <_>
          37 17 1 14 3.</_></rects>
      <tilted>1</tilted></_>
    <_>
      <rects>
        <_>
          36 17 1 2 -1.</_>
        <_>
          36 17 1 1 2.</_></rects>
      <tilted>1</tilted></_>
    <_>
      <rects>
        <_>
          36 19 4 2 -1.</_>
        <_>
          36 19 2 2 2.</_></rects>
      <tilted>1</tilted></_>
    <_>
      <rects>
        <_>
          36 20 2 1 -1.</_>
        <_>
          36 20 1 1 2.</_></rects>
      <tilted>1</tilted></_>
    <_>
      <rects>
        <_>
          36 21 1 4 -1.</_>
        <_>
          36 21 1 2 2.</_></rects>
      <tilted>1</tilted></_>
    <_>
      <rects>
        <_>
          36 26 1 2 -1.</_>
        <_>
          36 26 1 1 2.</_></rects>
      <tilted>1</tilted></_>
    <_>
      <rects>
        <_>
          37 18 2 2 -1.</_>
        <_>
          37 18 2 1 2.</_></rects>
      <tilted>1</tilted></_>
    <_>
      <rects>
        <_>
          37 24 1 8 -1.</_>
        <_>
          37 24 1 4 2.</_></rects>
      <tilted>1</tilted></_>
    <_>
      <rects>
        <_>
          38 14 2 24 -1.</_>
        <_>
          38 14 1 12 2.</_>
        <_>
          39 26 1 12 2.</_></rects>
      <tilted>0</tilted></_>
    <_>
      <rects>
        <_>
          39 20 1 4 -1.</_>
        <_>
          39 20 1 2 2.</_></rects>
      <tilted>1</tilted></_></features></cascade>
</opencv_storage>
