<?xml version="1.0"?>
<opencv_storage>
<cascade>
  <stageType>BOOST</stageType>
  <featureType>HAAR</featureType>
  <height>26</height>
  <width>20</width>
  <stageParams>
    <boostType>GAB</boostType>
    <minHitRate>9.9500000476837158e-01</minHitRate>
    <maxFalseAlarm>5.0000000000000000e-01</maxFalseAlarm>
    <weightTrimRate>9.4999999999999996e-01</weightTrimRate>
    <maxDepth>1</maxDepth>
    <maxWeakCount>100</maxWeakCount></stageParams>
  <featureParams>
    <maxCatCount>0</maxCatCount>
    <featSize>1</featSize>
    <mode>BASIC</mode></featureParams>
  <stageNum>25</stageNum>
  <stages>
    <!-- stage 0 -->
    <_>
      <maxWeakCount>10</maxWeakCount>
      <stageThreshold>-1.2090004682540894e+00</stageThreshold>
      <weakClassifiers>
        <_>
          <internalNodes>
            0 -1 45 1.6623750329017639e-01</internalNodes>
          <leafValues>
            -3.2751092314720154e-01 8.9159226417541504e-01</leafValues></_>
        <_>
          <internalNodes>
            0 -1 712 -2.0661495625972748e-02</internalNodes>
          <leafValues>
            -8.2383620738983154e-01 3.7850186228752136e-01</leafValues></_>
        <_>
          <internalNodes>
            0 -1 1315 -9.4544783234596252e-02</internalNodes>
          <leafValues>
            6.3012367486953735e-01 -3.1121301651000977e-01</leafValues></_>
        <_>
          <internalNodes>
            0 -1 726 4.1808813810348511e-02</internalNodes>
          <leafValues>
            2.4490335583686829e-01 -6.9343137741088867e-01</leafValues></_>
        <_>
          <internalNodes>
            0 -1 476 -3.5135995596647263e-02</internalNodes>
          <leafValues>
            4.4464117288589478e-01 -3.0578023195266724e-01</leafValues></_>
        <_>
          <internalNodes>
            0 -1 181 -8.9258730411529541e-02</internalNodes>
          <leafValues>
            6.5820246934890747e-01 -2.2431047260761261e-01</leafValues></_>
        <_>
          <internalNodes>
            0 -1 55 4.9354530870914459e-02</internalNodes>
          <leafValues>
            -7.4888952076435089e-02 6.7470830678939819e-01</leafValues></_>
        <_>
          <internalNodes>
            0 -1 1227 1.3905669329687953e-03</internalNodes>
          <leafValues>
            -3.1212520599365234e-01 2.6997819542884827e-01</leafValues></_>
        <_>
          <internalNodes>
            0 -1 1216 -2.2231727838516235e-02</internalNodes>
          <leafValues>
            5.2167314291000366e-01 -1.7571783065795898e-01</leafValues></_>
        <_>
          <internalNodes>
            0 -1 1371 1.5244921669363976e-03</internalNodes>
          <leafValues>
            1.4008466899394989e-01 -7.5165963172912598e-01</leafValues></_></weakClassifiers></_>
    <!-- stage 1 -->
    <_>
      <maxWeakCount>19</maxWeakCount>
      <stageThreshold>-1.1639118194580078e+00</stageThreshold>
      <weakClassifiers>
        <_>
          <internalNodes>
            0 -1 53 2.4288091063499451e-01</internalNodes>
          <leafValues>
            -1.6865012049674988e-01 8.1565159559249878e-01</leafValues></_>
        <_>
          <internalNodes>
            0 -1 691 -1.7821099609136581e-02</internalNodes>
          <leafValues>
            -7.6261335611343384e-01 3.2720589637756348e-01</leafValues></_>
        <_>
          <internalNodes>
            0 -1 490 3.9273694157600403e-02</internalNodes>
          <leafValues>
            -2.6800268888473511e-01 5.3486150503158569e-01</leafValues></_>
        <_>
          <internalNodes>
            0 -1 1355 6.5180305391550064e-03</internalNodes>
          <leafValues>
            -2.2169017791748047e-01 4.3396565318107605e-01</leafValues></_>
        <_>
          <internalNodes>
            0 -1 903 4.2064137756824493e-02</internalNodes>
          <leafValues>
            8.3341263234615326e-02 -8.3513230085372925e-01</leafValues></_>
        <_>
          <internalNodes>
            0 -1 918 -5.2961446344852448e-03</internalNodes>
          <leafValues>
            -5.8568561077117920e-01 9.8254613578319550e-02</leafValues></_>
        <_>
          <internalNodes>
            0 -1 327 7.2607072070240974e-03</internalNodes>
          <leafValues>
            -1.8973734974861145e-01 3.9679116010665894e-01</leafValues></_>
        <_>
          <internalNodes>
            0 -1 1435 1.9032374024391174e-02</internalNodes>
          <leafValues>
            -1.7603521049022675e-01 4.1927433013916016e-01</leafValues></_>
        <_>
          <internalNodes>
            0 -1 597 3.6941736936569214e-02</internalNodes>
          <leafValues>
            1.3339056074619293e-01 -5.9884291887283325e-01</leafValues></_>
        <_>
          <internalNodes>
            0 -1 475 -3.9778508245944977e-02</internalNodes>
          <leafValues>
            3.4793448448181152e-01 -2.2072505950927734e-01</leafValues></_>
        <_>
          <internalNodes>
            0 -1 1062 9.3790818937122822e-04</internalNodes>
          <leafValues>
            -1.4927944540977478e-01 3.7490603327751160e-01</leafValues></_>
        <_>
          <internalNodes>
            0 -1 1062 -6.8889994872733951e-04</internalNodes>
          <leafValues>
            4.1946652531623840e-01 -2.0747095346450806e-01</leafValues></_>
        <_>
          <internalNodes>
            0 -1 1055 8.2179065793752670e-03</internalNodes>
          <leafValues>
            1.3277859985828400e-01 -5.0219720602035522e-01</leafValues></_>
        <_>
          <internalNodes>
            0 -1 901 -1.7386917024850845e-02</internalNodes>
          <leafValues>
            -6.8495780229568481e-01 6.3167832791805267e-02</leafValues></_>
        <_>
          <internalNodes>
            0 -1 1412 1.6079468186944723e-03</internalNodes>
          <leafValues>
            -1.1224634945392609e-01 4.4262152910232544e-01</leafValues></_>
        <_>
          <internalNodes>
            0 -1 1411 -1.7112209461629391e-03</internalNodes>
          <leafValues>
            3.4513583779335022e-01 -1.5295696258544922e-01</leafValues></_>
        <_>
          <internalNodes>
            0 -1 455 8.5740145295858383e-03</internalNodes>
          <leafValues>
            6.2688782811164856e-02 -7.8962814807891846e-01</leafValues></_>
        <_>
          <internalNodes>
            0 -1 963 -6.7410212941467762e-03</internalNodes>
          <leafValues>
            -8.2212185859680176e-01 4.3186433613300323e-02</leafValues></_>
        <_>
          <internalNodes>
            0 -1 561 -1.8642111681401730e-03</internalNodes>
          <leafValues>
            4.3132627010345459e-01 -1.2514315545558929e-01</leafValues></_></weakClassifiers></_>
    <!-- stage 2 -->
    <_>
      <maxWeakCount>24</maxWeakCount>
      <stageThreshold>-1.0990405082702637e+00</stageThreshold>
      <weakClassifiers>
        <_>
          <internalNodes>
            0 -1 1042 -1.1355918645858765e-01</internalNodes>
          <leafValues>
            7.5652176141738892e-01 -2.1959653496742249e-01</leafValues></_>
        <_>
          <internalNodes>
            0 -1 475 -2.6868961751461029e-02</internalNodes>
          <leafValues>
            4.9270060658454895e-01 -2.8690862655639648e-01</leafValues></_>
        <_>
          <internalNodes>
            0 -1 682 5.1695220172405243e-03</internalNodes>
          <leafValues>
            -2.9221597313880920e-01 3.6377653479576111e-01</leafValues></_>
        <_>
          <internalNodes>
            0 -1 56 6.0986254364252090e-02</internalNodes>
          <leafValues>
            -1.5319946408271790e-01 4.9949136376380920e-01</leafValues></_>
        <_>
          <internalNodes>
            0 -1 1107 3.8844996597617865e-03</internalNodes>
          <leafValues>
            -3.0881503224372864e-01 2.9806169867515564e-01</leafValues></_>
        <_>
          <internalNodes>
            0 -1 1109 2.4533448740839958e-02</internalNodes>
          <leafValues>
            9.5767550170421600e-02 -7.0167797803878784e-01</leafValues></_>
        <_>
          <internalNodes>
            0 -1 757 -1.0188905522227287e-02</internalNodes>
          <leafValues>
            -6.5323466062545776e-01 8.9943297207355499e-02</leafValues></_>
        <_>
          <internalNodes>
            0 -1 963 3.4743915311992168e-03</internalNodes>
          <leafValues>
            7.8239805996417999e-02 -6.9156742095947266e-01</leafValues></_>
        <_>
          <internalNodes>
            0 -1 530 -6.3672110438346863e-02</internalNodes>
          <leafValues>
            -7.2876328229904175e-01 6.8339094519615173e-02</leafValues></_>
        <_>
          <internalNodes>
            0 -1 320 -2.5248317979276180e-03</internalNodes>
          <leafValues>
            3.2823824882507324e-01 -1.8183481693267822e-01</leafValues></_>
        <_>
          <internalNodes>
            0 -1 1064 1.5580719336867332e-03</internalNodes>
          <leafValues>
            -1.4647156000137329e-01 3.5429793596267700e-01</leafValues></_>
        <_>
          <internalNodes>
            0 -1 893 8.6007110076025128e-04</internalNodes>
          <leafValues>
            -1.7630688846111298e-01 3.3569785952568054e-01</leafValues></_>
        <_>
          <internalNodes>
            0 -1 630 -7.0021133869886398e-03</internalNodes>
          <leafValues>
            -7.4564713239669800e-01 6.8551756441593170e-02</leafValues></_>
        <_>
          <internalNodes>
            0 -1 672 4.3323047459125519e-02</internalNodes>
          <leafValues>
            5.6568197906017303e-02 -7.4291956424713135e-01</leafValues></_>
        <_>
          <internalNodes>
            0 -1 706 2.6220709551125765e-03</internalNodes>
          <leafValues>
            -1.4833474159240723e-01 3.7860590219497681e-01</leafValues></_>
        <_>
          <internalNodes>
            0 -1 705 -1.1666943319141865e-03</internalNodes>
          <leafValues>
            3.3752405643463135e-01 -1.6528946161270142e-01</leafValues></_>
        <_>
          <internalNodes>
            0 -1 1110 -1.3208727352321148e-02</internalNodes>
          <leafValues>
            -7.8838223218917847e-01 6.7757144570350647e-02</leafValues></_>
        <_>
          <internalNodes>
            0 -1 889 2.4367006495594978e-02</internalNodes>
          <leafValues>
            6.4050734043121338e-02 -6.0570424795150757e-01</leafValues></_>
        <_>
          <internalNodes>
            0 -1 1114 9.7029954195022583e-03</internalNodes>
          <leafValues>
            5.3637608885765076e-02 -6.7814964056015015e-01</leafValues></_>
        <_>
          <internalNodes>
            0 -1 225 -3.9656870067119598e-03</internalNodes>
          <leafValues>
            2.9114469885826111e-01 -1.4864049851894379e-01</leafValues></_>
        <_>
          <internalNodes>
            0 -1 607 1.2801557313650846e-03</internalNodes>
          <leafValues>
            -1.4941053092479706e-01 2.6707208156585693e-01</leafValues></_>
        <_>
          <internalNodes>
            0 -1 789 -6.5459581092000008e-03</internalNodes>
          <leafValues>
            -6.9647639989852905e-01 6.4141541719436646e-02</leafValues></_>
        <_>
          <internalNodes>
            0 -1 170 1.7116058152168989e-03</internalNodes>
          <leafValues>
            1.0322282463312149e-01 -3.8190519809722900e-01</leafValues></_>
        <_>
          <internalNodes>
            0 -1 140 1.0253557935357094e-02</internalNodes>
          <leafValues>
            -1.8103730678558350e-01 2.3698547482490540e-01</leafValues></_></weakClassifiers></_>
    <!-- stage 3 -->
    <_>
      <maxWeakCount>34</maxWeakCount>
      <stageThreshold>-1.1163600683212280e+00</stageThreshold>
      <weakClassifiers>
        <_>
          <internalNodes>
            0 -1 34 2.8284758329391479e-01</internalNodes>
          <leafValues>
            -8.5080988705158234e-02 7.3289793729782104e-01</leafValues></_>
        <_>
          <internalNodes>
            0 -1 654 -3.2597098499536514e-02</internalNodes>
          <leafValues>
            4.7614526748657227e-01 -2.3774468898773193e-01</leafValues></_>
        <_>
          <internalNodes>
            0 -1 1164 2.2413078695535660e-02</internalNodes>
          <leafValues>
            -2.5428378582000732e-01 4.0866088867187500e-01</leafValues></_>
        <_>
          <internalNodes>
            0 -1 342 5.0673703663051128e-03</internalNodes>
          <leafValues>
            -1.7651197314262390e-01 3.7182572484016418e-01</leafValues></_>
        <_>
          <internalNodes>
            0 -1 1226 7.1361695881932974e-04</internalNodes>
          <leafValues>
            -3.0807420611381531e-01 2.0462761819362640e-01</leafValues></_>
        <_>
          <internalNodes>
            0 -1 872 -6.7931339144706726e-03</internalNodes>
          <leafValues>
            -5.7718729972839355e-01 9.4099588692188263e-02</leafValues></_>
        <_>
          <internalNodes>
            0 -1 492 -1.1894382536411285e-02</internalNodes>
          <leafValues>
            4.0183839201927185e-01 -1.4834371209144592e-01</leafValues></_>
        <_>
          <internalNodes>
            0 -1 925 -8.4268618375062943e-03</internalNodes>
          <leafValues>
            -6.4921402931213379e-01 8.2927390933036804e-02</leafValues></_>
        <_>
          <internalNodes>
            0 -1 668 -1.9322490319609642e-02</internalNodes>
          <leafValues>
            4.7308546304702759e-01 -1.0164875537157059e-01</leafValues></_>
        <_>
          <internalNodes>
            0 -1 67 1.9608341157436371e-02</internalNodes>
          <leafValues>
            -1.5084673464298248e-01 3.1105339527130127e-01</leafValues></_>
        <_>
          <internalNodes>
            0 -1 312 -1.9553578458726406e-03</internalNodes>
          <leafValues>
            2.3652835190296173e-01 -1.7699743807315826e-01</leafValues></_>
        <_>
          <internalNodes>
            0 -1 327 -7.0614912547171116e-03</internalNodes>
          <leafValues>
            3.5127016901969910e-01 -1.0931563377380371e-01</leafValues></_>
        <_>
          <internalNodes>
            0 -1 1370 1.0534083703532815e-03</internalNodes>
          <leafValues>
            6.6121779382228851e-02 -6.8765562772750854e-01</leafValues></_>
        <_>
          <internalNodes>
            0 -1 863 1.7579023260623217e-03</internalNodes>
          <leafValues>
            -1.2578082084655762e-01 3.2309222221374512e-01</leafValues></_>
        <_>
          <internalNodes>
            0 -1 864 -2.3609467316418886e-03</internalNodes>
          <leafValues>
            3.6709308624267578e-01 -1.5292572975158691e-01</leafValues></_>
        <_>
          <internalNodes>
            0 -1 1056 1.5953343361616135e-02</internalNodes>
          <leafValues>
            8.7470009922981262e-02 -5.6516522169113159e-01</leafValues></_>
        <_>
          <internalNodes>
            0 -1 1210 2.2427449002861977e-03</internalNodes>
          <leafValues>
            -1.2157165259122849e-01 3.6759591102600098e-01</leafValues></_>
        <_>
          <internalNodes>
            0 -1 1200 -9.2103262431919575e-04</internalNodes>
          <leafValues>
            2.9326626658439636e-01 -1.5473313629627228e-01</leafValues></_>
        <_>
          <internalNodes>
            0 -1 833 4.3550200760364532e-02</internalNodes>
          <leafValues>
            6.6893555223941803e-02 -6.6202902793884277e-01</leafValues></_>
        <_>
          <internalNodes>
            0 -1 1192 1.5682402299717069e-03</internalNodes>
          <leafValues>
            -1.5983556210994720e-01 3.4814167022705078e-01</leafValues></_>
        <_>
          <internalNodes>
            0 -1 802 -4.0118480101227760e-03</internalNodes>
          <leafValues>
            -6.4463973045349121e-01 6.4012438058853149e-02</leafValues></_>
        <_>
          <internalNodes>
            0 -1 804 3.4234852064400911e-03</internalNodes>
          <leafValues>
            7.5259633362293243e-02 -4.3215379118919373e-01</leafValues></_>
        <_>
          <internalNodes>
            0 -1 1252 -5.7763815857470036e-03</internalNodes>
          <leafValues>
            -4.9352714419364929e-01 6.0816951096057892e-02</leafValues></_>
        <_>
          <internalNodes>
            0 -1 529 2.6571343187242746e-03</internalNodes>
          <leafValues>
            -1.7767396569252014e-01 1.8704949319362640e-01</leafValues></_>
        <_>
          <internalNodes>
            0 -1 860 2.3616254329681396e-02</internalNodes>
          <leafValues>
            6.1124790459871292e-02 -7.3864334821701050e-01</leafValues></_>
        <_>
          <internalNodes>
            0 -1 1010 9.2823896557092667e-03</internalNodes>
          <leafValues>
            -1.3752250373363495e-01 2.8294664621353149e-01</leafValues></_>
        <_>
          <internalNodes>
            0 -1 733 -9.7635108977556229e-03</internalNodes>
          <leafValues>
            -4.4136857986450195e-01 8.2064561545848846e-02</leafValues></_>
        <_>
          <internalNodes>
            0 -1 286 8.4591962397098541e-02</internalNodes>
          <leafValues>
            3.9192184805870056e-02 -6.6414999961853027e-01</leafValues></_>
        <_>
          <internalNodes>
            0 -1 762 1.0601179674267769e-03</internalNodes>
          <leafValues>
            -1.2054067105054855e-01 2.9489332437515259e-01</leafValues></_>
        <_>
          <internalNodes>
            0 -1 752 7.4011296965181828e-04</internalNodes>
          <leafValues>
            -1.3466791808605194e-01 2.6397433876991272e-01</leafValues></_>
        <_>
          <internalNodes>
            0 -1 915 6.0079665854573250e-04</internalNodes>
          <leafValues>
            -1.4803241193294525e-01 2.6556155085563660e-01</leafValues></_>
        <_>
          <internalNodes>
            0 -1 1081 -4.5671053230762482e-03</internalNodes>
          <leafValues>
            -5.7055467367172241e-01 6.5242439508438110e-02</leafValues></_>
        <_>
          <internalNodes>
            0 -1 1102 9.5213979482650757e-02</internalNodes>
          <leafValues>
            -1.1138431727886200e-01 3.3818462491035461e-01</leafValues></_>
        <_>
          <internalNodes>
            0 -1 1230 -2.1695883944630623e-02</internalNodes>
          <leafValues>
            3.7645676732063293e-01 -1.1608391255140305e-01</leafValues></_></weakClassifiers></_>
    <!-- stage 4 -->
    <_>
      <maxWeakCount>40</maxWeakCount>
      <stageThreshold>-1.1479454040527344e+00</stageThreshold>
      <weakClassifiers>
        <_>
          <internalNodes>
            0 -1 1297 -8.4717735648155212e-02</internalNodes>
          <leafValues>
            6.9077843427658081e-01 -9.6679508686065674e-02</leafValues></_>
        <_>
          <internalNodes>
            0 -1 253 -4.6504475176334381e-02</internalNodes>
          <leafValues>
            4.3384319543838501e-01 -2.4062126874923706e-01</leafValues></_>
        <_>
          <internalNodes>
            0 -1 40 9.7385838627815247e-02</internalNodes>
          <leafValues>
            -2.0865263044834137e-01 3.9248013496398926e-01</leafValues></_>
        <_>
          <internalNodes>
            0 -1 1228 1.2540474999696016e-03</internalNodes>
          <leafValues>
            -2.6698285341262817e-01 2.5347453355789185e-01</leafValues></_>
        <_>
          <internalNodes>
            0 -1 1032 2.1735595073550940e-03</internalNodes>
          <leafValues>
            -1.7334903776645660e-01 4.2272487282752991e-01</leafValues></_>
        <_>
          <internalNodes>
            0 -1 863 1.2556579895317554e-03</internalNodes>
          <leafValues>
            -1.8274246156215668e-01 3.5082608461380005e-01</leafValues></_>
        <_>
          <internalNodes>
            0 -1 880 -1.9467222737148404e-03</internalNodes>
          <leafValues>
            3.7627851963043213e-01 -1.4169953763484955e-01</leafValues></_>
        <_>
          <internalNodes>
            0 -1 727 -1.3938744086772203e-03</internalNodes>
          <leafValues>
            3.2456538081169128e-01 -1.3979002833366394e-01</leafValues></_>
        <_>
          <internalNodes>
            0 -1 869 8.0359857529401779e-03</internalNodes>
          <leafValues>
            1.3121576607227325e-01 -3.9410150051116943e-01</leafValues></_>
        <_>
          <internalNodes>
            0 -1 856 -1.1322457343339920e-02</internalNodes>
          <leafValues>
            -6.6959965229034424e-01 7.7672168612480164e-02</leafValues></_>
        <_>
          <internalNodes>
            0 -1 548 -1.7308362293988466e-03</internalNodes>
          <leafValues>
            3.3664813637733459e-01 -1.3222007453441620e-01</leafValues></_>
        <_>
          <internalNodes>
            0 -1 774 1.5369225293397903e-02</internalNodes>
          <leafValues>
            8.7004601955413818e-02 -5.5214214324951172e-01</leafValues></_>
        <_>
          <internalNodes>
            0 -1 539 1.9071411807090044e-03</internalNodes>
          <leafValues>
            -1.4289599657058716e-01 2.9782050848007202e-01</leafValues></_>
        <_>
          <internalNodes>
            0 -1 238 9.2071313410997391e-03</internalNodes>
          <leafValues>
            -1.1868256330490112e-01 3.4079575538635254e-01</leafValues></_>
        <_>
          <internalNodes>
            0 -1 1485 1.8382707610726357e-02</internalNodes>
          <leafValues>
            -1.1272531747817993e-01 3.5509777069091797e-01</leafValues></_>
        <_>
          <internalNodes>
            0 -1 1271 1.2156758457422256e-03</internalNodes>
          <leafValues>
            9.1297946870326996e-02 -4.6040305495262146e-01</leafValues></_>
        <_>
          <internalNodes>
            0 -1 1318 -1.3669861946254969e-03</internalNodes>
          <leafValues>
            2.8579425811767578e-01 -1.3047000765800476e-01</leafValues></_>
        <_>
          <internalNodes>
            0 -1 1324 1.1410675942897797e-03</internalNodes>
          <leafValues>
            -1.3716699182987213e-01 4.1523745656013489e-01</leafValues></_>
        <_>
          <internalNodes>
            0 -1 1206 -2.6666816323995590e-02</internalNodes>
          <leafValues>
            -7.1314626932144165e-01 6.3469760119915009e-02</leafValues></_>
        <_>
          <internalNodes>
            0 -1 122 1.0426820814609528e-01</internalNodes>
          <leafValues>
            -7.0513539016246796e-02 6.0108888149261475e-01</leafValues></_>
        <_>
          <internalNodes>
            0 -1 597 -2.4076040834188461e-02</internalNodes>
          <leafValues>
            -7.1370178461074829e-01 5.7867169380187988e-02</leafValues></_>
        <_>
          <internalNodes>
            0 -1 413 1.1535693192854524e-03</internalNodes>
          <leafValues>
            -1.2510016560554504e-01 2.9153853654861450e-01</leafValues></_>
        <_>
          <internalNodes>
            0 -1 413 -1.6932014841586351e-03</internalNodes>
          <leafValues>
            3.7748083472251892e-01 -9.6658930182456970e-02</leafValues></_>
        <_>
          <internalNodes>
            0 -1 1127 2.5580683723092079e-03</internalNodes>
          <leafValues>
            6.1087973415851593e-02 -5.9493005275726318e-01</leafValues></_>
        <_>
          <internalNodes>
            0 -1 850 9.9858629982918501e-04</internalNodes>
          <leafValues>
            -1.7700575292110443e-01 1.7806915938854218e-01</leafValues></_>
        <_>
          <internalNodes>
            0 -1 686 3.0465915799140930e-02</internalNodes>
          <leafValues>
            4.7990836203098297e-02 -6.4026504755020142e-01</leafValues></_>
        <_>
          <internalNodes>
            0 -1 157 -3.1983833760023117e-03</internalNodes>
          <leafValues>
            2.2576804459095001e-01 -1.4551606774330139e-01</leafValues></_>
        <_>
          <internalNodes>
            0 -1 743 -1.7639376223087311e-02</internalNodes>
          <leafValues>
            -6.9532126188278198e-01 5.0830084830522537e-02</leafValues></_>
        <_>
          <internalNodes>
            0 -1 1409 1.8696708139032125e-03</internalNodes>
          <leafValues>
            -1.1939194798469543e-01 2.6417577266693115e-01</leafValues></_>
        <_>
          <internalNodes>
            0 -1 1412 -5.6657183449715376e-04</internalNodes>
          <leafValues>
            3.1483849883079529e-01 -1.4102287590503693e-01</leafValues></_>
        <_>
          <internalNodes>
            0 -1 261 -1.3246964663267136e-03</internalNodes>
          <leafValues>
            -3.5344925522804260e-01 8.7436467409133911e-02</leafValues></_>
        <_>
          <internalNodes>
            0 -1 991 5.6093842722475529e-03</internalNodes>
          <leafValues>
            -8.5061691701412201e-02 3.7874931097030640e-01</leafValues></_>
        <_>
          <internalNodes>
            0 -1 1365 2.3139617405831814e-03</internalNodes>
          <leafValues>
            5.4617464542388916e-02 -6.4838701486587524e-01</leafValues></_>
        <_>
          <internalNodes>
            0 -1 715 7.8268756624311209e-04</internalNodes>
          <leafValues>
            -1.1798286437988281e-01 2.4189442396163940e-01</leafValues></_>
        <_>
          <internalNodes>
            0 -1 49 4.3248683214187622e-02</internalNodes>
          <leafValues>
            -1.1450512707233429e-01 2.4367941915988922e-01</leafValues></_>
        <_>
          <internalNodes>
            0 -1 1425 6.3395858742296696e-03</internalNodes>
          <leafValues>
            -1.2083687633275986e-01 2.3662675917148590e-01</leafValues></_>
        <_>
          <internalNodes>
            0 -1 1378 -2.3676860146224499e-03</internalNodes>
          <leafValues>
            2.4686034023761749e-01 -1.4369371533393860e-01</leafValues></_>
        <_>
          <internalNodes>
            0 -1 1473 8.6799787823110819e-04</internalNodes>
          <leafValues>
            6.5656587481498718e-02 -4.7589597105979919e-01</leafValues></_>
        <_>
          <internalNodes>
            0 -1 592 1.2540514580905437e-03</internalNodes>
          <leafValues>
            -1.0452949255704880e-01 2.6948872208595276e-01</leafValues></_>
        <_>
          <internalNodes>
            0 -1 773 7.2223035385832191e-04</internalNodes>
          <leafValues>
            -1.2669739127159119e-01 2.2570841014385223e-01</leafValues></_></weakClassifiers></_>
    <!-- stage 5 -->
    <_>
      <maxWeakCount>54</maxWeakCount>
      <stageThreshold>-1.0939774513244629e+00</stageThreshold>
      <weakClassifiers>
        <_>
          <internalNodes>
            0 -1 473 -2.1071739494800568e-02</internalNodes>
          <leafValues>
            5.8318471908569336e-01 -1.4202898740768433e-01</leafValues></_>
        <_>
          <internalNodes>
            0 -1 123 1.2336979806423187e-01</internalNodes>
          <leafValues>
            -1.6516925394535065e-01 5.9982442855834961e-01</leafValues></_>
        <_>
          <internalNodes>
            0 -1 498 1.7110060900449753e-02</internalNodes>
          <leafValues>
            -2.3378050327301025e-01 2.9417246580123901e-01</leafValues></_>
        <_>
          <internalNodes>
            0 -1 558 -1.1891771107912064e-02</internalNodes>
          <leafValues>
            -6.2436628341674805e-01 1.0351448506116867e-01</leafValues></_>
        <_>
          <internalNodes>
            0 -1 453 3.3841291442513466e-03</internalNodes>
          <leafValues>
            -1.9049213826656342e-01 2.6931101083755493e-01</leafValues></_>
        <_>
          <internalNodes>
            0 -1 625 -6.7364256829023361e-03</internalNodes>
          <leafValues>
            3.1658378243446350e-01 -1.4426346123218536e-01</leafValues></_>
        <_>
          <internalNodes>
            0 -1 1300 -9.5149949193000793e-03</internalNodes>
          <leafValues>
            4.1849377751350403e-01 -9.6431180834770203e-02</leafValues></_>
        <_>
          <internalNodes>
            0 -1 1276 2.1595825091935694e-04</internalNodes>
          <leafValues>
            -1.6453517973423004e-01 2.1352137625217438e-01</leafValues></_>
        <_>
          <internalNodes>
            0 -1 71 2.7305170893669128e-02</internalNodes>
          <leafValues>
            -7.8707113862037659e-02 3.8548141717910767e-01</leafValues></_>
        <_>
          <internalNodes>
            0 -1 1238 5.0163903506472707e-04</internalNodes>
          <leafValues>
            -2.2516565024852753e-01 1.6761377453804016e-01</leafValues></_>
        <_>
          <internalNodes>
            0 -1 1113 -4.0174357593059540e-02</internalNodes>
          <leafValues>
            2.2864763438701630e-01 -1.5972280502319336e-01</leafValues></_>
        <_>
          <internalNodes>
            0 -1 362 -4.4235851615667343e-02</internalNodes>
          <leafValues>
            3.7248027324676514e-01 -9.3245886266231537e-02</leafValues></_>
        <_>
          <internalNodes>
            0 -1 1096 1.9189333543181419e-02</internalNodes>
          <leafValues>
            7.0793077349662781e-02 -5.3592175245285034e-01</leafValues></_>
        <_>
          <internalNodes>
            0 -1 821 6.6350838169455528e-03</internalNodes>
          <leafValues>
            3.9040293544530869e-02 -6.6497111320495605e-01</leafValues></_>
        <_>
          <internalNodes>
            0 -1 432 1.6271126223728061e-03</internalNodes>
          <leafValues>
            -9.5002204179763794e-02 3.5128942131996155e-01</leafValues></_>
        <_>
          <internalNodes>
            0 -1 584 4.7919660573825240e-04</internalNodes>
          <leafValues>
            -1.1491649597883224e-01 2.8297993540763855e-01</leafValues></_>
        <_>
          <internalNodes>
            0 -1 546 3.8513518869876862e-02</internalNodes>
          <leafValues>
            6.5503783524036407e-02 -5.2197813987731934e-01</leafValues></_>
        <_>
          <internalNodes>
            0 -1 1047 2.2436287254095078e-03</internalNodes>
          <leafValues>
            -1.0704577714204788e-01 3.0039003491401672e-01</leafValues></_>
        <_>
          <internalNodes>
            0 -1 1064 -1.5519657172262669e-03</internalNodes>
          <leafValues>
            3.0537852644920349e-01 -1.2170228362083435e-01</leafValues></_>
        <_>
          <internalNodes>
            0 -1 363 1.1697939038276672e-01</internalNodes>
          <leafValues>
            -1.3976249098777771e-01 2.4756838381290436e-01</leafValues></_>
        <_>
          <internalNodes>
            0 -1 1225 -4.2848605662584305e-03</internalNodes>
          <leafValues>
            -5.7110315561294556e-01 5.5325649678707123e-02</leafValues></_>
        <_>
          <internalNodes>
            0 -1 923 -3.3283219672739506e-03</internalNodes>
          <leafValues>
            -4.4879180192947388e-01 6.4040757715702057e-02</leafValues></_>
        <_>
          <internalNodes>
            0 -1 754 1.2085414491593838e-03</internalNodes>
          <leafValues>
            -1.3527271151542664e-01 2.6525396108627319e-01</leafValues></_>
        <_>
          <internalNodes>
            0 -1 422 -2.1438635885715485e-03</internalNodes>
          <leafValues>
            3.0212506651878357e-01 -1.1362583935260773e-01</leafValues></_>
        <_>
          <internalNodes>
            0 -1 734 1.0738447308540344e-02</internalNodes>
          <leafValues>
            9.5634564757347107e-02 -3.1948402523994446e-01</leafValues></_>
        <_>
          <internalNodes>
            0 -1 1076 7.0954987313598394e-04</internalNodes>
          <leafValues>
            -1.2385348230600357e-01 2.5301280617713928e-01</leafValues></_>
        <_>
          <internalNodes>
            0 -1 1022 2.1231530234217644e-02</internalNodes>
          <leafValues>
            5.0775535404682159e-02 -5.4583686590194702e-01</leafValues></_>
        <_>
          <internalNodes>
            0 -1 355 -5.4371345322579145e-04</internalNodes>
          <leafValues>
            -3.0574256181716919e-01 8.4377363324165344e-02</leafValues></_>
        <_>
          <internalNodes>
            0 -1 355 3.8954816409386694e-04</internalNodes>
          <leafValues>
            9.9950797855854034e-02 -2.6689675450325012e-01</leafValues></_>
        <_>
          <internalNodes>
            0 -1 627 -1.2466270476579666e-02</internalNodes>
          <leafValues>
            -4.1909328103065491e-01 6.1755452305078506e-02</leafValues></_>
        <_>
          <internalNodes>
            0 -1 1032 -1.1336597381159663e-03</internalNodes>
          <leafValues>
            2.2202904522418976e-01 -1.1899082362651825e-01</leafValues></_>
        <_>
          <internalNodes>
            0 -1 1023 2.4082642048597336e-03</internalNodes>
          <leafValues>
            -8.6137287318706512e-02 3.2676178216934204e-01</leafValues></_>
        <_>
          <internalNodes>
            0 -1 1526 6.3606473850086331e-04</internalNodes>
          <leafValues>
            7.9039052128791809e-02 -3.3839309215545654e-01</leafValues></_>
        <_>
          <internalNodes>
            0 -1 1418 -1.0881388559937477e-02</internalNodes>
          <leafValues>
            2.7254348993301392e-01 -9.2702612280845642e-02</leafValues></_>
        <_>
          <internalNodes>
            0 -1 1368 2.3168984800577164e-02</internalNodes>
          <leafValues>
            -1.0766640305519104e-01 2.5987550616264343e-01</leafValues></_>
        <_>
          <internalNodes>
            0 -1 722 -1.4955529943108559e-02</internalNodes>
          <leafValues>
            -4.4526731967926025e-01 5.7852584868669510e-02</leafValues></_>
        <_>
          <internalNodes>
            0 -1 572 1.0948991402983665e-03</internalNodes>
          <leafValues>
            -1.1023882031440735e-01 2.8505179286003113e-01</leafValues></_>
        <_>
          <internalNodes>
            0 -1 869 -7.9588126391172409e-03</internalNodes>
          <leafValues>
            -5.0555342435836792e-01 5.0389803946018219e-02</leafValues></_>
        <_>
          <internalNodes>
            0 -1 928 -3.4123222576454282e-04</internalNodes>
          <leafValues>
            2.9667663574218750e-01 -9.4847239553928375e-02</leafValues></_>
        <_>
          <internalNodes>
            0 -1 127 8.8037088513374329e-02</internalNodes>
          <leafValues>
            7.1133002638816833e-02 -3.7249624729156494e-01</leafValues></_>
        <_>
          <internalNodes>
            0 -1 831 5.0087347626686096e-02</internalNodes>
          <leafValues>
            3.1252317130565643e-02 -7.2804123163223267e-01</leafValues></_>
        <_>
          <internalNodes>
            0 -1 1495 -2.2695707157254219e-03</internalNodes>
          <leafValues>
            -2.6386892795562744e-01 8.9199833571910858e-02</leafValues></_>
        <_>
          <internalNodes>
            0 -1 1195 1.2716821394860744e-02</internalNodes>
          <leafValues>
            3.7661794573068619e-02 -6.5362262725830078e-01</leafValues></_>
        <_>
          <internalNodes>
            0 -1 1502 9.7286270465701818e-04</internalNodes>
          <leafValues>
            7.5011201202869415e-02 -2.9900667071342468e-01</leafValues></_>
        <_>
          <internalNodes>
            0 -1 1407 -8.5559685248881578e-04</internalNodes>
          <leafValues>
            2.5956386327743530e-01 -9.7866877913475037e-02</leafValues></_>
        <_>
          <internalNodes>
            0 -1 1327 -8.7603542488068342e-04</internalNodes>
          <leafValues>
            2.2308176755905151e-01 -1.2684947252273560e-01</leafValues></_>
        <_>
          <internalNodes>
            0 -1 1061 1.3349024578928947e-02</internalNodes>
          <leafValues>
            9.1226473450660706e-02 -2.8359690308570862e-01</leafValues></_>
        <_>
          <internalNodes>
            0 -1 822 2.0213939249515533e-02</internalNodes>
          <leafValues>
            -9.9730208516120911e-02 2.5540941953659058e-01</leafValues></_>
        <_>
          <internalNodes>
            0 -1 656 6.0449535958468914e-03</internalNodes>
          <leafValues>
            -8.0235451459884644e-02 3.0802398920059204e-01</leafValues></_>
        <_>
          <internalNodes>
            0 -1 796 -3.4439335577189922e-03</internalNodes>
          <leafValues>
            -4.3014818429946899e-01 6.1759486794471741e-02</leafValues></_>
        <_>
          <internalNodes>
            0 -1 256 -7.8923171386122704e-03</internalNodes>
          <leafValues>
            2.7465531229972839e-01 -8.4517553448677063e-02</leafValues></_>
        <_>
          <internalNodes>
            0 -1 349 1.1014077812433243e-02</internalNodes>
          <leafValues>
            -1.0986755043268204e-01 2.2107148170471191e-01</leafValues></_>
        <_>
          <internalNodes>
            0 -1 818 -6.6626612097024918e-03</internalNodes>
          <leafValues>
            2.0733840763568878e-01 -1.0640639066696167e-01</leafValues></_>
        <_>
          <internalNodes>
            0 -1 1377 6.2592257745563984e-04</internalNodes>
          <leafValues>
            8.5906803607940674e-02 -2.9413214325904846e-01</leafValues></_></weakClassifiers></_>
    <!-- stage 6 -->
    <_>
      <maxWeakCount>41</maxWeakCount>
      <stageThreshold>-1.1251125335693359e+00</stageThreshold>
      <weakClassifiers>
        <_>
          <internalNodes>
            0 -1 34 2.3367065191268921e-01</internalNodes>
          <leafValues>
            -1.4912448823451996e-01 7.0145738124847412e-01</leafValues></_>
        <_>
          <internalNodes>
            0 -1 1084 5.0886686891317368e-02</internalNodes>
          <leafValues>
            -1.0678229480981827e-01 5.1724022626876831e-01</leafValues></_>
        <_>
          <internalNodes>
            0 -1 476 -5.9440430253744125e-02</internalNodes>
          <leafValues>
            3.7563028931617737e-01 -1.7740963399410248e-01</leafValues></_>
        <_>
          <internalNodes>
            0 -1 964 1.2634703125513624e-05</internalNodes>
          <leafValues>
            -2.4589379131793976e-01 2.6349121332168579e-01</leafValues></_>
        <_>
          <internalNodes>
            0 -1 1430 4.5358434319496155e-02</internalNodes>
          <leafValues>
            -1.6154511272907257e-01 4.4359782338142395e-01</leafValues></_>
        <_>
          <internalNodes>
            0 -1 66 4.6971503645181656e-02</internalNodes>
          <leafValues>
            -1.2222478538751602e-01 3.9036965370178223e-01</leafValues></_>
        <_>
          <internalNodes>
            0 -1 966 1.3193259292165749e-05</internalNodes>
          <leafValues>
            -2.1599659323692322e-01 2.3665264248847961e-01</leafValues></_>
        <_>
          <internalNodes>
            0 -1 857 -1.5427110716700554e-02</internalNodes>
          <leafValues>
            3.1871095299720764e-01 -1.3196453452110291e-01</leafValues></_>
        <_>
          <internalNodes>
            0 -1 1066 4.4908731069881469e-05</internalNodes>
          <leafValues>
            -2.3203760385513306e-01 1.8455269932746887e-01</leafValues></_>
        <_>
          <internalNodes>
            0 -1 1376 7.9677312169224024e-04</internalNodes>
          <leafValues>
            7.2829119861125946e-02 -5.6366980075836182e-01</leafValues></_>
        <_>
          <internalNodes>
            0 -1 1133 -2.0942166447639465e-03</internalNodes>
          <leafValues>
            -5.4196655750274658e-01 5.9497598558664322e-02</leafValues></_>
        <_>
          <internalNodes>
            0 -1 1210 -1.6105123795568943e-03</internalNodes>
          <leafValues>
            2.9893094301223755e-01 -1.2767145037651062e-01</leafValues></_>
        <_>
          <internalNodes>
            0 -1 1208 9.1281544882804155e-04</internalNodes>
          <leafValues>
            -1.5183725953102112e-01 3.5278832912445068e-01</leafValues></_>
        <_>
          <internalNodes>
            0 -1 851 2.1315320918802172e-04</internalNodes>
          <leafValues>
            -1.6867099702358246e-01 2.2532826662063599e-01</leafValues></_>
        <_>
          <internalNodes>
            0 -1 361 -7.0322565734386444e-02</internalNodes>
          <leafValues>
            4.9391439557075500e-01 -7.1796052157878876e-02</leafValues></_>
        <_>
          <internalNodes>
            0 -1 521 1.8212739378213882e-03</internalNodes>
          <leafValues>
            -1.0106869041919708e-01 2.9623550176620483e-01</leafValues></_>
        <_>
          <internalNodes>
            0 -1 521 -1.5216585015878081e-03</internalNodes>
          <leafValues>
            3.3574214577674866e-01 -1.2197773158550262e-01</leafValues></_>
        <_>
          <internalNodes>
            0 -1 871 -6.1210603453218937e-03</internalNodes>
          <leafValues>
            -5.6124669313430786e-01 6.8727985024452209e-02</leafValues></_>
        <_>
          <internalNodes>
            0 -1 1374 2.2249121684581041e-03</internalNodes>
          <leafValues>
            3.5915702581405640e-02 -6.9085675477981567e-01</leafValues></_>
        <_>
          <internalNodes>
            0 -1 1375 -2.2606318816542625e-03</internalNodes>
          <leafValues>
            -4.6119603514671326e-01 6.6785216331481934e-02</leafValues></_>
        <_>
          <internalNodes>
            0 -1 1421 1.3575661796494387e-05</internalNodes>
          <leafValues>
            -1.7086464166641235e-01 1.8037141859531403e-01</leafValues></_>
        <_>
          <internalNodes>
            0 -1 1426 -1.7186764627695084e-02</internalNodes>
          <leafValues>
            3.3515533804893494e-01 -1.1433432251214981e-01</leafValues></_>
        <_>
          <internalNodes>
            0 -1 1434 4.3733743950724602e-03</internalNodes>
          <leafValues>
            -1.3050258159637451e-01 2.3478375375270844e-01</leafValues></_>
        <_>
          <internalNodes>
            0 -1 671 6.7310445010662079e-03</internalNodes>
          <leafValues>
            -7.8159593045711517e-02 4.0070578455924988e-01</leafValues></_>
        <_>
          <internalNodes>
            0 -1 231 1.1213865131139755e-02</internalNodes>
          <leafValues>
            -8.8106177747249603e-02 3.3611595630645752e-01</leafValues></_>
        <_>
          <internalNodes>
            0 -1 165 2.5303713046014309e-03</internalNodes>
          <leafValues>
            1.1185924708843231e-01 -3.3551084995269775e-01</leafValues></_>
        <_>
          <internalNodes>
            0 -1 756 -1.1223853565752506e-02</internalNodes>
          <leafValues>
            -6.4227879047393799e-01 3.9415385574102402e-02</leafValues></_>
        <_>
          <internalNodes>
            0 -1 1406 -2.3678475990891457e-03</internalNodes>
          <leafValues>
            2.5959488749504089e-01 -1.1232922971248627e-01</leafValues></_>
        <_>
          <internalNodes>
            0 -1 306 2.4007059633731842e-02</internalNodes>
          <leafValues>
            6.0690589249134064e-02 -4.7336027026176453e-01</leafValues></_>
        <_>
          <internalNodes>
            0 -1 985 -6.7203873768448830e-03</internalNodes>
          <leafValues>
            2.7060881257057190e-01 -1.0673463344573975e-01</leafValues></_>
        <_>
          <internalNodes>
            0 -1 1152 5.6235757656395435e-03</internalNodes>
          <leafValues>
            -1.2102691084146500e-01 2.7943149209022522e-01</leafValues></_>
        <_>
          <internalNodes>
            0 -1 1394 5.0209178589284420e-03</internalNodes>
          <leafValues>
            -1.3030508160591125e-01 2.1114727854728699e-01</leafValues></_>
        <_>
          <internalNodes>
            0 -1 0 -6.9643370807170868e-04</internalNodes>
          <leafValues>
            -2.2767692804336548e-01 1.0608329623937607e-01</leafValues></_>
        <_>
          <internalNodes>
            0 -1 631 1.2371410775813274e-05</internalNodes>
          <leafValues>
            -1.5689736604690552e-01 1.6357763111591339e-01</leafValues></_>
        <_>
          <internalNodes>
            0 -1 1139 1.3047271750110667e-05</internalNodes>
          <leafValues>
            -1.5272620320320129e-01 1.7652632296085358e-01</leafValues></_>
        <_>
          <internalNodes>
            0 -1 903 4.3346907943487167e-02</internalNodes>
          <leafValues>
            4.2279925197362900e-02 -6.1447525024414062e-01</leafValues></_>
        <_>
          <internalNodes>
            0 -1 1405 3.0065651517361403e-03</internalNodes>
          <leafValues>
            -1.0721730440855026e-01 2.4044635891914368e-01</leafValues></_>
        <_>
          <internalNodes>
            0 -1 828 -1.2169698253273964e-02</internalNodes>
          <leafValues>
            2.3705102503299713e-01 -1.0441260039806366e-01</leafValues></_>
        <_>
          <internalNodes>
            0 -1 1085 -5.7942410930991173e-03</internalNodes>
          <leafValues>
            -4.4886112213134766e-01 5.7555321604013443e-02</leafValues></_>
        <_>
          <internalNodes>
            0 -1 706 -1.8319018417969346e-03</internalNodes>
          <leafValues>
            2.2435817122459412e-01 -1.1570359021425247e-01</leafValues></_>
        <_>
          <internalNodes>
            0 -1 715 9.1078050900250673e-04</internalNodes>
          <leafValues>
            -1.2442664057016373e-01 3.1048226356506348e-01</leafValues></_></weakClassifiers></_>
    <!-- stage 7 -->
    <_>
      <maxWeakCount>58</maxWeakCount>
      <stageThreshold>-1.1191939115524292e+00</stageThreshold>
      <weakClassifiers>
        <_>
          <internalNodes>
            0 -1 31 8.7455958127975464e-02</internalNodes>
          <leafValues>
            -1.5044753439724445e-02 6.0379880666732788e-01</leafValues></_>
        <_>
          <internalNodes>
            0 -1 350 -6.3709646463394165e-02</internalNodes>
          <leafValues>
            4.0450799465179443e-01 -1.8472312390804291e-01</leafValues></_>
        <_>
          <internalNodes>
            0 -1 1392 1.9405428320169449e-02</internalNodes>
          <leafValues>
            -2.5687423348426819e-01 2.8721559047698975e-01</leafValues></_>
        <_>
          <internalNodes>
            0 -1 1070 -2.0608757622539997e-03</internalNodes>
          <leafValues>
            -3.5507202148437500e-01 1.2656158208847046e-01</leafValues></_>
        <_>
          <internalNodes>
            0 -1 565 -1.4826076105237007e-02</internalNodes>
          <leafValues>
            -5.9553802013397217e-01 6.6040344536304474e-02</leafValues></_>
        <_>
          <internalNodes>
            0 -1 968 1.8253287998959422e-04</internalNodes>
          <leafValues>
            -2.1990060806274414e-01 1.8124301731586456e-01</leafValues></_>
        <_>
          <internalNodes>
            0 -1 1234 5.4121576249599457e-04</internalNodes>
          <leafValues>
            -1.4204362034797668e-01 2.9751744866371155e-01</leafValues></_>
        <_>
          <internalNodes>
            0 -1 472 -4.0312006603926420e-04</internalNodes>
          <leafValues>
            2.1634803712368011e-01 -1.6755785048007965e-01</leafValues></_>
        <_>
          <internalNodes>
            0 -1 1222 6.8095803726464510e-04</internalNodes>
          <leafValues>
            -1.2585543096065521e-01 2.7870541810989380e-01</leafValues></_>
        <_>
          <internalNodes>
            0 -1 1002 -9.5659494400024414e-02</internalNodes>
          <leafValues>
            1.7118407785892487e-01 -2.0326051115989685e-01</leafValues></_>
        <_>
          <internalNodes>
            0 -1 1039 -9.3941632658243179e-03</internalNodes>
          <leafValues>
            -7.0067757368087769e-01 4.8333436250686646e-02</leafValues></_>
        <_>
          <internalNodes>
            0 -1 1218 -2.2373461979441345e-04</internalNodes>
          <leafValues>
            2.7170217037200928e-01 -1.4877429604530334e-01</leafValues></_>
        <_>
          <internalNodes>
            0 -1 282 1.1096842586994171e-01</internalNodes>
          <leafValues>
            4.0878213942050934e-02 -6.9884496927261353e-01</leafValues></_>
        <_>
          <internalNodes>
            0 -1 575 2.1825425792485476e-03</internalNodes>
          <leafValues>
            -1.1128243058919907e-01 2.9617264866828918e-01</leafValues></_>
        <_>
          <internalNodes>
            0 -1 416 -1.3394039124250412e-03</internalNodes>
          <leafValues>
            2.8207051753997803e-01 -1.2725105881690979e-01</leafValues></_>
        <_>
          <internalNodes>
            0 -1 961 -3.0754283070564270e-03</internalNodes>
          <leafValues>
            -6.5395087003707886e-01 5.4025024175643921e-02</leafValues></_>
        <_>
          <internalNodes>
            0 -1 1522 4.4410483678802848e-04</internalNodes>
          <leafValues>
            8.5336834192276001e-02 -3.2553887367248535e-01</leafValues></_>
        <_>
          <internalNodes>
            0 -1 1318 -1.7835965845733881e-03</internalNodes>
          <leafValues>
            2.7622285485267639e-01 -1.0500602424144745e-01</leafValues></_>
        <_>
          <internalNodes>
            0 -1 1318 1.6912788851186633e-03</internalNodes>
          <leafValues>
            -1.2408255785703659e-01 2.6790851354598999e-01</leafValues></_>
        <_>
          <internalNodes>
            0 -1 1094 7.8717181459069252e-03</internalNodes>
          <leafValues>
            5.4918739944696426e-02 -4.9711471796035767e-01</leafValues></_>
        <_>
          <internalNodes>
            0 -1 267 -1.8782511353492737e-02</internalNodes>
          <leafValues>
            -2.8737828135490417e-01 9.0595208108425140e-02</leafValues></_>
        <_>
          <internalNodes>
            0 -1 360 -2.0682804286479950e-02</internalNodes>
          <leafValues>
            2.9634830355644226e-01 -9.2820785939693451e-02</leafValues></_>
        <_>
          <internalNodes>
            0 -1 504 1.2254887260496616e-03</internalNodes>
          <leafValues>
            -1.6581818461418152e-01 1.6856919229030609e-01</leafValues></_>
        <_>
          <internalNodes>
            0 -1 1161 1.1172094382345676e-03</internalNodes>
          <leafValues>
            -1.1216735094785690e-01 2.4044477939605713e-01</leafValues></_>
        <_>
          <internalNodes>
            0 -1 926 -2.3105658590793610e-02</internalNodes>
          <leafValues>
            -4.8930659890174866e-01 5.4376244544982910e-02</leafValues></_>
        <_>
          <internalNodes>
            0 -1 569 -2.9535545036196709e-03</internalNodes>
          <leafValues>
            2.1209955215454102e-01 -1.2017404288053513e-01</leafValues></_>
        <_>
          <internalNodes>
            0 -1 382 -3.2249040901660919e-02</internalNodes>
          <leafValues>
            -4.3473258614540100e-01 7.0690244436264038e-02</leafValues></_>
        <_>
          <internalNodes>
            0 -1 587 -1.0781926102936268e-03</internalNodes>
          <leafValues>
            2.3463025689125061e-01 -1.1984310299158096e-01</leafValues></_>
        <_>
          <internalNodes>
            0 -1 423 -8.5383774712681770e-03</internalNodes>
          <leafValues>
            -4.0520367026329041e-01 6.8643622100353241e-02</leafValues></_>
        <_>
          <internalNodes>
            0 -1 1205 -2.4271938949823380e-02</internalNodes>
          <leafValues>
            -7.4770122766494751e-01 3.0330300331115723e-02</leafValues></_>
        <_>
          <internalNodes>
            0 -1 1050 3.5076515632681549e-04</internalNodes>
          <leafValues>
            -1.5372237563133240e-01 1.7339827120304108e-01</leafValues></_>
        <_>
          <internalNodes>
            0 -1 11 7.2161381831392646e-04</internalNodes>
          <leafValues>
            1.0443133860826492e-01 -2.4472829699516296e-01</leafValues></_>
        <_>
          <internalNodes>
            0 -1 661 6.1552529223263264e-03</internalNodes>
          <leafValues>
            8.6225502192974091e-02 -2.6940035820007324e-01</leafValues></_>
        <_>
          <internalNodes>
            0 -1 663 -5.7047163136303425e-03</internalNodes>
          <leafValues>
            -2.5052157044410706e-01 8.9194484055042267e-02</leafValues></_>
        <_>
          <internalNodes>
            0 -1 1189 3.0751723796129227e-02</internalNodes>
          <leafValues>
            4.4322349131107330e-02 -4.8940107226371765e-01</leafValues></_>
        <_>
          <internalNodes>
            0 -1 915 9.3354855198413134e-04</internalNodes>
          <leafValues>
            -1.1500983685255051e-01 2.2775983810424805e-01</leafValues></_>
        <_>
          <internalNodes>
            0 -1 932 5.7827541604638100e-04</internalNodes>
          <leafValues>
            -1.1544848978519440e-01 2.0422664284706116e-01</leafValues></_>
        <_>
          <internalNodes>
            0 -1 12 -5.9751409571617842e-04</internalNodes>
          <leafValues>
            -2.2322474420070648e-01 1.0272433608770370e-01</leafValues></_>
        <_>
          <internalNodes>
            0 -1 713 -8.9664105325937271e-03</internalNodes>
          <leafValues>
            -6.8814855813980103e-01 3.1413160264492035e-02</leafValues></_>
        <_>
          <internalNodes>
            0 -1 386 3.2872310839593410e-03</internalNodes>
          <leafValues>
            -1.4255322515964508e-01 1.7636114358901978e-01</leafValues></_>
        <_>
          <internalNodes>
            0 -1 922 4.5222265180200338e-04</internalNodes>
          <leafValues>
            -1.2517932057380676e-01 2.0111916959285736e-01</leafValues></_>
        <_>
          <internalNodes>
            0 -1 1371 1.8471798393875360e-03</internalNodes>
          <leafValues>
            3.6225140094757080e-02 -6.7768704891204834e-01</leafValues></_>
        <_>
          <internalNodes>
            0 -1 497 8.2814581692218781e-03</internalNodes>
          <leafValues>
            -7.8670777380466461e-02 3.0430650711059570e-01</leafValues></_>
        <_>
          <internalNodes>
            0 -1 887 -5.9589389711618423e-03</internalNodes>
          <leafValues>
            -4.3538239598274231e-01 5.4778438061475754e-02</leafValues></_>
        <_>
          <internalNodes>
            0 -1 589 -1.9959472119808197e-03</internalNodes>
          <leafValues>
            1.8459382653236389e-01 -1.2628576159477234e-01</leafValues></_>
        <_>
          <internalNodes>
            0 -1 278 2.9192147776484489e-03</internalNodes>
          <leafValues>
            -1.5115474164485931e-01 1.5569739043712616e-01</leafValues></_>
        <_>
          <internalNodes>
            0 -1 692 2.6956453919410706e-02</internalNodes>
          <leafValues>
            4.4099707156419754e-02 -5.7988190650939941e-01</leafValues></_>
        <_>
          <internalNodes>
            0 -1 656 -7.8643932938575745e-03</internalNodes>
          <leafValues>
            3.0764397978782654e-01 -8.5556246340274811e-02</leafValues></_>
        <_>
          <internalNodes>
            0 -1 484 -9.2017248272895813e-02</internalNodes>
          <leafValues>
            -7.4125516414642334e-01 3.3522848039865494e-02</leafValues></_>
        <_>
          <internalNodes>
            0 -1 531 2.3517855443060398e-03</internalNodes>
          <leafValues>
            -9.1022461652755737e-02 2.7842429280281067e-01</leafValues></_>
        <_>
          <internalNodes>
            0 -1 704 1.2936573475599289e-03</internalNodes>
          <leafValues>
            -8.5302703082561493e-02 2.8649330139160156e-01</leafValues></_>
        <_>
          <internalNodes>
            0 -1 380 1.9451309926807880e-03</internalNodes>
          <leafValues>
            -8.8844478130340576e-02 2.5747135281562805e-01</leafValues></_>
        <_>
          <internalNodes>
            0 -1 1535 1.5608259709551930e-03</internalNodes>
          <leafValues>
            8.0113567411899567e-02 -2.7981513738632202e-01</leafValues></_>
        <_>
          <internalNodes>
            0 -1 629 4.3533840216696262e-03</internalNodes>
          <leafValues>
            3.4385234117507935e-02 -5.7275104522705078e-01</leafValues></_>
        <_>
          <internalNodes>
            0 -1 1149 4.5048841275274754e-03</internalNodes>
          <leafValues>
            -1.0355462133884430e-01 2.1537730097770691e-01</leafValues></_>
        <_>
          <internalNodes>
            0 -1 1443 1.0136252269148827e-02</internalNodes>
          <leafValues>
            -8.5602298378944397e-02 2.9142957925796509e-01</leafValues></_>
        <_>
          <internalNodes>
            0 -1 596 2.4698609113693237e-01</internalNodes>
          <leafValues>
            2.7120267972350121e-02 -8.5311812162399292e-01</leafValues></_>
        <_>
          <internalNodes>
            0 -1 1157 4.9412036314606667e-03</internalNodes>
          <leafValues>
            -8.0757856369018555e-02 3.0411931872367859e-01</leafValues></_></weakClassifiers></_>
    <!-- stage 8 -->
    <_>
      <maxWeakCount>68</maxWeakCount>
      <stageThreshold>-1.0314145088195801e+00</stageThreshold>
      <weakClassifiers>
        <_>
          <internalNodes>
            0 -1 26 3.6761766672134399e-01</internalNodes>
          <leafValues>
            1.9718309864401817e-02 6.8999999761581421e-01</leafValues></_>
        <_>
          <internalNodes>
            0 -1 329 8.6476439610123634e-03</internalNodes>
          <leafValues>
            -1.5147908031940460e-01 3.5575383901596069e-01</leafValues></_>
        <_>
          <internalNodes>
            0 -1 1287 1.1969940736889839e-02</internalNodes>
          <leafValues>
            -1.8687787652015686e-01 2.5941672921180725e-01</leafValues></_>
        <_>
          <internalNodes>
            0 -1 331 2.5360692292451859e-02</internalNodes>
          <leafValues>
            -2.2540414333343506e-01 1.8544258177280426e-01</leafValues></_>
        <_>
          <internalNodes>
            0 -1 1442 8.9292600750923157e-04</internalNodes>
          <leafValues>
            2.8088325634598732e-02 -5.4152071475982666e-01</leafValues></_>
        <_>
          <internalNodes>
            0 -1 925 -6.4003411680459976e-03</internalNodes>
          <leafValues>
            -5.3611642122268677e-01 5.7016178965568542e-02</leafValues></_>
        <_>
          <internalNodes>
            0 -1 803 -2.8159299399703741e-03</internalNodes>
          <leafValues>
            -5.0183755159378052e-01 5.4516833275556564e-02</leafValues></_>
        <_>
          <internalNodes>
            0 -1 1062 1.0684201261028647e-03</internalNodes>
          <leafValues>
            -1.2239385396242142e-01 2.5670817494392395e-01</leafValues></_>
        <_>
          <internalNodes>
            0 -1 1064 -1.0639145039021969e-03</internalNodes>
          <leafValues>
            2.6930662989616394e-01 -1.4697451889514923e-01</leafValues></_>
        <_>
          <internalNodes>
            0 -1 906 -7.3006167076528072e-04</internalNodes>
          <leafValues>
            2.5708419084548950e-01 -1.0763391107320786e-01</leafValues></_>
        <_>
          <internalNodes>
            0 -1 1055 8.0908201634883881e-03</internalNodes>
          <leafValues>
            7.8659914433956146e-02 -4.4853416085243225e-01</leafValues></_>
        <_>
          <internalNodes>
            0 -1 859 -1.1945974081754684e-02</internalNodes>
          <leafValues>
            -5.0333106517791748e-01 6.3748545944690704e-02</leafValues></_>
        <_>
          <internalNodes>
            0 -1 301 -2.2382815368473530e-03</internalNodes>
          <leafValues>
            3.4011748433113098e-01 -8.5310891270637512e-02</leafValues></_>
        <_>
          <internalNodes>
            0 -1 336 -1.6821829602122307e-02</internalNodes>
          <leafValues>
            3.9424410462379456e-01 -6.5744452178478241e-02</leafValues></_>
        <_>
          <internalNodes>
            0 -1 604 -3.3245739177800715e-04</internalNodes>
          <leafValues>
            2.2538988292217255e-01 -1.2125185877084732e-01</leafValues></_>
        <_>
          <internalNodes>
            0 -1 753 4.3029370717704296e-03</internalNodes>
          <leafValues>
            -9.6011735498905182e-02 2.7062138915061951e-01</leafValues></_>
        <_>
          <internalNodes>
            0 -1 895 6.5614851191639900e-03</internalNodes>
          <leafValues>
            6.6054165363311768e-02 -4.1835141181945801e-01</leafValues></_>
        <_>
          <internalNodes>
            0 -1 717 -2.0766984671354294e-03</internalNodes>
          <leafValues>
            2.4717161059379578e-01 -1.1152451485395432e-01</leafValues></_>
        <_>
          <internalNodes>
            0 -1 551 -1.1001473292708397e-02</internalNodes>
          <leafValues>
            -4.0482389926910400e-01 6.3956990838050842e-02</leafValues></_>
        <_>
          <internalNodes>
            0 -1 166 -3.1981258653104305e-03</internalNodes>
          <leafValues>
            -2.7540981769561768e-01 8.3819597959518433e-02</leafValues></_>
        <_>
          <internalNodes>
            0 -1 1224 3.9923106669448316e-04</internalNodes>
          <leafValues>
            -1.7731110751628876e-01 1.3133750855922699e-01</leafValues></_>
        <_>
          <internalNodes>
            0 -1 1232 -2.1534878760576248e-02</internalNodes>
          <leafValues>
            3.1576099991798401e-01 -1.2010252475738525e-01</leafValues></_>
        <_>
          <internalNodes>
            0 -1 1346 6.9876415655016899e-03</internalNodes>
          <leafValues>
            -1.4810101687908173e-01 2.2057819366455078e-01</leafValues></_>
        <_>
          <internalNodes>
            0 -1 914 -1.3203504495322704e-02</internalNodes>
          <leafValues>
            -5.4555857181549072e-01 4.4389192014932632e-02</leafValues></_>
        <_>
          <internalNodes>
            0 -1 183 -2.5710612535476685e-02</internalNodes>
          <leafValues>
            3.1467610597610474e-01 -8.0261133611202240e-02</leafValues></_>
        <_>
          <internalNodes>
            0 -1 237 -1.0425480455160141e-01</internalNodes>
          <leafValues>
            2.1560661494731903e-01 -1.0527054965496063e-01</leafValues></_>
        <_>
          <internalNodes>
            0 -1 974 1.8390782643109560e-03</internalNodes>
          <leafValues>
            7.8466728329658508e-02 -2.8552329540252686e-01</leafValues></_>
        <_>
          <internalNodes>
            0 -1 1131 -6.3278218731284142e-03</internalNodes>
          <leafValues>
            3.6159035563468933e-01 -7.7478729188442230e-02</leafValues></_>
        <_>
          <internalNodes>
            0 -1 1122 2.3976494558155537e-03</internalNodes>
          <leafValues>
            5.9422969818115234e-02 -4.3401703238487244e-01</leafValues></_>
        <_>
          <internalNodes>
            0 -1 1123 -8.5733532905578613e-03</internalNodes>
          <leafValues>
            -7.2735428810119629e-01 2.8424974530935287e-02</leafValues></_>
        <_>
          <internalNodes>
            0 -1 1199 1.2290861923247576e-03</internalNodes>
          <leafValues>
            -9.5468126237392426e-02 2.6338568329811096e-01</leafValues></_>
        <_>
          <internalNodes>
            0 -1 1200 -8.0646434798836708e-04</internalNodes>
          <leafValues>
            2.2622789442539215e-01 -1.3379988074302673e-01</leafValues></_>
        <_>
          <internalNodes>
            0 -1 716 1.8388555618003011e-03</internalNodes>
          <leafValues>
            -9.5759943127632141e-02 2.3064686357975006e-01</leafValues></_>
        <_>
          <internalNodes>
            0 -1 1035 2.5493819266557693e-03</internalNodes>
          <leafValues>
            1.0229464620351791e-01 -2.2586932778358459e-01</leafValues></_>
        <_>
          <internalNodes>
            0 -1 1524 4.9371970817446709e-04</internalNodes>
          <leafValues>
            8.8696353137493134e-02 -2.6846972107887268e-01</leafValues></_>
        <_>
          <internalNodes>
            0 -1 400 -1.3214924931526184e-01</internalNodes>
          <leafValues>
            6.4769244194030762e-01 -3.6970250308513641e-02</leafValues></_>
        <_>
          <internalNodes>
            0 -1 667 4.2190350592136383e-02</internalNodes>
          <leafValues>
            4.0970608592033386e-02 -6.8985080718994141e-01</leafValues></_>
        <_>
          <internalNodes>
            0 -1 927 7.6694285962730646e-04</internalNodes>
          <leafValues>
            -1.2343258410692215e-01 1.8462702631950378e-01</leafValues></_>
        <_>
          <internalNodes>
            0 -1 1088 -1.9478803733363748e-04</internalNodes>
          <leafValues>
            2.1299995481967926e-01 -1.0433418303728104e-01</leafValues></_>
        <_>
          <internalNodes>
            0 -1 873 5.5482145398855209e-03</internalNodes>
          <leafValues>
            3.8895517587661743e-02 -5.9166586399078369e-01</leafValues></_>
        <_>
          <internalNodes>
            0 -1 536 -6.6813990473747253e-02</internalNodes>
          <leafValues>
            -7.1730983257293701e-01 2.5005409494042397e-02</leafValues></_>
        <_>
          <internalNodes>
            0 -1 1477 -2.0801644772291183e-02</internalNodes>
          <leafValues>
            1.9876103103160858e-01 -1.1425855010747910e-01</leafValues></_>
        <_>
          <internalNodes>
            0 -1 1533 -9.8529737442731857e-04</internalNodes>
          <leafValues>
            -2.3797759413719177e-01 9.6746459603309631e-02</leafValues></_>
        <_>
          <internalNodes>
            0 -1 1390 2.8656931594014168e-02</internalNodes>
          <leafValues>
            -6.4473263919353485e-02 3.5231858491897583e-01</leafValues></_>
        <_>
          <internalNodes>
            0 -1 471 6.1016730032861233e-03</internalNodes>
          <leafValues>
            -7.5116217136383057e-02 2.9178538918495178e-01</leafValues></_>
        <_>
          <internalNodes>
            0 -1 998 -3.5952840000391006e-02</internalNodes>
          <leafValues>
            1.5644253790378571e-01 -1.4029310643672943e-01</leafValues></_>
        <_>
          <internalNodes>
            0 -1 494 -1.2497225776314735e-02</internalNodes>
          <leafValues>
            2.9027569293975830e-01 -8.5012249648571014e-02</leafValues></_>
        <_>
          <internalNodes>
            0 -1 418 -4.4149565510451794e-03</internalNodes>
          <leafValues>
            2.3932233452796936e-01 -7.9139150679111481e-02</leafValues></_>
        <_>
          <internalNodes>
            0 -1 28 7.7140552457422018e-04</internalNodes>
          <leafValues>
            8.3539173007011414e-02 -2.5242215394973755e-01</leafValues></_>
        <_>
          <internalNodes>
            0 -1 368 3.0089865904301405e-03</internalNodes>
          <leafValues>
            -1.0060712695121765e-01 2.1211455762386322e-01</leafValues></_>
        <_>
          <internalNodes>
            0 -1 1309 -1.7966965679079294e-03</internalNodes>
          <leafValues>
            2.4357235431671143e-01 -8.1614941358566284e-02</leafValues></_>
        <_>
          <internalNodes>
            0 -1 1361 1.0923439403995872e-03</internalNodes>
          <leafValues>
            4.6365402638912201e-02 -4.7101920843124390e-01</leafValues></_>
        <_>
          <internalNodes>
            0 -1 244 9.1819480061531067e-02</internalNodes>
          <leafValues>
            -3.7088293582201004e-02 6.0264140367507935e-01</leafValues></_>
        <_>
          <internalNodes>
            0 -1 881 -4.0554804727435112e-03</internalNodes>
          <leafValues>
            -3.9539292454719543e-01 6.0880016535520554e-02</leafValues></_>
        <_>
          <internalNodes>
            0 -1 414 -1.5901017468422651e-03</internalNodes>
          <leafValues>
            2.2298520803451538e-01 -1.0602530837059021e-01</leafValues></_>
        <_>
          <internalNodes>
            0 -1 294 2.7336394414305687e-03</internalNodes>
          <leafValues>
            -9.0023256838321686e-02 2.2637352347373962e-01</leafValues></_>
        <_>
          <internalNodes>
            0 -1 60 4.9749083817005157e-02</internalNodes>
          <leafValues>
            -5.6117989122867584e-02 3.3706989884376526e-01</leafValues></_>
        <_>
          <internalNodes>
            0 -1 356 1.2325642164796591e-03</internalNodes>
          <leafValues>
            7.8602053225040436e-02 -2.4952125549316406e-01</leafValues></_>
        <_>
          <internalNodes>
            0 -1 1320 2.2193329408764839e-02</internalNodes>
          <leafValues>
            2.6920825242996216e-02 -6.8334347009658813e-01</leafValues></_>
        <_>
          <internalNodes>
            0 -1 269 -2.1257712505757809e-03</internalNodes>
          <leafValues>
            -2.0083864033222198e-01 9.3311786651611328e-02</leafValues></_>
        <_>
          <internalNodes>
            0 -1 376 3.0176621675491333e-01</internalNodes>
          <leafValues>
            2.3002382367849350e-02 -7.2059196233749390e-01</leafValues></_>
        <_>
          <internalNodes>
            0 -1 1440 -1.1736828833818436e-02</internalNodes>
          <leafValues>
            2.5397196412086487e-01 -8.6672760546207428e-02</leafValues></_>
        <_>
          <internalNodes>
            0 -1 1270 -2.1401620469987392e-03</internalNodes>
          <leafValues>
            1.9263660907745361e-01 -1.0951121151447296e-01</leafValues></_>
        <_>
          <internalNodes>
            0 -1 1453 -2.6503788307309151e-02</internalNodes>
          <leafValues>
            2.9312896728515625e-01 -6.7040279507637024e-02</leafValues></_>
        <_>
          <internalNodes>
            0 -1 681 1.2198355048894882e-02</internalNodes>
          <leafValues>
            -1.4377599954605103e-01 1.6249926388263702e-01</leafValues></_>
        <_>
          <internalNodes>
            0 -1 838 2.6901835575699806e-02</internalNodes>
          <leafValues>
            5.4897230118513107e-02 -4.2627179622650146e-01</leafValues></_>
        <_>
          <internalNodes>
            0 -1 1160 8.0205261707305908e-02</internalNodes>
          <leafValues>
            2.8374737128615379e-02 -5.8788323402404785e-01</leafValues></_>
        <_>
          <internalNodes>
            0 -1 1400 2.2481451742351055e-03</internalNodes>
          <leafValues>
            -8.0935038626194000e-02 2.2041648626327515e-01</leafValues></_></weakClassifiers></_>
    <!-- stage 9 -->
    <_>
      <maxWeakCount>83</maxWeakCount>
      <stageThreshold>-1.0514789819717407e+00</stageThreshold>
      <weakClassifiers>
        <_>
          <internalNodes>
            0 -1 45 3.3530965447425842e-01</internalNodes>
          <leafValues>
            2.7281913906335831e-02 6.3251817226409912e-01</leafValues></_>
        <_>
          <internalNodes>
            0 -1 152 -5.4347176104784012e-02</internalNodes>
          <leafValues>
            2.6406896114349365e-01 -2.2564768791198730e-01</leafValues></_>
        <_>
          <internalNodes>
            0 -1 1029 2.4807550944387913e-03</internalNodes>
          <leafValues>
            -2.2653412818908691e-01 2.2236511111259460e-01</leafValues></_>
        <_>
          <internalNodes>
            0 -1 1147 8.5373016190715134e-05</internalNodes>
          <leafValues>
            -2.1555931866168976e-01 1.8800123035907745e-01</leafValues></_>
        <_>
          <internalNodes>
            0 -1 1015 -1.3064978644251823e-02</internalNodes>
          <leafValues>
            -4.9654743075370789e-01 6.3448414206504822e-02</leafValues></_>
        <_>
          <internalNodes>
            0 -1 1024 3.3503796439617872e-03</internalNodes>
          <leafValues>
            -1.3915982842445374e-01 2.4857637286186218e-01</leafValues></_>
        <_>
          <internalNodes>
            0 -1 1012 -2.2877790033817291e-03</internalNodes>
          <leafValues>
            3.4716859459877014e-01 -7.4692882597446442e-02</leafValues></_>
        <_>
          <internalNodes>
            0 -1 737 -8.5792113095521927e-03</internalNodes>
          <leafValues>
            -4.5906931161880493e-01 4.2965587228536606e-02</leafValues></_>
        <_>
          <internalNodes>
            0 -1 465 2.3332615382969379e-03</internalNodes>
          <leafValues>
            -1.1061419546604156e-01 2.1883904933929443e-01</leafValues></_>
        <_>
          <internalNodes>
            0 -1 238 -8.9871678501367569e-03</internalNodes>
          <leafValues>
            2.5971883535385132e-01 -1.1900222301483154e-01</leafValues></_>
        <_>
          <internalNodes>
            0 -1 467 6.0721761547029018e-03</internalNodes>
          <leafValues>
            8.0128222703933716e-02 -3.3646497130393982e-01</leafValues></_>
        <_>
          <internalNodes>
            0 -1 314 -2.2052396088838577e-03</internalNodes>
          <leafValues>
            2.1723641455173492e-01 -1.1255928128957748e-01</leafValues></_>
        <_>
          <internalNodes>
            0 -1 1106 -3.1369247008115053e-03</internalNodes>
          <leafValues>
            -3.0632564425468445e-01 8.9400000870227814e-02</leafValues></_>
        <_>
          <internalNodes>
            0 -1 1010 -1.6438659280538559e-02</internalNodes>
          <leafValues>
            3.0093565583229065e-01 -8.6774528026580811e-02</leafValues></_>
        <_>
          <internalNodes>
            0 -1 1158 7.3144501075148582e-03</internalNodes>
          <leafValues>
            -9.5016807317733765e-02 2.8693148493766785e-01</leafValues></_>
        <_>
          <internalNodes>
            0 -1 616 1.0116009972989559e-02</internalNodes>
          <leafValues>
            5.5594522505998611e-02 -4.1545039415359497e-01</leafValues></_>
        <_>
          <internalNodes>
            0 -1 1417 3.9769354043528438e-04</internalNodes>
          <leafValues>
            -1.4595578610897064e-01 1.6400609910488129e-01</leafValues></_>
        <_>
          <internalNodes>
            0 -1 648 -2.5035305880010128e-03</internalNodes>
          <leafValues>
            -3.8730648159980774e-01 6.3270017504692078e-02</leafValues></_>
        <_>
          <internalNodes>
            0 -1 1410 -2.2574062459170818e-03</internalNodes>
          <leafValues>
            2.4447587132453918e-01 -9.5176480710506439e-02</leafValues></_>
        <_>
          <internalNodes>
            0 -1 1539 -9.6715299878269434e-04</internalNodes>
          <leafValues>
            -2.8392377495765686e-01 7.8600794076919556e-02</leafValues></_>
        <_>
          <internalNodes>
            0 -1 848 3.6211084574460983e-02</internalNodes>
          <leafValues>
            2.4365488439798355e-02 -8.1256419420242310e-01</leafValues></_>
        <_>
          <internalNodes>
            0 -1 1397 -1.5313302166759968e-02</internalNodes>
          <leafValues>
            3.3753609657287598e-01 -6.9752916693687439e-02</leafValues></_>
        <_>
          <internalNodes>
            0 -1 879 1.7826447729021311e-03</internalNodes>
          <leafValues>
            -9.2688113451004028e-02 2.3708488047122955e-01</leafValues></_>
        <_>
          <internalNodes>
            0 -1 893 -1.7249153461307287e-03</internalNodes>
          <leafValues>
            2.8138467669487000e-01 -1.1420913785696030e-01</leafValues></_>
        <_>
          <internalNodes>
            0 -1 710 -2.7917291969060898e-02</internalNodes>
          <leafValues>
            -4.4030135869979858e-01 4.9704797565937042e-02</leafValues></_>
        <_>
          <internalNodes>
            0 -1 891 2.8086032718420029e-02</internalNodes>
          <leafValues>
            3.9985764771699905e-02 -5.4666805267333984e-01</leafValues></_>
        <_>
          <internalNodes>
            0 -1 971 7.4228169396519661e-03</internalNodes>
          <leafValues>
            -7.0175930857658386e-02 3.4514641761779785e-01</leafValues></_>
        <_>
          <internalNodes>
            0 -1 963 -4.7290408983826637e-03</internalNodes>
          <leafValues>
            -6.0193729400634766e-01 4.0318079292774200e-02</leafValues></_>
        <_>
          <internalNodes>
            0 -1 326 3.8439568597823381e-03</internalNodes>
          <leafValues>
            -1.0892393440008163e-01 1.9681976735591888e-01</leafValues></_>
        <_>
          <internalNodes>
            0 -1 1481 6.2590637244284153e-03</internalNodes>
          <leafValues>
            -1.1078611016273499e-01 1.8336611986160278e-01</leafValues></_>
        <_>
          <internalNodes>
            0 -1 1438 7.1887893136590719e-04</internalNodes>
          <leafValues>
            5.1794115453958511e-02 -4.1352656483650208e-01</leafValues></_>
        <_>
          <internalNodes>
            0 -1 1219 8.2848325837403536e-04</internalNodes>
          <leafValues>
            -9.9031262099742889e-02 2.0885066688060760e-01</leafValues></_>
        <_>
          <internalNodes>
            0 -1 1219 -7.2150898631662130e-04</internalNodes>
          <leafValues>
            2.3362129926681519e-01 -1.0745550692081451e-01</leafValues></_>
        <_>
          <internalNodes>
            0 -1 897 -7.0853289216756821e-03</internalNodes>
          <leafValues>
            -3.1426715850830078e-01 7.3873355984687805e-02</leafValues></_>
        <_>
          <internalNodes>
            0 -1 12 1.2752877082675695e-03</internalNodes>
          <leafValues>
            7.7225863933563232e-02 -2.6954990625381470e-01</leafValues></_>
        <_>
          <internalNodes>
            0 -1 242 5.6273071095347404e-03</internalNodes>
          <leafValues>
            -7.7509939670562744e-02 2.6757761836051941e-01</leafValues></_>
        <_>
          <internalNodes>
            0 -1 97 -4.5566115295514464e-04</internalNodes>
          <leafValues>
            -2.5021123886108398e-01 8.1316746771335602e-02</leafValues></_>
        <_>
          <internalNodes>
            0 -1 99 5.3416175069287419e-04</internalNodes>
          <leafValues>
            7.3383234441280365e-02 -2.8249606490135193e-01</leafValues></_>
        <_>
          <internalNodes>
            0 -1 1335 3.1117865000851452e-04</internalNodes>
          <leafValues>
            -1.0624463111162186e-01 1.9759699702262878e-01</leafValues></_>
        <_>
          <internalNodes>
            0 -1 1335 -3.6257732426747680e-04</internalNodes>
          <leafValues>
            2.2470854222774506e-01 -9.8890602588653564e-02</leafValues></_>
        <_>
          <internalNodes>
            0 -1 1371 1.1468965094536543e-03</internalNodes>
          <leafValues>
            4.2878773063421249e-02 -4.3406751751899719e-01</leafValues></_>
        <_>
          <internalNodes>
            0 -1 1409 1.5268401475623250e-03</internalNodes>
          <leafValues>
            -1.0055304318666458e-01 1.7825619876384735e-01</leafValues></_>
        <_>
          <internalNodes>
            0 -1 68 1.3073560781776905e-02</internalNodes>
          <leafValues>
            -1.5215072035789490e-01 1.2387961149215698e-01</leafValues></_>
        <_>
          <internalNodes>
            0 -1 108 -1.8428307771682739e-01</internalNodes>
          <leafValues>
            4.3823882937431335e-01 -5.3879100829362869e-02</leafValues></_>
        <_>
          <internalNodes>
            0 -1 936 -1.4091938734054565e-02</internalNodes>
          <leafValues>
            -7.1101623773574829e-01 3.2195944339036942e-02</leafValues></_>
        <_>
          <internalNodes>
            0 -1 1112 1.4694642741233110e-03</internalNodes>
          <leafValues>
            -1.3800384104251862e-01 1.3250829279422760e-01</leafValues></_>
        <_>
          <internalNodes>
            0 -1 1319 -1.1788539588451385e-02</internalNodes>
          <leafValues>
            2.4936455488204956e-01 -8.0307595431804657e-02</leafValues></_>
        <_>
          <internalNodes>
            0 -1 1177 1.1925010476261377e-03</internalNodes>
          <leafValues>
            -1.3732679188251495e-01 1.5040458738803864e-01</leafValues></_>
        <_>
          <internalNodes>
            0 -1 1286 9.0586785227060318e-03</internalNodes>
          <leafValues>
            6.8854548037052155e-02 -2.6388332247734070e-01</leafValues></_>
        <_>
          <internalNodes>
            0 -1 1465 2.4289049906656146e-04</internalNodes>
          <leafValues>
            -1.0800686478614807e-01 1.7095001041889191e-01</leafValues></_>
        <_>
          <internalNodes>
            0 -1 46 2.6416573673486710e-02</internalNodes>
          <leafValues>
            -7.3699735105037689e-02 2.5182625651359558e-01</leafValues></_>
        <_>
          <internalNodes>
            0 -1 207 -2.5407264474779367e-03</internalNodes>
          <leafValues>
            2.6907706260681152e-01 -6.4255908131599426e-02</leafValues></_>
        <_>
          <internalNodes>
            0 -1 1105 -1.0418112389743328e-02</internalNodes>
          <leafValues>
            -5.7682943344116211e-01 3.2554116100072861e-02</leafValues></_>
        <_>
          <internalNodes>
            0 -1 1064 -1.2072288664057851e-03</internalNodes>
          <leafValues>
            1.8726040422916412e-01 -1.0054323822259903e-01</leafValues></_>
        <_>
          <internalNodes>
            0 -1 15 -2.4168926756829023e-04</internalNodes>
          <leafValues>
            -2.1263588964939117e-01 8.7994538247585297e-02</leafValues></_>
        <_>
          <internalNodes>
            0 -1 825 -5.1231151446700096e-03</internalNodes>
          <leafValues>
            2.3919171094894409e-01 -7.5539886951446533e-02</leafValues></_>
        <_>
          <internalNodes>
            0 -1 817 -1.0717093944549561e-02</internalNodes>
          <leafValues>
            2.3663611710071564e-01 -8.9958518743515015e-02</leafValues></_>
        <_>
          <internalNodes>
            0 -1 1237 -7.1033695712685585e-03</internalNodes>
          <leafValues>
            -7.8574723005294800e-01 2.6232747361063957e-02</leafValues></_>
        <_>
          <internalNodes>
            0 -1 819 1.7387866973876953e-02</internalNodes>
          <leafValues>
            -9.4970479607582092e-02 2.0741771161556244e-01</leafValues></_>
        <_>
          <internalNodes>
            0 -1 1398 4.2372709140181541e-03</internalNodes>
          <leafValues>
            -9.5853857696056366e-02 1.9299784302711487e-01</leafValues></_>
        <_>
          <internalNodes>
            0 -1 1087 -4.4856615364551544e-02</internalNodes>
          <leafValues>
            1.0400755703449249e-01 -1.8764308094978333e-01</leafValues></_>
        <_>
          <internalNodes>
            0 -1 541 1.9962047226727009e-03</internalNodes>
          <leafValues>
            1.3273933529853821e-01 -1.5615007281303406e-01</leafValues></_>
        <_>
          <internalNodes>
            0 -1 120 -1.8823629245162010e-02</internalNodes>
          <leafValues>
            2.3427322506904602e-01 -8.2163900136947632e-02</leafValues></_>
        <_>
          <internalNodes>
            0 -1 1501 -1.1570370988920331e-03</internalNodes>
          <leafValues>
            -2.1098771691322327e-01 9.2347361147403717e-02</leafValues></_>
        <_>
          <internalNodes>
            0 -1 509 3.8823585491627455e-03</internalNodes>
          <leafValues>
            -7.9597540199756622e-02 2.5003430247306824e-01</leafValues></_>
        <_>
          <internalNodes>
            0 -1 705 1.1797805782407522e-03</internalNodes>
          <leafValues>
            -1.0419969260692596e-01 1.8986690044403076e-01</leafValues></_>
        <_>
          <internalNodes>
            0 -1 500 2.8377706184983253e-02</internalNodes>
          <leafValues>
            4.6635732054710388e-02 -4.9758270382881165e-01</leafValues></_>
        <_>
          <internalNodes>
            0 -1 1067 6.0567678883671761e-03</internalNodes>
          <leafValues>
            5.7171337306499481e-02 -3.3594611287117004e-01</leafValues></_>
        <_>
          <internalNodes>
            0 -1 744 4.6691752970218658e-02</internalNodes>
          <leafValues>
            2.8989370912313461e-02 -6.6408801078796387e-01</leafValues></_>
        <_>
          <internalNodes>
            0 -1 1509 -1.1076230555772781e-02</internalNodes>
          <leafValues>
            4.1082561016082764e-01 -4.8441845923662186e-02</leafValues></_>
        <_>
          <internalNodes>
            0 -1 1501 5.5227498523890972e-04</internalNodes>
          <leafValues>
            9.6365451812744141e-02 -1.9129052758216858e-01</leafValues></_>
        <_>
          <internalNodes>
            0 -1 621 -8.4029827266931534e-03</internalNodes>
          <leafValues>
            -5.9994679689407349e-01 2.9027897864580154e-02</leafValues></_>
        <_>
          <internalNodes>
            0 -1 1491 5.1765334792435169e-03</internalNodes>
          <leafValues>
            -9.0752281248569489e-02 2.0963065326213837e-01</leafValues></_>
        <_>
          <internalNodes>
            0 -1 1428 -3.8553275167942047e-02</internalNodes>
          <leafValues>
            2.0441007614135742e-01 -8.8592626154422760e-02</leafValues></_>
        <_>
          <internalNodes>
            0 -1 594 7.5655046384781599e-04</internalNodes>
          <leafValues>
            -1.0484681278467178e-01 1.7076867818832397e-01</leafValues></_>
        <_>
          <internalNodes>
            0 -1 762 -1.8937184941023588e-03</internalNodes>
          <leafValues>
            2.7759942412376404e-01 -8.0163225531578064e-02</leafValues></_>
        <_>
          <internalNodes>
            0 -1 951 -3.7518667522817850e-03</internalNodes>
          <leafValues>
            -4.8238581418991089e-01 4.5041386038064957e-02</leafValues></_>
        <_>
          <internalNodes>
            0 -1 1003 3.7352975457906723e-02</internalNodes>
          <leafValues>
            4.1346419602632523e-02 -3.7973353266716003e-01</leafValues></_>
        <_>
          <internalNodes>
            0 -1 1334 7.1384082548320293e-04</internalNodes>
          <leafValues>
            -9.7469031810760498e-02 1.9525352120399475e-01</leafValues></_>
        <_>
          <internalNodes>
            0 -1 1334 -9.2827581102028489e-04</internalNodes>
          <leafValues>
            2.0461073517799377e-01 -8.2515947520732880e-02</leafValues></_>
        <_>
          <internalNodes>
            0 -1 1066 1.5381368575617671e-04</internalNodes>
          <leafValues>
            -1.5818980336189270e-01 1.1727350205183029e-01</leafValues></_>
        <_>
          <internalNodes>
            0 -1 1295 9.6882291138172150e-02</internalNodes>
          <leafValues>
            2.1033022552728653e-02 -8.2992750406265259e-01</leafValues></_>
        <_>
          <internalNodes>
            0 -1 823 -7.2894669137895107e-03</internalNodes>
          <leafValues>
            2.3288595676422119e-01 -7.7138990163803101e-02</leafValues></_></weakClassifiers></_>
    <!-- stage 10 -->
    <_>
      <maxWeakCount>78</maxWeakCount>
      <stageThreshold>-9.7963160276412964e-01</stageThreshold>
      <weakClassifiers>
        <_>
          <internalNodes>
            0 -1 118 3.7125098705291748e-01</internalNodes>
          <leafValues>
            8.2428507506847382e-02 6.3309484720230103e-01</leafValues></_>
        <_>
          <internalNodes>
            0 -1 342 5.1551824435591698e-03</internalNodes>
          <leafValues>
            -1.6143810749053955e-01 3.4801727533340454e-01</leafValues></_>
        <_>
          <internalNodes>
            0 -1 374 8.3600601647049189e-04</internalNodes>
          <leafValues>
            -2.5552698969841003e-01 1.8162962794303894e-01</leafValues></_>
        <_>
          <internalNodes>
            0 -1 1153 2.0737707614898682e-02</internalNodes>
          <leafValues>
            -1.7719379067420959e-01 2.0527286827564240e-01</leafValues></_>
        <_>
          <internalNodes>
            0 -1 1241 3.6195651046000421e-04</internalNodes>
          <leafValues>
            -2.5075882673263550e-01 1.2468986213207245e-01</leafValues></_>
        <_>
          <internalNodes>
            0 -1 18 9.9011115729808807e-02</internalNodes>
          <leafValues>
            -1.0182730108499527e-01 3.5314220190048218e-01</leafValues></_>
        <_>
          <internalNodes>
            0 -1 722 -1.2724401429295540e-02</internalNodes>
          <leafValues>
            -5.1565283536911011e-01 6.5632328391075134e-02</leafValues></_>
        <_>
          <internalNodes>
            0 -1 1277 -2.4690874852240086e-03</internalNodes>
          <leafValues>
            2.3733802139759064e-01 -1.1408200114965439e-01</leafValues></_>
        <_>
          <internalNodes>
            0 -1 289 8.1540040671825409e-02</internalNodes>
          <leafValues>
            4.2181942611932755e-02 -5.3243857622146606e-01</leafValues></_>
        <_>
          <internalNodes>
            0 -1 318 1.8649131059646606e-01</internalNodes>
          <leafValues>
            3.2744493335485458e-02 -7.2095978260040283e-01</leafValues></_>
        <_>
          <internalNodes>
            0 -1 1071 -6.5848594531416893e-03</internalNodes>
          <leafValues>
            -5.4225200414657593e-01 4.1962504386901855e-02</leafValues></_>
        <_>
          <internalNodes>
            0 -1 841 2.4098071735352278e-03</internalNodes>
          <leafValues>
            -8.4461160004138947e-02 3.0771759152412415e-01</leafValues></_>
        <_>
          <internalNodes>
            0 -1 842 -2.4091121740639210e-03</internalNodes>
          <leafValues>
            2.4693480134010315e-01 -1.1997460573911667e-01</leafValues></_>
        <_>
          <internalNodes>
            0 -1 121 4.5136600732803345e-02</internalNodes>
          <leafValues>
            -6.0458719730377197e-02 3.6493137478828430e-01</leafValues></_>
        <_>
          <internalNodes>
            0 -1 863 1.6745019238442183e-03</internalNodes>
          <leafValues>
            -1.1705710738897324e-01 2.2475086152553558e-01</leafValues></_>
        <_>
          <internalNodes>
            0 -1 106 3.7459703162312508e-03</internalNodes>
          <leafValues>
            8.4447987377643585e-02 -2.9263356328010559e-01</leafValues></_>
        <_>
          <internalNodes>
            0 -1 1129 2.2327639162540436e-03</internalNodes>
          <leafValues>
            4.7914415597915649e-02 -4.8029929399490356e-01</leafValues></_>
        <_>
          <internalNodes>
            0 -1 3 -9.4345435500144958e-03</internalNodes>
          <leafValues>
            -2.7855509519577026e-01 7.3244579136371613e-02</leafValues></_>
        <_>
          <internalNodes>
            0 -1 1261 -4.8633078113198280e-03</internalNodes>
          <leafValues>
            -6.4960336685180664e-01 3.1550087034702301e-02</leafValues></_>
        <_>
          <internalNodes>
            0 -1 1047 1.5358084347099066e-03</internalNodes>
          <leafValues>
            -1.0854283720254898e-01 2.0736414194107056e-01</leafValues></_>
        <_>
          <internalNodes>
            0 -1 1047 -2.0885872654616833e-03</internalNodes>
          <leafValues>
            2.8578245639801025e-01 -9.1201566159725189e-02</leafValues></_>
        <_>
          <internalNodes>
            0 -1 1432 2.5223232805728912e-03</internalNodes>
          <leafValues>
            3.7751775234937668e-02 -6.3566148281097412e-01</leafValues></_>
        <_>
          <internalNodes>
            0 -1 700 -1.1427925899624825e-02</internalNodes>
          <leafValues>
            -4.3947464227676392e-01 4.3876193463802338e-02</leafValues></_>
        <_>
          <internalNodes>
            0 -1 406 -8.2200428005307913e-04</internalNodes>
          <leafValues>
            2.1358786523342133e-01 -1.1652152985334396e-01</leafValues></_>
        <_>
          <internalNodes>
            0 -1 948 -3.7372121587395668e-03</internalNodes>
          <leafValues>
            2.6800867915153503e-01 -7.9997539520263672e-02</leafValues></_>
        <_>
          <internalNodes>
            0 -1 657 -1.7250619828701019e-02</internalNodes>
          <leafValues>
            3.8247910141944885e-01 -5.9187270700931549e-02</leafValues></_>
        <_>
          <internalNodes>
            0 -1 812 -2.5766552425920963e-03</internalNodes>
          <leafValues>
            -4.3001452088356018e-01 5.5929046124219894e-02</leafValues></_>
        <_>
          <internalNodes>
            0 -1 628 -2.8745937161147594e-03</internalNodes>
          <leafValues>
            -4.1627135872840881e-01 4.6229287981987000e-02</leafValues></_>
        <_>
          <internalNodes>
            0 -1 573 7.6903612352907658e-04</internalNodes>
          <leafValues>
            -8.6305953562259674e-02 2.4834787845611572e-01</leafValues></_>
        <_>
          <internalNodes>
            0 -1 578 -1.5978380106389523e-03</internalNodes>
          <leafValues>
            2.9415306448936462e-01 -8.1414654850959778e-02</leafValues></_>
        <_>
          <internalNodes>
            0 -1 496 3.9878599345684052e-02</internalNodes>
          <leafValues>
            3.2959509640932083e-02 -6.2019592523574829e-01</leafValues></_>
        <_>
          <internalNodes>
            0 -1 1534 4.3297096271999180e-04</internalNodes>
          <leafValues>
            7.3032304644584656e-02 -2.4579282104969025e-01</leafValues></_>
        <_>
          <internalNodes>
            0 -1 858 1.6865057870745659e-02</internalNodes>
          <leafValues>
            4.1168138384819031e-02 -4.3487742543220520e-01</leafValues></_>
        <_>
          <internalNodes>
            0 -1 1186 1.3299466809257865e-03</internalNodes>
          <leafValues>
            -1.6083945333957672e-01 1.4834982156753540e-01</leafValues></_>
        <_>
          <internalNodes>
            0 -1 894 2.4027924519032240e-03</internalNodes>
          <leafValues>
            6.0713388025760651e-02 -3.2723462581634521e-01</leafValues></_>
        <_>
          <internalNodes>
            0 -1 226 -9.3504013493657112e-03</internalNodes>
          <leafValues>
            2.1639491617679596e-01 -8.9446447789669037e-02</leafValues></_>
        <_>
          <internalNodes>
            0 -1 576 -2.2910463158041239e-03</internalNodes>
          <leafValues>
            3.0991074442863464e-01 -6.4665935933589935e-02</leafValues></_>
        <_>
          <internalNodes>
            0 -1 1143 9.6495226025581360e-03</internalNodes>
          <leafValues>
            -8.8922552764415741e-02 2.2123278677463531e-01</leafValues></_>
        <_>
          <internalNodes>
            0 -1 565 3.0552977696061134e-03</internalNodes>
          <leafValues>
            9.1222539544105530e-02 -2.2328090667724609e-01</leafValues></_>
        <_>
          <internalNodes>
            0 -1 740 1.6215916257351637e-03</internalNodes>
          <leafValues>
            -8.9372240006923676e-02 2.2847613692283630e-01</leafValues></_>
        <_>
          <internalNodes>
            0 -1 907 1.0982935782521963e-03</internalNodes>
          <leafValues>
            -9.4146385788917542e-02 2.1527802944183350e-01</leafValues></_>
        <_>
          <internalNodes>
            0 -1 1503 -1.0754228569567204e-03</internalNodes>
          <leafValues>
            -2.3644830286502838e-01 7.9671487212181091e-02</leafValues></_>
        <_>
          <internalNodes>
            0 -1 1237 7.2677498683333397e-03</internalNodes>
          <leafValues>
            4.0230520069599152e-02 -4.3923655152320862e-01</leafValues></_>
        <_>
          <internalNodes>
            0 -1 1006 5.2342608571052551e-02</internalNodes>
          <leafValues>
            2.9697164893150330e-02 -5.5163019895553589e-01</leafValues></_>
        <_>
          <internalNodes>
            0 -1 98 -2.2776786237955093e-02</internalNodes>
          <leafValues>
            -2.2777004539966583e-01 7.7576816082000732e-02</leafValues></_>
        <_>
          <internalNodes>
            0 -1 482 3.8617201149463654e-02</internalNodes>
          <leafValues>
            4.9583263695240021e-02 -4.1440379619598389e-01</leafValues></_>
        <_>
          <internalNodes>
            0 -1 1225 -1.7748491372913122e-03</internalNodes>
          <leafValues>
            -2.7771699428558350e-01 6.1142761260271072e-02</leafValues></_>
        <_>
          <internalNodes>
            0 -1 411 3.7068533711135387e-03</internalNodes>
          <leafValues>
            -7.7277250587940216e-02 2.6847937703132629e-01</leafValues></_>
        <_>
          <internalNodes>
            0 -1 1215 6.1942702159285545e-03</internalNodes>
          <leafValues>
            6.9290675222873688e-02 -2.8874522447586060e-01</leafValues></_>
        <_>
          <internalNodes>
            0 -1 1097 6.9790019188076258e-04</internalNodes>
          <leafValues>
            -1.1924953758716583e-01 2.0072482526302338e-01</leafValues></_>
        <_>
          <internalNodes>
            0 -1 1231 -2.4113714694976807e-02</internalNodes>
          <leafValues>
            2.5931510329246521e-01 -8.1049248576164246e-02</leafValues></_>
        <_>
          <internalNodes>
            0 -1 875 1.2841853499412537e-01</internalNodes>
          <leafValues>
            -9.5203973352909088e-02 2.5578024983406067e-01</leafValues></_>
        <_>
          <internalNodes>
            0 -1 898 -6.9112330675125122e-03</internalNodes>
          <leafValues>
            -5.5410885810852051e-01 3.2916590571403503e-02</leafValues></_>
        <_>
          <internalNodes>
            0 -1 1136 8.8649285316932946e-05</internalNodes>
          <leafValues>
            -1.3305772840976715e-01 1.3425335288047791e-01</leafValues></_>
        <_>
          <internalNodes>
            0 -1 973 -6.2768580392003059e-03</internalNodes>
          <leafValues>
            -7.6606959104537964e-01 2.0861329510807991e-02</leafValues></_>
        <_>
          <internalNodes>
            0 -1 1076 5.9311965014785528e-04</internalNodes>
          <leafValues>
            -1.0303131490945816e-01 1.6829387843608856e-01</leafValues></_>
        <_>
          <internalNodes>
            0 -1 1208 1.1474727652966976e-03</internalNodes>
          <leafValues>
            -8.5649311542510986e-02 2.3755535483360291e-01</leafValues></_>
        <_>
          <internalNodes>
            0 -1 1325 4.0378794074058533e-04</internalNodes>
          <leafValues>
            -9.5592834055423737e-02 1.7846216261386871e-01</leafValues></_>
        <_>
          <internalNodes>
            0 -1 689 1.3141850009560585e-02</internalNodes>
          <leafValues>
            -7.4770167469978333e-02 2.2311943769454956e-01</leafValues></_>
        <_>
          <internalNodes>
            0 -1 829 3.8422539830207825e-02</internalNodes>
          <leafValues>
            2.9676077887415886e-02 -6.4298671483993530e-01</leafValues></_>
        <_>
          <internalNodes>
            0 -1 132 1.0779351927340031e-02</internalNodes>
          <leafValues>
            -1.2719368934631348e-01 1.3399457931518555e-01</leafValues></_>
        <_>
          <internalNodes>
            0 -1 145 2.6162462309002876e-03</internalNodes>
          <leafValues>
