<?xml version="1.0"?>
<opencv_storage>
<cascade>
  <stageType>BOOST</stageType>
  <featureType>HAAR</featureType>
  <height>40</height>
  <width>40</width>
  <stageParams>
    <boostType>GAB</boostType>
    <minHitRate>9.9900001287460327e-01</minHitRate>
    <maxFalseAlarm>5.0000000000000000e-01</maxFalseAlarm>
    <weightTrimRate>9.4999999999999996e-01</weightTrimRate>
    <maxDepth>1</maxDepth>
    <maxWeakCount>100</maxWeakCount></stageParams>
  <featureParams>
    <maxCatCount>0</maxCatCount>
    <featSize>1</featSize>
    <mode>ALL</mode></featureParams>
  <stageNum>20</stageNum>
  <stages>
    <!-- stage 0 -->
    <_>
      <maxWeakCount>3</maxWeakCount>
      <stageThreshold>-9.9884629249572754e-01</stageThreshold>
      <weakClassifiers>
        <_>
          <internalNodes>
            0 -1 95 3.5895191133022308e-02</internalNodes>
          <leafValues>
            -7.3884296417236328e-01 8.5125631093978882e-01</leafValues></_>
        <_>
          <internalNodes>
            0 -1 2 7.1094490587711334e-02</internalNodes>
          <leafValues>
            -9.5009279251098633e-01 6.2780714035034180e-01</leafValues></_>
        <_>
          <internalNodes>
            0 -1 132 2.7168497443199158e-02</internalNodes>
          <leafValues>
            -6.6581475734710693e-01 6.9008946418762207e-01</leafValues></_></weakClassifiers></_>
    <!-- stage 1 -->
    <_>
      <maxWeakCount>6</maxWeakCount>
      <stageThreshold>-1.7243622541427612e+00</stageThreshold>
      <weakClassifiers>
        <_>
          <internalNodes>
            0 -1 96 4.5808039605617523e-02</internalNodes>
          <leafValues>
            -6.5837478637695312e-01 7.9939818382263184e-01</leafValues></_>
        <_>
          <internalNodes>
            0 -1 43 -3.8959845900535583e-02</internalNodes>
          <leafValues>
            6.5277343988418579e-01 -7.0537585020065308e-01</leafValues></_>
        <_>
          <internalNodes>
            0 -1 20 1.4654411002993584e-02</internalNodes>
          <leafValues>
            -4.5760324597358704e-01 7.4690824747085571e-01</leafValues></_>
        <_>
          <internalNodes>
            0 -1 90 2.6211593300104141e-02</internalNodes>
          <leafValues>
            -3.4071439504623413e-01 8.8588827848434448e-01</leafValues></_>
        <_>
          <internalNodes>
            0 -1 116 3.3611118793487549e-02</internalNodes>
          <leafValues>
            -3.2066744565963745e-01 9.5540380477905273e-01</leafValues></_>
        <_>
          <internalNodes>
            0 -1 60 -1.5392820350825787e-03</internalNodes>
          <leafValues>
            7.5837343931198120e-01 -3.8693806529045105e-01</leafValues></_></weakClassifiers></_>
    <!-- stage 2 -->
    <_>
      <maxWeakCount>6</maxWeakCount>
      <stageThreshold>-9.1793155670166016e-01</stageThreshold>
      <weakClassifiers>
        <_>
          <internalNodes>
            0 -1 46 4.0619969367980957e-02</internalNodes>
          <leafValues>
            -5.6917691230773926e-01 7.0456755161285400e-01</leafValues></_>
        <_>
          <internalNodes>
            0 -1 10 1.4283777214586735e-02</internalNodes>
          <leafValues>
            -5.2216452360153198e-01 6.8001168966293335e-01</leafValues></_>
        <_>
          <internalNodes>
            0 -1 72 2.6068542152643204e-02</internalNodes>
          <leafValues>
            -3.8131922483444214e-01 8.0212193727493286e-01</leafValues></_>
        <_>
          <internalNodes>
            0 -1 121 2.1542884409427643e-02</internalNodes>
          <leafValues>
            -3.8547280430793762e-01 9.1408097743988037e-01</leafValues></_>
        <_>
          <internalNodes>
            0 -1 8 6.1889011412858963e-02</internalNodes>
          <leafValues>
            -9.0587198734283447e-01 4.4809016585350037e-01</leafValues></_>
        <_>
          <internalNodes>
            0 -1 41 9.7628347575664520e-03</internalNodes>
          <leafValues>
            -4.6649050712585449e-01 6.6263276338577271e-01</leafValues></_></weakClassifiers></_>
    <!-- stage 3 -->
    <_>
      <maxWeakCount>7</maxWeakCount>
      <stageThreshold>-1.1830741167068481e+00</stageThreshold>
      <weakClassifiers>
        <_>
          <internalNodes>
            0 -1 131 -1.0097304359078407e-02</internalNodes>
          <leafValues>
            6.6139537096023560e-01 -5.9238094091415405e-01</leafValues></_>
        <_>
          <internalNodes>
            0 -1 23 2.0110629498958588e-02</internalNodes>
          <leafValues>
            -5.4388892650604248e-01 6.5362340211868286e-01</leafValues></_>
        <_>
          <internalNodes>
            0 -1 117 -5.2605289965867996e-02</internalNodes>
          <leafValues>
            4.2704221606254578e-01 -7.0510756969451904e-01</leafValues></_>
        <_>
          <internalNodes>
            0 -1 91 4.9855830147862434e-03</internalNodes>
          <leafValues>
            -3.7444651126861572e-01 7.4442213773727417e-01</leafValues></_>
        <_>
          <internalNodes>
            0 -1 65 -1.8585324287414551e-02</internalNodes>
          <leafValues>
            9.1808897256851196e-01 -3.9545047283172607e-01</leafValues></_>
        <_>
          <internalNodes>
            0 -1 60 -1.3801841996610165e-03</internalNodes>
          <leafValues>
            6.4134824275970459e-01 -3.2872602343559265e-01</leafValues></_>
        <_>
          <internalNodes>
            0 -1 82 1.3237699866294861e-01</internalNodes>
          <leafValues>
            -3.3201661705970764e-01 8.2326084375381470e-01</leafValues></_></weakClassifiers></_>
    <!-- stage 4 -->
    <_>
      <maxWeakCount>7</maxWeakCount>
      <stageThreshold>-1.0356428623199463e+00</stageThreshold>
      <weakClassifiers>
        <_>
          <internalNodes>
            0 -1 19 5.8371003251522779e-04</internalNodes>
          <leafValues>
            -6.3090127706527710e-01 6.1199295520782471e-01</leafValues></_>
        <_>
          <internalNodes>
            0 -1 29 2.1092548966407776e-02</internalNodes>
          <leafValues>
            -4.3909367918968201e-01 7.3868221044540405e-01</leafValues></_>
        <_>
          <internalNodes>
            0 -1 97 6.0473550111055374e-02</internalNodes>
          <leafValues>
            -5.8993875980377197e-01 5.3574782609939575e-01</leafValues></_>
        <_>
          <internalNodes>
            0 -1 78 2.2485502995550632e-03</internalNodes>
          <leafValues>
            4.1577741503715515e-01 -6.6889935731887817e-01</leafValues></_>
        <_>
          <internalNodes>
            0 -1 105 7.3399260640144348e-02</internalNodes>
          <leafValues>
            -3.0897462368011475e-01 8.4484690427780151e-01</leafValues></_>
        <_>
          <internalNodes>
            0 -1 109 3.9258245378732681e-02</internalNodes>
          <leafValues>
            -3.0192708969116211e-01 9.1056978702545166e-01</leafValues></_>
        <_>
          <internalNodes>
            0 -1 75 4.8266075551509857e-02</internalNodes>
          <leafValues>
            -2.5415542721748352e-01 7.7840530872344971e-01</leafValues></_></weakClassifiers></_>
    <!-- stage 5 -->
    <_>
      <maxWeakCount>9</maxWeakCount>
      <stageThreshold>-1.8112686872482300e+00</stageThreshold>
      <weakClassifiers>
        <_>
          <internalNodes>
            0 -1 36 -1.6435511410236359e-02</internalNodes>
          <leafValues>
            -9.1735535860061646e-01 4.5802649855613708e-01</leafValues></_>
        <_>
          <internalNodes>
            0 -1 113 5.2142262458801270e-02</internalNodes>
          <leafValues>
            -3.6785063147544861e-01 7.6546561717987061e-01</leafValues></_>
        <_>
          <internalNodes>
            0 -1 93 2.9710374772548676e-02</internalNodes>
          <leafValues>
            -3.0810257792472839e-01 8.3789104223251343e-01</leafValues></_>
        <_>
          <internalNodes>
            0 -1 70 -1.3693489134311676e-01</internalNodes>
          <leafValues>
            9.3897247314453125e-01 -2.9239237308502197e-01</leafValues></_>
        <_>
          <internalNodes>
            0 -1 33 -5.3119538351893425e-03</internalNodes>
          <leafValues>
            -7.7608031034469604e-01 3.7380865216255188e-01</leafValues></_>
        <_>
          <internalNodes>
            0 -1 47 1.3923212885856628e-02</internalNodes>
          <leafValues>
            -3.7270116806030273e-01 7.3301756381988525e-01</leafValues></_>
        <_>
          <internalNodes>
            0 -1 15 1.4388615454663523e-05</internalNodes>
          <leafValues>
            -6.9517034292221069e-01 3.8763719797134399e-01</leafValues></_>
        <_>
          <internalNodes>
            0 -1 137 2.9990317299962044e-02</internalNodes>
          <leafValues>
            -2.6721084117889404e-01 9.0205955505371094e-01</leafValues></_>
        <_>
          <internalNodes>
            0 -1 127 1.4932829886674881e-02</internalNodes>
          <leafValues>
            -3.3967596292495728e-01 7.7345198392868042e-01</leafValues></_></weakClassifiers></_>
    <!-- stage 6 -->
    <_>
      <maxWeakCount>9</maxWeakCount>
      <stageThreshold>-1.3272885084152222e+00</stageThreshold>
      <weakClassifiers>
        <_>
          <internalNodes>
            0 -1 3 -1.1783711612224579e-02</internalNodes>
          <leafValues>
            -8.5185188055038452e-01 4.7368422150611877e-01</leafValues></_>
        <_>
          <internalNodes>
            0 -1 54 -3.8608342409133911e-02</internalNodes>
          <leafValues>
            8.8626235723495483e-01 -3.1070220470428467e-01</leafValues></_>
        <_>
          <internalNodes>
            0 -1 61 8.2224823534488678e-02</internalNodes>
          <leafValues>
            -3.7938922643661499e-01 7.2559362649917603e-01</leafValues></_>
        <_>
          <internalNodes>
            0 -1 21 1.0782562640088145e-05</internalNodes>
          <leafValues>
            -5.1744294166564941e-01 4.2690572142601013e-01</leafValues></_>
        <_>
          <internalNodes>
            0 -1 120 1.4792036265134811e-02</internalNodes>
          <leafValues>
            -3.2283106446266174e-01 6.4240854978561401e-01</leafValues></_>
        <_>
          <internalNodes>
            0 -1 84 3.9104551076889038e-02</internalNodes>
          <leafValues>
            -2.3915280401706696e-01 7.9368561506271362e-01</leafValues></_>
        <_>
          <internalNodes>
            0 -1 74 -2.3185227066278458e-02</internalNodes>
          <leafValues>
            8.8777023553848267e-01 -2.5116255879402161e-01</leafValues></_>
        <_>
          <internalNodes>
            0 -1 141 2.2874155547469854e-05</internalNodes>
          <leafValues>
            4.1643312573432922e-01 -5.4298841953277588e-01</leafValues></_>
        <_>
          <internalNodes>
            0 -1 138 -1.0826729238033295e-02</internalNodes>
          <leafValues>
            6.0474824905395508e-01 -3.7623634934425354e-01</leafValues></_></weakClassifiers></_>
    <!-- stage 7 -->
    <_>
      <maxWeakCount>10</maxWeakCount>
      <stageThreshold>-1.3181321620941162e+00</stageThreshold>
      <weakClassifiers>
        <_>
          <internalNodes>
            0 -1 132 3.3643923699855804e-02</internalNodes>
          <leafValues>
            -3.1510791182518005e-01 6.8397790193557739e-01</leafValues></_>
        <_>
          <internalNodes>
            0 -1 142 -1.2588882236741483e-04</internalNodes>
          <leafValues>
            -6.7111939191818237e-01 3.7656104564666748e-01</leafValues></_>
        <_>
          <internalNodes>
            0 -1 38 1.5646699815988541e-02</internalNodes>
          <leafValues>
            -3.4523847699165344e-01 6.2625116109848022e-01</leafValues></_>
        <_>
          <internalNodes>
            0 -1 81 5.8699201792478561e-02</internalNodes>
          <leafValues>
            -3.2687222957611084e-01 5.8760350942611694e-01</leafValues></_>
        <_>
          <internalNodes>
            0 -1 85 -1.6148740053176880e-01</internalNodes>
          <leafValues>
            8.9501559734344482e-01 -2.7252128720283508e-01</leafValues></_>
        <_>
          <internalNodes>
            0 -1 66 3.8942437618970871e-02</internalNodes>
          <leafValues>
            -2.4847571551799774e-01 7.4715578556060791e-01</leafValues></_>
        <_>
          <internalNodes>
            0 -1 9 1.4756857126485556e-05</internalNodes>
          <leafValues>
            -6.1484295129776001e-01 3.7569364905357361e-01</leafValues></_>
        <_>
          <internalNodes>
            0 -1 111 2.0408067852258682e-02</internalNodes>
          <leafValues>
            -3.1933635473251343e-01 7.0355433225631714e-01</leafValues></_>
        <_>
          <internalNodes>
            0 -1 52 5.6331173982471228e-04</internalNodes>
          <leafValues>
            -4.7877290844917297e-01 4.5710870623588562e-01</leafValues></_>
        <_>
          <internalNodes>
            0 -1 13 -5.0840142648667097e-04</internalNodes>
          <leafValues>
            -6.9994360208511353e-01 3.0297574400901794e-01</leafValues></_></weakClassifiers></_>
    <!-- stage 8 -->
    <_>
      <maxWeakCount>9</maxWeakCount>
      <stageThreshold>-1.1337475776672363e+00</stageThreshold>
      <weakClassifiers>
        <_>
          <internalNodes>
            0 -1 26 8.9663884136825800e-04</internalNodes>
          <leafValues>
            -5.6563246250152588e-01 5.3937339782714844e-01</leafValues></_>
        <_>
          <internalNodes>
            0 -1 77 2.1077862475067377e-03</internalNodes>
          <leafValues>
            -4.5368295907974243e-01 5.2146738767623901e-01</leafValues></_>
        <_>
          <internalNodes>
            0 -1 14 -2.2876134142279625e-02</internalNodes>
          <leafValues>
            -9.3066120147705078e-01 2.1688060462474823e-01</leafValues></_>
        <_>
          <internalNodes>
            0 -1 122 3.2834202051162720e-02</internalNodes>
          <leafValues>
            -3.6336275935173035e-01 5.9489512443542480e-01</leafValues></_>
        <_>
          <internalNodes>
            0 -1 37 9.7888005257118493e-06</internalNodes>
          <leafValues>
            -5.2210503816604614e-01 3.7193194031715393e-01</leafValues></_>
        <_>
          <internalNodes>
            0 -1 103 -2.0148151088505983e-04</internalNodes>
          <leafValues>
            5.0913614034652710e-01 -3.9642992615699768e-01</leafValues></_>
        <_>
          <internalNodes>
            0 -1 12 2.4710007710382342e-04</internalNodes>
          <leafValues>
            3.6719572544097900e-01 -6.8609732389450073e-01</leafValues></_>
        <_>
          <internalNodes>
            0 -1 112 -4.6794181689620018e-03</internalNodes>
          <leafValues>
            4.8514908552169800e-01 -4.5594227313995361e-01</leafValues></_>
        <_>
          <internalNodes>
            0 -1 22 5.1763635128736496e-03</internalNodes>
          <leafValues>
            -7.9843890666961670e-01 2.9302147030830383e-01</leafValues></_></weakClassifiers></_>
    <!-- stage 9 -->
    <_>
      <maxWeakCount>10</maxWeakCount>
      <stageThreshold>-1.4807957410812378e+00</stageThreshold>
      <weakClassifiers>
        <_>
          <internalNodes>
            0 -1 140 3.0013400828465819e-04</internalNodes>
          <leafValues>
            5.0000000000000000e-01 -7.6582276821136475e-01</leafValues></_>
        <_>
          <internalNodes>
            0 -1 50 -8.0067315138876438e-05</internalNodes>
          <leafValues>
            -6.2905013561248779e-01 3.8518327474594116e-01</leafValues></_>
        <_>
          <internalNodes>
            0 -1 27 -8.4733352065086365e-02</internalNodes>
          <leafValues>
            7.6610761880874634e-01 -3.0423530936241150e-01</leafValues></_>
        <_>
          <internalNodes>
            0 -1 89 1.8281467258930206e-02</internalNodes>
          <leafValues>
            -3.0047366023063660e-01 7.5257992744445801e-01</leafValues></_>
        <_>
          <internalNodes>
            0 -1 115 9.5184314996004105e-03</internalNodes>
          <leafValues>
            -4.6732318401336670e-01 4.6359977126121521e-01</leafValues></_>
        <_>
          <internalNodes>
            0 -1 5 2.5137286866083741e-04</internalNodes>
          <leafValues>
            2.9910957813262939e-01 -7.1718293428421021e-01</leafValues></_>
        <_>
          <internalNodes>
            0 -1 99 9.5870644145179540e-05</internalNodes>
          <leafValues>
            -3.0992707610130310e-01 6.0017883777618408e-01</leafValues></_>
        <_>
          <internalNodes>
            0 -1 67 7.7240392565727234e-03</internalNodes>
          <leafValues>
            -2.9572528600692749e-01 7.7232688665390015e-01</leafValues></_>
        <_>
          <internalNodes>
            0 -1 76 -8.2448702305555344e-03</internalNodes>
          <leafValues>
            5.9793388843536377e-01 -2.9235300421714783e-01</leafValues></_>
        <_>
          <internalNodes>
            0 -1 11 7.7960707130841911e-05</internalNodes>
          <leafValues>
            -6.1831533908843994e-01 3.2124143838882446e-01</leafValues></_></weakClassifiers></_>
    <!-- stage 10 -->
    <_>
      <maxWeakCount>8</maxWeakCount>
      <stageThreshold>-8.6369442939758301e-01</stageThreshold>
      <weakClassifiers>
        <_>
          <internalNodes>
            0 -1 129 -4.2393193580210209e-03</internalNodes>
          <leafValues>
            5.4789918661117554e-01 -6.1463415622711182e-01</leafValues></_>
        <_>
          <internalNodes>
            0 -1 63 6.4792213961482048e-03</internalNodes>
          <leafValues>
            -4.6900695562362671e-01 6.0356217622756958e-01</leafValues></_>
        <_>
          <internalNodes>
            0 -1 135 1.3196844607591629e-02</internalNodes>
          <leafValues>
            2.6607343554496765e-01 -8.3083355426788330e-01</leafValues></_>
        <_>
          <internalNodes>
            0 -1 49 -3.5263840109109879e-02</internalNodes>
          <leafValues>
            7.6526796817779541e-01 -2.8411665558815002e-01</leafValues></_>
        <_>
          <internalNodes>
            0 -1 114 1.9209796562790871e-02</internalNodes>
          <leafValues>
            -3.1028541922569275e-01 7.0344257354736328e-01</leafValues></_>
        <_>
          <internalNodes>
            0 -1 73 -3.3453101059421897e-04</internalNodes>
          <leafValues>
            5.0256627798080444e-01 -3.9673176407814026e-01</leafValues></_>
        <_>
          <internalNodes>
            0 -1 83 1.1747899651527405e-01</internalNodes>
          <leafValues>
            -2.7199998497962952e-01 6.4211332798004150e-01</leafValues></_>
        <_>
          <internalNodes>
            0 -1 1 3.7819799035787582e-04</internalNodes>
          <leafValues>
            3.6401647329330444e-01 -5.9640425443649292e-01</leafValues></_></weakClassifiers></_>
    <!-- stage 11 -->
    <_>
      <maxWeakCount>8</maxWeakCount>
      <stageThreshold>-1.2862772941589355e+00</stageThreshold>
      <weakClassifiers>
        <_>
          <internalNodes>
            0 -1 130 -5.4749273695051670e-03</internalNodes>
          <leafValues>
            6.6271650791168213e-01 -6.5009939670562744e-01</leafValues></_>
        <_>
          <internalNodes>
            0 -1 39 -1.0080128908157349e-02</internalNodes>
          <leafValues>
            5.4619598388671875e-01 -4.7689360380172729e-01</leafValues></_>
        <_>
          <internalNodes>
            0 -1 101 9.6413787105120718e-05</internalNodes>
          <leafValues>
            -4.1124308109283447e-01 6.2005633115768433e-01</leafValues></_>
        <_>
          <internalNodes>
            0 -1 100 2.3655102995689958e-04</internalNodes>
          <leafValues>
            -4.9170795083045959e-01 4.5873197913169861e-01</leafValues></_>
        <_>
          <internalNodes>
            0 -1 123 -4.4993516057729721e-03</internalNodes>
          <leafValues>
            6.3431382179260254e-01 -3.4924194216728210e-01</leafValues></_>
        <_>
          <internalNodes>
            0 -1 88 -7.2363303042948246e-03</internalNodes>
          <leafValues>
            5.4247117042541504e-01 -4.6993368864059448e-01</leafValues></_>
        <_>
          <internalNodes>
            0 -1 16 3.4174558095401153e-05</internalNodes>
          <leafValues>
            -6.2020277976989746e-01 3.4519633650779724e-01</leafValues></_>
        <_>
          <internalNodes>
            0 -1 126 7.5104236602783203e-03</internalNodes>
          <leafValues>
            2.6720601320266724e-01 -7.7030926942825317e-01</leafValues></_></weakClassifiers></_>
    <!-- stage 12 -->
    <_>
      <maxWeakCount>4</maxWeakCount>
      <stageThreshold>-1.1577242612838745e+00</stageThreshold>
      <weakClassifiers>
        <_>
          <internalNodes>
            0 -1 136 2.3545282892882824e-03</internalNodes>
          <leafValues>
            -6.5232974290847778e-01 7.3320537805557251e-01</leafValues></_>
        <_>
          <internalNodes>
            0 -1 128 -8.6636189371347427e-03</internalNodes>
          <leafValues>
            5.5341792106628418e-01 -6.3415598869323730e-01</leafValues></_>
        <_>
          <internalNodes>
            0 -1 30 -9.5288618467748165e-04</internalNodes>
          <leafValues>
            4.4506040215492249e-01 -6.1558210849761963e-01</leafValues></_>
        <_>
          <internalNodes>
            0 -1 86 9.7936168313026428e-02</internalNodes>
          <leafValues>
            -3.1629887223243713e-01 7.8717058897018433e-01</leafValues></_></weakClassifiers></_>
    <!-- stage 13 -->
    <_>
      <maxWeakCount>10</maxWeakCount>
      <stageThreshold>-1.0580739974975586e+00</stageThreshold>
      <weakClassifiers>
        <_>
          <internalNodes>
            0 -1 118 7.1469973772764206e-03</internalNodes>
          <leafValues>
            -5.3402060270309448e-01 5.9103137254714966e-01</leafValues></_>
        <_>
          <internalNodes>
            0 -1 56 -5.4555491078644991e-04</internalNodes>
          <leafValues>
            5.5588859319686890e-01 -4.1367271542549133e-01</leafValues></_>
        <_>
          <internalNodes>
            0 -1 79 1.8265324831008911e-01</internalNodes>
          <leafValues>
            -3.4685680270195007e-01 6.0320985317230225e-01</leafValues></_>
        <_>
          <internalNodes>
            0 -1 108 -1.0427820682525635e-01</internalNodes>
          <leafValues>
            8.1699883937835693e-01 -2.6439547538757324e-01</leafValues></_>
        <_>
          <internalNodes>
            0 -1 18 1.0472220310475677e-04</internalNodes>
          <leafValues>
            -5.0223892927169800e-01 4.5291444659233093e-01</leafValues></_>
        <_>
          <internalNodes>
            0 -1 94 1.0265703499317169e-01</internalNodes>
          <leafValues>
            -3.3510333299636841e-01 6.8916934728622437e-01</leafValues></_>
        <_>
          <internalNodes>
            0 -1 44 9.3398839235305786e-03</internalNodes>
          <leafValues>
            -2.5540485978126526e-01 7.5794035196304321e-01</leafValues></_>
        <_>
          <internalNodes>
            0 -1 69 -2.4023126810789108e-02</internalNodes>
          <leafValues>
            8.6703509092330933e-01 -1.8663614988327026e-01</leafValues></_>
        <_>
          <internalNodes>
            0 -1 45 -9.2783141881227493e-03</internalNodes>
          <leafValues>
            5.5918735265731812e-01 -3.5077628493309021e-01</leafValues></_>
        <_>
          <internalNodes>
            0 -1 24 -2.4954748805612326e-03</internalNodes>
          <leafValues>
            2.6979890465736389e-01 -8.9113873243331909e-01</leafValues></_></weakClassifiers></_>
    <!-- stage 14 -->
    <_>
      <maxWeakCount>7</maxWeakCount>
      <stageThreshold>-1.4827921390533447e+00</stageThreshold>
      <weakClassifiers>
        <_>
          <internalNodes>
            0 -1 17 -6.0237981379032135e-02</internalNodes>
          <leafValues>
            -9.1348600387573242e-01 6.2883180379867554e-01</leafValues></_>
        <_>
          <internalNodes>
            0 -1 80 6.9308076053857803e-03</internalNodes>
          <leafValues>
            -5.9754693508148193e-01 4.7220379114151001e-01</leafValues></_>
        <_>
          <internalNodes>
            0 -1 107 1.2318883091211319e-02</internalNodes>
          <leafValues>
            -2.6577764749526978e-01 8.5549634695053101e-01</leafValues></_>
        <_>
          <internalNodes>
            0 -1 58 -5.4569616913795471e-02</internalNodes>
          <leafValues>
            8.8879066705703735e-01 -2.2519738972187042e-01</leafValues></_>
        <_>
          <internalNodes>
            0 -1 119 1.7688045278191566e-02</internalNodes>
          <leafValues>
            -1.9270868599414825e-01 8.8788145780563354e-01</leafValues></_>
        <_>
          <internalNodes>
            0 -1 64 -6.2453210353851318e-02</internalNodes>
          <leafValues>
            8.9789581298828125e-01 -2.1222443878650665e-01</leafValues></_>
        <_>
          <internalNodes>
            0 -1 51 2.2992522644926794e-05</internalNodes>
          <leafValues>
            3.6363658308982849e-01 -6.1816889047622681e-01</leafValues></_></weakClassifiers></_>
    <!-- stage 15 -->
    <_>
      <maxWeakCount>4</maxWeakCount>
      <stageThreshold>-1.1498383283615112e+00</stageThreshold>
      <weakClassifiers>
        <_>
          <internalNodes>
            0 -1 0 1.7052225302904844e-03</internalNodes>
          <leafValues>
            -9.7014927864074707e-01 6.5943241119384766e-01</leafValues></_>
        <_>
          <internalNodes>
            0 -1 28 2.6575641823001206e-04</internalNodes>
          <leafValues>
            -6.6239231824874878e-01 4.9129611253738403e-01</leafValues></_>
        <_>
          <internalNodes>
            0 -1 40 -1.1966057121753693e-01</internalNodes>
          <leafValues>
            7.8532379865646362e-01 -3.5865354537963867e-01</leafValues></_>
        <_>
          <internalNodes>
            0 -1 48 -4.9839165061712265e-02</internalNodes>
          <leafValues>
            8.4135681390762329e-01 -2.9218026995658875e-01</leafValues></_></weakClassifiers></_>
    <!-- stage 16 -->
    <_>
      <maxWeakCount>9</maxWeakCount>
      <stageThreshold>-7.5001865625381470e-01</stageThreshold>
      <weakClassifiers>
        <_>
          <internalNodes>
            0 -1 4 1.6872014384716749e-05</internalNodes>
          <leafValues>
            -5.8551305532455444e-01 6.2647324800491333e-01</leafValues></_>
        <_>
          <internalNodes>
            0 -1 133 7.6873769285157323e-04</internalNodes>
          <leafValues>
            3.9632323384284973e-01 -6.3128811120986938e-01</leafValues></_>
        <_>
          <internalNodes>
            0 -1 35 5.1979072391986847e-02</internalNodes>
          <leafValues>
            -7.4034672975540161e-01 3.5033851861953735e-01</leafValues></_>
        <_>
          <internalNodes>
            0 -1 57 1.3840126991271973e-01</internalNodes>
          <leafValues>
            -2.9880702495574951e-01 7.8379344940185547e-01</leafValues></_>
        <_>
          <internalNodes>
            0 -1 55 -1.4869710430502892e-02</internalNodes>
          <leafValues>
            7.2159236669540405e-01 -3.5137569904327393e-01</leafValues></_>
        <_>
          <internalNodes>
            0 -1 124 3.9664193987846375e-02</internalNodes>
          <leafValues>
            3.4510615468025208e-01 -8.1152826547622681e-01</leafValues></_>
        <_>
          <internalNodes>
            0 -1 87 3.2749146223068237e-02</internalNodes>
          <leafValues>
            -3.3954694867134094e-01 6.7810744047164917e-01</leafValues></_>
        <_>
          <internalNodes>
            0 -1 125 -1.4809634012635797e-04</internalNodes>
          <leafValues>
            -7.2623986005783081e-01 2.9899683594703674e-01</leafValues></_>
        <_>
          <internalNodes>
            0 -1 106 -1.2256997251824941e-05</internalNodes>
          <leafValues>
            5.3610461950302124e-01 -4.1047897934913635e-01</leafValues></_></weakClassifiers></_>
    <!-- stage 17 -->
    <_>
      <maxWeakCount>7</maxWeakCount>
      <stageThreshold>-1.5337642431259155e+00</stageThreshold>
      <weakClassifiers>
        <_>
          <internalNodes>
            0 -1 139 -8.1165749579668045e-03</internalNodes>
          <leafValues>
            -8.7861269712448120e-01 5.6140351295471191e-01</leafValues></_>
        <_>
          <internalNodes>
            0 -1 59 2.3358283215202391e-05</internalNodes>
          <leafValues>
            3.6576479673385620e-01 -5.7003867626190186e-01</leafValues></_>
        <_>
          <internalNodes>
            0 -1 31 -5.0609128084033728e-04</internalNodes>
          <leafValues>
            4.4510644674301147e-01 -5.3276050090789795e-01</leafValues></_>
        <_>
          <internalNodes>
            0 -1 92 -1.8465660512447357e-02</internalNodes>
          <leafValues>
            7.2677010297775269e-01 -2.2318103909492493e-01</leafValues></_>
        <_>
          <internalNodes>
            0 -1 32 -4.3094558641314507e-03</internalNodes>
          <leafValues>
            -6.5348213911056519e-01 3.1007993221282959e-01</leafValues></_>
        <_>
          <internalNodes>
            0 -1 71 7.7247932553291321e-02</internalNodes>
          <leafValues>
            -4.2786282300949097e-01 4.7420108318328857e-01</leafValues></_>
        <_>
          <internalNodes>
            0 -1 110 -3.0836598016321659e-03</internalNodes>
          <leafValues>
            7.8861159086227417e-01 -2.0880280435085297e-01</leafValues></_></weakClassifiers></_>
    <!-- stage 18 -->
    <_>
      <maxWeakCount>3</maxWeakCount>
      <stageThreshold>-5.7782155275344849e-01</stageThreshold>
      <weakClassifiers>
        <_>
          <internalNodes>
            0 -1 34 -1.4651267789304256e-02</internalNodes>
          <leafValues>
            -8.3154124021530151e-01 8.2917463779449463e-01</leafValues></_>
        <_>
          <internalNodes>
            0 -1 25 5.9881154447793961e-03</internalNodes>
          <leafValues>
            5.7860100269317627e-01 -5.8895701169967651e-01</leafValues></_>
        <_>
          <internalNodes>
            0 -1 68 5.8066481724381447e-03</internalNodes>
          <leafValues>
            -3.2488137483596802e-01 9.6032261848449707e-01</leafValues></_></weakClassifiers></_>
    <!-- stage 19 -->
    <_>
      <maxWeakCount>10</maxWeakCount>
      <stageThreshold>-1.4943692684173584e+00</stageThreshold>
      <weakClassifiers>
        <_>
          <internalNodes>
            0 -1 6 4.9921885132789612e-02</internalNodes>
          <leafValues>
            -9.0845072269439697e-01 5.0000000000000000e-01</leafValues></_>
        <_>
          <internalNodes>
            0 -1 42 2.2053619846701622e-02</internalNodes>
          <leafValues>
            -3.5203525424003601e-01 6.5177327394485474e-01</leafValues></_>
        <_>
          <internalNodes>
            0 -1 7 -9.2020869487896562e-05</internalNodes>
          <leafValues>
            3.7379482388496399e-01 -5.2189880609512329e-01</leafValues></_>
        <_>
          <internalNodes>
            0 -1 98 -1.0193681344389915e-02</internalNodes>
          <leafValues>
            5.3886806964874268e-01 -4.0158596634864807e-01</leafValues></_>
        <_>
          <internalNodes>
            0 -1 53 9.9894004961242899e-06</internalNodes>
          <leafValues>
            -5.6882953643798828e-01 3.2797199487686157e-01</leafValues></_>
        <_>
          <internalNodes>
            0 -1 143 2.2456872102338821e-05</internalNodes>
          <leafValues>
            2.4797363579273224e-01 -6.6085118055343628e-01</leafValues></_>
        <_>
          <internalNodes>
            0 -1 62 1.7661553283687681e-04</internalNodes>
          <leafValues>
            -4.3984824419021606e-01 4.1860938072204590e-01</leafValues></_>
        <_>
          <internalNodes>
            0 -1 104 1.3465092051774263e-03</internalNodes>
          <leafValues>
            -2.2783517837524414e-01 7.6579952239990234e-01</leafValues></_>
        <_>
          <internalNodes>
            0 -1 102 2.6217417325824499e-04</internalNodes>
          <leafValues>
            -2.8211590647697449e-01 5.5405688285827637e-01</leafValues></_>
        <_>
          <internalNodes>
            0 -1 134 -1.5039374120533466e-02</internalNodes>
          <leafValues>
            6.1716854572296143e-01 -2.9352048039436340e-01</leafValues></_></weakClassifiers></_></stages>
  <features>
    <_>
      <rects>
        <_>
          0 22 36 7 -1.</_>
        <_>
          18 22 18 7 2.</_></rects>
      <tilted>0</tilted></_>
    <_>
      <rects>
        <_>
          1 0 4 3 -1.</_>
        <_>
          3 0 2 3 2.</_></rects>
      <tilted>0</tilted></_>
    <_>
      <rects>
        <_>
          1 12 36 22 -1.</_>
        <_>
          19 12 18 22 2.</_></rects>
      <tilted>0</tilted></_>
    <_>
      <rects>
        <_>
          2 6 32 15 -1.</_>
        <_>
          18 6 16 15 2.</_></rects>
      <tilted>0</tilted></_>
    <_>
      <rects>
        <_>
          2 18 14 1 -1.</_>
        <_>
          9 18 7 1 2.</_></rects>
      <tilted>0</tilted></_>
    <_>
      <rects>
        <_>
          2 19 4 6 -1.</_>
        <_>
          2 22 4 3 2.</_></rects>
      <tilted>0</tilted></_>
    <_>
      <rects>
        <_>
          3 4 30 31 -1.</_>
        <_>
          18 4 15 31 2.</_></rects>
      <tilted>0</tilted></_>
    <_>
      <rects>
        <_>
          3 18 2 10 -1.</_>
        <_>
          3 23 2 5 2.</_></rects>
      <tilted>0</tilted></_>
    <_>
      <rects>
        <_>
          4 1 32 31 -1.</_>
        <_>
          20 1 16 31 2.</_></rects>
      <tilted>0</tilted></_>
    <_>
      <rects>
        <_>
          4 19 4 1 -1.</_>
        <_>
          6 19 2 1 2.</_></rects>
      <tilted>0</tilted></_>
    <_>
      <rects>
        <_>
          5 11 16 16 -1.</_>
        <_>
          9 11 8 16 2.</_></rects>
      <tilted>0</tilted></_>
    <_>
      <rects>
        <_>
          5 13 6 3 -1.</_>
        <_>
          8 13 3 3 2.</_></rects>
      <tilted>0</tilted></_>
    <_>
      <rects>
        <_>
          5 17 1 12 -1.</_>
        <_>
          5 23 1 6 2.</_></rects>
      <tilted>0</tilted></_>
    <_>
      <rects>
        <_>
          5 25 4 1 -1.</_>
        <_>
          5 25 2 1 2.</_></rects>
      <tilted>1</tilted></_>
    <_>
      <rects>
        <_>
          6 11 32 16 -1.</_>
        <_>
          6 19 32 8 2.</_></rects>
      <tilted>0</tilted></_>
    <_>
      <rects>
        <_>
          6 19 1 2 -1.</_>
        <_>
          6 19 1 1 2.</_></rects>
      <tilted>1</tilted></_>
    <_>
      <rects>
        <_>
          6 22 1 2 -1.</_>
        <_>
          6 22 1 1 2.</_></rects>
      <tilted>1</tilted></_>
    <_>
      <rects>
        <_>
          7 16 16 23 -1.</_>
        <_>
          15 16 8 23 2.</_></rects>
      <tilted>0</tilted></_>
    <_>
      <rects>
        <_>
          7 23 1 4 -1.</_>
        <_>
          7 23 1 2 2.</_></rects>
      <tilted>1</tilted></_>
    <_>
      <rects>
        <_>
          8 15 3 6 -1.</_>
        <_>
          8 15 3 3 2.</_></rects>
      <tilted>1</tilted></_>
    <_>
      <rects>
        <_>
          8 22 16 10 -1.</_>
        <_>
          8 22 8 5 2.</_>
        <_>
          16 27 8 5 2.</_></rects>
      <tilted>0</tilted></_>
    <_>
      <rects>
        <_>
          8 23 2 1 -1.</_>
        <_>
          9 23 1 1 2.</_></rects>
      <tilted>0</tilted></_>
    <_>
      <rects>
        <_>
          9 8 30 12 -1.</_>
        <_>
          24 8 15 12 2.</_></rects>
      <tilted>0</tilted></_>
    <_>
      <rects>
        <_>
          9 18 16 18 -1.</_>
        <_>
          9 18 8 9 2.</_>
        <_>
          17 27 8 9 2.</_></rects>
      <tilted>0</tilted></_>
    <_>
      <rects>
        <_>
          10 9 18 21 -1.</_>
        <_>
          16 16 6 7 9.</_></rects>
      <tilted>0</tilted></_>
    <_>
      <rects>
        <_>
          10 10 12 18 -1.</_>
        <_>
          16 10 6 18 2.</_></rects>
      <tilted>0</tilted></_>
    <_>
      <rects>
        <_>
          10 12 2 8 -1.</_>
        <_>
          10 12 2 4 2.</_></rects>
      <tilted>1</tilted></_>
    <_>
      <rects>
        <_>
          10 13 24 15 -1.</_>
        <_>
          16 13 12 15 2.</_></rects>
      <tilted>0</tilted></_>
    <_>
      <rects>
        <_>
          10 21 1 6 -1.</_>
        <_>
          10 21 1 3 2.</_></rects>
      <tilted>1</tilted></_>
    <_>
      <rects>
        <_>
          11 21 12 16 -1.</_>
        <_>
          11 21 6 8 2.</_>
        <_>
          17 29 6 8 2.</_></rects>
      <tilted>0</tilted></_>
    <_>
      <rects>
        <_>
          11 22 8 5 -1.</_>
        <_>
          15 22 4 5 2.</_></rects>
      <tilted>0</tilted></_>
    <_>
      <rects>
        <_>
          11 24 8 1 -1.</_>
        <_>
          15 24 4 1 2.</_></rects>
      <tilted>0</tilted></_>
    <_>
      <rects>
        <_>
          12 0 24 34 -1.</_>
        <_>
          12 17 24 17 2.</_></rects>
      <tilted>0</tilted></_>
    <_>
      <rects>
        <_>
          12 10 12 5 -1.</_>
        <_>
          12 10 6 5 2.</_></rects>
      <tilted>1</tilted></_>
    <_>
      <rects>
        <_>
          12 12 12 8 -1.</_>
        <_>
          15 15 6 8 2.</_></rects>
      <tilted>1</tilted></_>
    <_>
      <rects>
        <_>
          12 12 28 15 -1.</_>
        <_>
          26 12 14 15 2.</_></rects>
      <tilted>0</tilted></_>
    <_>
      <rects>
        <_>
          12 12 27 16 -1.</_>
        <_>
          12 20 27 8 2.</_></rects>
      <tilted>0</tilted></_>
    <_>
      <rects>
        <_>
          12 17 4 1 -1.</_>
        <_>
          14 17 2 1 2.</_></rects>
      <tilted>0</tilted></_>
    <_>
      <rects>
        <_>
          13 1 14 12 -1.</_>
        <_>
          13 4 14 6 2.</_></rects>
      <tilted>0</tilted></_>
    <_>
      <rects>
        <_>
          13 4 10 14 -1.</_>
        <_>
          13 11 10 7 2.</_></rects>
      <tilted>0</tilted></_>
    <_>
      <rects>
        <_>
          13 19 18 15 -1.</_>
        <_>
          19 24 6 5 9.</_></rects>
      <tilted>0</tilted></_>
    <_>
      <rects>
        <_>
          14 1 11 12 -1.</_>
        <_>
          14 5 11 4 3.</_></rects>
      <tilted>0</tilted></_>
    <_>
      <rects>
        <_>
          14 1 21 12 -1.</_>
        <_>
          14 5 21 4 3.</_></rects>
      <tilted>0</tilted></_>
    <_>
      <rects>
        <_>
          14 7 21 7 -1.</_>
        <_>
          21 14 7 7 3.</_></rects>
      <tilted>1</tilted></_>
    <_>
      <rects>
        <_>
          14 18 7 6 -1.</_>
        <_>
          12 20 7 2 3.</_></rects>
      <tilted>1</tilted></_>
    <_>
      <rects>
        <_>
          14 19 12 15 -1.</_>
        <_>
          14 24 12 5 3.</_></rects>
      <tilted>0</tilted></_>
    <_>
      <rects>
        <_>
          15 0 20 28 -1.</_>
        <_>
          15 0 10 14 2.</_>
        <_>
          25 14 10 14 2.</_></rects>
      <tilted>0</tilted></_>
    <_>
      <rects>
        <_>
          15 0 11 12 -1.</_>
        <_>
          15 3 11 6 2.</_></rects>
      <tilted>0</tilted></_>
    <_>
      <rects>
        <_>
          15 11 15 9 -1.</_>
        <_>
          20 14 5 3 9.</_></rects>
      <tilted>0</tilted></_>
    <_>
      <rects>
        <_>
          15 12 15 7 -1.</_>
        <_>
          20 12 5 7 3.</_></rects>
      <tilted>0</tilted></_>
    <_>
      <rects>
        <_>
          15 14 6 1 -1.</_>
        <_>
          17 16 2 1 3.</_></rects>
      <tilted>1</tilted></_>
    <_>
      <rects>
        <_>
          15 16 2 1 -1.</_>
        <_>
          15 16 1 1 2.</_></rects>
      <tilted>1</tilted></_>
    <_>
      <rects>
        <_>
          15 17 6 6 -1.</_>
        <_>
          17 17 2 6 3.</_></rects>
      <tilted>0</tilted></_>
    <_>
      <rects>
        <_>
          15 19 2 3 -1.</_>
        <_>
          16 19 1 3 2.</_></rects>
      <tilted>0</tilted></_>
    <_>
      <rects>
        <_>
          15 21 18 5 -1.</_>
        <_>
          21 21 6 5 3.</_></rects>
      <tilted>0</tilted></_>
    <_>
      <rects>
        <_>
          15 22 6 12 -1.</_>
        <_>
          11 26 6 4 3.</_></rects>
      <tilted>1</tilted></_>
    <_>
      <rects>
        <_>
          15 23 3 2 -1.</_>
        <_>
          15 23 3 1 2.</_></rects>
      <tilted>1</tilted></_>
    <_>
      <rects>
        <_>
          15 28 24 12 -1.</_>
        <_>
          23 32 8 4 9.</_></rects>
      <tilted>0</tilted></_>
    <_>
      <rects>
        <_>
          16 11 15 9 -1.</_>
        <_>
          21 14 5 3 9.</_></rects>
      <tilted>0</tilted></_>
    <_>
      <rects>
        <_>
          16 18 2 1 -1.</_>
        <_>
          16 18 1 1 2.</_></rects>
      <tilted>1</tilted></_>
    <_>
      <rects>
        <_>
          16 19 5 4 -1.</_>
        <_>
          15 20 5 2 2.</_></rects>
      <tilted>1</tilted></_>
    <_>
      <rects>
        <_>
          16 19 24 7 -1.</_>
        <_>
          24 19 8 7 3.</_></rects>
      <tilted>0</tilted></_>
    <_>
      <rects>
        <_>
          16 20 4 4 -1.</_>
        <_>
          16 20 2 2 2.</_>
        <_>
          18 22 2 2 2.</_></rects>
      <tilted>0</tilted></_>
    <_>
      <rects>
        <_>
          16 20 6 8 -1.</_>
        <_>
          14 22 6 4 2.</_></rects>
      <tilted>1</tilted></_>
    <_>
      <rects>
        <_>
          16 21 18 6 -1.</_>
        <_>
          22 23 6 2 9.</_></rects>
      <tilted>0</tilted></_>
    <_>
      <rects>
        <_>
          16 21 18 3 -1.</_>
        <_>
          22 21 6 3 3.</_></rects>
      <tilted>0</tilted></_>
    <_>
      <rects>
        <_>
          16 21 12 6 -1.</_>
        <_>
          22 21 6 6 2.</_></rects>
      <tilted>0</tilted></_>
    <_>
      <rects>
        <_>
          16 24 12 1 -1.</_>
        <_>
          22 24 6 1 2.</_></rects>
      <tilted>0</tilted></_>
    <_>
      <rects>
        <_>
          17 11 13 6 -1.</_>
        <_>
          15 13 13 2 3.</_></rects>
      <tilted>1</tilted></_>
    <_>
      <rects>
        <_>
          17 13 15 6 -1.</_>
        <_>
          22 13 5 6 3.</_></rects>
      <tilted>0</tilted></_>
    <_>
      <rects>
        <_>
          17 14 15 18 -1.</_>
        <_>
          22 20 5 6 9.</_></rects>
      <tilted>0</tilted></_>
    <_>
      <rects>
        <_>
          17 14 14 13 -1.</_>
        <_>
          24 14 7 13 2.</_></rects>
      <tilted>0</tilted></_>
    <_>
      <rects>
        <_>
          17 19 21 3 -1.</_>
        <_>
          24 19 7 3 3.</_></rects>
      <tilted>0</tilted></_>
    <_>
      <rects>
        <_>
          17 21 2 3 -1.</_>
        <_>
          16 22 2 1 3.</_></rects>
      <tilted>1</tilted></_>
    <_>
      <rects>
        <_>
          17 21 18 3 -1.</_>
        <_>
          23 21 6 3 3.</_></rects>
      <tilted>0</tilted></_>
    <_>
      <rects>
        <_>
          17 23 18 6 -1.</_>
        <_>
          23 25 6 2 9.</_></rects>
      <tilted>0</tilted></_>
    <_>
      <rects>
        <_>
          17 24 12 4 -1.</_>
        <_>
          20 24 6 4 2.</_></rects>
      <tilted>0</tilted></_>
    <_>
      <rects>
        <_>
          17 26 7 4 -1.</_>
        <_>
          17 28 7 2 2.</_></rects>
      <tilted>0</tilted></_>
    <_>
      <rects>
        <_>
          18 3 16 2 -1.</_>
        <_>
          26 3 8 2 2.</_></rects>
      <tilted>0</tilted></_>
    <_>
      <rects>
        <_>
          18 9 21 21 -1.</_>
        <_>
          25 16 7 7 9.</_></rects>
      <tilted>0</tilted></_>
    <_>
      <rects>
        <_>
          18 10 6 16 -1.</_>
        <_>
          14 14 6 8 2.</_></rects>
      <tilted>1</tilted></_>
    <_>
      <rects>
        <_>
          18 14 12 12 -1.</_>
        <_>
          24 14 6 12 2.</_></rects>
      <tilted>0</tilted></_>
    <_>
      <rects>
        <_>
          18 20 18 12 -1.</_>
        <_>
          24 24 6 4 9.</_></rects>
      <tilted>0</tilted></_>
    <_>
      <rects>
        <_>
          18 22 15 18 -1.</_>
        <_>
          23 28 5 6 9.</_></rects>
      <tilted>0</tilted></_>
    <_>
      <rects>
        <_>
          19 0 8 26 -1.</_>
        <_>
          19 0 4 13 2.</_>
        <_>
          23 13 4 13 2.</_></rects>
      <tilted>0</tilted></_>
    <_>
      <rects>
        <_>
          19 10 12 24 -1.</_>
        <_>
          23 18 4 8 9.</_></rects>
      <tilted>0</tilted></_>
    <_>
      <rects>
        <_>
          19 11 15 15 -1.</_>
        <_>
          24 16 5 5 9.</_></rects>
      <tilted>0</tilted></_>
    <_>
      <rects>
        <_>
          19 14 16 8 -1.</_>
        <_>
          23 14 8 8 2.</_></rects>
      <tilted>0</tilted></_>
    <_>
      <rects>
        <_>
          19 14 6 10 -1.</_>
        <_>
          19 14 6 5 2.</_></rects>
      <tilted>1</tilted></_>
    <_>
      <rects>
        <_>
          19 17 15 3 -1.</_>
        <_>
          24 17 5 3 3.</_></rects>
      <tilted>0</tilted></_>
    <_>
      <rects>
        <_>
          19 17 15 5 -1.</_>
        <_>
          24 17 5 5 3.</_></rects>
      <tilted>0</tilted></_>
    <_>
      <rects>
        <_>
          19 19 15 1 -1.</_>
        <_>
          24 19 5 1 3.</_></rects>
      <tilted>0</tilted></_>
    <_>
      <rects>
        <_>
          19 20 12 6 -1.</_>
        <_>
          22 20 6 6 2.</_></rects>
      <tilted>0</tilted></_>
    <_>
      <rects>
        <_>
          19 20 15 5 -1.</_>
        <_>
          24 20 5 5 3.</_></rects>
      <tilted>0</tilted></_>
    <_>
      <rects>
        <_>
          20 9 12 21 -1.</_>
        <_>
          24 16 4 7 9.</_></rects>
      <tilted>0</tilted></_>
    <_>
      <rects>
        <_>
          20 9 20 20 -1.</_>
        <_>
          25 9 10 20 2.</_></rects>
      <tilted>0</tilted></_>
    <_>
      <rects>
        <_>
          20 9 20 21 -1.</_>
        <_>
          25 9 10 21 2.</_></rects>
      <tilted>0</tilted></_>
    <_>
      <rects>
        <_>
          20 11 20 22 -1.</_>
        <_>
          25 11 10 22 2.</_></rects>
      <tilted>0</tilted></_>
    <_>
      <rects>
        <_>
          20 14 5 10 -1.</_>
        <_>
          20 14 5 5 2.</_></rects>
      <tilted>1</tilted></_>
    <_>
      <rects>
        <_>
          20 19 3 1 -1.</_>
        <_>
          21 19 1 1 3.</_></rects>
      <tilted>0</tilted></_>
    <_>
      <rects>
        <_>
          20 19 1 4 -1.</_>
        <_>
          19 20 1 2 2.</_></rects>
      <tilted>1</tilted></_>
    <_>
      <rects>
        <_>
          20 19 3 2 -1.</_>
        <_>
          21 19 1 2 3.</_></rects>
      <tilted>0</tilted></_>
    <_>
      <rects>
        <_>
          20 19 3 3 -1.</_>
        <_>
          21 19 1 3 3.</_></rects>
      <tilted>0</tilted></_>
    <_>
      <rects>
        <_>
          20 20 2 4 -1.</_>
        <_>
          20 20 1 2 2.</_>
        <_>
          21 22 1 2 2.</_></rects>
      <tilted>0</tilted></_>
    <_>
      <rects>
        <_>
          21 8 3 3 -1.</_>
        <_>
          20 9 3 1 3.</_></rects>
      <tilted>1</tilted></_>
    <_>
      <rects>
        <_>
          21 18 9 21 -1.</_>
        <_>
          24 25 3 7 9.</_></rects>
      <tilted>0</tilted></_>
    <_>
      <rects>
        <_>
          21 20 2 1 -1.</_>
        <_>
          22 20 1 1 2.</_></rects>
      <tilted>0</tilted></_>
    <_>
      <rects>
        <_>
          21 26 10 2 -1.</_>
        <_>
          26 26 5 2 2.</_></rects>
      <tilted>0</tilted></_>
    <_>
      <rects>
        <_>
          22 4 6 33 -1.</_>
        <_>
          24 15 2 11 9.</_></rects>
      <tilted>0</tilted></_>
    <_>
      <rects>
        <_>
          22 10 12 18 -1.</_>
        <_>
          22 10 6 9 2.</_>
        <_>
          28 19 6 9 2.</_></rects>
      <tilted>0</tilted></_>
    <_>
      <rects>
        <_>
          22 13 6 10 -1.</_>
        <_>
          22 13 3 5 2.</_>
        <_>
          25 18 3 5 2.</_></rects>
      <tilted>0</tilted></_>
    <_>
      <rects>
        <_>
          22 13 8 16 -1.</_>
        <_>
          22 13 4 8 2.</_>
        <_>
          26 21 4 8 2.</_></rects>
      <tilted>0</tilted></_>
    <_>
      <rects>
        <_>
          22 14 17 6 -1.</_>
        <_>
          22 14 17 3 2.</_></rects>
      <tilted>1</tilted></_>
    <_>
      <rects>
        <_>
          22 20 18 7 -1.</_>
        <_>
          28 20 6 7 3.</_></rects>
      <tilted>0</tilted></_>
    <_>
      <rects>
        <_>
          23 10 6 20 -1.</_>
        <_>
          23 10 3 10 2.</_>
        <_>
          26 20 3 10 2.</_></rects>
      <tilted>0</tilted></_>
    <_>
      <rects>
        <_>
          23 22 8 18 -1.</_>
        <_>
          23 28 8 6 3.</_></rects>
      <tilted>0</tilted></_>
    <_>
      <rects>
        <_>
          24 4 10 22 -1.</_>
        <_>
          24 4 5 11 2.</_>
        <_>
          29 15 5 11 2.</_></rects>
      <tilted>0</tilted></_>
    <_>
      <rects>
        <_>
          24 7 16 10 -1.</_>
        <_>
          24 7 8 10 2.</_></rects>
      <tilted>1</tilted></_>
    <_>
      <rects>
        <_>
          24 15 15 12 -1.</_>
        <_>
          24 21 15 6 2.</_></rects>
      <tilted>0</tilted></_>
    <_>
      <rects>
        <_>
          24 18 3 8 -1.</_>
        <_>
          24 18 3 4 2.</_></rects>
      <tilted>1</tilted></_>
    <_>
      <rects>
        <_>
          25 1 11 8 -1.</_>
        <_>
          23 3 11 4 2.</_></rects>
      <tilted>1</tilted></_>
    <_>
      <rects>
        <_>
          25 5 8 20 -1.</_>
        <_>
          25 5 4 10 2.</_>
        <_>
          29 15 4 10 2.</_></rects>
      <tilted>0</tilted></_>
    <_>
      <rects>
        <_>
          26 0 11 12 -1.</_>
        <_>
          23 3 11 6 2.</_></rects>
      <tilted>1</tilted></_>
    <_>
      <rects>
        <_>
          26 13 12 7 -1.</_>
        <_>
          30 13 4 7 3.</_></rects>
      <tilted>0</tilted></_>
    <_>
      <rects>
        <_>
          27 5 3 24 -1.</_>
        <_>
          27 5 3 12 2.</_></rects>
      <tilted>1</tilted></_>
    <_>
      <rects>
        <_>
          28 0 4 2 -1.</_>
        <_>
          30 0 2 2 2.</_></rects>
      <tilted>0</tilted></_>
    <_>
      <rects>
        <_>
          28 1 8 5 -1.</_>
        <_>
          30 3 4 5 2.</_></rects>
      <tilted>1</tilted></_>
    <_>
      <rects>
        <_>
          28 3 10 8 -1.</_>
        <_>
          26 5 10 4 2.</_></rects>
      <tilted>1</tilted></_>
    <_>
      <rects>
        <_>
          28 6 12 19 -1.</_>
        <_>
          34 6 6 19 2.</_></rects>
      <tilted>0</tilted></_>
    <_>
      <rects>
        <_>
          28 7 12 20 -1.</_>
        <_>
          34 7 6 20 2.</_></rects>
      <tilted>0</tilted></_>
    <_>
      <rects>
        <_>
          28 8 12 19 -1.</_>
        <_>
          34 8 6 19 2.</_></rects>
      <tilted>0</tilted></_>
    <_>
      <rects>
        <_>
          28 8 12 21 -1.</_>
        <_>
          34 8 6 21 2.</_></rects>
      <tilted>0</tilted></_>
    <_>
      <rects>
        <_>
          28 18 12 10 -1.</_>
        <_>
          31 21 6 10 2.</_></rects>
      <tilted>1</tilted></_>
    <_>
      <rects>
        <_>
          30 7 6 5 -1.</_>
        <_>
          33 7 3 5 2.</_></rects>
      <tilted>0</tilted></_>
    <_>
      <rects>
        <_>
          31 20 6 8 -1.</_>
        <_>
          31 20 6 4 2.</_></rects>
      <tilted>1</tilted></_>
    <_>
      <rects>
        <_>
          32 5 8 5 -1.</_>
        <_>
          32 5 4 5 2.</_></rects>
      <tilted>1</tilted></_>
    <_>
      <rects>
        <_>
          32 18 8 14 -1.</_>
        <_>
          34 20 4 14 2.</_></rects>
      <tilted>1</tilted></_>
    <_>
      <rects>
        <_>
          33 12 2 15 -1.</_>
        <_>
          28 17 2 5 3.</_></rects>
      <tilted>1</tilted></_>
    <_>
      <rects>
        <_>
          33 13 3 8 -1.</_>
        <_>
          33 13 3 4 2.</_></rects>
      <tilted>1</tilted></_>
    <_>
      <rects>
        <_>
          34 8 6 5 -1.</_>
        <_>
          34 8 3 5 2.</_></rects>
      <tilted>1</tilted></_>
    <_>
      <rects>
        <_>
          34 18 2 8 -1.</_>
        <_>
          35 18 1 8 2.</_></rects>
      <tilted>0</tilted></_>
    <_>
      <rects>
        <_>
          37 13 2 1 -1.</_>
        <_>
          37 13 1 1 2.</_></rects>
      <tilted>1</tilted></_>
    <_>
      <rects>
        <_>
          37 13 2 2 -1.</_>
        <_>
          37 13 1 2 2.</_></rects>
      <tilted>1</tilted></_>
    <_>
      <rects>
        <_>
          37 17 1 2 -1.</_>
        <_>
          37 18 1 1 2.</_></rects>
      <tilted>0</tilted></_></features></cascade>
</opencv_storage>
