<?xml version="1.0"?>
<opencv_storage>
<cascade>
  <stageType>BOOST</stageType>
  <featureType>HAAR</featureType>
  <height>60</height>
  <width>80</width>
  <stageParams>
    <boostType>GAB</boostType>
    <minHitRate>9.9900001287460327e-01</minHitRate>
    <maxFalseAlarm>5.0000000000000000e-01</maxFalseAlarm>
    <weightTrimRate>9.4999999999999996e-01</weightTrimRate>
    <maxDepth>1</maxDepth>
    <maxWeakCount>100</maxWeakCount></stageParams>
  <featureParams>
    <maxCatCount>0</maxCatCount>
    <featSize>1</featSize>
    <mode>ALL</mode></featureParams>
  <stageNum>5</stageNum>
  <stages>
    <!-- stage 0 -->
    <_>
      <maxWeakCount>5</maxWeakCount>
      <stageThreshold>-1.3312675952911377e+00</stageThreshold>
      <weakClassifiers>
        <_>
          <internalNodes>
            0 -1 5 3.1539406627416611e-02</internalNodes>
          <leafValues>
            -8.3985763788223267e-01 8.4007704257965088e-01</leafValues></_>
        <_>
          <internalNodes>
            0 -1 0 3.8359130267053843e-03</internalNodes>
          <leafValues>
            -8.9678001403808594e-01 5.6351244449615479e-01</leafValues></_>
        <_>
          <internalNodes>
            0 -1 16 -1.4729975191585254e-05</internalNodes>
          <leafValues>
            5.1094788312911987e-01 -8.6546397209167480e-01</leafValues></_>
        <_>
          <internalNodes>
            0 -1 3 1.4472911971097346e-05</internalNodes>
          <leafValues>
            -8.2233017683029175e-01 4.1662636399269104e-01</leafValues></_>
        <_>
          <internalNodes>
            0 -1 9 8.7014952441677451e-04</internalNodes>
          <leafValues>
            -6.0608482360839844e-01 7.3373883962631226e-01</leafValues></_></weakClassifiers></_>
    <!-- stage 1 -->
    <_>
      <maxWeakCount>6</maxWeakCount>
      <stageThreshold>-1.4309269189834595e+00</stageThreshold>
      <weakClassifiers>
        <_>
          <internalNodes>
            0 -1 15 -2.2709841141477227e-04</internalNodes>
          <leafValues>
            6.8637990951538086e-01 -7.5619834661483765e-01</leafValues></_>
        <_>
          <internalNodes>
            0 -1 8 7.5990453362464905e-02</internalNodes>
          <leafValues>
            -4.4809231162071228e-01 8.0159145593643188e-01</leafValues></_>
        <_>
          <internalNodes>
            0 -1 1 -1.4788001863053069e-05</internalNodes>
          <leafValues>
            4.8102629184722900e-01 -7.9769682884216309e-01</leafValues></_>
        <_>
          <internalNodes>
            0 -1 6 5.3210671467240900e-05</internalNodes>
          <leafValues>
            -7.9542601108551025e-01 3.7301772832870483e-01</leafValues></_>
        <_>
          <internalNodes>
            0 -1 11 3.6232039332389832e-02</internalNodes>
          <leafValues>
            -6.0438519716262817e-01 5.0728952884674072e-01</leafValues></_>
        <_>
          <internalNodes>
            0 -1 10 1.1685375648085028e-04</internalNodes>
          <leafValues>
            -4.6175640821456909e-01 7.2118794918060303e-01</leafValues></_></weakClassifiers></_>
    <!-- stage 2 -->
    <_>
      <maxWeakCount>6</maxWeakCount>
      <stageThreshold>-1.3079274892807007e+00</stageThreshold>
      <weakClassifiers>
        <_>
          <internalNodes>
            0 -1 17 -4.4685631291940808e-04</internalNodes>
          <leafValues>
            6.8279570341110229e-01 -7.4793386459350586e-01</leafValues></_>
        <_>
          <internalNodes>
            0 -1 7 5.3370811045169830e-02</internalNodes>
          <leafValues>
            -4.2489516735076904e-01 8.1249064207077026e-01</leafValues></_>
        <_>
          <internalNodes>
            0 -1 2 2.2548319975612685e-05</internalNodes>
          <leafValues>
            -8.4572046995162964e-01 4.5238348841667175e-01</leafValues></_>
        <_>
          <internalNodes>
            0 -1 12 1.5672277659177780e-03</internalNodes>
          <leafValues>
            -5.1260161399841309e-01 6.3698500394821167e-01</leafValues></_>
        <_>
          <internalNodes>
            0 -1 13 -1.8477626144886017e-03</internalNodes>
          <leafValues>
            6.2097001075744629e-01 -4.9876219034194946e-01</leafValues></_>
        <_>
          <internalNodes>
            0 -1 18 -6.7710925577557646e-06</internalNodes>
          <leafValues>
            4.2388182878494263e-01 -7.3354458808898926e-01</leafValues></_></weakClassifiers></_>
    <!-- stage 3 -->
    <_>
      <maxWeakCount>1</maxWeakCount>
      <stageThreshold>9.9600797891616821e-01</stageThreshold>
      <weakClassifiers>
        <_>
          <internalNodes>
            0 -1 4 6.5290639176964760e-03</internalNodes>
          <leafValues>
            -1. 9.9600797891616821e-01</leafValues></_></weakClassifiers></_>
    <!-- stage 4 -->
    <_>
      <maxWeakCount>1</maxWeakCount>
      <stageThreshold>1.</stageThreshold>
      <weakClassifiers>
        <_>
          <internalNodes>
            0 -1 14 -1.9933739304542542e-01</internalNodes>
          <leafValues>
            -1. 1.</leafValues></_></weakClassifiers></_></stages>
  <features>
    <_>
      <rects>
        <_>
          1 36 68 1 -1.</_>
        <_>
          35 36 34 1 2.</_></rects>
      <tilted>0</tilted></_>
    <_>
      <rects>
        <_>
          15 34 4 10 -1.</_>
        <_>
          15 39 4 5 2.</_></rects>
      <tilted>0</tilted></_>
    <_>
      <rects>
        <_>
          18 24 1 4 -1.</_>
        <_>
          18 24 1 2 2.</_></rects>
      <tilted>1</tilted></_>
    <_>
      <rects>
        <_>
          18 38 3 2 -1.</_>
        <_>
          18 38 3 1 2.</_></rects>
      <tilted>1</tilted></_>
    <_>
      <rects>
        <_>
          19 17 32 13 -1.</_>
        <_>
          35 17 16 13 2.</_></rects>
      <tilted>0</tilted></_>
    <_>
      <rects>
        <_>
          19 19 60 15 -1.</_>
        <_>
          34 19 30 15 2.</_></rects>
      <tilted>0</tilted></_>
    <_>
      <rects>
        <_>
          19 20 1 6 -1.</_>
        <_>
          19 20 1 3 2.</_></rects>
      <tilted>1</tilted></_>
    <_>
      <rects>
        <_>
          21 32 45 12 -1.</_>
        <_>
          36 36 15 4 9.</_></rects>
      <tilted>0</tilted></_>
    <_>
      <rects>
        <_>
          24 20 42 24 -1.</_>
        <_>
          38 20 14 24 3.</_></rects>
      <tilted>0</tilted></_>
    <_>
      <rects>
        <_>
          35 31 10 2 -1.</_>
        <_>
          40 31 5 2 2.</_></rects>
      <tilted>0</tilted></_>
    <_>
      <rects>
        <_>
          39 32 2 3 -1.</_>
        <_>
          40 32 1 3 2.</_></rects>
      <tilted>0</tilted></_>
    <_>
      <rects>
        <_>
          41 4 19 56 -1.</_>
        <_>
          41 18 19 28 2.</_></rects>
      <tilted>0</tilted></_>
    <_>
      <rects>
        <_>
          44 24 2 8 -1.</_>
        <_>
          44 24 2 4 2.</_></rects>
      <tilted>1</tilted></_>
    <_>
      <rects>
        <_>
          44 52 11 8 -1.</_>
        <_>
          44 56 11 4 2.</_></rects>
      <tilted>0</tilted></_>
    <_>
      <rects>
        <_>
          49 3 30 50 -1.</_>
        <_>
          49 28 30 25 2.</_></rects>
      <tilted>0</tilted></_>
    <_>
      <rects>
        <_>
          63 29 10 4 -1.</_>
        <_>
          68 29 5 4 2.</_></rects>
      <tilted>0</tilted></_>
    <_>
      <rects>
        <_>
          63 32 1 8 -1.</_>
        <_>
          63 36 1 4 2.</_></rects>
      <tilted>0</tilted></_>
    <_>
      <rects>
        <_>
          64 19 10 7 -1.</_>
        <_>
          69 19 5 7 2.</_></rects>
      <tilted>0</tilted></_>
    <_>
      <rects>
        <_>
          66 38 2 4 -1.</_>
        <_>
          66 40 2 2 2.</_></rects>
      <tilted>0</tilted></_></features></cascade>
</opencv_storage>
