<?xml version="1.0"?>
<opencv_storage>
<cascade>
  <stageType>BOOST</stageType>
  <featureType>HAAR</featureType>
  <height>60</height>
  <width>80</width>
  <stageParams>
    <boostType>GAB</boostType>
    <minHitRate>9.9900001287460327e-01</minHitRate>
    <maxFalseAlarm>5.0000000000000000e-01</maxFalseAlarm>
    <weightTrimRate>9.4999999999999996e-01</weightTrimRate>
    <maxDepth>1</maxDepth>
    <maxWeakCount>100</maxWeakCount></stageParams>
  <featureParams>
    <maxCatCount>0</maxCatCount>
    <featSize>1</featSize>
    <mode>ALL</mode></featureParams>
  <stageNum>5</stageNum>
  <stages>
    <!-- stage 0 -->
    <_>
      <maxWeakCount>3</maxWeakCount>
      <stageThreshold>-8.8530403375625610e-01</stageThreshold>
      <weakClassifiers>
        <_>
          <internalNodes>
            0 -1 8 2.5400072336196899e-02</internalNodes>
          <leafValues>
            -8.0385851860046387e-01 9.2024540901184082e-01</leafValues></_>
        <_>
          <internalNodes>
            0 -1 2 8.0246375873684883e-03</internalNodes>
          <leafValues>
            -9.0859013795852661e-01 7.0523059368133545e-01</leafValues></_>
        <_>
          <internalNodes>
            0 -1 9 -1.5071129426360130e-02</internalNodes>
          <leafValues>
            8.2714456319808960e-01 -6.8151670694351196e-01</leafValues></_></weakClassifiers></_>
    <!-- stage 1 -->
    <_>
      <maxWeakCount>5</maxWeakCount>
      <stageThreshold>-1.1327890157699585e+00</stageThreshold>
      <weakClassifiers>
        <_>
          <internalNodes>
            0 -1 7 1.3497894629836082e-02</internalNodes>
          <leafValues>
            -6.9968050718307495e-01 8.6036962270736694e-01</leafValues></_>
        <_>
          <internalNodes>
            0 -1 14 3.2456286251544952e-02</internalNodes>
          <leafValues>
            -6.2049937248229980e-01 6.6845965385437012e-01</leafValues></_>
        <_>
          <internalNodes>
            0 -1 6 4.2031845077872276e-03</internalNodes>
          <leafValues>
            -8.2223194837570190e-01 5.1758277416229248e-01</leafValues></_>
        <_>
          <internalNodes>
            0 -1 17 -4.9098418094217777e-04</internalNodes>
          <leafValues>
            5.4901880025863647e-01 -6.3299381732940674e-01</leafValues></_>
        <_>
          <internalNodes>
            0 -1 1 5.1114879548549652e-02</internalNodes>
          <leafValues>
            -9.0882802009582520e-01 3.5365760326385498e-01</leafValues></_></weakClassifiers></_>
    <!-- stage 2 -->
    <_>
      <maxWeakCount>5</maxWeakCount>
      <stageThreshold>-9.4102185964584351e-01</stageThreshold>
      <weakClassifiers>
        <_>
          <internalNodes>
            0 -1 11 -2.1442221477627754e-03</internalNodes>
          <leafValues>
            8.2694196701049805e-01 -7.5643223524093628e-01</leafValues></_>
        <_>
          <internalNodes>
            0 -1 18 -2.2794003598392010e-04</internalNodes>
          <leafValues>
            7.5151312351226807e-01 -6.6014784574508667e-01</leafValues></_>
        <_>
          <internalNodes>
            0 -1 12 1.0097928345203400e-02</internalNodes>
          <leafValues>
            -4.8797750473022461e-01 7.8794288635253906e-01</leafValues></_>
        <_>
          <internalNodes>
            0 -1 4 3.6568378563970327e-03</internalNodes>
          <leafValues>
            -8.9626836776733398e-01 4.5554500818252563e-01</leafValues></_>
        <_>
          <internalNodes>
            0 -1 19 1.3369356747716665e-03</internalNodes>
          <leafValues>
            -7.5337457656860352e-01 5.0799071788787842e-01</leafValues></_></weakClassifiers></_>
    <!-- stage 3 -->
    <_>
      <maxWeakCount>7</maxWeakCount>
      <stageThreshold>-1.9575917720794678e+00</stageThreshold>
      <weakClassifiers>
        <_>
          <internalNodes>
            0 -1 10 -8.8493218645453453e-03</internalNodes>
          <leafValues>
            8.3400809764862061e-01 -6.9281047582626343e-01</leafValues></_>
        <_>
          <internalNodes>
            0 -1 16 -9.3827797099947929e-03</internalNodes>
          <leafValues>
            6.8585175275802612e-01 -5.5196481943130493e-01</leafValues></_>
        <_>
          <internalNodes>
            0 -1 3 -7.3724481808312703e-06</internalNodes>
          <leafValues>
            5.9078532457351685e-01 -6.3623470067977905e-01</leafValues></_>
        <_>
          <internalNodes>
            0 -1 5 -4.9940533936023712e-03</internalNodes>
          <leafValues>
            4.2727047204971313e-01 -7.6514250040054321e-01</leafValues></_>
        <_>
          <internalNodes>
            0 -1 15 -7.4423605110496283e-04</internalNodes>
          <leafValues>
            7.2194099426269531e-01 -4.7147929668426514e-01</leafValues></_>
        <_>
          <internalNodes>
            0 -1 20 7.8635360114276409e-04</internalNodes>
          <leafValues>
            -7.8792548179626465e-01 4.3112158775329590e-01</leafValues></_>
        <_>
          <internalNodes>
            0 -1 13 3.2362148165702820e-02</internalNodes>
          <leafValues>
            -4.9810159206390381e-01 7.6500278711318970e-01</leafValues></_></weakClassifiers></_>
    <!-- stage 4 -->
    <_>
      <maxWeakCount>1</maxWeakCount>
      <stageThreshold>9.9401795864105225e-01</stageThreshold>
      <weakClassifiers>
        <_>
          <internalNodes>
            0 -1 0 -2.6831459254026413e-03</internalNodes>
          <leafValues>
            -1. 9.9401795864105225e-01</leafValues></_></weakClassifiers></_></stages>
  <features>
    <_>
      <rects>
        <_>
          9 29 32 1 -1.</_>
        <_>
          17 29 16 1 2.</_></rects>
      <tilted>0</tilted></_>
    <_>
      <rects>
        <_>
          10 18 64 20 -1.</_>
        <_>
          42 18 32 20 2.</_></rects>
      <tilted>0</tilted></_>
    <_>
      <rects>
        <_>
          11 18 22 25 -1.</_>
        <_>
          22 18 11 25 2.</_></rects>
      <tilted>0</tilted></_>
    <_>
      <rects>
        <_>
          11 31 1 10 -1.</_>
        <_>
          11 36 1 5 2.</_></rects>
      <tilted>0</tilted></_>
    <_>
      <rects>
        <_>
          12 18 20 11 -1.</_>
        <_>
          22 18 10 11 2.</_></rects>
      <tilted>0</tilted></_>
    <_>
      <rects>
        <_>
          20 4 18 8 -1.</_>
        <_>
          20 4 9 8 2.</_></rects>
      <tilted>1</tilted></_>
    <_>
      <rects>
        <_>
          24 19 7 16 -1.</_>
        <_>
          24 19 7 8 2.</_></rects>
      <tilted>1</tilted></_>
    <_>
      <rects>
        <_>
          35 12 28 22 -1.</_>
        <_>
          35 12 14 11 2.</_>
        <_>
          49 23 14 11 2.</_></rects>
      <tilted>0</tilted></_>
    <_>
      <rects>
        <_>
          35 24 44 13 -1.</_>
        <_>
          46 24 22 13 2.</_></rects>
      <tilted>0</tilted></_>
    <_>
      <rects>
        <_>
          36 28 30 20 -1.</_>
        <_>
          36 28 15 10 2.</_>
        <_>
          51 38 15 10 2.</_></rects>
      <tilted>0</tilted></_>
    <_>
      <rects>
        <_>
          37 18 11 24 -1.</_>
        <_>
          37 24 11 12 2.</_></rects>
      <tilted>0</tilted></_>
    <_>
      <rects>
        <_>
          38 27 6 10 -1.</_>
        <_>
          38 27 6 5 2.</_></rects>
      <tilted>1</tilted></_>
    <_>
      <rects>
        <_>
          43 23 24 9 -1.</_>
        <_>
          49 23 12 9 2.</_></rects>
      <tilted>0</tilted></_>
    <_>
      <rects>
        <_>
          45 19 24 12 -1.</_>
        <_>
          51 25 12 12 2.</_></rects>
      <tilted>1</tilted></_>
    <_>
      <rects>
        <_>
          47 17 28 15 -1.</_>
        <_>
          54 24 14 15 2.</_></rects>
      <tilted>1</tilted></_>
    <_>
      <rects>
        <_>
          48 25 2 6 -1.</_>
        <_>
          46 27 2 2 3.</_></rects>
      <tilted>1</tilted></_>
    <_>
      <rects>
        <_>
          54 17 18 22 -1.</_>
        <_>
          63 17 9 22 2.</_></rects>
      <tilted>0</tilted></_>
    <_>
      <rects>
        <_>
          64 20 10 6 -1.</_>
        <_>
          69 20 5 6 2.</_></rects>
      <tilted>0</tilted></_>
    <_>
      <rects>
        <_>
          65 20 8 5 -1.</_>
        <_>
          69 20 4 5 2.</_></rects>
      <tilted>0</tilted></_>
    <_>
      <rects>
        <_>
          69 32 10 6 -1.</_>
        <_>
          69 32 5 6 2.</_></rects>
      <tilted>1</tilted></_>
    <_>
      <rects>
        <_>
          70 26 10 4 -1.</_>
        <_>
          70 26 5 4 2.</_></rects>
      <tilted>1</tilted></_></features></cascade>
</opencv_storage>
