<?xml version="1.0"?>
<opencv_storage>
<cascade>
  <stageType>BOOST</stageType>
  <featureType>LBP</featureType>
  <height>20</height>
  <width>20</width>
  <stageParams>
    <boostType>GAB</boostType>
    <minHitRate>9.9500000476837158e-01</minHitRate>
    <maxFalseAlarm>5.0000000000000000e-01</maxFalseAlarm>
    <weightTrimRate>9.4999999999999996e-01</weightTrimRate>
    <maxDepth>1</maxDepth>
    <maxWeakCount>100</maxWeakCount></stageParams>
  <featureParams>
    <maxCatCount>256</maxCatCount>
    <featSize>1</featSize></featureParams>
  <stageNum>10</stageNum>
  <stages>
    <!-- stage 0 -->
    <_>
      <maxWeakCount>3</maxWeakCount>
      <stageThreshold>-6.8623793125152588e-01</stageThreshold>
      <weakClassifiers>
        <_>
          <internalNodes>
            0 -1 23 -286331154 -926225204 -288424193 -1064636689 -131329
            -875563281 -1 -540016641</internalNodes>
          <leafValues>
            -7.8820902109146118e-01 8.2998621463775635e-01</leafValues></_>
        <_>
          <internalNodes>
            0 -1 21 -286265617 -1035228337 -822359889 -498868481
            -159383553 -2142110211 -167774601 -209721377</internalNodes>
          <leafValues>
            -4.9722626805305481e-01 7.4094980955123901e-01</leafValues></_>
        <_>
          <internalNodes>
            0 -1 67 -796988928 -8430077 -903088229 -26481142 -453
            -25460869 -289408113 -17826229</internalNodes>
          <leafValues>
            -4.9002209305763245e-01 5.9919732809066772e-01</leafValues></_></weakClassifiers></_>
    <!-- stage 1 -->
    <_>
      <maxWeakCount>5</maxWeakCount>
      <stageThreshold>-1.3194491863250732e+00</stageThreshold>
      <weakClassifiers>
        <_>
          <internalNodes>
            0 -1 32 -83951874 -88409378 -1439651078 -1575814417 -5
            -588450051 -168297473 -1</internalNodes>
          <leafValues>
            -6.5661787986755371e-01 7.6543599367141724e-01</leafValues></_>
        <_>
          <internalNodes>
            0 -1 17 -533729553 -286265585 -290459905 -276824145
            -1068503297 -289423377 -723255329 -1</internalNodes>
          <leafValues>
            -5.2159285545349121e-01 6.7670989036560059e-01</leafValues></_>
        <_>
          <internalNodes>
            0 -1 0 -922747141 -394789894 -318769233 -33587457
            -1071405089 1357938551 1077769431 1930917655</internalNodes>
          <leafValues>
            -4.2936497926712036e-01 5.5039757490158081e-01</leafValues></_>
        <_>
          <internalNodes>
            0 -1 98 -1574326 -551027065 -935147902 -88901953 -580722174
            -29475634 -231740914 -84938801</internalNodes>
          <leafValues>
            -4.8355221748352051e-01 5.3817003965377808e-01</leafValues></_>
        <_>
          <internalNodes>
            0 -1 37 -167772545 1579102527 180017322 846781086 -125052577
            1997947443 -86049825 1935801343</internalNodes>
          <leafValues>
            -6.5037512779235840e-01 3.5258981585502625e-01</leafValues></_></weakClassifiers></_>
    <!-- stage 2 -->
    <_>
      <maxWeakCount>8</maxWeakCount>
      <stageThreshold>-1.2206972837448120e+00</stageThreshold>
      <weakClassifiers>
        <_>
          <internalNodes>
            0 -1 20 -1970281969 -1343492097 -808452609 -1894776929
            -1028657153 -806355201 -536870913 -2097153</internalNodes>
          <leafValues>
            -4.3782448768615723e-01 7.5584125518798828e-01</leafValues></_>
        <_>
          <internalNodes>
            0 -1 40 -34945 1465786127 -135004297 856842079 -16817288
            -95278275 -813761313 1060306783</internalNodes>
          <leafValues>
            -5.0999552011489868e-01 5.5247384309768677e-01</leafValues></_>
        <_>
          <internalNodes>
            0 -1 19 -493886737 -536483073 -279970561 -614990081
            -1060518673 -1027477761 -707272449 -70261765</internalNodes>
          <leafValues>
            -4.6221375465393066e-01 4.7483599185943604e-01</leafValues></_>
        <_>
          <internalNodes>
            0 -1 75 -715271153 286216199 1392526595 285594967 -589441093
            1365070942 1498082027 22020079</internalNodes>
          <leafValues>
            -4.4721132516860962e-01 4.7466683387756348e-01</leafValues></_>
        <_>
          <internalNodes>
            0 -1 11 -696788137 -262738219 -375654145 -615133009
            -196088225 1883282233 1981278932 1970793215</internalNodes>
          <leafValues>
            -4.3237105011940002e-01 4.7326853871345520e-01</leafValues></_>
        <_>
          <internalNodes>
            0 -1 60 -134291457 -771882722 -1940763270 526021575
            -123806225 -2126481010 -1656206340 715717630</internalNodes>
          <leafValues>
            -5.4579395055770874e-01 3.2680702209472656e-01</leafValues></_>
        <_>
          <internalNodes>
            0 -1 57 -399570934 -79228413 1562347519 2099216206
            -1597256994 -431492 -258246566 -320085494</internalNodes>
          <leafValues>
            -4.8901736736297607e-01 3.6775615811347961e-01</leafValues></_>
        <_>
          <internalNodes>
            0 -1 46 -2138789 2136867932 -124595745 425753557 -326086436
            -209436429 -568311128 505454323</internalNodes>
          <leafValues>
            -5.4752254486083984e-01 2.9262682795524597e-01</leafValues></_></weakClassifiers></_>
    <!-- stage 3 -->
    <_>
      <maxWeakCount>8</maxWeakCount>
      <stageThreshold>-1.0931566953659058e+00</stageThreshold>
      <weakClassifiers>
        <_>
          <internalNodes>
            0 -1 34 -2 -218169378 -118031622 850591478 -50856706
            -9476265 -16777217 -143130625</internalNodes>
          <leafValues>
            -4.6129837632179260e-01 6.6094422340393066e-01</leafValues></_>
        <_>
          <internalNodes>
            0 -1 6 -487593233 -405828625 -2033197059 -8388609 143650559
            250607583 605028351 -285214721</internalNodes>
          <leafValues>
            -4.8280313611030579e-01 5.2833807468414307e-01</leafValues></_>
        <_>
          <internalNodes>
            0 -1 36 -572569089 2139052159 -91890561 841118559 -18138820
            -144202639 -309335058 1936718847</internalNodes>
          <leafValues>
            -5.1368182897567749e-01 4.1301313042640686e-01</leafValues></_>
        <_>
          <internalNodes>
            0 -1 68 -227806718 -203459926 -131480829 -212075773
            -252715910 -309632885 2094000347 -1029</internalNodes>
          <leafValues>
            -4.5189279317855835e-01 4.3806779384613037e-01</leafValues></_>
        <_>
          <internalNodes>
            0 -1 10 -1065658505 -35391553 -525 -570689555 822373173
            -277191321 -776737871 -134742155</internalNodes>
          <leafValues>
            -3.8715898990631104e-01 4.9520018696784973e-01</leafValues></_>
        <_>
          <internalNodes>
            0 -1 50 -1066408954 1482113038 -2028915777 1095747417
            -125572950 -96771518 -615781121 2036324575</internalNodes>
          <leafValues>
            -5.5856484174728394e-01 3.2178556919097900e-01</leafValues></_>
        <_>
          <internalNodes>
            0 -1 100 -387725334 8900390 538172130 13226114 -396137909
            -386235998 -372313857 -925368993</internalNodes>
          <leafValues>
            -4.6954509615898132e-01 3.6424320936203003e-01</leafValues></_>
        <_>
          <internalNodes>
            0 -1 26 -134251273 2009029945 -21200905 843251071 -10464
            -12632510 -346107943 -144441777</internalNodes>
          <leafValues>
            -3.7231093645095825e-01 4.4520556926727295e-01</leafValues></_></weakClassifiers></_>
    <!-- stage 4 -->
    <_>
      <maxWeakCount>10</maxWeakCount>
      <stageThreshold>-1.4525846242904663e+00</stageThreshold>
      <weakClassifiers>
        <_>
          <internalNodes>
            0 -1 5 -797769985 -231473281 2113929215 -236732453
            1081147327 -260505601 1538007 1937208191</internalNodes>
          <leafValues>
            -2.2876712679862976e-01 6.9593495130538940e-01</leafValues></_>
        <_>
          <internalNodes>
            0 -1 27 -300028402 -59167155 -1086330435 -12767473
            -423841621 -260105 -269488641 -3150613</internalNodes>
          <leafValues>
            -3.9462819695472717e-01 4.9640855193138123e-01</leafValues></_>
        <_>
          <internalNodes>
            0 -1 53 -2131969 -44359339 -652914337 395473139 -1048539203
            -1157099365 -1614148690 707444218</internalNodes>
          <leafValues>
            -5.8374387025833130e-01 3.4770941734313965e-01</leafValues></_>
        <_>
          <internalNodes>
            0 -1 16 -115867759 -581894479 -49048101 -35786282 -385046792
            -376716571 -934835812 29705456</internalNodes>
          <leafValues>
            -4.2882382869720459e-01 4.3625658750534058e-01</leafValues></_>
        <_>
          <internalNodes>
            0 -1 54 -741091078 -1148024396 1279357142 -1887317846
            -779114020 -40300036 -431493956 -271721846</internalNodes>
          <leafValues>
            -4.7753015160560608e-01 3.8774359226226807e-01</leafValues></_>
        <_>
          <internalNodes>
            0 -1 89 -881595477 1351417905 569266995 17790219 -1044208209
            1296664963 1798013695 36699119</internalNodes>
          <leafValues>
            -4.4460278749465942e-01 4.2886340618133545e-01</leafValues></_>
        <_>
          <internalNodes>
            0 -1 58 1950663876 1570193926 -2007054081 -1919172225
            -1744510726 -1861549824 -441727493 1260124655</internalNodes>
          <leafValues>
            -4.9174541234970093e-01 3.1975665688514709e-01</leafValues></_>
        <_>
          <internalNodes>
            0 -1 9 -160969385 -67635725 -671762437 -13 1362429459
            1835236731 1996486131 -134219009</internalNodes>
          <leafValues>
            -2.6327079534530640e-01 5.3038740158081055e-01</leafValues></_>
        <_>
          <internalNodes>
            0 -1 73 -795099130 -1862269396 807426431 1459709807
            -309608258 -1952053888 185547455 1528548735</internalNodes>
          <leafValues>
            -4.0499940514564514e-01 3.6973902583122253e-01</leafValues></_>
        <_>
          <internalNodes>
            0 -1 64 -657056553 -566594689 1694593471 2121932254
            -1031148557 -1841420637 -776211536 -96797702</internalNodes>
          <leafValues>
            -3.9772179722785950e-01 3.4848427772521973e-01</leafValues></_></weakClassifiers></_>
    <!-- stage 5 -->
    <_>
      <maxWeakCount>12</maxWeakCount>
      <stageThreshold>-9.0722978115081787e-01</stageThreshold>
      <weakClassifiers>
        <_>
          <internalNodes>
            0 -1 30 -218433826 -1160577443 -1493238789 -218964099
            -34079058 -33567619 -50397189 -545</internalNodes>
          <leafValues>
            -3.7022766470909119e-01 5.9664529561996460e-01</leafValues></_>
        <_>
          <internalNodes>
            0 -1 2 -8391173 -1666 -671089163 -656171 -1513424385
            -1342217479 -806369041 97468637</internalNodes>
          <leafValues>
            -3.4298241138458252e-01 5.4378074407577515e-01</leafValues></_>
        <_>
          <internalNodes>
            0 -1 86 -223417846 -143698165 1017637823 2112320323
            -72353045 -67158069 -12851313 -1048997</internalNodes>
          <leafValues>
            -3.7599739432334900e-01 4.2669266462326050e-01</leafValues></_>
        <_>
          <internalNodes>
            0 -1 8 -8651789 -8400501 -201334793 -178258191 1091913041
            2137419900 -237656107 -201853979</internalNodes>
          <leafValues>
            -3.2096970081329346e-01 4.9757120013237000e-01</leafValues></_>
        <_>
          <internalNodes>
            0 -1 61 -1176560705 536162757 -441281057 1024458790
            -666586403 -1075738057 -1597452596 -1392485750</internalNodes>
          <leafValues>
            -3.9880809187889099e-01 3.9458370208740234e-01</leafValues></_>
        <_>
          <internalNodes>
            0 -1 95 -7473234 1292434760 -101164784 -538051657 1159057375
            1350874329 -34224233 -2097169</internalNodes>
          <leafValues>
            -2.8665736317634583e-01 4.7011700272560120e-01</leafValues></_>
        <_>
          <internalNodes>
            0 -1 63 1963770884 1934168327 311550 454122587 -2079330313
            -1181416774 1541048559 186641407</internalNodes>
          <leafValues>
            -4.9501395225524902e-01 2.5919088721275330e-01</leafValues></_>
        <_>
          <internalNodes>
            0 -1 79 -1192001545 2147106814 -245825 -1078822030
            -184685059 -1241846043 1339473848 -1464423510</internalNodes>
          <leafValues>
            -3.5500335693359375e-01 3.6769434809684753e-01</leafValues></_>
        <_>
          <internalNodes>
            0 -1 72 -141066206 1349517362 288883200 1367802898 201370802
            101711873 269160558 1364658299</internalNodes>
          <leafValues>
            -4.4487729668617249e-01 2.8994259238243103e-01</leafValues></_>
        <_>
          <internalNodes>
            0 -1 18 -22351778 -626997117 -96042864 -233645214
            -1437805186 552272137 883938836 2065649021</internalNodes>
          <leafValues>
            -5.0167369842529297e-01 2.5611242651939392e-01</leafValues></_>
        <_>
          <internalNodes>
            0 -1 49 -1058747862 -749883281 165131 50843731 -1547859395
            -79572578 -994854193 -77596397</internalNodes>
          <leafValues>
            -4.4766911864280701e-01 2.7324205636978149e-01</leafValues></_>
        <_>
          <internalNodes>
            0 -1 81 -749733950 -1042255808 1909838066 -171669032
            1359477387 1079631821 1434947801 -236718705</internalNodes>
          <leafValues>
            -2.9695636034011841e-01 4.3839833140373230e-01</leafValues></_></weakClassifiers></_>
    <!-- stage 6 -->
    <_>
      <maxWeakCount>14</maxWeakCount>
      <stageThreshold>-1.2953071594238281e+00</stageThreshold>
      <weakClassifiers>
        <_>
          <internalNodes>
            0 -1 29 -837835633 -1576858097 254741823 -2106069377
            -310921737 -1897660427 -1119879285 -15204609</internalNodes>
          <leafValues>
            -3.6333209276199341e-01 5.7926416397094727e-01</leafValues></_>
        <_>
          <internalNodes>
            0 -1 12 -1048777 -135866433 -135538723 -2102401 1897608981
            -748292225 -135006287 -134744093</internalNodes>
          <leafValues>
            -2.8178846836090088e-01 5.1612502336502075e-01</leafValues></_>
        <_>
          <internalNodes>
            0 -1 52 -138971169 -37855369 -786116289 521814015 -207156835
            -570897265 -256632326 -1087700998</internalNodes>
          <leafValues>
            -3.9214417338371277e-01 3.9539581537246704e-01</leafValues></_>
        <_>
          <internalNodes>
            0 -1 92 -15468800 -2099785 -2019362821 -2912585 -790537
            -28676 -270340098 -525474</internalNodes>
          <leafValues>
            -3.6619210243225098e-01 4.1512608528137207e-01</leafValues></_>
        <_>
          <internalNodes>
            0 -1 84 -2053981381 502927733 -1755391619 991068433
            -1138494529 -1259577171 -1163281666 -1079333782</internalNodes>
          <leafValues>
            -3.6865895986557007e-01 3.8806292414665222e-01</leafValues></_>
        <_>
          <internalNodes>
            0 -1 3 -134883843 -547865613 498510783 -13972869 -1410119171
            -295893780 -881982307 234488290</internalNodes>
          <leafValues>
            -3.0480897426605225e-01 4.6269616484642029e-01</leafValues></_>
        <_>
          <internalNodes>
            0 -1 101 -16779546 40356550 -1442326976 135783618 2041159501
            -1462792729 -21370401 -808730373</internalNodes>
          <leafValues>
            -3.5330444574356079e-01 3.2646518945693970e-01</leafValues></_>
        <_>
          <internalNodes>
            0 -1 25 -50664394 -1089309081 -1026522808 -1201614501
            -377527287 997868127 -219506612 996139639</internalNodes>
          <leafValues>
            -4.7543257474899292e-01 2.7853950858116150e-01</leafValues></_>
        <_>
          <internalNodes>
            0 -1 39 -458511297 -541346785 -1888817349 -550131137
            -1459633221 -1627410817 -809761345 -1544043081</internalNodes>
          <leafValues>
            -2.9325827956199646e-01 3.9567679166793823e-01</leafValues></_>
        <_>
          <internalNodes>
            0 -1 51 -1924177842 1440171029 1169250559 1474914107
            -387323654 1127968819 -1179459413 -478680389</internalNodes>
          <leafValues>
            -3.8617858290672302e-01 3.0799263715744019e-01</leafValues></_>
        <_>
          <internalNodes>
            0 -1 41 -38853417 1586889069 159835295 839054023 -926298295
            -600173975 -2009362177 2121190007</internalNodes>
          <leafValues>
            -4.6925774216651917e-01 2.5284749269485474e-01</leafValues></_>
        <_>
          <internalNodes>
            0 -1 90 -1933663510 212793122 -343628416 -657144950
            134462453 1220698261 -158357386 -772610886</internalNodes>
          <leafValues>
            -4.3888002634048462e-01 2.4764725565910339e-01</leafValues></_>
        <_>
          <internalNodes>
            0 -1 65 -1548478889 1024524627 1607513435 1068792107
            -117223180 -1146605568 -779490564 -1477962864</internalNodes>
          <leafValues>
            -3.9664527773857117e-01 2.8805568814277649e-01</leafValues></_>
        <_>
          <internalNodes>
            0 -1 87 -1045437662 -1012648404 -436891468 -181406940
            -1665270805 1170519825 -1748123205 -1043347874</internalNodes>
          <leafValues>
            -3.0470344424247742e-01 3.9400109648704529e-01</leafValues></_></weakClassifiers></_>
    <!-- stage 7 -->
    <_>
      <maxWeakCount>14</maxWeakCount>
      <stageThreshold>-1.3386535644531250e+00</stageThreshold>
      <weakClassifiers>
        <_>
          <internalNodes>
            0 -1 14 -1050753 -25188581 -151076889 -117966217 -11534579
            1887321921 -12306 846200639</internalNodes>
          <leafValues>
            -1.7757482826709747e-01 6.2886828184127808e-01</leafValues></_>
        <_>
          <internalNodes>
            0 -1 1 -268435457 -258 -939548769 -33562257 1373630459
            -1363153669 1105192887 1157611695</internalNodes>
          <leafValues>
            -3.2056385278701782e-01 4.4480940699577332e-01</leafValues></_>
        <_>
          <internalNodes>
            0 -1 70 1393278991 -716187873 302534743 319509295 -85000193
            -655362561 1481275535 1508899519</internalNodes>
          <leafValues>
            -3.4601810574531555e-01 4.0326982736587524e-01</leafValues></_>
        <_>
          <internalNodes>
            0 -1 77 -29689857 -539602757 -1828528865 -551668845
            1887619769 -70774641 1507758508 -1364283490</internalNodes>
          <leafValues>
            -4.0517303347587585e-01 3.1584566831588745e-01</leafValues></_>
        <_>
          <internalNodes>
            0 -1 91 -163069370 2069850967 -1016504769 -10418661
            -939790369 -120623250 -134829841 -10001596</internalNodes>
          <leafValues>
            -3.2903093099594116e-01 3.7882336974143982e-01</leafValues></_>
        <_>
          <internalNodes>
            0 -1 42 101913681 996081973 -1518127651 1061035346 135467258
            2076713616 -290936386 2078243003</internalNodes>
          <leafValues>
            -3.4594726562500000e-01 3.4826055169105530e-01</leafValues></_>
        <_>
          <internalNodes>
            0 -1 71 -240987158 -117288704 -1259995126 -109042784
            1473038274 92610321 1205199054 -677120405</internalNodes>
          <leafValues>
            -3.2070592045783997e-01 3.8015055656433105e-01</leafValues></_>
        <_>
          <internalNodes>
            0 -1 13 -603982881 1393885026 2147442431 -34406786
            -294291448 -143302883 1287356143 1969450783</internalNodes>
          <leafValues>
            -2.9686114192008972e-01 3.8729101419448853e-01</leafValues></_>
        <_>
          <internalNodes>
            0 -1 62 -779837280 -1852701672 923863072 388052784 335716588
            260047001 153420462 1977024646</internalNodes>
          <leafValues>
            -4.4352275133132935e-01 2.5612345337867737e-01</leafValues></_>
        <_>
          <internalNodes>
            0 -1 48 -78560707 1444155485 -1807165558 437437502
            -2137434056 -930021299 -124938002 1383595999</internalNodes>
          <leafValues>
            -5.5315870046615601e-01 2.2003670036792755e-01</leafValues></_>
        <_>
          <internalNodes>
            0 -1 43 573112379 -1718752907 -913233641 -579578091
            -955386629 -193605400 881773803 -228736802</internalNodes>
          <leafValues>
            -4.3744823336601257e-01 2.6011973619461060e-01</leafValues></_>
        <_>
          <internalNodes>
            0 -1 94 -13785938 1286390850 -1342099422 86736323 1166328543
            211100037 -1846478921 -1335364633</internalNodes>
          <leafValues>
            -3.8324818015098572e-01 3.0172365903854370e-01</leafValues></_>
        <_>
          <internalNodes>
            0 -1 0 -928252268 -1573813365 -1857957219 -705882676
            -1064588821 -1866736743 604754186 823350886</internalNodes>
          <leafValues>
            -4.4164255261421204e-01 2.4191738665103912e-01</leafValues></_>
        <_>
          <internalNodes>
            0 -1 88 -713043745 -579606977 16239455 1466671159 -756961605
            -286228737 -1871856993 -1163919401</internalNodes>
          <leafValues>
            -1.9938097894191742e-01 5.5868804454803467e-01</leafValues></_></weakClassifiers></_>
    <!-- stage 8 -->
    <_>
      <maxWeakCount>15</maxWeakCount>
      <stageThreshold>-1.1704912185668945e+00</stageThreshold>
      <weakClassifiers>
        <_>
          <internalNodes>
            0 -1 7 -1966215449 -352329729 -875560963 -810614801
            -922751233 -1059061777 -662766081 -84149517</internalNodes>
          <leafValues>
            -2.6291078329086304e-01 5.7693845033645630e-01</leafValues></_>
        <_>
          <internalNodes>
            0 -1 9 -136316941 -68687881 -134760459 -4194903 1400848129
            1999732095 -453511376 -527434</internalNodes>
          <leafValues>
            -2.9932343959808350e-01 4.5923125743865967e-01</leafValues></_>
        <_>
          <internalNodes>
            0 -1 47 -69263361 2144414421 -565118465 983717247 -97732343
            -1206197713 -342033442 2049113855</internalNodes>
          <leafValues>
            -4.4431823492050171e-01 2.7444571256637573e-01</leafValues></_>
        <_>
          <internalNodes>
            0 -1 102 -26220566 -353769278 -993530784 -1399345438
            929286983 -1367098365 -1027419145 -857214737</internalNodes>
          <leafValues>
            -3.8216155767440796e-01 3.1951189041137695e-01</leafValues></_>
        <_>
          <internalNodes>
            0 -1 56 -71059457 -1082418182 -72000579 -1085412969
            -269838339 -1073791245 -1112167941 -1884420678</internalNodes>
          <leafValues>
            -2.5652545690536499e-01 4.5843553543090820e-01</leafValues></_>
        <_>
          <internalNodes>
            0 -1 45 -730993010 2004828227 -1257137153 1666258559
            -1105682258 656937761 -838151977 1937767046</internalNodes>
          <leafValues>
            -4.1659677028656006e-01 2.5437948107719421e-01</leafValues></_>
        <_>
          <internalNodes>
            0 -1 15 -774423169 1061425750 -666576585 990936360
            -749810182 1032978464 -1450135105 522534583</internalNodes>
          <leafValues>
            -3.2788461446762085e-01 3.4047439694404602e-01</leafValues></_>
        <_>
          <internalNodes>
            0 -1 83 -1395676050 -2102727734 -1342639258 -16872518
            545514869 -1507569215 -1880382220 -453844562</internalNodes>
          <leafValues>
            -4.3863248825073242e-01 2.2656057775020599e-01</leafValues></_>
        <_>
          <internalNodes>
            0 -1 66 -87819774 -9274303 -242661925 1967026961 -1286799441
            -104422675 -1668310999 -25762558</internalNodes>
          <leafValues>
            -3.6134946346282959e-01 2.7060475945472717e-01</leafValues></_>
        <_>
          <internalNodes>
            0 -1 28 -2112115227 -1373743175 -1113725648 -270809708
            1155444701 300809101 -479357006 163576061</internalNodes>
          <leafValues>
            -3.8619112968444824e-01 2.6353019475936890e-01</leafValues></_>
        <_>
          <internalNodes>
            0 -1 96 -1431591158 413194 -149881166 -572204897 1667213119
            678011309 -23669086 -905972578</internalNodes>
          <leafValues>
            -3.5278624296188354e-01 2.8568860888481140e-01</leafValues></_>
        <_>
          <internalNodes>
            0 -1 33 -52821795 1567249393 -477834755 1000536914
            -309853932 -129441520 -1663370520 526957678</internalNodes>
          <leafValues>
            -4.2267593741416931e-01 2.3525556921958923e-01</leafValues></_>
        <_>
          <internalNodes>
            0 -1 69 -672152422 1465156232 -1822848712 1632275488
            1410779883 139461889 27198618 1157595138</internalNodes>
          <leafValues>
            -3.3706411719322205e-01 2.8650784492492676e-01</leafValues></_>
        <_>
          <internalNodes>
            0 -1 74 -1264336894 -785313769 857220087 1361310491
            -660354337 -1097907538 2072594731 1647303386</internalNodes>
          <leafValues>
            -3.7137660384178162e-01 2.4693195521831512e-01</leafValues></_>
        <_>
          <internalNodes>
            0 -1 93 -217976734 -966203928 -84120272 -675876250 89617627
            13136892 1420752126 -451946838</internalNodes>
          <leafValues>
            -2.8915452957153320e-01 3.2160073518753052e-01</leafValues></_></weakClassifiers></_>
    <!-- stage 9 -->
    <_>
      <maxWeakCount>17</maxWeakCount>
      <stageThreshold>-1.0327974557876587e+00</stageThreshold>
      <weakClassifiers>
        <_>
          <internalNodes>
            0 -1 4 -487587849 -1677738185 -134231377 -33572289
            1090502639 813692667 1081934001 1934619943</internalNodes>
          <leafValues>
            -1.0721793770790100e-01 6.2567460536956787e-01</leafValues></_>
        <_>
          <internalNodes>
            0 -1 22 -20976897 -228594097 -319817091 -219947169
            -693112833 -2141462947 2113916653 -2109491</internalNodes>
          <leafValues>
            -2.9221084713935852e-01 4.0378594398498535e-01</leafValues></_>
        <_>
          <internalNodes>
            0 -1 80 1346895896 1364983896 1573991423 1966821415
            -674308357 -1685415711 -105157697 -82058273</internalNodes>
          <leafValues>
            -3.8433602452278137e-01 3.1102073192596436e-01</leafValues></_>
        <_>
          <internalNodes>
            0 -1 38 -82586795 -107623543 -711738447 -34743783 -79627081
            -35667015 -68182833 78300405</internalNodes>
          <leafValues>
            -3.2668629288673401e-01 3.5134267807006836e-01</leafValues></_>
        <_>
          <internalNodes>
            0 -1 55 -1746978859 1476228081 -581078529 1059611601
            -1010145735 -1146354352 -398010194 1064479162</internalNodes>
          <leafValues>
            -3.6902353167533875e-01 2.9974588751792908e-01</leafValues></_>
        <_>
          <internalNodes>
            0 -1 99 -3421462 -1105849754 -857618941 -2112458050
            -1431648629 -2002112537 -1945961601 -386927365</internalNodes>
          <leafValues>
            -3.1814798712730408e-01 3.5416170954704285e-01</leafValues></_>
        <_>
          <internalNodes>
            0 -1 78 -1759775780 -1284959433 -1860083436 -1218456627
            -787887364 -352050368 -1362371684 -1345345160</internalNodes>
          <leafValues>
            -3.3059820532798767e-01 3.0382427573204041e-01</leafValues></_>
        <_>
          <internalNodes>
            0 -1 35 -709668789 1916085247 -1798046753 418697371
            -286607340 -161034205 -1329725745 2128081838</internalNodes>
          <leafValues>
            -3.8968381285667419e-01 2.6010879874229431e-01</leafValues></_>
        <_>
          <internalNodes>
            0 -1 76 -361241810 75944294 -283446382 -405540493 -535717897
            17039473 -1061960730 -1040190721</internalNodes>
          <leafValues>
            -3.6767986416816711e-01 2.5630453228950500e-01</leafValues></_>
        <_>
          <internalNodes>
            0 -1 44 -797386659 -248048981 287610141 50956975 -1454995395
            -185227317 1078206757 -1612716323</internalNodes>
          <leafValues>
            -2.5633585453033447e-01 3.8910868763923645e-01</leafValues></_>
        <_>
          <internalNodes>
            0 -1 10 -668785319 -2503757 -1768730155 -112199536 574883432
            908394560 -1815630857 -471484972</internalNodes>
          <leafValues>
            -3.1793090701103210e-01 2.9906195402145386e-01</leafValues></_>
        <_>
          <internalNodes>
            0 -1 31 -1307396378 -645864448 -837757033 -749677553
            -1306463489 2130761992 -1040137826 1573383963</internalNodes>
          <leafValues>
            -5.1719379425048828e-01 1.9366560876369476e-01</leafValues></_>
        <_>
          <internalNodes>
            0 -1 97 -542122822 -11614145 279088312 -12822454 -926312773
            -1734331140 -867246229 -643057089</internalNodes>
          <leafValues>
            -2.2806204855442047e-01 4.3606474995613098e-01</leafValues></_>
        <_>
          <internalNodes>
            0 -1 24 -274269782 -1505962294 -2024812472 392023706
            2065672059 755755644 -136321052 631940828</internalNodes>
          <leafValues>
            -3.7969303131103516e-01 2.5273904204368591e-01</leafValues></_>
        <_>
          <internalNodes>
            0 -1 85 1887145479 1941508723 608951930 -553033708
            -131364164 -225426737 -301404312 1780630274</internalNodes>
          <leafValues>
            -3.3267924189567566e-01 2.6742598414421082e-01</leafValues></_>
        <_>
          <internalNodes>
            0 -1 59 -782714472 1891913878 -351141127 696300627
            -257395464 -1399803216 738715839 172549807</internalNodes>
          <leafValues>
            -4.0245741605758667e-01 2.1923083066940308e-01</leafValues></_>
        <_>
          <internalNodes>
            0 -1 82 -823423212 -1134543613 1746930993 -37968330
            -58766152 -1967161456 -998481992 -303835165</internalNodes>
          <leafValues>
            -2.8225749731063843e-01 3.3399990200996399e-01</leafValues></_></weakClassifiers></_></stages>
  <features>
    <_>
      <rect>
        0 0 2 6</rect></_>
    <_>
      <rect>
        0 0 3 3</rect></_>
    <_>
      <rect>
        0 0 4 2</rect></_>
    <_>
      <rect>
        0 0 5 2</rect></_>
    <_>
      <rect>
        0 1 2 4</rect></_>
    <_>
      <rect>
        0 1 2 6</rect></_>
    <_>
      <rect>
        0 1 5 4</rect></_>
    <_>
      <rect>
        0 1 5 5</rect></_>
    <_>
      <rect>
        0 5 1 3</rect></_>
    <_>
      <rect>
        0 6 1 2</rect></_>
    <_>
      <rect>
        0 6 1 3</rect></_>
    <_>
      <rect>
        0 7 2 3</rect></_>
    <_>
      <rect>
        0 8 1 2</rect></_>
    <_>
      <rect>
        0 8 1 4</rect></_>
    <_>
      <rect>
        0 11 2 2</rect></_>
    <_>
      <rect>
        0 17 5 1</rect></_>
    <_>
      <rect>
        1 0 3 2</rect></_>
    <_>
      <rect>
        1 1 5 5</rect></_>
    <_>
      <rect>
        1 2 2 6</rect></_>
    <_>
      <rect>
        1 2 4 5</rect></_>
    <_>
      <rect>
        1 2 5 4</rect></_>
    <_>
      <rect>
        1 4 3 4</rect></_>
    <_>
      <rect>
        1 5 3 4</rect></_>
    <_>
      <rect>
        1 6 5 4</rect></_>
    <_>
      <rect>
        1 8 1 1</rect></_>
    <_>
      <rect>
        1 8 2 4</rect></_>
    <_>
      <rect>
        1 13 2 2</rect></_>
    <_>
      <rect>
        2 3 6 2</rect></_>
    <_>
      <rect>
        2 4 1 1</rect></_>
    <_>
      <rect>
        2 5 3 3</rect></_>
    <_>
      <rect>
        2 7 3 4</rect></_>
    <_>
      <rect>
        2 7 4 4</rect></_>
    <_>
      <rect>
        2 10 4 3</rect></_>
    <_>
      <rect>
        2 12 1 2</rect></_>
    <_>
      <rect>
        2 12 3 2</rect></_>
    <_>
      <rect>
        2 14 1 1</rect></_>
    <_>
      <rect>
        2 15 2 1</rect></_>
    <_>
      <rect>
        2 15 3 1</rect></_>
    <_>
      <rect>
        3 0 2 2</rect></_>
    <_>
      <rect>
        3 2 4 2</rect></_>
    <_>
      <rect>
        3 13 1 2</rect></_>
    <_>
      <rect>
        3 14 1 1</rect></_>
    <_>
      <rect>
        3 17 2 1</rect></_>
    <_>
      <rect>
        4 2 4 4</rect></_>
    <_>
      <rect>
        4 5 3 2</rect></_>
    <_>
      <rect>
        4 7 3 3</rect></_>
    <_>
      <rect>
        4 11 1 3</rect></_>
    <_>
      <rect>
        4 15 1 1</rect></_>
    <_>
      <rect>
        4 15 2 1</rect></_>
    <_>
      <rect>
        5 5 4 3</rect></_>
    <_>
      <rect>
        5 7 3 3</rect></_>
    <_>
      <rect>
        5 8 3 3</rect></_>
    <_>
      <rect>
        5 13 1 2</rect></_>
    <_>
      <rect>
        5 14 1 2</rect></_>
    <_>
      <rect>
        5 14 5 2</rect></_>
    <_>
      <rect>
        5 16 1 1</rect></_>
    <_>
      <rect>
        6 0 2 2</rect></_>
    <_>
      <rect>
        6 2 4 3</rect></_>
    <_>
      <rect>
        6 8 2 3</rect></_>
    <_>
      <rect>
        6 11 3 3</rect></_>
    <_>
      <rect>
        6 14 2 2</rect></_>
    <_>
      <rect>
        6 17 2 1</rect></_>
    <_>
      <rect>
        7 5 1 2</rect></_>
    <_>
      <rect>
        7 8 2 3</rect></_>
    <_>
      <rect>
        7 15 1 1</rect></_>
    <_>
      <rect>
        7 17 1 1</rect></_>
    <_>
      <rect>
        8 2 4 4</rect></_>
    <_>
      <rect>
        8 3 4 3</rect></_>
    <_>
      <rect>
        8 3 4 4</rect></_>
    <_>
      <rect>
        8 5 1 2</rect></_>
    <_>
      <rect>
        8 5 3 4</rect></_>
    <_>
      <rect>
        8 6 1 1</rect></_>
    <_>
      <rect>
        8 6 1 2</rect></_>
    <_>
      <rect>
        8 6 2 3</rect></_>
    <_>
      <rect>
        8 7 2 3</rect></_>
    <_>
      <rect>
        8 7 3 3</rect></_>
    <_>
      <rect>
        8 13 2 1</rect></_>
    <_>
      <rect>
        8 14 1 2</rect></_>
    <_>
      <rect>
        8 14 4 2</rect></_>
    <_>
      <rect>
        8 16 1 1</rect></_>
    <_>
      <rect>
        9 3 2 2</rect></_>
    <_>
      <rect>
        9 5 1 1</rect></_>
    <_>
      <rect>
        9 9 1 1</rect></_>
    <_>
      <rect>
        9 14 1 1</rect></_>
    <_>
      <rect>
        9 17 1 1</rect></_>
    <_>
      <rect>
        10 2 3 2</rect></_>
    <_>
      <rect>
        10 2 3 4</rect></_>
    <_>
      <rect>
        10 5 1 1</rect></_>
    <_>
      <rect>
        10 6 2 2</rect></_>
    <_>
      <rect>
        10 8 2 3</rect></_>
    <_>
      <rect>
        10 14 1 1</rect></_>
    <_>
      <rect>
        11 1 3 4</rect></_>
    <_>
      <rect>
        11 2 3 6</rect></_>
    <_>
      <rect>
        11 6 1 1</rect></_>
    <_>
      <rect>
        11 11 2 2</rect></_>
    <_>
      <rect>
        11 12 2 2</rect></_>
    <_>
      <rect>
        11 14 1 1</rect></_>
    <_>
      <rect>
        12 6 1 2</rect></_>
    <_>
      <rect>
        12 7 2 2</rect></_>
    <_>
      <rect>
        13 7 1 2</rect></_>
    <_>
      <rect>
        13 10 1 1</rect></_>
    <_>
      <rect>
        13 11 1 1</rect></_>
    <_>
      <rect>
        14 10 1 1</rect></_></features></cascade>
</opencv_storage>
