<?xml version="1.0"?>
<opencv_storage>
<cascade>
  <stageType>BOOST</stageType>
  <featureType>HAAR</featureType>
  <height>60</height>
  <width>80</width>
  <stageParams>
    <boostType>GAB</boostType>
    <minHitRate>9.9900001287460327e-01</minHitRate>
    <maxFalseAlarm>5.0000000000000000e-01</maxFalseAlarm>
    <weightTrimRate>9.4999999999999996e-01</weightTrimRate>
    <maxDepth>1</maxDepth>
    <maxWeakCount>100</maxWeakCount></stageParams>
  <featureParams>
    <maxCatCount>0</maxCatCount>
    <featSize>1</featSize>
    <mode>ALL</mode></featureParams>
  <stageNum>11</stageNum>
  <stages>
    <!-- stage 0 -->
    <_>
      <maxWeakCount>4</maxWeakCount>
      <stageThreshold>-1.4046895503997803e+00</stageThreshold>
      <weakClassifiers>
        <_>
          <internalNodes>
            0 -1 22 2.3359593003988266e-02</internalNodes>
          <leafValues>
            -8.0836236476898193e-01 8.4210526943206787e-01</leafValues></_>
        <_>
          <internalNodes>
            0 -1 17 4.0218988433480263e-03</internalNodes>
          <leafValues>
            -7.1158301830291748e-01 7.1705442667007446e-01</leafValues></_>
        <_>
          <internalNodes>
            0 -1 34 1.6682513058185577e-02</internalNodes>
          <leafValues>
            -5.6039208173751831e-01 8.7413424253463745e-01</leafValues></_>
        <_>
          <internalNodes>
            0 -1 20 5.5444091558456421e-03</internalNodes>
          <leafValues>
            -8.2288873195648193e-01 6.7564785480499268e-01</leafValues></_></weakClassifiers></_>
    <!-- stage 1 -->
    <_>
      <maxWeakCount>5</maxWeakCount>
      <stageThreshold>-1.2219535112380981e+00</stageThreshold>
      <weakClassifiers>
        <_>
          <internalNodes>
            0 -1 49 -8.6401670705527067e-04</internalNodes>
          <leafValues>
            6.8275862932205200e-01 -8.9090907573699951e-01</leafValues></_>
        <_>
          <internalNodes>
            0 -1 39 1.2593183666467667e-02</internalNodes>
          <leafValues>
            -5.3558719158172607e-01 8.8012748956680298e-01</leafValues></_>
        <_>
          <internalNodes>
            0 -1 23 2.6753647252917290e-03</internalNodes>
          <leafValues>
            -8.4169250726699829e-01 5.7341146469116211e-01</leafValues></_>
        <_>
          <internalNodes>
            0 -1 29 -2.1454952657222748e-03</internalNodes>
          <leafValues>
            6.1755079030990601e-01 -5.8346664905548096e-01</leafValues></_>
        <_>
          <internalNodes>
            0 -1 13 1.0246115922927856e-01</internalNodes>
          <leafValues>
            -8.3813804388046265e-01 4.2868447303771973e-01</leafValues></_></weakClassifiers></_>
    <!-- stage 2 -->
    <_>
      <maxWeakCount>7</maxWeakCount>
      <stageThreshold>-1.0050997734069824e+00</stageThreshold>
      <weakClassifiers>
        <_>
          <internalNodes>
            0 -1 43 -4.6445941552519798e-03</internalNodes>
          <leafValues>
            7.3770493268966675e-01 -8.1673306226730347e-01</leafValues></_>
        <_>
          <internalNodes>
            0 -1 37 1.2035814113914967e-02</internalNodes>
          <leafValues>
            -4.4584810733795166e-01 9.2007642984390259e-01</leafValues></_>
        <_>
          <internalNodes>
            0 -1 61 6.2706967582926154e-05</internalNodes>
          <leafValues>
            -7.4962085485458374e-01 5.3541100025177002e-01</leafValues></_>
        <_>
          <internalNodes>
            0 -1 28 1.7184337601065636e-02</internalNodes>
          <leafValues>
            -6.0371452569961548e-01 5.7548105716705322e-01</leafValues></_>
        <_>
          <internalNodes>
            0 -1 4 -1.7472483217716217e-02</internalNodes>
          <leafValues>
            7.9885876178741455e-01 -4.1875833272933960e-01</leafValues></_>
        <_>
          <internalNodes>
            0 -1 15 2.5580648332834244e-02</internalNodes>
          <leafValues>
            -7.1823775768280029e-01 4.6117782592773438e-01</leafValues></_>
        <_>
          <internalNodes>
            0 -1 16 -5.1359502322156914e-06</internalNodes>
          <leafValues>
            3.8920170068740845e-01 -8.0957061052322388e-01</leafValues></_></weakClassifiers></_>
    <!-- stage 3 -->
    <_>
      <maxWeakCount>6</maxWeakCount>
      <stageThreshold>-1.3018990755081177e+00</stageThreshold>
      <weakClassifiers>
        <_>
          <internalNodes>
            0 -1 38 1.3504264876246452e-02</internalNodes>
          <leafValues>
            -4.6739131212234497e-01 8.6111110448837280e-01</leafValues></_>
        <_>
          <internalNodes>
            0 -1 48 -2.0011098240502179e-04</internalNodes>
          <leafValues>
            5.6689500808715820e-01 -8.4666287899017334e-01</leafValues></_>
        <_>
          <internalNodes>
            0 -1 19 2.8990171849727631e-03</internalNodes>
          <leafValues>
            -6.8602514266967773e-01 4.8662519454956055e-01</leafValues></_>
        <_>
          <internalNodes>
            0 -1 32 -1.3055274030193686e-04</internalNodes>
          <leafValues>
            7.9796361923217773e-01 -4.6691820025444031e-01</leafValues></_>
        <_>
          <internalNodes>
            0 -1 58 9.0769596863538027e-04</internalNodes>
          <leafValues>
            -8.0755496025085449e-01 3.8309925794601440e-01</leafValues></_>
        <_>
          <internalNodes>
            0 -1 45 7.9601546749472618e-03</internalNodes>
          <leafValues>
            -4.2509853839874268e-01 8.0000311136245728e-01</leafValues></_></weakClassifiers></_>
    <!-- stage 4 -->
    <_>
      <maxWeakCount>8</maxWeakCount>
      <stageThreshold>-1.3883591890335083e+00</stageThreshold>
      <weakClassifiers>
        <_>
          <internalNodes>
            0 -1 27 3.7818995770066977e-03</internalNodes>
          <leafValues>
            -5.8909088373184204e-01 6.8952381610870361e-01</leafValues></_>
        <_>
          <internalNodes>
            0 -1 42 2.6524752378463745e-02</internalNodes>
          <leafValues>
            -3.2360354065895081e-01 9.2046630382537842e-01</leafValues></_>
        <_>
          <internalNodes>
            0 -1 18 -3.5573242348618805e-04</internalNodes>
          <leafValues>
            5.5093860626220703e-01 -6.7274266481399536e-01</leafValues></_>
        <_>
          <internalNodes>
            0 -1 9 1.4884404838085175e-02</internalNodes>
          <leafValues>
            -7.5838327407836914e-01 3.9630636572837830e-01</leafValues></_>
        <_>
          <internalNodes>
            0 -1 14 5.6113103710231371e-06</internalNodes>
          <leafValues>
            -7.3797696828842163e-01 3.6754921078681946e-01</leafValues></_>
        <_>
          <internalNodes>
            0 -1 44 -1.8426039023324847e-03</internalNodes>
          <leafValues>
            6.0246205329895020e-01 -4.8471605777740479e-01</leafValues></_>
        <_>
          <internalNodes>
            0 -1 31 -2.0113319158554077e-02</internalNodes>
          <leafValues>
            6.6837477684020996e-01 -4.4406351447105408e-01</leafValues></_>
        <_>
          <internalNodes>
            0 -1 59 3.6450634070206434e-05</internalNodes>
          <leafValues>
            -8.9054179191589355e-01 2.9301029443740845e-01</leafValues></_></weakClassifiers></_>
    <!-- stage 5 -->
    <_>
      <maxWeakCount>5</maxWeakCount>
      <stageThreshold>-7.6885932683944702e-01</stageThreshold>
      <weakClassifiers>
        <_>
          <internalNodes>
            0 -1 40 1.9056526944041252e-02</internalNodes>
          <leafValues>
            -4.0915033221244812e-01 8.5389220714569092e-01</leafValues></_>
        <_>
          <internalNodes>
            0 -1 53 -1.3858056627213955e-04</internalNodes>
          <leafValues>
            -7.9590523242950439e-01 4.9601829051971436e-01</leafValues></_>
        <_>
          <internalNodes>
            0 -1 26 -2.2776987403631210e-02</internalNodes>
          <leafValues>
            6.4459508657455444e-01 -4.9103361368179321e-01</leafValues></_>
        <_>
          <internalNodes>
            0 -1 10 6.2421158872894011e-06</internalNodes>
          <leafValues>
            -7.1499788761138916e-01 3.7359872460365295e-01</leafValues></_>
        <_>
          <internalNodes>
            0 -1 25 -6.3174506649374962e-03</internalNodes>
          <leafValues>
            5.5363118648529053e-01 -5.1173841953277588e-01</leafValues></_></weakClassifiers></_>
    <!-- stage 6 -->
    <_>
      <maxWeakCount>9</maxWeakCount>
      <stageThreshold>-1.3736768960952759e+00</stageThreshold>
      <weakClassifiers>
        <_>
          <internalNodes>
            0 -1 8 8.1837289035320282e-03</internalNodes>
          <leafValues>
            -7.4111676216125488e-01 5.7379770278930664e-01</leafValues></_>
        <_>
          <internalNodes>
            0 -1 36 1.0902766138315201e-02</internalNodes>
          <leafValues>
            -4.6000826358795166e-01 7.1712064743041992e-01</leafValues></_>
        <_>
          <internalNodes>
            0 -1 12 -1.2223873454786371e-05</internalNodes>
          <leafValues>
            4.3712672591209412e-01 -6.3774168491363525e-01</leafValues></_>
        <_>
          <internalNodes>
            0 -1 50 -4.3044646736234426e-04</internalNodes>
          <leafValues>
            -7.9862391948699951e-01 3.7565559148788452e-01</leafValues></_>
        <_>
          <internalNodes>
            0 -1 1 1.8606338649988174e-02</internalNodes>
          <leafValues>
            -4.9555823206901550e-01 6.1089617013931274e-01</leafValues></_>
        <_>
          <internalNodes>
            0 -1 7 -4.2936276644468307e-02</internalNodes>
          <leafValues>
            7.2838968038558960e-01 -4.8398333787918091e-01</leafValues></_>
        <_>
          <internalNodes>
            0 -1 52 -2.7608644813881256e-05</internalNodes>
          <leafValues>
            -8.1241029500961304e-01 4.6420496702194214e-01</leafValues></_>
        <_>
          <internalNodes>
            0 -1 5 -2.7377933292882517e-05</internalNodes>
          <leafValues>
            3.5432523488998413e-01 -7.6931095123291016e-01</leafValues></_>
        <_>
          <internalNodes>
            0 -1 55 -1.1992151485173963e-05</internalNodes>
          <leafValues>
            4.5229241251945496e-01 -6.2435656785964966e-01</leafValues></_></weakClassifiers></_>
    <!-- stage 7 -->
    <_>
      <maxWeakCount>5</maxWeakCount>
      <stageThreshold>-1.1138081550598145e+00</stageThreshold>
      <weakClassifiers>
        <_>
          <internalNodes>
            0 -1 54 6.4583828134345822e-06</internalNodes>
          <leafValues>
            -9.0322577953338623e-01 6.7924529314041138e-01</leafValues></_>
        <_>
          <internalNodes>
            0 -1 33 4.6082545071840286e-02</internalNodes>
          <leafValues>
            -4.2464342713356018e-01 8.5377502441406250e-01</leafValues></_>
        <_>
          <internalNodes>
            0 -1 30 9.0521696256473660e-04</internalNodes>
          <leafValues>
            -4.9673518538475037e-01 6.1595821380615234e-01</leafValues></_>
        <_>
          <internalNodes>
            0 -1 2 2.1132772788405418e-02</internalNodes>
          <leafValues>
            -8.4816932678222656e-01 3.7025311589241028e-01</leafValues></_>
        <_>
          <internalNodes>
            0 -1 3 2.3673819669056684e-05</internalNodes>
          <leafValues>
            -7.7215027809143066e-01 3.9714384078979492e-01</leafValues></_></weakClassifiers></_>
    <!-- stage 8 -->
    <_>
      <maxWeakCount>5</maxWeakCount>
      <stageThreshold>-7.5760436058044434e-01</stageThreshold>
      <weakClassifiers>
        <_>
          <internalNodes>
            0 -1 47 4.3261816608719528e-04</internalNodes>
          <leafValues>
            7.0286709070205688e-01 -9.1091316938400269e-01</leafValues></_>
        <_>
          <internalNodes>
            0 -1 11 -2.1577265579253435e-04</internalNodes>
          <leafValues>
            6.2909352779388428e-01 -6.0708045959472656e-01</leafValues></_>
        <_>
          <internalNodes>
            0 -1 41 1.7858427017927170e-02</internalNodes>
          <leafValues>
            -4.1342195868492126e-01 8.9944005012512207e-01</leafValues></_>
        <_>
          <internalNodes>
            0 -1 21 3.7347320467233658e-03</internalNodes>
          <leafValues>
            -7.0747447013854980e-01 5.3469651937484741e-01</leafValues></_>
        <_>
          <internalNodes>
            0 -1 60 -1.4221343735698611e-04</internalNodes>
          <leafValues>
            6.4511168003082275e-01 -5.5678272247314453e-01</leafValues></_></weakClassifiers></_>
    <!-- stage 9 -->
    <_>
      <maxWeakCount>3</maxWeakCount>
      <stageThreshold>-7.5173211097717285e-01</stageThreshold>
      <weakClassifiers>
        <_>
          <internalNodes>
            0 -1 57 -1.7439064686186612e-04</internalNodes>
          <leafValues>
            -8.9316236972808838e-01 7.2261482477188110e-01</leafValues></_>
        <_>
          <internalNodes>
            0 -1 6 -6.3017971115186810e-05</internalNodes>
          <leafValues>
            5.9891271591186523e-01 -6.9991248846054077e-01</leafValues></_>
        <_>
          <internalNodes>
            0 -1 46 -2.5296269450336695e-03</internalNodes>
          <leafValues>
            8.9294272661209106e-01 -4.5748245716094971e-01</leafValues></_></weakClassifiers></_>
    <!-- stage 10 -->
    <_>
      <maxWeakCount>5</maxWeakCount>
      <stageThreshold>-8.5874795913696289e-01</stageThreshold>
      <weakClassifiers>
        <_>
          <internalNodes>
            0 -1 24 2.9405853711068630e-03</internalNodes>
          <leafValues>
            7.7403372526168823e-01 -6.4467006921768188e-01</leafValues></_>
        <_>
          <internalNodes>
            0 -1 56 -4.8860631068237126e-05</internalNodes>
          <leafValues>
            -6.3388431072235107e-01 5.4479312896728516e-01</leafValues></_>
        <_>
          <internalNodes>
            0 -1 0 -5.0348192453384399e-03</internalNodes>
          <leafValues>
            -7.6128780841827393e-01 4.2521342635154724e-01</leafValues></_>
        <_>
          <internalNodes>
            0 -1 51 -3.0547074857167900e-05</internalNodes>
          <leafValues>
            4.4792035222053528e-01 -7.4207776784896851e-01</leafValues></_>
        <_>
          <internalNodes>
            0 -1 35 -3.5431254655122757e-03</internalNodes>
          <leafValues>
            8.3130007982254028e-01 -4.4200664758682251e-01</leafValues></_></weakClassifiers></_></stages>
  <features>
    <_>
      <rects>
        <_>
          2 27 58 12 -1.</_>
        <_>
          2 33 58 6 2.</_></rects>
      <tilted>0</tilted></_>
    <_>
      <rects>
        <_>
          3 0 54 18 -1.</_>
        <_>
          3 0 27 9 2.</_>
        <_>
          30 9 27 9 2.</_></rects>
      <tilted>0</tilted></_>
    <_>
      <rects>
        <_>
          3 18 76 8 -1.</_>
        <_>
          41 18 38 8 2.</_></rects>
      <tilted>0</tilted></_>
    <_>
      <rects>
        <_>
          6 27 4 2 -1.</_>
        <_>
          6 27 4 1 2.</_></rects>
      <tilted>1</tilted></_>
    <_>
      <rects>
        <_>
          6 35 30 24 -1.</_>
        <_>
          6 35 15 12 2.</_>
        <_>
          21 47 15 12 2.</_></rects>
      <tilted>0</tilted></_>
    <_>
      <rects>
        <_>
          8 30 4 8 -1.</_>
        <_>
          8 34 4 4 2.</_></rects>
      <tilted>0</tilted></_>
    <_>
      <rects>
        <_>
          8 31 1 14 -1.</_>
        <_>
          8 38 1 7 2.</_></rects>
      <tilted>0</tilted></_>
    <_>
      <rects>
        <_>
          8 42 68 18 -1.</_>
        <_>
          8 42 34 9 2.</_>
        <_>
          42 51 34 9 2.</_></rects>
      <tilted>0</tilted></_>
    <_>
      <rects>
        <_>
          9 18 52 3 -1.</_>
        <_>
          35 18 26 3 2.</_></rects>
      <tilted>0</tilted></_>
    <_>
      <rects>
        <_>
          9 22 24 20 -1.</_>
        <_>
          21 22 12 20 2.</_></rects>
      <tilted>0</tilted></_>
    <_>
      <rects>
        <_>
          9 30 4 1 -1.</_>
        <_>
          11 30 2 1 2.</_></rects>
      <tilted>0</tilted></_>
    <_>
      <rects>
        <_>
          9 38 6 10 -1.</_>
        <_>
          9 43 6 5 2.</_></rects>
      <tilted>0</tilted></_>
    <_>
      <rects>
        <_>
          10 41 2 6 -1.</_>
        <_>
          10 44 2 3 2.</_></rects>
      <tilted>0</tilted></_>
    <_>
      <rects>
        <_>
          11 11 48 40 -1.</_>
        <_>
          35 11 24 40 2.</_></rects>
      <tilted>0</tilted></_>
    <_>
      <rects>
        <_>
          11 31 1 2 -1.</_>
        <_>
          11 31 1 1 2.</_></rects>
      <tilted>1</tilted></_>
    <_>
      <rects>
        <_>
          12 18 58 10 -1.</_>
        <_>
          41 18 29 10 2.</_></rects>
      <tilted>0</tilted></_>
    <_>
      <rects>
        <_>
          12 27 1 8 -1.</_>
        <_>
          12 31 1 4 2.</_></rects>
      <tilted>0</tilted></_>
    <_>
      <rects>
        <_>
          12 32 36 12 -1.</_>
        <_>
          12 32 18 6 2.</_>
        <_>
          30 38 18 6 2.</_></rects>
      <tilted>0</tilted></_>
    <_>
      <rects>
        <_>
          13 32 7 12 -1.</_>
        <_>
          13 38 7 6 2.</_></rects>
      <tilted>0</tilted></_>
    <_>
      <rects>
        <_>
          13 33 34 10 -1.</_>
        <_>
          13 33 17 5 2.</_>
        <_>
          30 38 17 5 2.</_></rects>
      <tilted>0</tilted></_>
    <_>
      <rects>
        <_>
          14 21 16 18 -1.</_>
        <_>
          22 21 8 18 2.</_></rects>
      <tilted>0</tilted></_>
    <_>
      <rects>
        <_>
          19 44 56 2 -1.</_>
        <_>
          33 44 28 2 2.</_></rects>
      <tilted>0</tilted></_>
    <_>
      <rects>
        <_>
          20 14 60 13 -1.</_>
        <_>
          35 14 30 13 2.</_></rects>
      <tilted>0</tilted></_>
    <_>
      <rects>
        <_>
          20 29 10 10 -1.</_>
        <_>
          20 29 10 5 2.</_></rects>
      <tilted>1</tilted></_>
    <_>
      <rects>
        <_>
          20 29 45 9 -1.</_>
        <_>
          35 32 15 3 9.</_></rects>
      <tilted>0</tilted></_>
    <_>
      <rects>
        <_>
          22 34 9 16 -1.</_>
        <_>
          18 38 9 8 2.</_></rects>
      <tilted>1</tilted></_>
    <_>
      <rects>
        <_>
          22 44 42 16 -1.</_>
        <_>
          22 52 42 8 2.</_></rects>
      <tilted>0</tilted></_>
    <_>
      <rects>
        <_>
          31 31 20 12 -1.</_>
        <_>
          31 37 20 6 2.</_></rects>
      <tilted>0</tilted></_>
    <_>
      <rects>
        <_>
          33 27 27 33 -1.</_>
        <_>
          33 38 27 11 3.</_></rects>
      <tilted>0</tilted></_>
    <_>
      <rects>
        <_>
          34 33 40 8 -1.</_>
        <_>
          34 33 20 4 2.</_>
        <_>
          54 37 20 4 2.</_></rects>
      <tilted>0</tilted></_>
    <_>
      <rects>
        <_>
          36 30 2 16 -1.</_>
        <_>
          32 34 2 8 2.</_></rects>
      <tilted>1</tilted></_>
    <_>
      <rects>
        <_>
          38 24 22 34 -1.</_>
        <_>
          38 24 11 17 2.</_>
        <_>
          49 41 11 17 2.</_></rects>
      <tilted>0</tilted></_>
    <_>
      <rects>
        <_>
          40 28 8 2 -1.</_>
        <_>
          44 28 4 2 2.</_></rects>
      <tilted>0</tilted></_>
    <_>
      <rects>
        <_>
          42 21 27 17 -1.</_>
        <_>
          51 21 9 17 3.</_></rects>
      <tilted>0</tilted></_>
    <_>
      <rects>
        <_>
          42 26 36 11 -1.</_>
        <_>
          51 26 18 11 2.</_></rects>
      <tilted>0</tilted></_>
    <_>
      <rects>
        <_>
          43 29 18 7 -1.</_>
        <_>
          49 29 6 7 3.</_></rects>
      <tilted>0</tilted></_>
    <_>
      <rects>
        <_>
          43 30 24 8 -1.</_>
        <_>
          49 30 12 8 2.</_></rects>
      <tilted>0</tilted></_>
    <_>
      <rects>
        <_>
          44 8 16 28 -1.</_>
        <_>
          44 8 8 14 2.</_>
        <_>
          52 22 8 14 2.</_></rects>
      <tilted>0</tilted></_>
    <_>
      <rects>
        <_>
          44 22 24 15 -1.</_>
        <_>
          50 22 12 15 2.</_></rects>
      <tilted>0</tilted></_>
    <_>
      <rects>
        <_>
          44 22 14 14 -1.</_>
        <_>
          51 22 7 14 2.</_></rects>
      <tilted>0</tilted></_>
    <_>
      <rects>
        <_>
          44 23 24 16 -1.</_>
        <_>
          50 23 12 16 2.</_></rects>
      <tilted>0</tilted></_>
    <_>
      <rects>
        <_>
          44 24 24 7 -1.</_>
        <_>
          52 24 8 7 3.</_></rects>
      <tilted>0</tilted></_>
    <_>
      <rects>
        <_>
          45 19 20 20 -1.</_>
        <_>
          50 19 10 20 2.</_></rects>
      <tilted>0</tilted></_>
    <_>
      <rects>
        <_>
          51 17 26 9 -1.</_>
        <_>
          64 17 13 9 2.</_></rects>
      <tilted>0</tilted></_>
    <_>
      <rects>
        <_>
          51 20 6 9 -1.</_>
        <_>
          48 23 6 3 3.</_></rects>
      <tilted>1</tilted></_>
    <_>
      <rects>
        <_>
          53 6 7 16 -1.</_>
        <_>
          49 10 7 8 2.</_></rects>
      <tilted>1</tilted></_>
    <_>
      <rects>
        <_>
          53 19 18 12 -1.</_>
        <_>
          59 19 6 12 3.</_></rects>
      <tilted>0</tilted></_>
    <_>
      <rects>
        <_>
          63 16 9 2 -1.</_>
        <_>
          66 19 3 2 3.</_></rects>
      <tilted>1</tilted></_>
    <_>
      <rects>
        <_>
          64 18 8 5 -1.</_>
        <_>
          68 18 4 5 2.</_></rects>
      <tilted>0</tilted></_>
    <_>
      <rects>
        <_>
          64 23 10 12 -1.</_>
        <_>
          69 23 5 12 2.</_></rects>
      <tilted>0</tilted></_>
    <_>
      <rects>
        <_>
          65 18 6 4 -1.</_>
        <_>
          68 18 3 4 2.</_></rects>
      <tilted>0</tilted></_>
    <_>
      <rects>
        <_>
          66 11 2 4 -1.</_>
        <_>
          66 11 2 2 2.</_></rects>
      <tilted>1</tilted></_>
    <_>
      <rects>
        <_>
          66 15 6 3 -1.</_>
        <_>
          66 15 3 3 2.</_></rects>
      <tilted>1</tilted></_>
    <_>
      <rects>
        <_>
          66 19 12 1 -1.</_>
        <_>
          69 22 6 1 2.</_></rects>
      <tilted>1</tilted></_>
    <_>
      <rects>
        <_>
          66 22 6 1 -1.</_>
        <_>
          66 22 3 1 2.</_></rects>
      <tilted>1</tilted></_>
    <_>
      <rects>
        <_>
          66 43 1 4 -1.</_>
        <_>
          66 45 1 2 2.</_></rects>
      <tilted>0</tilted></_>
    <_>
      <rects>
        <_>
          67 29 3 2 -1.</_>
        <_>
          67 29 3 1 2.</_></rects>
      <tilted>1</tilted></_>
    <_>
      <rects>
        <_>
          69 19 4 3 -1.</_>
        <_>
          71 19 2 3 2.</_></rects>
      <tilted>0</tilted></_>
    <_>
      <rects>
        <_>
          70 26 10 4 -1.</_>
        <_>
          70 26 5 4 2.</_></rects>
      <tilted>1</tilted></_>
    <_>
      <rects>
        <_>
          70 27 4 2 -1.</_>
        <_>
          70 27 2 2 2.</_></rects>
      <tilted>1</tilted></_>
    <_>
      <rects>
        <_>
          72 4 8 16 -1.</_>
        <_>
          72 8 8 8 2.</_></rects>
      <tilted>0</tilted></_>
    <_>
      <rects>
        <_>
          72 17 6 4 -1.</_>
        <_>
          72 17 3 4 2.</_></rects>
      <tilted>1</tilted></_></features></cascade>
</opencv_storage>
