<?xml version="1.0"?>
<opencv_storage>
<cascade>
  <stageType>BOOST</stageType>
  <featureType>HAAR</featureType>
  <height>40</height>
  <width>40</width>
  <stageParams>
    <boostType>GAB</boostType>
    <minHitRate>9.9900001287460327e-01</minHitRate>
    <maxFalseAlarm>5.0000000000000000e-01</maxFalseAlarm>
    <weightTrimRate>9.4999999999999996e-01</weightTrimRate>
    <maxDepth>1</maxDepth>
    <maxWeakCount>100</maxWeakCount></stageParams>
  <featureParams>
    <maxCatCount>0</maxCatCount>
    <featSize>1</featSize>
    <mode>ALL</mode></featureParams>
  <stageNum>20</stageNum>
  <stages>
    <!-- stage 0 -->
    <_>
      <maxWeakCount>4</maxWeakCount>
      <stageThreshold>-1.7530171871185303e+00</stageThreshold>
      <weakClassifiers>
        <_>
          <internalNodes>
            0 -1 10 3.2016158103942871e-01</internalNodes>
          <leafValues>
            -9.1694355010986328e-01 9.5390778779983521e-01</leafValues></_>
        <_>
          <internalNodes>
            0 -1 67 5.4458945989608765e-02</internalNodes>
          <leafValues>
            -8.9267945289611816e-01 7.7907264232635498e-01</leafValues></_>
        <_>
          <internalNodes>
            0 -1 26 1.7461344599723816e-02</internalNodes>
          <leafValues>
            -4.6457713842391968e-01 9.0585899353027344e-01</leafValues></_>
        <_>
          <internalNodes>
            0 -1 55 1.9540058448910713e-02</internalNodes>
          <leafValues>
            -9.2128938436508179e-01 5.2118301391601562e-01</leafValues></_></weakClassifiers></_>
    <!-- stage 1 -->
    <_>
      <maxWeakCount>5</maxWeakCount>
      <stageThreshold>-1.0973830223083496e+00</stageThreshold>
      <weakClassifiers>
        <_>
          <internalNodes>
            0 -1 9 5.4153001308441162e-01</internalNodes>
          <leafValues>
            -8.1433224678039551e-01 9.1277891397476196e-01</leafValues></_>
        <_>
          <internalNodes>
            0 -1 2 4.0059849619865417e-02</internalNodes>
          <leafValues>
            -6.8671554327011108e-01 7.0355987548828125e-01</leafValues></_>
        <_>
          <internalNodes>
            0 -1 126 3.7985530798323452e-04</internalNodes>
          <leafValues>
            4.9520680308341980e-01 -6.6021740436553955e-01</leafValues></_>
        <_>
          <internalNodes>
            0 -1 65 -6.4431428909301758e-02</internalNodes>
          <leafValues>
            6.6414833068847656e-01 -4.9935555458068848e-01</leafValues></_>
        <_>
          <internalNodes>
            0 -1 61 -4.3283911509206519e-05</internalNodes>
          <leafValues>
            4.0781351923942566e-01 -8.5366708040237427e-01</leafValues></_></weakClassifiers></_>
    <!-- stage 2 -->
    <_>
      <maxWeakCount>5</maxWeakCount>
      <stageThreshold>-9.7553026676177979e-01</stageThreshold>
      <weakClassifiers>
        <_>
          <internalNodes>
            0 -1 20 7.1716177463531494e-01</internalNodes>
          <leafValues>
            -6.8701094388961792e-01 8.7304890155792236e-01</leafValues></_>
        <_>
          <internalNodes>
            0 -1 4 1.0144837945699692e-01</internalNodes>
          <leafValues>
            -6.6718918085098267e-01 6.6810375452041626e-01</leafValues></_>
        <_>
          <internalNodes>
            0 -1 70 8.1949215382337570e-03</internalNodes>
          <leafValues>
            -7.4628853797912598e-01 4.6972784399986267e-01</leafValues></_>
        <_>
          <internalNodes>
            0 -1 35 2.3705138266086578e-01</internalNodes>
          <leafValues>
            -4.2522001266479492e-01 6.5616393089294434e-01</leafValues></_>
        <_>
          <internalNodes>
            0 -1 101 -4.7689492930658162e-05</internalNodes>
          <leafValues>
            -5.6415748596191406e-01 4.6879446506500244e-01</leafValues></_></weakClassifiers></_>
    <!-- stage 3 -->
    <_>
      <maxWeakCount>9</maxWeakCount>
      <stageThreshold>-1.5797663927078247e+00</stageThreshold>
      <weakClassifiers>
        <_>
          <internalNodes>
            0 -1 17 7.0216292142868042e-01</internalNodes>
          <leafValues>
            -5.7344633340835571e-01 9.0358746051788330e-01</leafValues></_>
        <_>
          <internalNodes>
            0 -1 64 3.0296204611659050e-02</internalNodes>
          <leafValues>
            -4.3684396147727966e-01 7.7695953845977783e-01</leafValues></_>
        <_>
          <internalNodes>
            0 -1 69 2.7528777718544006e-04</internalNodes>
          <leafValues>
            -3.2505753636360168e-01 7.3157888650894165e-01</leafValues></_>
        <_>
          <internalNodes>
            0 -1 11 4.5153793692588806e-01</internalNodes>
          <leafValues>
            -2.9035785794258118e-01 8.4354287385940552e-01</leafValues></_>
        <_>
          <internalNodes>
            0 -1 127 -1.5247192641254514e-04</internalNodes>
          <leafValues>
            -7.2747731208801270e-01 3.6216363310813904e-01</leafValues></_>
        <_>
          <internalNodes>
            0 -1 56 -1.2253195047378540e-02</internalNodes>
          <leafValues>
            2.1983799338340759e-01 -9.8887729644775391e-01</leafValues></_>
        <_>
          <internalNodes>
            0 -1 80 -2.8414110420271754e-04</internalNodes>
          <leafValues>
            6.2971848249435425e-01 -4.1135507822036743e-01</leafValues></_>
        <_>
          <internalNodes>
            0 -1 46 3.6740891635417938e-02</internalNodes>
          <leafValues>
            -5.7861828804016113e-01 4.6316385269165039e-01</leafValues></_>
        <_>
          <internalNodes>
            0 -1 12 -1.0229477993561886e-05</internalNodes>
          <leafValues>
            4.5391109585762024e-01 -5.4937344789505005e-01</leafValues></_></weakClassifiers></_>
    <!-- stage 4 -->
    <_>
      <maxWeakCount>9</maxWeakCount>
      <stageThreshold>-1.4493777751922607e+00</stageThreshold>
      <weakClassifiers>
        <_>
          <internalNodes>
            0 -1 23 1.1173601448535919e-01</internalNodes>
          <leafValues>
            -5.8677685260772705e-01 7.5879395008087158e-01</leafValues></_>
        <_>
          <internalNodes>
            0 -1 96 8.2544960081577301e-02</internalNodes>
          <leafValues>
            -5.3481918573379517e-01 5.8302003145217896e-01</leafValues></_>
        <_>
          <internalNodes>
            0 -1 13 -2.6130572223337367e-05</internalNodes>
          <leafValues>
            4.7942236065864563e-01 -5.3569418191909790e-01</leafValues></_>
        <_>
          <internalNodes>
            0 -1 76 7.1443609893321991e-02</internalNodes>
          <leafValues>
            -4.2359691858291626e-01 5.5167728662490845e-01</leafValues></_>
        <_>
          <internalNodes>
            0 -1 39 4.8931012861430645e-04</internalNodes>
          <leafValues>
            -3.6070424318313599e-01 6.4969938993453979e-01</leafValues></_>
        <_>
          <internalNodes>
            0 -1 32 -5.6728878989815712e-03</internalNodes>
          <leafValues>
            -9.0908139944076538e-01 2.3290620744228363e-01</leafValues></_>
        <_>
          <internalNodes>
            0 -1 16 1.7024253308773041e-01</internalNodes>
          <leafValues>
            2.2521732747554779e-01 -7.9597258567810059e-01</leafValues></_>
        <_>
          <internalNodes>
            0 -1 107 -1.7885889974422753e-05</internalNodes>
          <leafValues>
            -5.2402025461196899e-01 4.1276788711547852e-01</leafValues></_>
        <_>
          <internalNodes>
            0 -1 62 3.8279369473457336e-02</internalNodes>
          <leafValues>
            -8.9379429817199707e-01 2.6467144489288330e-01</leafValues></_></weakClassifiers></_>
    <!-- stage 5 -->
    <_>
      <maxWeakCount>8</maxWeakCount>
      <stageThreshold>-1.0515533685684204e+00</stageThreshold>
      <weakClassifiers>
        <_>
          <internalNodes>
            0 -1 21 7.0364493131637573e-01</internalNodes>
          <leafValues>
            -5.0458717346191406e-01 7.7167016267776489e-01</leafValues></_>
        <_>
          <internalNodes>
            0 -1 15 8.3575263619422913e-02</internalNodes>
          <leafValues>
            -3.2080039381980896e-01 6.1277401447296143e-01</leafValues></_>
        <_>
          <internalNodes>
            0 -1 71 -4.7899127821438015e-04</internalNodes>
          <leafValues>
            7.6836222410202026e-01 -2.3998861014842987e-01</leafValues></_>
        <_>
          <internalNodes>
            0 -1 119 -1.8756432837108150e-05</internalNodes>
          <leafValues>
            -5.8295249938964844e-01 3.5742032527923584e-01</leafValues></_>
        <_>
          <internalNodes>
            0 -1 92 -2.1382765844464302e-02</internalNodes>
          <leafValues>
            3.3794480562210083e-01 -6.8491017818450928e-01</leafValues></_>
        <_>
          <internalNodes>
            0 -1 84 -1.1041995458072051e-04</internalNodes>
          <leafValues>
            4.8725417256355286e-01 -4.5626887679100037e-01</leafValues></_>
        <_>
          <internalNodes>
            0 -1 41 -1.3664840161800385e-01</internalNodes>
          <leafValues>
            3.9490237832069397e-01 -5.1998436450958252e-01</leafValues></_>
        <_>
          <internalNodes>
            0 -1 97 -6.2299048295244575e-05</internalNodes>
          <leafValues>
            -6.0477155447006226e-01 4.0267914533615112e-01</leafValues></_></weakClassifiers></_>
    <!-- stage 6 -->
    <_>
      <maxWeakCount>7</maxWeakCount>
      <stageThreshold>-6.8812406063079834e-01</stageThreshold>
      <weakClassifiers>
        <_>
          <internalNodes>
            0 -1 22 7.6901805400848389e-01</internalNodes>
          <leafValues>
            -3.8567492365837097e-01 7.7803206443786621e-01</leafValues></_>
        <_>
          <internalNodes>
            0 -1 129 1.7752694475348108e-05</internalNodes>
          <leafValues>
            4.5893976092338562e-01 -5.2860724925994873e-01</leafValues></_>
        <_>
          <internalNodes>
            0 -1 58 5.4694595746695995e-04</internalNodes>
          <leafValues>
            -3.0132693052291870e-01 6.2848019599914551e-01</leafValues></_>
        <_>
          <internalNodes>
            0 -1 54 -7.0752541068941355e-04</internalNodes>
          <leafValues>
            3.1100913882255554e-01 -6.0841387510299683e-01</leafValues></_>
        <_>
          <internalNodes>
            0 -1 122 1.1993830412393436e-05</internalNodes>
          <leafValues>
            -6.2797451019287109e-01 3.0803576111793518e-01</leafValues></_>
        <_>
          <internalNodes>
            0 -1 99 -8.1219899584539235e-05</internalNodes>
          <leafValues>
            -5.1193171739578247e-01 3.8433164358139038e-01</leafValues></_>
        <_>
          <internalNodes>
            0 -1 30 1.9519993662834167e-01</internalNodes>
          <leafValues>
            -4.6968838572502136e-01 5.8724486827850342e-01</leafValues></_></weakClassifiers></_>
    <!-- stage 7 -->
    <_>
      <maxWeakCount>10</maxWeakCount>
      <stageThreshold>-1.0368012189865112e+00</stageThreshold>
      <weakClassifiers>
        <_>
          <internalNodes>
            0 -1 77 -5.1269505172967911e-02</internalNodes>
          <leafValues>
            6.4574897289276123e-01 -3.8888889551162720e-01</leafValues></_>
        <_>
          <internalNodes>
            0 -1 31 2.3064201697707176e-02</internalNodes>
          <leafValues>
            -4.1737547516822815e-01 4.8016944527626038e-01</leafValues></_>
        <_>
          <internalNodes>
            0 -1 117 5.5575113947270438e-05</internalNodes>
          <leafValues>
            3.4219160676002502e-01 -5.5897140502929688e-01</leafValues></_>
        <_>
          <internalNodes>
            0 -1 60 1.2347226962447166e-02</internalNodes>
          <leafValues>
            -2.9012429714202881e-01 5.7185649871826172e-01</leafValues></_>
        <_>
          <internalNodes>
            0 -1 104 -4.2787229176610708e-05</internalNodes>
          <leafValues>
            -6.3011848926544189e-01 3.5430416464805603e-01</leafValues></_>
        <_>
          <internalNodes>
            0 -1 93 -1.9979055970907211e-02</internalNodes>
          <leafValues>
            2.9891392588615417e-01 -6.5735727548599243e-01</leafValues></_>
        <_>
          <internalNodes>
            0 -1 29 2.4150428362190723e-03</internalNodes>
          <leafValues>
            -2.9045525193214417e-01 6.4342939853668213e-01</leafValues></_>
        <_>
          <internalNodes>
            0 -1 103 -3.4557036997284740e-05</internalNodes>
          <leafValues>
            -5.3837066888809204e-01 3.3666035532951355e-01</leafValues></_>
        <_>
          <internalNodes>
            0 -1 36 5.4081428050994873e-01</internalNodes>
          <leafValues>
            -2.8923615813255310e-01 5.9111380577087402e-01</leafValues></_>
        <_>
          <internalNodes>
            0 -1 100 -4.3309373722877353e-05</internalNodes>
          <leafValues>
            -5.9337437152862549e-01 3.0266231298446655e-01</leafValues></_></weakClassifiers></_>
    <!-- stage 8 -->
    <_>
      <maxWeakCount>10</maxWeakCount>
      <stageThreshold>-1.5256338119506836e+00</stageThreshold>
      <weakClassifiers>
        <_>
          <internalNodes>
            0 -1 24 1.2711470946669579e-02</internalNodes>
          <leafValues>
            -6.4999997615814209e-01 5.1129031181335449e-01</leafValues></_>
        <_>
          <internalNodes>
            0 -1 51 3.1038545072078705e-02</internalNodes>
          <leafValues>
            -5.3269374370574951e-01 3.7965506315231323e-01</leafValues></_>
        <_>
          <internalNodes>
            0 -1 90 -1.1294877622276545e-03</internalNodes>
          <leafValues>
            8.0186682939529419e-01 -2.6162245869636536e-01</leafValues></_>
        <_>
          <internalNodes>
            0 -1 40 9.6288864733651280e-04</internalNodes>
          <leafValues>
            -3.2653149962425232e-01 5.6084585189819336e-01</leafValues></_>
        <_>
          <internalNodes>
            0 -1 108 2.8916245355503634e-05</internalNodes>
          <leafValues>
            2.9396960139274597e-01 -6.1562645435333252e-01</leafValues></_>
        <_>
          <internalNodes>
            0 -1 75 2.5299848057329655e-03</internalNodes>
          <leafValues>
            -2.8373569250106812e-01 6.5025770664215088e-01</leafValues></_>
        <_>
          <internalNodes>
            0 -1 105 6.5287953475490212e-05</internalNodes>
          <leafValues>
            3.6472058296203613e-01 -5.4008430242538452e-01</leafValues></_>
        <_>
          <internalNodes>
            0 -1 68 7.0337578654289246e-04</internalNodes>
          <leafValues>
            -3.4825566411018372e-01 5.2504986524581909e-01</leafValues></_>
        <_>
          <internalNodes>
            0 -1 110 -9.3514405307359993e-05</internalNodes>
          <leafValues>
            -5.9871387481689453e-01 2.8635314106941223e-01</leafValues></_>
        <_>
          <internalNodes>
            0 -1 19 -4.0675982018001378e-04</internalNodes>
          <leafValues>
            5.8324706554412842e-01 -3.4681412577629089e-01</leafValues></_></weakClassifiers></_>
    <!-- stage 9 -->
    <_>
      <maxWeakCount>8</maxWeakCount>
      <stageThreshold>-1.3180798292160034e+00</stageThreshold>
      <weakClassifiers>
        <_>
          <internalNodes>
            0 -1 42 6.0615446418523788e-02</internalNodes>
          <leafValues>
            -8.8857936859130859e-01 5.7937145233154297e-01</leafValues></_>
        <_>
          <internalNodes>
            0 -1 5 2.2778233885765076e-01</internalNodes>
          <leafValues>
            -4.8001551628112793e-01 5.7437431812286377e-01</leafValues></_>
        <_>
          <internalNodes>
            0 -1 78 1.2732252944260836e-03</internalNodes>
          <leafValues>
            -3.8569012284278870e-01 5.9479188919067383e-01</leafValues></_>
        <_>
          <internalNodes>
            0 -1 18 -4.5456941006705165e-04</internalNodes>
          <leafValues>
            3.1204938888549805e-01 -7.2332590818405151e-01</leafValues></_>
        <_>
          <internalNodes>
            0 -1 128 -2.9455419280566275e-04</internalNodes>
          <leafValues>
            -7.5417405366897583e-01 1.7228001356124878e-01</leafValues></_>
        <_>
          <internalNodes>
            0 -1 112 -3.6358054785523564e-05</internalNodes>
          <leafValues>
            3.1487417221069336e-01 -5.6178432703018188e-01</leafValues></_>
        <_>
          <internalNodes>
            0 -1 63 1.6736451652832329e-04</internalNodes>
          <leafValues>
            2.4644605815410614e-01 -6.3641953468322754e-01</leafValues></_>
        <_>
          <internalNodes>
            0 -1 38 3.5553274210542440e-04</internalNodes>
          <leafValues>
            -7.0679646730422974e-01 2.6721408963203430e-01</leafValues></_></weakClassifiers></_>
    <!-- stage 10 -->
    <_>
      <maxWeakCount>6</maxWeakCount>
      <stageThreshold>-8.9119189977645874e-01</stageThreshold>
      <weakClassifiers>
        <_>
          <internalNodes>
            0 -1 1 3.8265258073806763e-02</internalNodes>
          <leafValues>
            -6.6287881135940552e-01 6.9962686300277710e-01</leafValues></_>
        <_>
          <internalNodes>
            0 -1 66 -4.4587157666683197e-02</internalNodes>
          <leafValues>
            -8.5010153055191040e-01 2.9263761639595032e-01</leafValues></_>
        <_>
          <internalNodes>
            0 -1 118 -4.6962581109255552e-04</internalNodes>
          <leafValues>
            -7.7480316162109375e-01 3.5673749446868896e-01</leafValues></_>
        <_>
          <internalNodes>
            0 -1 79 -3.7899200833635405e-05</internalNodes>
          <leafValues>
            5.5358469486236572e-01 -4.0550422668457031e-01</leafValues></_>
        <_>
          <internalNodes>
            0 -1 109 -2.2005508071742952e-04</internalNodes>
          <leafValues>
            -8.5904729366302490e-01 2.3300889134407043e-01</leafValues></_>
        <_>
          <internalNodes>
            0 -1 113 -4.9544716603122652e-05</internalNodes>
          <leafValues>
            -5.0684309005737305e-01 4.3754625320434570e-01</leafValues></_></weakClassifiers></_>
    <!-- stage 11 -->
    <_>
      <maxWeakCount>9</maxWeakCount>
      <stageThreshold>-1.1979235410690308e+00</stageThreshold>
      <weakClassifiers>
        <_>
          <internalNodes>
            0 -1 6 6.5100431442260742e-02</internalNodes>
          <leafValues>
            -5.2917504310607910e-01 6.0108792781829834e-01</leafValues></_>
        <_>
          <internalNodes>
            0 -1 49 3.7898544687777758e-03</internalNodes>
          <leafValues>
            -3.0942767858505249e-01 6.8206715583801270e-01</leafValues></_>
        <_>
          <internalNodes>
            0 -1 50 -4.0248159319162369e-02</internalNodes>
          <leafValues>
            3.7033087015151978e-01 -5.2693897485733032e-01</leafValues></_>
        <_>
          <internalNodes>
            0 -1 25 2.0657340064644814e-03</internalNodes>
          <leafValues>
            -2.6855614781379700e-01 7.2837150096893311e-01</leafValues></_>
        <_>
          <internalNodes>
            0 -1 116 2.9605289455503225e-05</internalNodes>
          <leafValues>
            3.7375634908676147e-01 -4.6293893456459045e-01</leafValues></_>
        <_>
          <internalNodes>
            0 -1 34 2.5697289966046810e-03</internalNodes>
          <leafValues>
            -2.8889164328575134e-01 6.8429321050643921e-01</leafValues></_>
        <_>
          <internalNodes>
            0 -1 111 -1.1002561222994700e-05</internalNodes>
          <leafValues>
            3.6696523427963257e-01 -5.7440137863159180e-01</leafValues></_>
        <_>
          <internalNodes>
            0 -1 106 -1.1354252637829632e-04</internalNodes>
          <leafValues>
            -6.6532915830612183e-01 2.7075776457786560e-01</leafValues></_>
        <_>
          <internalNodes>
            0 -1 7 -7.1364785544574261e-03</internalNodes>
          <leafValues>
            6.4967352151870728e-01 -3.1870678067207336e-01</leafValues></_></weakClassifiers></_>
    <!-- stage 12 -->
    <_>
      <maxWeakCount>8</maxWeakCount>
      <stageThreshold>-1.0415977239608765e+00</stageThreshold>
      <weakClassifiers>
        <_>
          <internalNodes>
            0 -1 17 5.9315341711044312e-01</internalNodes>
          <leafValues>
            -6.5577340126037598e-01 6.1437338590621948e-01</leafValues></_>
        <_>
          <internalNodes>
            0 -1 47 -3.4941110061481595e-04</internalNodes>
          <leafValues>
            -5.3334546089172363e-01 3.9669421315193176e-01</leafValues></_>
        <_>
          <internalNodes>
            0 -1 114 -1.0468937398400158e-04</internalNodes>
          <leafValues>
            -6.0762774944305420e-01 3.5385385155677795e-01</leafValues></_>
        <_>
          <internalNodes>
            0 -1 73 2.1794399071950465e-04</internalNodes>
          <leafValues>
            -3.8691914081573486e-01 4.9109414219856262e-01</leafValues></_>
        <_>
          <internalNodes>
            0 -1 85 -9.7611930686980486e-04</internalNodes>
          <leafValues>
            -8.8260304927825928e-01 2.1377542614936829e-01</leafValues></_>
        <_>
          <internalNodes>
            0 -1 43 2.5874427519738674e-03</internalNodes>
          <leafValues>
            -3.5532882809638977e-01 6.2796932458877563e-01</leafValues></_>
        <_>
          <internalNodes>
            0 -1 89 -2.2140052169561386e-03</internalNodes>
          <leafValues>
            7.1351206302642822e-01 -2.5974059104919434e-01</leafValues></_>
        <_>
          <internalNodes>
            0 -1 82 2.7424804284237325e-04</internalNodes>
          <leafValues>
            -2.9613283276557922e-01 6.9394332170486450e-01</leafValues></_></weakClassifiers></_>
    <!-- stage 13 -->
    <_>
      <maxWeakCount>5</maxWeakCount>
      <stageThreshold>-1.4389977455139160e+00</stageThreshold>
      <weakClassifiers>
        <_>
          <internalNodes>
            0 -1 87 -3.8242270238697529e-03</internalNodes>
          <leafValues>
            -7.8640776872634888e-01 6.0942763090133667e-01</leafValues></_>
        <_>
          <internalNodes>
            0 -1 86 2.5707407621666789e-04</internalNodes>
          <leafValues>
            -4.7877919673919678e-01 6.0102295875549316e-01</leafValues></_>
        <_>
          <internalNodes>
            0 -1 120 -2.4321820092154667e-05</internalNodes>
          <leafValues>
            4.4453099370002747e-01 -5.4948753118515015e-01</leafValues></_>
        <_>
          <internalNodes>
            0 -1 81 -1.3811022654408589e-05</internalNodes>
          <leafValues>
            5.1902329921722412e-01 -3.9896002411842346e-01</leafValues></_>
        <_>
          <internalNodes>
            0 -1 53 1.0758710559457541e-03</internalNodes>
          <leafValues>
            -3.0516546964645386e-01 7.0324015617370605e-01</leafValues></_></weakClassifiers></_>
    <!-- stage 14 -->
    <_>
      <maxWeakCount>3</maxWeakCount>
      <stageThreshold>-9.3527311086654663e-01</stageThreshold>
      <weakClassifiers>
        <_>
          <internalNodes>
            0 -1 27 -4.0420785546302795e-02</internalNodes>
          <leafValues>
            -8.0168777704238892e-01 6.9271761178970337e-01</leafValues></_>
        <_>
          <internalNodes>
            0 -1 72 1.4413925237022340e-04</internalNodes>
          <leafValues>
            -5.2404439449310303e-01 5.7049518823623657e-01</leafValues></_>
        <_>
          <internalNodes>
            0 -1 88 6.1478628776967525e-04</internalNodes>
          <leafValues>
            -6.1359208822250366e-01 3.9045906066894531e-01</leafValues></_></weakClassifiers></_>
    <!-- stage 15 -->
    <_>
      <maxWeakCount>4</maxWeakCount>
      <stageThreshold>-1.3877251148223877e+00</stageThreshold>
      <weakClassifiers>
        <_>
          <internalNodes>
            0 -1 45 -1.4308805111795664e-04</internalNodes>
          <leafValues>
            6.7799639701843262e-01 -7.4273860454559326e-01</leafValues></_>
        <_>
          <internalNodes>
            0 -1 44 4.8529859632253647e-03</internalNodes>
          <leafValues>
            -6.6796118021011353e-01 4.5781865715980530e-01</leafValues></_>
        <_>
          <internalNodes>
            0 -1 124 -1.7141210264526308e-05</internalNodes>
          <leafValues>
            -6.6160756349563599e-01 3.8194906711578369e-01</leafValues></_>
        <_>
          <internalNodes>
            0 -1 52 -4.9985242076218128e-03</internalNodes>
          <leafValues>
            -7.3615282773971558e-01 3.5105109214782715e-01</leafValues></_></weakClassifiers></_>
    <!-- stage 16 -->
    <_>
      <maxWeakCount>6</maxWeakCount>
      <stageThreshold>-1.0941308736801147e+00</stageThreshold>
      <weakClassifiers>
        <_>
          <internalNodes>
            0 -1 83 4.6771666966378689e-03</internalNodes>
          <leafValues>
            -4.5535713434219360e-01 7.6077586412429810e-01</leafValues></_>
        <_>
          <internalNodes>
            0 -1 3 2.4119748175144196e-01</internalNodes>
          <leafValues>
            4.1889825463294983e-01 -8.5797756910324097e-01</leafValues></_>
        <_>
          <internalNodes>
            0 -1 48 4.2712250724434853e-03</internalNodes>
          <leafValues>
            -4.3897044658660889e-01 6.0680454969406128e-01</leafValues></_>
        <_>
          <internalNodes>
            0 -1 125 8.9671899331733584e-05</internalNodes>
          <leafValues>
            -4.4403818249702454e-01 5.2969717979431152e-01</leafValues></_>
        <_>
          <internalNodes>
            0 -1 94 1.2726577551802620e-05</internalNodes>
          <leafValues>
            -4.3704983592033386e-01 5.6867402791976929e-01</leafValues></_>
        <_>
          <internalNodes>
            0 -1 28 -6.5752416849136353e-03</internalNodes>
          <leafValues>
            -7.1134877204895020e-01 3.7516143918037415e-01</leafValues></_></weakClassifiers></_>
    <!-- stage 17 -->
    <_>
      <maxWeakCount>7</maxWeakCount>
      <stageThreshold>-1.0941548347473145e+00</stageThreshold>
      <weakClassifiers>
        <_>
          <internalNodes>
            0 -1 95 9.6073867753148079e-03</internalNodes>
          <leafValues>
            5.3254902362823486e-01 -8.5846155881881714e-01</leafValues></_>
        <_>
          <internalNodes>
            0 -1 37 6.2818199396133423e-02</internalNodes>
          <leafValues>
            -2.9447883367538452e-01 6.9664704799652100e-01</leafValues></_>
        <_>
          <internalNodes>
            0 -1 121 -1.6357151253032498e-05</internalNodes>
          <leafValues>
            -5.3836768865585327e-01 4.6893116831779480e-01</leafValues></_>
        <_>
          <internalNodes>
            0 -1 59 -1.5905601321719587e-04</internalNodes>
          <leafValues>
            5.3262311220169067e-01 -3.5261875391006470e-01</leafValues></_>
        <_>
          <internalNodes>
            0 -1 0 8.4286019206047058e-02</internalNodes>
          <leafValues>
            -6.7308384180068970e-01 2.4752821028232574e-01</leafValues></_>
        <_>
          <internalNodes>
            0 -1 14 -4.7281722072511911e-04</internalNodes>
          <leafValues>
            4.0466934442520142e-01 -5.0939947366714478e-01</leafValues></_>
        <_>
          <internalNodes>
            0 -1 115 -2.5670951799838804e-05</internalNodes>
          <leafValues>
            -5.8062976598739624e-01 3.3294463157653809e-01</leafValues></_></weakClassifiers></_>
    <!-- stage 18 -->
    <_>
      <maxWeakCount>7</maxWeakCount>
      <stageThreshold>-1.4378397464752197e+00</stageThreshold>
      <weakClassifiers>
        <_>
          <internalNodes>
            0 -1 91 -1.1224506422877312e-02</internalNodes>
          <leafValues>
            6.0435873270034790e-01 -7.8869777917861938e-01</leafValues></_>
        <_>
          <internalNodes>
            0 -1 57 3.1022776383906603e-03</internalNodes>
          <leafValues>
            -3.6491891741752625e-01 7.4771314859390259e-01</leafValues></_>
        <_>
          <internalNodes>
            0 -1 102 -1.7659243894740939e-04</internalNodes>
          <leafValues>
            4.5351630449295044e-01 -5.4999166727066040e-01</leafValues></_>
        <_>
          <internalNodes>
            0 -1 123 -3.7983845686540008e-05</internalNodes>
          <leafValues>
            -6.2881368398666382e-01 3.6182183027267456e-01</leafValues></_>
        <_>
          <internalNodes>
            0 -1 74 1.0252143692923710e-04</internalNodes>
          <leafValues>
            -3.5671225190162659e-01 5.2052074670791626e-01</leafValues></_>
        <_>
          <internalNodes>
            0 -1 98 1.2544805940706283e-05</internalNodes>
          <leafValues>
            -3.6418288946151733e-01 5.7094639539718628e-01</leafValues></_>
        <_>
          <internalNodes>
            0 -1 8 2.0672100782394409e-01</internalNodes>
          <leafValues>
            2.2242090106010437e-01 -9.0986365079879761e-01</leafValues></_></weakClassifiers></_>
    <!-- stage 19 -->
    <_>
      <maxWeakCount>2</maxWeakCount>
      <stageThreshold>-4.7297850251197815e-01</stageThreshold>
      <weakClassifiers>
        <_>
          <internalNodes>
            0 -1 33 4.6264656702987850e-04</internalNodes>
          <leafValues>
            -8.3296704292297363e-01 6.8034934997558594e-01</leafValues></_>
        <_>
          <internalNodes>
            0 -1 130 -5.0139202357968315e-05</internalNodes>
          <leafValues>
            -6.5967154502868652e-01 3.5998854041099548e-01</leafValues></_></weakClassifiers></_></stages>
  <features>
    <_>
      <rects>
        <_>
          0 1 36 30 -1.</_>
        <_>
          0 16 36 15 2.</_></rects>
      <tilted>0</tilted></_>
    <_>
      <rects>
        <_>
          0 6 20 22 -1.</_>
        <_>
          0 6 10 11 2.</_>
        <_>
          10 17 10 11 2.</_></rects>
      <tilted>0</tilted></_>
    <_>
      <rects>
        <_>
          0 8 24 20 -1.</_>
        <_>
          0 8 12 10 2.</_>
        <_>
          12 18 12 10 2.</_></rects>
      <tilted>0</tilted></_>
    <_>
      <rects>
        <_>
          0 8 40 16 -1.</_>
        <_>
          20 8 20 16 2.</_></rects>
      <tilted>0</tilted></_>
    <_>
      <rects>
        <_>
          0 17 24 13 -1.</_>
        <_>
          12 17 12 13 2.</_></rects>
      <tilted>0</tilted></_>
    <_>
      <rects>
        <_>
          0 19 40 16 -1.</_>
        <_>
          10 19 20 16 2.</_></rects>
      <tilted>0</tilted></_>
    <_>
      <rects>
        <_>
          0 21 22 8 -1.</_>
        <_>
          11 21 11 8 2.</_></rects>
      <tilted>0</tilted></_>
    <_>
      <rects>
        <_>
          0 36 32 4 -1.</_>
        <_>
          0 36 16 2 2.</_>
        <_>
          16 38 16 2 2.</_></rects>
      <tilted>0</tilted></_>
    <_>
      <rects>
        <_>
          1 1 38 19 -1.</_>
        <_>
          20 1 19 19 2.</_></rects>
      <tilted>0</tilted></_>
    <_>
      <rects>
        <_>
          1 11 39 27 -1.</_>
        <_>
          14 20 13 9 9.</_></rects>
      <tilted>0</tilted></_>
    <_>
      <rects>
        <_>
          1 15 39 21 -1.</_>
        <_>
          14 22 13 7 9.</_></rects>
      <tilted>0</tilted></_>
    <_>
      <rects>
        <_>
          1 18 39 18 -1.</_>
        <_>
          14 24 13 6 9.</_></rects>
      <tilted>0</tilted></_>
    <_>
      <rects>
        <_>
          2 13 1 4 -1.</_>
        <_>
          2 15 1 2 2.</_></rects>
      <tilted>0</tilted></_>
    <_>
      <rects>
        <_>
          2 14 1 8 -1.</_>
        <_>
          2 18 1 4 2.</_></rects>
      <tilted>0</tilted></_>
    <_>
      <rects>
        <_>
          2 14 4 14 -1.</_>
        <_>
          2 21 4 7 2.</_></rects>
      <tilted>0</tilted></_>
    <_>
      <rects>
        <_>
          2 26 24 7 -1.</_>
        <_>
          14 26 12 7 2.</_></rects>
      <tilted>0</tilted></_>
    <_>
      <rects>
        <_>
          3 0 36 18 -1.</_>
        <_>
          21 0 18 18 2.</_></rects>
      <tilted>0</tilted></_>
    <_>
      <rects>
        <_>
          3 10 36 30 -1.</_>
        <_>
          15 20 12 10 9.</_></rects>
      <tilted>0</tilted></_>
    <_>
      <rects>
        <_>
          3 27 27 4 -1.</_>
        <_>
          3 29 27 2 2.</_></rects>
      <tilted>0</tilted></_>
    <_>
      <rects>
        <_>
          3 34 3 2 -1.</_>
        <_>
          3 34 3 1 2.</_></rects>
      <tilted>1</tilted></_>
    <_>
      <rects>
        <_>
          4 7 36 33 -1.</_>
        <_>
          16 18 12 11 9.</_></rects>
      <tilted>0</tilted></_>
    <_>
      <rects>
        <_>
          4 8 36 30 -1.</_>
        <_>
          16 18 12 10 9.</_></rects>
      <tilted>0</tilted></_>
    <_>
      <rects>
        <_>
          4 9 36 30 -1.</_>
        <_>
          16 19 12 10 9.</_></rects>
      <tilted>0</tilted></_>
    <_>
      <rects>
        <_>
          4 19 36 10 -1.</_>
        <_>
          13 19 18 10 2.</_></rects>
      <tilted>0</tilted></_>
    <_>
      <rects>
        <_>
          4 24 36 1 -1.</_>
        <_>
          16 24 12 1 3.</_></rects>
      <tilted>0</tilted></_>
    <_>
      <rects>
        <_>
          5 16 6 9 -1.</_>
        <_>
          7 16 2 9 3.</_></rects>
      <tilted>0</tilted></_>
    <_>
      <rects>
        <_>
          5 29 22 2 -1.</_>
        <_>
          16 29 11 2 2.</_></rects>
      <tilted>0</tilted></_>
    <_>
      <rects>
        <_>
          6 0 34 18 -1.</_>
        <_>
          23 0 17 18 2.</_></rects>
      <tilted>0</tilted></_>
    <_>
      <rects>
        <_>
          6 4 30 5 -1.</_>
        <_>
          21 4 15 5 2.</_></rects>
      <tilted>0</tilted></_>
    <_>
      <rects>
        <_>
          6 15 6 12 -1.</_>
        <_>
          8 15 2 12 3.</_></rects>
      <tilted>0</tilted></_>
    <_>
      <rects>
        <_>
          6 16 32 24 -1.</_>
        <_>
          14 16 16 24 2.</_></rects>
      <tilted>0</tilted></_>
    <_>
      <rects>
        <_>
          6 17 15 6 -1.</_>
        <_>
          6 17 15 3 2.</_></rects>
      <tilted>1</tilted></_>
    <_>
      <rects>
        <_>
          7 1 33 21 -1.</_>
        <_>
          18 1 11 21 3.</_></rects>
      <tilted>0</tilted></_>
    <_>
      <rects>
        <_>
          7 2 26 17 -1.</_>
        <_>
          20 2 13 17 2.</_></rects>
      <tilted>0</tilted></_>
    <_>
      <rects>
        <_>
          7 13 6 13 -1.</_>
        <_>
          9 13 2 13 3.</_></rects>
      <tilted>0</tilted></_>
    <_>
      <rects>
        <_>
          7 16 30 24 -1.</_>
        <_>
          17 16 10 24 3.</_></rects>
      <tilted>0</tilted></_>
    <_>
      <rects>
        <_>
          7 16 33 24 -1.</_>
        <_>
          18 24 11 8 9.</_></rects>
      <tilted>0</tilted></_>
    <_>
      <rects>
        <_>
          7 28 22 6 -1.</_>
        <_>
          18 28 11 6 2.</_></rects>
      <tilted>0</tilted></_>
    <_>
      <rects>
        <_>
          9 14 24 1 -1.</_>
        <_>
          21 14 12 1 2.</_></rects>
      <tilted>0</tilted></_>
    <_>
      <rects>
        <_>
          9 18 2 18 -1.</_>
        <_>
          9 18 1 9 2.</_>
        <_>
          10 27 1 9 2.</_></rects>
      <tilted>0</tilted></_>
    <_>
      <rects>
        <_>
          10 36 19 4 -1.</_>
        <_>
          10 37 19 2 2.</_></rects>
      <tilted>0</tilted></_>
    <_>
      <rects>
        <_>
          11 3 18 11 -1.</_>
        <_>
          11 3 9 11 2.</_></rects>
      <tilted>1</tilted></_>
    <_>
      <rects>
        <_>
          12 2 27 30 -1.</_>
        <_>
          12 17 27 15 2.</_></rects>
      <tilted>0</tilted></_>
    <_>
      <rects>
        <_>
          12 5 6 30 -1.</_>
        <_>
          14 5 2 30 3.</_></rects>
      <tilted>0</tilted></_>
    <_>
      <rects>
        <_>
          12 11 18 6 -1.</_>
        <_>
          21 11 9 6 2.</_></rects>
      <tilted>0</tilted></_>
    <_>
      <rects>
        <_>
          12 26 23 4 -1.</_>
        <_>
          12 28 23 2 2.</_></rects>
      <tilted>0</tilted></_>
    <_>
      <rects>
        <_>
          13 8 8 27 -1.</_>
        <_>
          13 17 8 9 3.</_></rects>
      <tilted>0</tilted></_>
    <_>
      <rects>
        <_>
          14 5 4 2 -1.</_>
        <_>
          14 5 2 2 2.</_></rects>
      <tilted>1</tilted></_>
    <_>
      <rects>
        <_>
          14 18 10 16 -1.</_>
        <_>
          14 18 5 8 2.</_>
        <_>
          19 26 5 8 2.</_></rects>
      <tilted>0</tilted></_>
    <_>
      <rects>
        <_>
          14 20 10 10 -1.</_>
        <_>
          14 20 5 5 2.</_>
        <_>
          19 25 5 5 2.</_></rects>
      <tilted>0</tilted></_>
    <_>
      <rects>
        <_>
          15 7 14 4 -1.</_>
        <_>
          15 7 7 4 2.</_></rects>
      <tilted>1</tilted></_>
    <_>
      <rects>
        <_>
          15 8 7 16 -1.</_>
        <_>
          15 16 7 8 2.</_></rects>
      <tilted>0</tilted></_>
    <_>
      <rects>
        <_>
          15 26 13 9 -1.</_>
        <_>
          15 29 13 3 3.</_></rects>
      <tilted>0</tilted></_>
    <_>
      <rects>
        <_>
          15 35 25 4 -1.</_>
        <_>
          15 36 25 2 2.</_></rects>
      <tilted>0</tilted></_>
    <_>
      <rects>
        <_>
          16 9 24 2 -1.</_>
        <_>
          16 9 24 1 2.</_></rects>
      <tilted>1</tilted></_>
    <_>
      <rects>
        <_>
          16 10 8 18 -1.</_>
        <_>
          16 19 8 9 2.</_></rects>
      <tilted>0</tilted></_>
    <_>
      <rects>
        <_>
          16 12 10 5 -1.</_>
        <_>
          16 12 5 5 2.</_></rects>
      <tilted>1</tilted></_>
    <_>
      <rects>
        <_>
          16 15 8 20 -1.</_>
        <_>
          16 15 4 10 2.</_>
        <_>
          20 25 4 10 2.</_></rects>
      <tilted>0</tilted></_>
    <_>
      <rects>
        <_>
          16 16 3 7 -1.</_>
        <_>
          17 16 1 7 3.</_></rects>
      <tilted>0</tilted></_>
    <_>
      <rects>
        <_>
          16 19 4 2 -1.</_>
        <_>
          16 19 2 1 2.</_>
        <_>
          18 20 2 1 2.</_></rects>
      <tilted>0</tilted></_>
    <_>
      <rects>
        <_>
          16 23 12 8 -1.</_>
        <_>
          22 23 6 8 2.</_></rects>
      <tilted>0</tilted></_>
    <_>
      <rects>
        <_>
          16 28 24 4 -1.</_>
        <_>
          16 30 24 2 2.</_></rects>
      <tilted>0</tilted></_>
    <_>
      <rects>
        <_>
          17 0 15 36 -1.</_>
        <_>
          17 18 15 18 2.</_></rects>
      <tilted>0</tilted></_>
    <_>
      <rects>
        <_>
          17 4 6 1 -1.</_>
        <_>
          20 4 3 1 2.</_></rects>
      <tilted>0</tilted></_>
    <_>
      <rects>
        <_>
          17 6 12 14 -1.</_>
        <_>
          17 13 12 7 2.</_></rects>
      <tilted>0</tilted></_>
    <_>
      <rects>
        <_>
          17 7 12 8 -1.</_>
        <_>
          17 7 6 8 2.</_></rects>
      <tilted>1</tilted></_>
    <_>
      <rects>
        <_>
          17 7 22 28 -1.</_>
        <_>
          17 21 22 14 2.</_></rects>
      <tilted>0</tilted></_>
    <_>
      <rects>
        <_>
          17 8 20 10 -1.</_>
        <_>
          22 13 10 10 2.</_></rects>
      <tilted>1</tilted></_>
    <_>
      <rects>
        <_>
          17 17 4 7 -1.</_>
        <_>
          18 17 2 7 2.</_></rects>
      <tilted>0</tilted></_>
    <_>
      <rects>
        <_>
          17 18 3 4 -1.</_>
        <_>
          18 18 1 4 3.</_></rects>
      <tilted>0</tilted></_>
    <_>
      <rects>
        <_>
          18 14 5 12 -1.</_>
        <_>
          18 20 5 6 2.</_></rects>
      <tilted>0</tilted></_>
    <_>
      <rects>
        <_>
          18 15 2 8 -1.</_>
        <_>
          18 15 1 4 2.</_>
        <_>
          19 19 1 4 2.</_></rects>
      <tilted>0</tilted></_>
    <_>
      <rects>
        <_>
          18 17 3 1 -1.</_>
        <_>
          19 18 1 1 3.</_></rects>
      <tilted>1</tilted></_>
    <_>
      <rects>
        <_>
          18 19 2 10 -1.</_>
        <_>
          18 19 1 5 2.</_>
        <_>
          19 24 1 5 2.</_></rects>
      <tilted>0</tilted></_>
    <_>
      <rects>
        <_>
          18 19 6 2 -1.</_>
        <_>
          18 19 3 1 2.</_>
        <_>
          21 20 3 1 2.</_></rects>
      <tilted>0</tilted></_>
    <_>
      <rects>
        <_>
          18 29 10 2 -1.</_>
        <_>
          23 29 5 2 2.</_></rects>
      <tilted>0</tilted></_>
    <_>
      <rects>
        <_>
          19 1 12 22 -1.</_>
        <_>
          19 12 12 11 2.</_></rects>
      <tilted>0</tilted></_>
    <_>
      <rects>
        <_>
          19 7 8 12 -1.</_>
        <_>
          19 7 4 12 2.</_></rects>
      <tilted>1</tilted></_>
    <_>
      <rects>
        <_>
          19 16 3 6 -1.</_>
        <_>
          20 17 1 6 3.</_></rects>
      <tilted>1</tilted></_>
    <_>
      <rects>
        <_>
          19 17 8 1 -1.</_>
        <_>
          21 19 4 1 2.</_></rects>
      <tilted>1</tilted></_>
    <_>
      <rects>
        <_>
          19 18 4 3 -1.</_>
        <_>
          20 18 2 3 2.</_></rects>
      <tilted>0</tilted></_>
    <_>
      <rects>
        <_>
          19 19 2 1 -1.</_>
        <_>
          20 19 1 1 2.</_></rects>
      <tilted>0</tilted></_>
    <_>
      <rects>
        <_>
          20 1 6 3 -1.</_>
        <_>
          20 2 6 1 3.</_></rects>
      <tilted>0</tilted></_>
    <_>
      <rects>
        <_>
          20 6 20 1 -1.</_>
        <_>
          25 11 10 1 2.</_></rects>
      <tilted>1</tilted></_>
    <_>
      <rects>
        <_>
          20 18 4 1 -1.</_>
        <_>
          21 19 2 1 2.</_></rects>
      <tilted>1</tilted></_>
    <_>
      <rects>
        <_>
          21 10 15 6 -1.</_>
        <_>
          21 13 15 3 2.</_></rects>
      <tilted>0</tilted></_>
    <_>
      <rects>
        <_>
          21 20 4 4 -1.</_>
        <_>
          23 20 2 4 2.</_></rects>
      <tilted>0</tilted></_>
    <_>
      <rects>
        <_>
          21 24 9 6 -1.</_>
        <_>
          19 26 9 2 3.</_></rects>
      <tilted>1</tilted></_>
    <_>
      <rects>
        <_>
          22 5 17 8 -1.</_>
        <_>
          22 9 17 4 2.</_></rects>
      <tilted>0</tilted></_>
    <_>
      <rects>
        <_>
          22 16 6 4 -1.</_>
        <_>
          24 18 2 4 3.</_></rects>
      <tilted>1</tilted></_>
    <_>
      <rects>
        <_>
          23 15 3 5 -1.</_>
        <_>
          24 16 1 5 3.</_></rects>
      <tilted>1</tilted></_>
    <_>
      <rects>
        <_>
          24 0 16 31 -1.</_>
        <_>
          32 0 8 31 2.</_></rects>
      <tilted>0</tilted></_>
    <_>
      <rects>
        <_>
          24 0 16 39 -1.</_>
        <_>
          32 0 8 39 2.</_></rects>
      <tilted>0</tilted></_>
    <_>
      <rects>
        <_>
          24 14 16 15 -1.</_>
        <_>
          32 14 8 15 2.</_></rects>
      <tilted>0</tilted></_>
    <_>
      <rects>
        <_>
          25 30 2 4 -1.</_>
        <_>
          26 30 1 4 2.</_></rects>
      <tilted>0</tilted></_>
    <_>
      <rects>
        <_>
          26 0 12 27 -1.</_>
        <_>
          32 0 6 27 2.</_></rects>
      <tilted>0</tilted></_>
    <_>
      <rects>
        <_>
          27 8 8 24 -1.</_>
        <_>
          21 14 8 12 2.</_></rects>
      <tilted>1</tilted></_>
    <_>
      <rects>
        <_>
          27 26 2 4 -1.</_>
        <_>
          28 26 1 4 2.</_></rects>
      <tilted>0</tilted></_>
    <_>
      <rects>
        <_>
          28 23 4 6 -1.</_>
        <_>
          30 23 2 6 2.</_></rects>
      <tilted>0</tilted></_>
    <_>
      <rects>
        <_>
          28 26 2 4 -1.</_>
        <_>
          29 26 1 4 2.</_></rects>
      <tilted>0</tilted></_>
    <_>
      <rects>
        <_>
          28 29 2 2 -1.</_>
        <_>
          29 29 1 2 2.</_></rects>
      <tilted>0</tilted></_>
    <_>
      <rects>
        <_>
          29 27 4 2 -1.</_>
        <_>
          31 27 2 2 2.</_></rects>
      <tilted>0</tilted></_>
    <_>
      <rects>
        <_>
          29 27 2 10 -1.</_>
        <_>
          29 32 2 5 2.</_></rects>
      <tilted>0</tilted></_>
    <_>
      <rects>
        <_>
          31 20 2 2 -1.</_>
        <_>
          32 20 1 2 2.</_></rects>
      <tilted>0</tilted></_>
    <_>
      <rects>
        <_>
          31 26 2 5 -1.</_>
        <_>
          32 26 1 5 2.</_></rects>
      <tilted>0</tilted></_>
    <_>
      <rects>
        <_>
          31 29 2 1 -1.</_>
        <_>
          31 29 1 1 2.</_></rects>
      <tilted>1</tilted></_>
    <_>
      <rects>
        <_>
          31 30 3 2 -1.</_>
        <_>
          31 31 3 1 2.</_></rects>
      <tilted>0</tilted></_>
    <_>
      <rects>
        <_>
          32 17 2 2 -1.</_>
        <_>
          32 17 2 1 2.</_></rects>
      <tilted>1</tilted></_>
    <_>
      <rects>
        <_>
          32 21 1 10 -1.</_>
        <_>
          32 26 1 5 2.</_></rects>
      <tilted>0</tilted></_>
    <_>
      <rects>
        <_>
          32 21 6 1 -1.</_>
        <_>
          32 21 3 1 2.</_></rects>
      <tilted>1</tilted></_>
    <_>
      <rects>
        <_>
          32 27 1 4 -1.</_>
        <_>
          31 28 1 2 2.</_></rects>
      <tilted>1</tilted></_>
    <_>
      <rects>
        <_>
          32 28 1 6 -1.</_>
        <_>
          32 31 1 3 2.</_></rects>
      <tilted>0</tilted></_>
    <_>
      <rects>
        <_>
          32 30 2 8 -1.</_>
        <_>
          32 34 2 4 2.</_></rects>
      <tilted>0</tilted></_>
    <_>
      <rects>
        <_>
          33 19 2 5 -1.</_>
        <_>
          34 19 1 5 2.</_></rects>
      <tilted>0</tilted></_>
    <_>
      <rects>
        <_>
          33 26 2 5 -1.</_>
        <_>
          34 26 1 5 2.</_></rects>
      <tilted>0</tilted></_>
    <_>
      <rects>
        <_>
          33 30 2 2 -1.</_>
        <_>
          34 30 1 2 2.</_></rects>
      <tilted>0</tilted></_>
    <_>
      <rects>
        <_>
          34 14 1 8 -1.</_>
        <_>
          34 18 1 4 2.</_></rects>
      <tilted>0</tilted></_>
    <_>
      <rects>
        <_>
          34 16 1 6 -1.</_>
        <_>
          34 19 1 3 2.</_></rects>
      <tilted>0</tilted></_>
    <_>
      <rects>
        <_>
          34 16 4 7 -1.</_>
        <_>
          34 16 2 7 2.</_></rects>
      <tilted>1</tilted></_>
    <_>
      <rects>
        <_>
          34 22 1 2 -1.</_>
        <_>
          34 22 1 1 2.</_></rects>
      <tilted>1</tilted></_>
    <_>
      <rects>
        <_>
          35 16 1 14 -1.</_>
        <_>
          35 23 1 7 2.</_></rects>
      <tilted>0</tilted></_>
    <_>
      <rects>
        <_>
          35 20 1 2 -1.</_>
        <_>
          35 20 1 1 2.</_></rects>
      <tilted>1</tilted></_>
    <_>
      <rects>
        <_>
          35 26 1 4 -1.</_>
        <_>
          35 26 1 2 2.</_></rects>
      <tilted>1</tilted></_>
    <_>
      <rects>
        <_>
          36 20 2 2 -1.</_>
        <_>
          36 20 2 1 2.</_></rects>
      <tilted>1</tilted></_>
    <_>
      <rects>
        <_>
          36 25 1 2 -1.</_>
        <_>
          36 25 1 1 2.</_></rects>
      <tilted>1</tilted></_>
    <_>
      <rects>
        <_>
          36 25 1 6 -1.</_>
        <_>
          36 25 1 3 2.</_></rects>
      <tilted>1</tilted></_>
    <_>
      <rects>
        <_>
          37 16 2 10 -1.</_>
        <_>
          37 21 2 5 2.</_></rects>
      <tilted>0</tilted></_>
    <_>
      <rects>
        <_>
          37 17 2 5 -1.</_>
        <_>
          37 17 1 5 2.</_></rects>
      <tilted>1</tilted></_>
    <_>
      <rects>
        <_>
          38 14 2 8 -1.</_>
        <_>
          38 14 1 8 2.</_></rects>
      <tilted>1</tilted></_>
    <_>
      <rects>
        <_>
          38 17 1 6 -1.</_>
        <_>
          38 20 1 3 2.</_></rects>
      <tilted>0</tilted></_>
    <_>
      <rects>
        <_>
          38 23 1 3 -1.</_>
        <_>
          37 24 1 1 3.</_></rects>
      <tilted>1</tilted></_></features></cascade>
</opencv_storage>
